0,1
bn1.weight,"tensor([1.0000, 1.0052, 0.9968])"
bn1.bias,"tensor([-0.0015, -0.0014,  0.0012])"
bn1.running_mean,"tensor([0.5141, 0.4284, 0.3827])"
bn1.running_var,"tensor([0.0935, 0.0806, 0.0802])"
bn1.num_batches_tracked,tensor(23348)
encConv1.weight,"tensor([[[[ 0.0552, -0.0363, -0.1170, -0.0839],
          [ 0.0454,  0.1082, -0.1313,  0.0559],
          [-0.0817, -0.0876,  0.1225, -0.0485],
          [-0.0459,  0.0246, -0.1105,  0.0929]],

         [[-0.0122,  0.0256,  0.1116,  0.1215],
          [-0.1014, -0.0347, -0.0274,  0.0323],
          [-0.0746, -0.0028,  0.0730,  0.0998],
          [ 0.1226,  0.0932, -0.1102, -0.0337]],

         [[-0.0480, -0.0175,  0.0066,  0.1351],
          [ 0.0066, -0.0547,  0.0717, -0.0530],
          [-0.1205,  0.1119,  0.0173,  0.0073],
          [-0.1397, -0.1381, -0.1040,  0.0310]]],


        [[[-0.0459,  0.0011, -0.0768, -0.0235],
          [ 0.0311,  0.1010, -0.1051, -0.1174],
          [ 0.0641, -0.0393,  0.0994, -0.0403],
          [ 0.0754, -0.0522, -0.0349, -0.0751]],

         [[-0.1216, -0.1360,  0.0866, -0.0699],
          [ 0.0287,  0.1244, -0.0993, -0.0701],
          [ 0.0692, -0.1424, -0.0740, -0.1416],
          [-0.0159, -0.0584,  0.0829, -0.0222]],

         [[ 0.1012, -0.1188, -0.1451, -0.0206],
          [-0.0140,  0.1165,  0.1410, -0.0505],
          [ 0.1028,  0.0959,  0.0449,  0.1400],
          [ 0.0644,  0.1251,  0.1287,  0.0402]]],


        [[[-0.0091, -0.0736,  0.0077, -0.1415],
          [-0.0130, -0.0309,  0.0684, -0.1166],
          [ 0.0043,  0.0444,  0.0449,  0.0176],
          [ 0.0157,  0.0920, -0.0953,  0.0671]],

         [[-0.0962, -0.0665,  0.1394, -0.1337],
          [-0.0331, -0.0467,  0.0656,  0.0125],
          [-0.0907,  0.0741,  0.0759, -0.0304],
          [-0.1329,  0.0930,  0.1314,  0.1387]],

         [[ 0.0463,  0.0846,  0.0982, -0.0507],
          [ 0.0771, -0.0774, -0.1034, -0.0636],
          [ 0.1407, -0.0681,  0.0184,  0.0487],
          [-0.1222, -0.1119,  0.0169, -0.0421]]],


        ...,


        [[[ 0.1081,  0.0945, -0.1003, -0.0235],
          [ 0.0178, -0.1352,  0.0890, -0.0619],
          [-0.0697,  0.1361,  0.0504,  0.0135],
          [-0.0123, -0.1255,  0.0937,  0.0905]],

         [[-0.0755,  0.0144, -0.0607, -0.1158],
          [ 0.0005,  0.1176, -0.1181, -0.0345],
          [-0.0717, -0.0584,  0.0744, -0.1030],
          [ 0.0026, -0.0938,  0.1412, -0.0351]],

         [[-0.1043,  0.0285,  0.0450, -0.1325],
          [ 0.0981,  0.0008, -0.0627, -0.1435],
          [ 0.0571, -0.0388, -0.0468,  0.1328],
          [ 0.0943,  0.1447,  0.0313,  0.1291]]],


        [[[ 0.0988,  0.0175, -0.0105,  0.0299],
          [-0.0850,  0.0938,  0.0384, -0.1310],
          [ 0.0636, -0.0937,  0.0672,  0.0664],
          [-0.0958,  0.1278, -0.0646,  0.0174]],

         [[ 0.0652, -0.0724,  0.0517, -0.1450],
          [ 0.0914,  0.0445, -0.0970,  0.0654],
          [-0.0563, -0.1004,  0.0968, -0.0161],
          [ 0.0287, -0.1113, -0.1010, -0.1019]],

         [[ 0.0139,  0.1167, -0.0354,  0.0106],
          [ 0.0937,  0.0394, -0.0594, -0.0842],
          [ 0.1208,  0.0880, -0.0925,  0.0144],
          [ 0.0730,  0.0819, -0.0968, -0.0568]]],


        [[[ 0.1124, -0.0011, -0.0229,  0.1230],
          [ 0.0535, -0.0929, -0.0855,  0.0481],
          [ 0.1194, -0.0583,  0.0534, -0.1254],
          [ 0.1345, -0.1438,  0.1093,  0.0294]],

         [[-0.1191,  0.1192, -0.0929,  0.1299],
          [-0.1143,  0.0427, -0.0373,  0.1053],
          [ 0.1162, -0.1410,  0.0369, -0.0772],
          [ 0.1429,  0.0297, -0.0031,  0.1356]],

         [[-0.0918,  0.0913, -0.0282, -0.1254],
          [-0.0976, -0.1205, -0.0131,  0.0755],
          [ 0.0621, -0.0064, -0.0307, -0.0240],
          [ 0.0539,  0.0859,  0.0242,  0.0491]]]])"
encConv1.bias,"tensor([ 0.1270,  0.1029,  0.0541, -0.0267, -0.1418,  0.0255,  0.0567,  0.0387,
        -0.0793, -0.1473,  0.1252,  0.0181,  0.0660, -0.1453, -0.1154, -0.1098,
         0.0853, -0.0649, -0.1426,  0.0674, -0.0330, -0.0437,  0.0138, -0.1185,
         0.0246,  0.0725,  0.1002, -0.0874, -0.0607, -0.0969, -0.0512,  0.0315,
        -0.0105, -0.0207, -0.0487,  0.1193,  0.0683,  0.1026,  0.1216,  0.0910,
        -0.0608,  0.0178, -0.0479,  0.0863, -0.0158, -0.0217, -0.0711, -0.1255,
         0.0062, -0.0600,  0.0669,  0.0763,  0.0405, -0.1105,  0.0068, -0.1155,
        -0.0171,  0.0315, -0.1184,  0.0710, -0.1414,  0.0230, -0.1206,  0.0970])"
bn2.weight,"tensor([0.9986, 1.0004, 1.0035, 0.9987, 0.9944, 0.9969, 0.9985, 0.9997, 1.0134,
        1.0021, 1.0022, 0.9945, 0.9959, 0.9967, 1.0065, 0.9965, 0.9923, 1.0059,
        0.9984, 0.9933, 1.0015, 0.9979, 0.9947, 0.9963, 0.9948, 1.0058, 1.0029,
        0.9999, 0.9941, 0.9986, 0.9932, 0.9968, 0.9973, 0.9998, 1.0004, 0.9973,
        1.0002, 1.0046, 1.0003, 1.0062, 0.9972, 1.0151, 1.0075, 0.9982, 1.0011,
        1.0016, 0.9976, 0.9969, 1.0005, 0.9965, 0.9994, 1.0070, 0.9968, 1.0027,
        0.9971, 1.0091, 0.9961, 0.9972, 0.9940, 0.9953, 1.0086, 1.0032, 1.0050,
        0.9952])"
bn2.bias,"tensor([-0.0004,  0.0004,  0.0017,  0.0040,  0.0013,  0.0021,  0.0012,  0.0016,
        -0.0033, -0.0048,  0.0009,  0.0008,  0.0052,  0.0009, -0.0020,  0.0025,
         0.0024, -0.0012,  0.0023, -0.0039, -0.0009,  0.0055, -0.0029,  0.0031,
         0.0027, -0.0003, -0.0009,  0.0036, -0.0032, -0.0008,  0.0022,  0.0044,
         0.0019,  0.0030, -0.0003,  0.0036, -0.0007,  0.0026,  0.0044, -0.0010,
        -0.0012, -0.0015,  0.0020, -0.0021, -0.0019, -0.0010,  0.0010, -0.0004,
         0.0006,  0.0037, -0.0006,  0.0005,  0.0018,  0.0035,  0.0023,  0.0013,
         0.0028,  0.0017,  0.0001,  0.0040, -0.0014,  0.0009, -0.0021,  0.0002])"
bn2.running_mean,"tensor([0.1897, 0.1994, 0.0947, 0.1412, 0.2948, 0.4854, 0.5529, 0.3096, 0.0592,
        0.0601, 0.1705, 0.2311, 0.1793, 0.2012, 0.0119, 0.1958, 0.2335, 0.0350,
        0.5478, 0.2819, 0.0614, 0.2828, 0.3045, 0.2929, 0.3700, 0.1369, 0.1172,
        0.0970, 0.0289, 0.0673, 0.5272, 0.3081, 0.2988, 0.0908, 0.1502, 0.1562,
        0.1363, 0.1690, 0.2005, 0.1384, 0.6494, 0.0751, 0.1376, 0.4322, 0.0774,
        0.1129, 0.3317, 0.0219, 0.1149, 0.2089, 0.1343, 0.1001, 0.2140, 0.2438,
        0.2075, 0.0346, 0.5038, 0.2905, 0.0374, 0.2648, 0.0410, 0.0798, 0.0319,
        0.2314])"
bn2.running_var,"tensor([0.0393, 0.0617, 0.0120, 0.0316, 0.1591, 0.4760, 0.4359, 0.2455, 0.0288,
        0.0237, 0.0233, 0.0796, 0.0490, 0.0887, 0.0024, 0.0659, 0.0756, 0.0114,
        0.4949, 0.1160, 0.0105, 0.1859, 0.1530, 0.2149, 0.2546, 0.0247, 0.0140,
        0.0299, 0.0055, 0.0140, 0.5348, 0.1332, 0.1742, 0.0200, 0.0371, 0.0199,
        0.0286, 0.0360, 0.0371, 0.0244, 0.8551, 0.0157, 0.0388, 0.2689, 0.0253,
        0.0229, 0.1877, 0.0059, 0.0347, 0.0706, 0.0250, 0.0126, 0.0687, 0.1167,
        0.0680, 0.0064, 0.5802, 0.1981, 0.0056, 0.0903, 0.0118, 0.0177, 0.0111,
        0.0724])"
bn2.num_batches_tracked,tensor(23348)
encConv2.weight,"tensor([[[[-0.0370,  0.0316, -0.0363],
          [ 0.0329, -0.0027,  0.0371],
          [ 0.0013, -0.0142,  0.0081]],

         [[ 0.0338, -0.0382, -0.0341],
          [ 0.0440,  0.0181,  0.0278],
          [ 0.0215, -0.0339,  0.0140]],

         [[-0.0230,  0.0383, -0.0252],
          [ 0.0289, -0.0193,  0.0279],
          [ 0.0344,  0.0031,  0.0328]],

         ...,

         [[ 0.0315,  0.0259, -0.0337],
          [ 0.0330,  0.0019,  0.0169],
          [ 0.0178, -0.0434,  0.0181]],

         [[ 0.0219,  0.0223, -0.0387],
          [ 0.0420, -0.0128,  0.0119],
          [ 0.0410,  0.0303, -0.0332]],

         [[ 0.0208, -0.0186, -0.0064],
          [ 0.0299,  0.0437, -0.0137],
          [-0.0050,  0.0032, -0.0322]]],


        [[[-0.0091, -0.0029,  0.0081],
          [-0.0131,  0.0104, -0.0002],
          [-0.0426,  0.0301,  0.0290]],

         [[ 0.0330, -0.0202,  0.0357],
          [-0.0406,  0.0042,  0.0262],
          [ 0.0381, -0.0303,  0.0024]],

         [[ 0.0106,  0.0371,  0.0159],
          [ 0.0023, -0.0151,  0.0190],
          [ 0.0386, -0.0252,  0.0114]],

         ...,

         [[ 0.0405,  0.0265, -0.0047],
          [ 0.0413,  0.0004,  0.0350],
          [-0.0208,  0.0058,  0.0232]],

         [[-0.0017,  0.0105,  0.0249],
          [ 0.0033,  0.0148,  0.0400],
          [-0.0155,  0.0430,  0.0208]],

         [[ 0.0037,  0.0392,  0.0386],
          [ 0.0223,  0.0391,  0.0102],
          [-0.0041, -0.0274, -0.0416]]],


        [[[ 0.0331,  0.0056, -0.0144],
          [ 0.0367,  0.0194,  0.0383],
          [-0.0292,  0.0295, -0.0367]],

         [[-0.0389,  0.0293,  0.0251],
          [-0.0398,  0.0180, -0.0218],
          [-0.0144, -0.0306,  0.0039]],

         [[ 0.0397,  0.0349,  0.0430],
          [ 0.0167,  0.0270, -0.0039],
          [ 0.0255, -0.0033,  0.0328]],

         ...,

         [[ 0.0214, -0.0385,  0.0120],
          [-0.0044, -0.0190,  0.0080],
          [-0.0312, -0.0117,  0.0218]],

         [[-0.0063, -0.0035, -0.0139],
          [-0.0460,  0.0261,  0.0313],
          [-0.0380,  0.0070,  0.0225]],

         [[-0.0140,  0.0097,  0.0092],
          [-0.0072, -0.0225, -0.0120],
          [ 0.0349,  0.0368, -0.0019]]],


        ...,


        [[[ 0.0307,  0.0365,  0.0364],
          [-0.0212,  0.0170, -0.0206],
          [ 0.0255, -0.0321, -0.0367]],

         [[ 0.0186,  0.0199,  0.0178],
          [-0.0214, -0.0373, -0.0341],
          [-0.0278, -0.0190,  0.0178]],

         [[ 0.0213, -0.0085,  0.0282],
          [-0.0468, -0.0441,  0.0363],
          [-0.0141, -0.0278, -0.0109]],

         ...,

         [[-0.0246, -0.0237,  0.0128],
          [-0.0155,  0.0192,  0.0425],
          [ 0.0322,  0.0022,  0.0079]],

         [[-0.0314,  0.0093, -0.0081],
          [-0.0266, -0.0002, -0.0132],
          [ 0.0233, -0.0399,  0.0118]],

         [[-0.0113,  0.0307,  0.0392],
          [ 0.0050, -0.0116,  0.0127],
          [-0.0242,  0.0048, -0.0240]]],


        [[[-0.0065, -0.0281, -0.0099],
          [-0.0111,  0.0335,  0.0168],
          [ 0.0290, -0.0147, -0.0243]],

         [[ 0.0411, -0.0382, -0.0240],
          [-0.0082, -0.0120,  0.0326],
          [ 0.0343, -0.0225, -0.0037]],

         [[-0.0226,  0.0135, -0.0212],
          [ 0.0424, -0.0239,  0.0076],
          [-0.0006, -0.0114, -0.0268]],

         ...,

         [[-0.0282,  0.0031, -0.0298],
          [-0.0207, -0.0275, -0.0099],
          [-0.0099,  0.0098, -0.0374]],

         [[-0.0015,  0.0227,  0.0012],
          [-0.0081,  0.0355, -0.0179],
          [ 0.0140, -0.0180,  0.0356]],

         [[ 0.0348, -0.0101,  0.0058],
          [-0.0290, -0.0403,  0.0278],
          [ 0.0189,  0.0014, -0.0049]]],


        [[[ 0.0104, -0.0365,  0.0250],
          [ 0.0229,  0.0402,  0.0084],
          [ 0.0347, -0.0147,  0.0231]],

         [[-0.0346, -0.0183,  0.0090],
          [-0.0008,  0.0343,  0.0214],
          [ 0.0243, -0.0231, -0.0334]],

         [[ 0.0384,  0.0018,  0.0341],
          [ 0.0388, -0.0087,  0.0350],
          [ 0.0413, -0.0004, -0.0175]],

         ...,

         [[-0.0049,  0.0193, -0.0052],
          [ 0.0162,  0.0146,  0.0184],
          [-0.0267, -0.0301,  0.0143]],

         [[ 0.0386, -0.0042, -0.0414],
          [ 0.0121, -0.0059,  0.0241],
          [ 0.0185, -0.0230,  0.0194]],

         [[-0.0092, -0.0286, -0.0303],
          [-0.0365, -0.0257,  0.0343],
          [ 0.0183,  0.0067,  0.0256]]]])"
encConv2.bias,"tensor([ 0.0143, -0.0383, -0.0356, -0.0007, -0.0291,  0.0136,  0.0030,  0.0016,
        -0.0035,  0.0191, -0.0358, -0.0261, -0.0290,  0.0375,  0.0399,  0.0053,
        -0.0409,  0.0305,  0.0318,  0.0256,  0.0031, -0.0011, -0.0095,  0.0368,
         0.0298, -0.0425, -0.0169,  0.0341, -0.0054,  0.0143, -0.0354, -0.0112,
         0.0292, -0.0315,  0.0111, -0.0177, -0.0400, -0.0336,  0.0365, -0.0303,
        -0.0246,  0.0325,  0.0198,  0.0388,  0.0338,  0.0076,  0.0171,  0.0035,
        -0.0389, -0.0264, -0.0131, -0.0255,  0.0475,  0.0023, -0.0115, -0.0120,
        -0.0239, -0.0419, -0.0349,  0.0027,  0.0256,  0.0364,  0.0003,  0.0135])"
bn3.weight,"tensor([1.0027, 1.0007, 1.0000, 1.0030, 0.9987, 0.9982, 0.9989, 1.0002, 1.0035,
        1.0018, 0.9994, 0.9973, 1.0004, 0.9996, 1.0011, 0.9968, 1.0004, 1.0010,
        1.0003, 1.0009, 0.9987, 1.0003, 0.9986, 0.9996, 0.9993, 0.9999, 1.0011,
        0.9977, 0.9975, 1.0001, 0.9987, 1.0000, 1.0004, 1.0024, 1.0002, 0.9977,
        1.0046, 1.0005, 0.9991, 1.0052, 0.9984, 1.0085, 1.0026, 1.0002, 1.0010,
        1.0012, 1.0000, 0.9980, 1.0016, 0.9981, 1.0024, 0.9999, 0.9991, 1.0012,
        0.9986, 1.0062, 1.0002, 1.0015, 0.9971, 1.0008, 1.0004, 1.0025, 1.0011,
        0.9954, 1.0004, 0.9982, 0.9992, 1.0002, 0.9981, 0.9990, 0.9983, 0.9994,
        1.0002, 1.0011, 1.0011, 0.9980, 0.9978, 0.9983, 0.9986, 1.0027, 0.9986,
        0.9993, 1.0002, 1.0018, 0.9980, 1.0041, 1.0000, 0.9997, 0.9976, 0.9991,
        0.9983, 1.0000, 0.9993, 1.0007, 0.9993, 0.9991, 0.9975, 0.9989, 1.0010,
        1.0013, 1.0004, 0.9999, 0.9998, 0.9979, 0.9989, 0.9982, 1.0005, 0.9978,
        1.0000, 0.9987, 0.9984, 0.9982, 0.9998, 1.0010, 0.9979, 1.0026, 0.9980,
        0.9969, 0.9979, 1.0002, 1.0007, 1.0002, 1.0029, 1.0000, 1.0027, 1.0021,
        1.0004, 0.9995])"
bn3.bias,"tensor([ 6.0897e-05,  1.1278e-03, -2.4867e-04,  1.4916e-03,  6.8610e-04,
        -5.3198e-04,  1.2547e-03,  6.3839e-04, -9.4204e-04,  2.7669e-04,
        -1.0178e-04,  2.9861e-04, -6.5548e-04, -1.0159e-03, -5.5152e-04,
        -2.8602e-04,  8.2496e-04, -2.9195e-04,  9.4331e-04, -1.0776e-03,
         1.2592e-03,  5.5453e-04,  5.7070e-04,  2.9454e-04,  2.3256e-03,
         6.1683e-04, -1.1277e-03, -1.7223e-03, -1.1011e-03, -1.9069e-04,
         1.3732e-03,  1.5520e-03,  4.0447e-04, -1.6368e-03,  1.6911e-03,
         8.0818e-04, -4.0063e-04,  5.7285e-04,  5.4478e-04,  6.1787e-04,
         5.2104e-05, -8.3393e-04, -9.2713e-06, -1.5369e-04,  2.5893e-05,
         4.1812e-04, -8.6681e-04,  6.8456e-04,  5.0235e-04, -8.8624e-05,
        -7.9487e-04,  4.3222e-04, -3.1549e-06,  1.5338e-04, -1.6764e-04,
        -8.9811e-04,  2.4600e-03,  2.3144e-04,  8.4368e-04, -4.8948e-04,
         2.6866e-04, -8.3343e-04, -6.1448e-04, -6.3874e-04, -7.2565e-04,
         1.5731e-04,  2.0527e-03, -7.0335e-04, -7.9041e-04,  1.0156e-03,
         8.9689e-04,  2.1982e-04, -4.7094e-04, -1.1592e-03,  7.9350e-05,
         2.6476e-03,  5.1456e-05,  2.0893e-04,  5.0677e-04, -4.9078e-04,
        -5.1615e-04, -3.2621e-05, -4.2538e-04, -4.8779e-04,  6.1418e-05,
         6.3454e-04, -1.1217e-04, -1.6784e-03, -8.1739e-04, -3.8067e-05,
        -6.7072e-04, -1.6129e-03, -5.3377e-04, -1.0418e-04, -4.0842e-04,
         7.4742e-04, -8.3517e-04,  7.9788e-04,  3.0823e-04, -1.2912e-03,
        -9.4279e-04,  9.7867e-04, -1.4943e-03, -8.2779e-04,  2.9678e-04,
         1.5389e-03, -1.2751e-03,  7.6214e-04,  3.6541e-04,  2.2246e-03,
         1.3709e-03,  1.1783e-04,  1.7438e-04,  1.6823e-03,  1.3963e-03,
        -8.9577e-04, -1.7550e-03,  1.5406e-03, -3.0298e-05, -4.4870e-04,
        -7.5186e-04,  3.2646e-06,  4.0663e-04,  1.0992e-03,  3.9188e-04,
        -1.2000e-03, -1.6725e-03,  9.8117e-04])"
bn3.running_mean,"tensor([0.1897, 0.1994, 0.0947, 0.1412, 0.2948, 0.4854, 0.5529, 0.3096, 0.0592,
        0.0601, 0.1705, 0.2311, 0.1793, 0.2012, 0.0119, 0.1958, 0.2335, 0.0350,
        0.5478, 0.2819, 0.0614, 0.2828, 0.3045, 0.2929, 0.3700, 0.1369, 0.1172,
        0.0970, 0.0289, 0.0673, 0.5272, 0.3081, 0.2988, 0.0908, 0.1502, 0.1562,
        0.1363, 0.1690, 0.2005, 0.1384, 0.6494, 0.0751, 0.1376, 0.4322, 0.0774,
        0.1129, 0.3317, 0.0219, 0.1149, 0.2089, 0.1343, 0.1001, 0.2140, 0.2438,
        0.2075, 0.0346, 0.5038, 0.2905, 0.0374, 0.2648, 0.0410, 0.0798, 0.0319,
        0.2314, 0.2409, 0.3019, 0.3137, 0.1741, 0.2231, 0.3698, 0.3407, 0.3162,
        0.4083, 0.2186, 0.2153, 0.3890, 0.3296, 0.5331, 0.3847, 0.3094, 0.3717,
        0.5627, 0.3136, 0.2325, 0.3197, 0.2169, 0.2867, 0.2263, 0.2738, 0.2150,
        0.3238, 0.3156, 0.2018, 0.2591, 0.2040, 0.2337, 0.3007, 0.2528, 0.2495,
        0.2030, 0.3459, 0.2762, 0.4084, 0.4122, 0.2174, 0.2904, 0.1894, 0.3509,
        0.2566, 0.2383, 0.3904, 0.3141, 0.1786, 0.2007, 0.3165, 0.2668, 0.2464,
        0.2139, 0.3308, 0.2001, 0.2231, 0.2160, 0.1980, 0.2638, 0.1991, 0.2522,
        0.3308, 0.5205])"
bn3.running_var,"tensor([0.0393, 0.0617, 0.0120, 0.0316, 0.1591, 0.4760, 0.4359, 0.2455, 0.0288,
        0.0237, 0.0233, 0.0796, 0.0490, 0.0887, 0.0024, 0.0659, 0.0756, 0.0114,
        0.4949, 0.1160, 0.0105, 0.1859, 0.1530, 0.2149, 0.2546, 0.0247, 0.0140,
        0.0299, 0.0055, 0.0140, 0.5348, 0.1332, 0.1742, 0.0200, 0.0371, 0.0199,
        0.0286, 0.0360, 0.0371, 0.0244, 0.8551, 0.0157, 0.0388, 0.2689, 0.0253,
        0.0229, 0.1877, 0.0059, 0.0347, 0.0706, 0.0250, 0.0126, 0.0687, 0.1167,
        0.0680, 0.0064, 0.5802, 0.1981, 0.0056, 0.0903, 0.0118, 0.0177, 0.0111,
        0.0724, 0.1672, 0.2650, 0.2205, 0.0876, 0.1711, 0.1943, 0.2182, 0.3359,
        0.3799, 0.1677, 0.1937, 0.4596, 0.2264, 0.5678, 0.3289, 0.2296, 0.3678,
        0.5080, 0.1604, 0.1297, 0.1693, 0.1337, 0.1229, 0.1652, 0.1480, 0.2124,
        0.1523, 0.2308, 0.0755, 0.1601, 0.1340, 0.1347, 0.1767, 0.1632, 0.1539,
        0.1275, 0.2263, 0.1690, 0.3653, 0.3491, 0.0856, 0.2024, 0.1199, 0.3053,
        0.1751, 0.1777, 0.3870, 0.1839, 0.1466, 0.1270, 0.2490, 0.1657, 0.1172,
        0.1500, 0.2883, 0.1591, 0.1263, 0.1417, 0.1100, 0.2319, 0.0710, 0.1131,
        0.2106, 0.6467])"
bn3.num_batches_tracked,tensor(23348)
encConv3.weight,"tensor([[[[ 1.6796e-03,  9.3550e-03,  1.4974e-02],
          [-7.3264e-03,  2.2570e-02,  1.9716e-02],
          [-7.9409e-03,  1.7882e-02,  1.9469e-02]],

         [[-1.4560e-02, -7.3901e-03,  1.6929e-02],
          [ 2.7222e-02,  1.9342e-02, -4.9312e-03],
          [-6.8549e-03,  2.2450e-02,  3.0442e-02]],

         [[ 2.2975e-02,  7.4055e-03,  1.5533e-02],
          [ 1.1145e-02,  1.9251e-02, -1.0434e-02],
          [ 1.9606e-02, -1.3334e-02,  1.2773e-02]],

         ...,

         [[ 1.0598e-03, -1.1290e-02, -3.1440e-03],
          [-2.0636e-02,  3.5319e-03,  9.5137e-03],
          [ 1.7204e-02,  2.0459e-02,  1.8228e-02]],

         [[ 2.2123e-02,  1.6009e-02,  7.1204e-03],
          [-2.7109e-02, -2.5617e-02, -2.6824e-03],
          [ 2.1316e-02, -1.8236e-02, -2.2425e-02]],

         [[-1.4049e-02,  8.2169e-03,  1.2889e-02],
          [-2.3114e-02, -1.1155e-02, -9.0119e-03],
          [ 2.8059e-02, -1.4265e-02,  9.6976e-03]]],


        [[[-4.3816e-03, -2.8201e-02,  2.5774e-02],
          [ 1.9585e-02,  1.6570e-02,  1.4541e-02],
          [-3.0968e-03,  1.0972e-02,  2.2052e-02]],

         [[ 6.1279e-06,  1.9796e-02, -2.6021e-02],
          [-1.4893e-02, -1.6504e-02,  1.0071e-02],
          [-5.1469e-04,  2.2489e-02,  1.3244e-02]],

         [[ 8.4631e-03, -1.3301e-02, -2.2672e-02],
          [-1.7135e-02, -1.8416e-02, -5.7742e-03],
          [-1.6490e-02,  1.7289e-02, -2.8271e-02]],

         ...,

         [[-2.1486e-02, -5.2568e-03, -2.1321e-02],
          [-2.8939e-02,  1.5426e-02,  1.8911e-02],
          [-2.6227e-02, -1.1265e-02,  1.0088e-02]],

         [[-4.6834e-03,  3.1584e-03,  1.1427e-02],
          [-1.6591e-02, -1.1441e-04,  2.3950e-02],
          [-1.9698e-02,  1.5849e-02,  2.0749e-02]],

         [[-1.7153e-02, -1.5412e-02, -2.7781e-02],
          [ 1.8903e-02,  2.0546e-02,  8.5235e-03],
          [ 1.6715e-02,  2.9214e-02,  8.7311e-03]]],


        [[[-2.5714e-02,  2.9272e-03,  2.7832e-02],
          [-2.0755e-02,  2.6846e-03,  1.1460e-02],
          [-2.6725e-03,  1.6034e-03, -2.2400e-02]],

         [[-7.0363e-03,  2.1921e-02, -1.0660e-02],
          [ 1.8580e-02, -1.9373e-02, -1.1832e-02],
          [ 7.1591e-03, -1.8330e-03,  1.3694e-02]],

         [[ 3.1035e-02, -1.8746e-02, -1.5791e-02],
          [-2.4842e-02, -1.9903e-02,  4.3287e-04],
          [-1.9050e-02, -7.1137e-03, -1.2063e-02]],

         ...,

         [[ 2.9711e-02,  3.0325e-02, -1.1925e-03],
          [-1.3238e-02, -1.4292e-02, -1.5404e-02],
          [ 2.5589e-02, -1.9894e-02, -3.1541e-03]],

         [[-1.1249e-02, -6.9280e-03, -2.6900e-02],
          [ 1.0021e-02,  4.2176e-03, -1.6310e-02],
          [-1.7452e-02,  1.3839e-02,  9.0681e-03]],

         [[ 5.0699e-03, -1.6497e-02,  3.3002e-02],
          [ 2.2638e-02, -2.0643e-02,  4.0693e-03],
          [ 1.1690e-02, -1.6383e-02, -8.8060e-03]]],


        ...,


        [[[ 2.9002e-02,  1.5603e-02, -2.3743e-02],
          [ 3.0048e-02,  1.2501e-02,  5.0361e-03],
          [ 1.4581e-03,  1.9874e-02,  2.8528e-02]],

         [[ 1.0884e-02,  1.8298e-02,  2.1428e-02],
          [-2.5583e-02,  2.8154e-02,  3.0544e-02],
          [-2.2222e-02, -1.6299e-02,  2.6020e-02]],

         [[ 1.3750e-02, -1.3691e-03, -8.1870e-03],
          [ 2.5725e-02,  1.5014e-02, -1.3866e-02],
          [-1.6587e-02,  4.0699e-03,  2.6684e-02]],

         ...,

         [[ 1.4332e-02, -1.8319e-02, -5.6784e-03],
          [ 9.1485e-05,  2.4320e-03,  2.4479e-02],
          [-1.9122e-02,  2.4601e-02, -1.9570e-02]],

         [[ 2.9338e-02, -1.6451e-03, -2.5658e-02],
          [ 2.7612e-02,  8.4735e-03,  1.5094e-02],
          [ 2.3267e-02, -1.8680e-02,  2.1127e-02]],

         [[ 1.7629e-02, -1.5951e-02, -1.8245e-03],
          [-2.7384e-02, -1.5690e-02, -1.7742e-02],
          [-5.8743e-03,  1.2790e-02,  3.1006e-02]]],


        [[[ 1.0533e-02, -1.2779e-02, -5.7811e-03],
          [ 1.8353e-02, -1.1800e-02, -1.1558e-02],
          [-2.5106e-02,  1.1108e-02,  2.1255e-02]],

         [[ 2.9382e-02,  1.0819e-03,  2.2441e-02],
          [-6.4825e-04,  2.4027e-02, -1.5399e-02],
          [ 2.1595e-02,  5.2255e-03,  4.1634e-04]],

         [[ 2.4236e-02,  1.6161e-02, -7.2762e-03],
          [-1.5190e-02,  2.8288e-02, -1.3137e-02],
          [ 6.4362e-04,  8.9148e-03,  9.7377e-03]],

         ...,

         [[ 2.0190e-02, -6.2506e-03,  2.3944e-02],
          [ 1.3184e-02, -2.7141e-02,  2.0376e-02],
          [ 1.5715e-02, -2.0166e-02, -1.8467e-02]],

         [[ 2.1037e-03,  1.7407e-02, -1.4466e-02],
          [-9.5965e-03,  3.0217e-03,  2.8989e-02],
          [ 2.2194e-02, -4.0647e-04, -2.1707e-03]],

         [[ 2.3603e-03,  2.7187e-02, -6.6017e-03],
          [-7.5939e-03, -1.3478e-02, -2.3044e-02],
          [-1.7881e-02,  6.0486e-04, -1.3920e-02]]],


        [[[-2.6492e-02, -2.1027e-02, -2.6809e-02],
          [-8.6748e-03,  1.2174e-02, -1.9742e-02],
          [ 3.1027e-02,  2.4782e-02,  2.7782e-02]],

         [[ 2.2048e-02,  2.6665e-02, -2.2347e-02],
          [ 1.1584e-02,  2.3413e-02, -1.7804e-02],
          [ 1.2702e-02, -1.9291e-02, -3.1899e-02]],

         [[-2.4723e-02,  2.1799e-02, -1.8005e-02],
          [-1.4197e-02, -9.4700e-04, -2.1989e-02],
          [-2.9497e-02, -2.6961e-02,  2.6828e-02]],

         ...,

         [[-1.9767e-02,  2.1334e-02, -1.9267e-02],
          [ 2.2824e-02,  1.7099e-02, -2.8726e-02],
          [ 2.8844e-02,  2.4905e-02, -1.3397e-02]],

         [[-2.8959e-02, -1.5616e-03,  2.3582e-02],
          [ 1.2731e-02, -7.4949e-03, -2.0723e-02],
          [-6.2723e-03,  1.5129e-02, -1.2150e-02]],

         [[-8.1925e-03,  3.4863e-03,  7.5491e-03],
          [-1.5182e-02,  2.6911e-02, -1.6482e-02],
          [-2.6008e-02,  1.3980e-02,  5.6849e-03]]]])"
encConv3.bias,"tensor([-0.0135,  0.0139, -0.0141, -0.0027, -0.0299,  0.0183,  0.0009, -0.0304,
        -0.0263, -0.0030, -0.0239, -0.0025,  0.0079,  0.0187,  0.0126, -0.0208,
         0.0254,  0.0128,  0.0039, -0.0146,  0.0183, -0.0072,  0.0141, -0.0292,
         0.0304, -0.0240,  0.0169,  0.0020, -0.0144,  0.0047, -0.0087, -0.0053,
        -0.0238,  0.0113,  0.0264, -0.0111,  0.0245,  0.0199, -0.0232, -0.0291,
         0.0040,  0.0164, -0.0140, -0.0195, -0.0005, -0.0277, -0.0257, -0.0223,
        -0.0058,  0.0195, -0.0175, -0.0213,  0.0231,  0.0059,  0.0073,  0.0150,
        -0.0100,  0.0105,  0.0256, -0.0145, -0.0278, -0.0057, -0.0253, -0.0314])"
bn4.weight,"tensor([1.0005, 1.0013, 0.9980, 0.9994, 1.0002, 0.9973, 0.9997, 1.0013, 1.0043,
        1.0072, 0.9998, 1.0019, 1.0017, 1.0001, 1.0005, 0.9983, 0.9988, 1.0045,
        1.0021, 0.9987, 1.0021, 1.0013, 0.9966, 0.9959, 0.9991, 0.9999, 1.0030,
        0.9973, 0.9985, 1.0003, 1.0006, 1.0012, 0.9987, 1.0044, 1.0012, 0.9990,
        1.0057, 0.9974, 0.9996, 1.0052, 0.9993, 1.0093, 1.0056, 0.9998, 0.9998,
        1.0016, 1.0001, 0.9986, 1.0009, 1.0055, 1.0000, 1.0018, 0.9994, 1.0001,
        1.0013, 1.0026, 0.9986, 0.9990, 0.9968, 0.9963, 1.0046, 1.0078, 1.0037,
        0.9988, 0.9993, 1.0010, 0.9979, 0.9986, 1.0017, 0.9994, 0.9982, 1.0043,
        1.0000, 1.0011, 1.0004, 0.9993, 0.9977, 0.9969, 0.9979, 1.0065, 0.9995,
        1.0005, 1.0002, 0.9998, 0.9963, 0.9988, 0.9972, 1.0019, 0.9986, 0.9964,
        1.0017, 1.0048, 0.9974, 1.0015, 0.9991, 0.9977, 1.0025, 0.9995, 0.9985,
        1.0033, 0.9985, 0.9981, 1.0011, 0.9988, 1.0018, 0.9997, 1.0012, 0.9996,
        1.0000, 1.0012, 0.9962, 1.0003, 1.0022, 1.0028, 1.0001, 1.0049, 0.9969,
        1.0040, 0.9985, 1.0037, 1.0055, 1.0045, 0.9999, 1.0004, 1.0006, 1.0046,
        1.0012, 0.9989, 0.9976, 0.9996, 0.9975, 0.9972, 1.0023, 1.0012, 0.9985,
        0.9956, 0.9969, 1.0003, 0.9981, 0.9984, 0.9971, 0.9977, 0.9960, 1.0007,
        1.0022, 0.9983, 0.9996, 1.0007, 1.0011, 1.0002, 0.9985, 0.9961, 0.9973,
        1.0018, 0.9994, 0.9964, 0.9997, 0.9987, 0.9998, 0.9982, 0.9977, 0.9981,
        0.9987, 0.9967, 1.0000, 0.9960, 0.9972, 0.9979, 1.0019, 0.9991, 0.9996,
        0.9972, 0.9986, 0.9973, 0.9998, 0.9968, 0.9979, 0.9979, 0.9990, 0.9993,
        0.9999, 0.9965, 1.0014, 0.9989, 0.9989, 1.0006, 1.0020, 0.9988, 0.9994,
        0.9948, 0.9991, 1.0031])"
bn4.bias,"tensor([ 1.0756e-03,  4.4523e-03, -5.3793e-04,  5.1932e-04,  2.1184e-03,
         1.9631e-03, -1.8842e-03, -1.8418e-03, -4.3208e-03,  5.5856e-05,
        -1.7818e-03,  1.2954e-05,  2.5181e-03,  1.5149e-03, -7.3477e-04,
         8.3038e-04, -1.0253e-03, -3.7943e-03,  8.1379e-04,  1.0597e-03,
         2.9180e-03,  1.2448e-04,  1.2075e-03,  1.3452e-03,  1.6832e-03,
        -1.6477e-03,  1.1811e-03,  5.6401e-04, -3.6335e-03,  3.3410e-03,
         7.5903e-04,  2.0821e-03, -8.1748e-04,  3.9061e-03,  7.4845e-05,
         2.5537e-05, -3.2862e-03,  3.8853e-03, -2.9098e-04, -2.7961e-03,
        -1.7326e-03, -1.2207e-05,  3.4930e-03, -1.8137e-03, -1.0070e-03,
         5.1720e-04,  2.4302e-03,  3.6847e-03, -1.4049e-03, -1.7134e-03,
         1.0930e-03, -7.9221e-04,  1.8804e-03, -1.3370e-03,  6.6009e-04,
        -3.9883e-04,  2.0666e-03, -3.2501e-04,  3.4166e-03,  2.8245e-03,
         1.3416e-03,  1.3231e-03, -9.9528e-04,  2.3652e-03,  6.5873e-04,
        -1.2440e-03, -2.0717e-04,  3.5617e-04,  2.0856e-03,  3.4447e-03,
         2.0016e-03, -3.7695e-03, -2.3456e-03, -1.1837e-03, -1.6590e-03,
        -1.7021e-03, -3.5864e-05,  4.0106e-04,  1.2435e-03, -1.4051e-03,
         8.5666e-04, -8.5884e-04, -3.0707e-03,  7.4456e-04, -4.5324e-05,
         3.9381e-04,  8.1959e-04, -2.2569e-03, -4.0226e-03,  3.5139e-03,
        -1.6326e-03, -9.1687e-04,  6.0040e-04, -3.2436e-03,  3.4732e-03,
         1.2082e-03, -4.8690e-03,  1.1242e-03,  2.3021e-03, -2.9145e-03,
         3.1337e-04, -1.8689e-03, -1.3538e-03,  1.7004e-03,  4.4291e-05,
         2.5359e-03,  2.3603e-03,  8.4187e-04, -5.3765e-04,  1.8442e-04,
         2.9815e-03, -1.4699e-03, -3.6061e-03, -7.1077e-04,  2.0176e-03,
        -2.2892e-03,  9.5911e-04, -9.1897e-04,  1.2054e-03, -1.1140e-04,
         2.7194e-03, -2.7106e-03, -1.1379e-03, -1.2395e-03,  2.2621e-03,
         9.2421e-04, -2.3745e-03,  2.9635e-03,  9.7929e-04, -2.5094e-03,
         1.2269e-03, -1.1448e-03, -3.1850e-03,  1.9691e-04,  8.1598e-04,
        -2.1355e-03,  4.4591e-03, -1.3987e-03, -1.0061e-03,  3.8255e-04,
        -2.3363e-03,  3.5681e-04,  1.4941e-03,  2.2040e-03, -2.7145e-04,
         2.3155e-03, -4.0384e-04, -3.1047e-03,  9.1887e-04,  1.0247e-05,
        -1.9468e-04,  1.4031e-03, -2.1734e-04, -1.1360e-03, -2.2542e-04,
        -2.2911e-03,  1.4982e-03,  2.8319e-03,  3.2198e-03, -1.5567e-03,
         3.1498e-03, -4.0662e-04,  4.9376e-03, -1.4438e-03, -1.4014e-03,
        -5.0352e-04, -5.7497e-04, -2.8985e-03,  1.0710e-03,  1.1326e-03,
        -1.6426e-04, -9.5917e-04, -2.6618e-04,  4.8275e-03, -1.1151e-03,
         3.7327e-03, -2.2864e-03, -1.8930e-03, -1.5523e-03, -2.0033e-03,
         2.5171e-03,  2.4433e-03, -2.4690e-03, -2.0826e-03, -2.5680e-03,
         4.8067e-05,  1.9277e-03, -1.4100e-03,  4.2671e-04,  8.3884e-04,
         2.1343e-03, -4.8179e-04])"
bn4.running_mean,"tensor([0.1897, 0.1994, 0.0947, 0.1412, 0.2948, 0.4854, 0.5529, 0.3096, 0.0592,
        0.0601, 0.1705, 0.2311, 0.1793, 0.2012, 0.0119, 0.1958, 0.2335, 0.0350,
        0.5478, 0.2819, 0.0614, 0.2828, 0.3045, 0.2929, 0.3700, 0.1369, 0.1172,
        0.0970, 0.0289, 0.0673, 0.5272, 0.3081, 0.2988, 0.0908, 0.1502, 0.1562,
        0.1363, 0.1690, 0.2005, 0.1384, 0.6494, 0.0751, 0.1376, 0.4322, 0.0774,
        0.1129, 0.3317, 0.0219, 0.1149, 0.2089, 0.1343, 0.1001, 0.2140, 0.2438,
        0.2075, 0.0346, 0.5038, 0.2905, 0.0374, 0.2648, 0.0410, 0.0798, 0.0319,
        0.2314, 0.2409, 0.3019, 0.3137, 0.1741, 0.2231, 0.3698, 0.3407, 0.3162,
        0.4083, 0.2186, 0.2153, 0.3890, 0.3296, 0.5331, 0.3847, 0.3094, 0.3717,
        0.5627, 0.3136, 0.2325, 0.3197, 0.2169, 0.2867, 0.2263, 0.2738, 0.2150,
        0.3238, 0.3156, 0.2018, 0.2591, 0.2040, 0.2337, 0.3007, 0.2528, 0.2495,
        0.2030, 0.3459, 0.2762, 0.4084, 0.4122, 0.2174, 0.2904, 0.1894, 0.3509,
        0.2566, 0.2383, 0.3904, 0.3141, 0.1786, 0.2007, 0.3165, 0.2668, 0.2464,
        0.2139, 0.3308, 0.2001, 0.2231, 0.2160, 0.1980, 0.2638, 0.1991, 0.2522,
        0.3308, 0.5205, 0.2930, 0.3157, 0.3096, 0.3498, 0.2821, 0.4637, 0.4298,
        0.3537, 0.3350, 0.4183, 0.2443, 0.3594, 0.3767, 0.5135, 0.3318, 0.4066,
        0.3365, 0.3084, 0.3929, 0.2796, 0.3268, 0.2464, 0.3743, 0.5382, 0.4573,
        0.2444, 0.3778, 0.4164, 0.4566, 0.3577, 0.4189, 0.2094, 0.3445, 0.4502,
        0.4409, 0.3918, 0.2697, 0.3216, 0.3196, 0.3046, 0.3633, 0.4969, 0.2837,
        0.2841, 0.3539, 0.2987, 0.2856, 0.3852, 0.3188, 0.3915, 0.3696, 0.3162,
        0.3499, 0.3125, 0.2603, 0.3431, 0.3342, 0.3623, 0.2069, 0.3387, 0.2818,
        0.4378, 0.4138, 0.2685])"
bn4.running_var,"tensor([0.0393, 0.0617, 0.0120, 0.0316, 0.1591, 0.4760, 0.4359, 0.2455, 0.0288,
        0.0237, 0.0233, 0.0796, 0.0490, 0.0887, 0.0024, 0.0659, 0.0756, 0.0114,
        0.4949, 0.1160, 0.0105, 0.1859, 0.1530, 0.2149, 0.2546, 0.0247, 0.0140,
        0.0299, 0.0055, 0.0140, 0.5348, 0.1332, 0.1742, 0.0200, 0.0371, 0.0199,
        0.0286, 0.0360, 0.0371, 0.0244, 0.8551, 0.0157, 0.0388, 0.2689, 0.0253,
        0.0229, 0.1877, 0.0059, 0.0347, 0.0706, 0.0250, 0.0126, 0.0687, 0.1167,
        0.0680, 0.0064, 0.5802, 0.1981, 0.0056, 0.0903, 0.0118, 0.0177, 0.0111,
        0.0724, 0.1672, 0.2650, 0.2205, 0.0876, 0.1711, 0.1943, 0.2182, 0.3359,
        0.3799, 0.1677, 0.1937, 0.4596, 0.2264, 0.5678, 0.3289, 0.2296, 0.3678,
        0.5080, 0.1604, 0.1297, 0.1693, 0.1337, 0.1229, 0.1652, 0.1480, 0.2124,
        0.1523, 0.2308, 0.0755, 0.1601, 0.1340, 0.1347, 0.1767, 0.1632, 0.1539,
        0.1275, 0.2263, 0.1690, 0.3653, 0.3491, 0.0856, 0.2024, 0.1199, 0.3053,
        0.1751, 0.1777, 0.3870, 0.1839, 0.1466, 0.1270, 0.2490, 0.1657, 0.1172,
        0.1500, 0.2883, 0.1591, 0.1263, 0.1417, 0.1100, 0.2319, 0.0710, 0.1131,
        0.2106, 0.6467, 0.2109, 0.2022, 0.1992, 0.2511, 0.2430, 0.3966, 0.4462,
        0.2169, 0.2832, 0.2556, 0.1159, 0.2614, 0.3027, 0.5693, 0.2412, 0.5231,
        0.3099, 0.2333, 0.3170, 0.2872, 0.3097, 0.1840, 0.2579, 0.8894, 0.4029,
        0.1860, 0.1758, 0.4165, 0.4545, 0.3070, 0.3639, 0.1284, 0.2274, 0.3976,
        0.4420, 0.2913, 0.3464, 0.2480, 0.2143, 0.2202, 0.3114, 0.4219, 0.3220,
        0.3065, 0.3164, 0.2179, 0.2574, 0.3847, 0.4041, 0.3203, 0.2773, 0.3642,
        0.2902, 0.2387, 0.1788, 0.3000, 0.3055, 0.2332, 0.1910, 0.3119, 0.2309,
        0.4804, 0.3745, 0.3130])"
bn4.num_batches_tracked,tensor(23348)
encConv4.weight,"tensor([[[[ 9.5055e-04, -7.9420e-03,  2.5208e-02],
          [-1.3936e-02,  1.8769e-02,  6.9434e-03],
          [-1.2817e-02,  5.5410e-03, -2.1901e-02]],

         [[-1.3340e-03, -1.0277e-02, -1.1017e-02],
          [ 1.9062e-02, -7.9125e-03, -8.1174e-03],
          [-7.0659e-03,  1.7819e-02,  9.1244e-03]],

         [[ 1.7979e-02, -1.4338e-02, -6.5171e-03],
          [-2.1962e-02, -1.0803e-02,  9.0656e-03],
          [ 4.7882e-03,  8.2515e-03,  2.7010e-03]],

         ...,

         [[-1.7138e-02, -7.8625e-03,  3.2467e-03],
          [-1.7293e-02, -2.6783e-03, -7.0705e-03],
          [ 1.9308e-02, -6.2771e-03, -1.9821e-03]],

         [[-1.3330e-02,  9.8839e-03,  1.5613e-02],
          [ 1.2949e-02,  2.1845e-02,  7.2802e-03],
          [ 2.2636e-02,  2.4781e-02, -1.2951e-02]],

         [[ 1.8862e-02, -1.9528e-02,  2.1612e-02],
          [-1.3194e-02,  6.0273e-04, -7.5488e-03],
          [-2.3548e-02, -3.6454e-03,  7.1262e-03]]],


        [[[ 1.9842e-02, -7.5562e-03, -7.6809e-03],
          [-1.4886e-02, -2.1212e-02, -8.1843e-03],
          [ 2.3415e-02, -1.5170e-02, -1.4497e-02]],

         [[ 1.8931e-03, -3.1070e-03, -1.7437e-02],
          [-2.2781e-02, -7.0475e-03,  1.1164e-02],
          [-1.0438e-02, -2.3731e-02,  1.7086e-02]],

         [[ 5.4114e-03, -2.3535e-03, -6.0539e-03],
          [-1.3679e-02, -1.9513e-03,  9.1129e-03],
          [-1.1324e-02, -8.2897e-03,  2.2599e-02]],

         ...,

         [[-1.4172e-02, -3.4557e-03,  1.9493e-02],
          [ 2.3833e-02,  1.5924e-03,  5.8283e-04],
          [-6.2113e-03,  1.3069e-02,  2.9629e-03]],

         [[ 1.4715e-02, -1.9151e-02,  1.7880e-02],
          [-1.7920e-02, -1.7337e-02, -1.6968e-02],
          [ 2.7308e-03,  4.8139e-03,  6.5217e-03]],

         [[ 7.6180e-03, -1.2788e-02, -1.5249e-03],
          [ 6.7914e-03,  6.4664e-03, -1.1894e-02],
          [-4.7525e-03,  1.6467e-02,  4.2967e-03]]],


        [[[ 7.0193e-03, -5.6714e-03, -8.3767e-03],
          [-1.6292e-02, -1.1063e-02,  1.0091e-02],
          [ 2.4035e-02, -1.8991e-02,  2.3703e-02]],

         [[-1.3735e-02, -1.8699e-02, -3.2329e-03],
          [ 3.5406e-03, -5.1227e-03, -1.3303e-02],
          [ 6.6323e-03,  1.1840e-02, -9.7436e-03]],

         [[-1.1772e-02,  2.7765e-02,  2.4652e-02],
          [ 3.1574e-05,  7.5040e-03, -1.2183e-02],
          [-2.1813e-02,  8.2677e-03, -4.0573e-03]],

         ...,

         [[-4.1868e-03, -1.0681e-02,  7.3968e-03],
          [-1.5261e-02, -5.9917e-03,  1.7578e-02],
          [-3.8147e-03, -7.5649e-03,  2.1799e-02]],

         [[ 1.4760e-02,  8.8404e-03, -6.4809e-03],
          [ 1.1446e-02,  9.2233e-03, -5.7253e-03],
          [-2.1759e-02, -1.5557e-02,  1.4196e-02]],

         [[-2.5398e-02,  1.6127e-02,  1.4217e-02],
          [ 5.5059e-03,  3.1619e-03,  4.2732e-03],
          [ 1.5685e-02,  3.1495e-02,  7.3460e-03]]],


        ...,


        [[[-1.5977e-02,  8.3625e-03,  1.3616e-02],
          [ 2.1445e-03, -6.2349e-04, -9.7602e-03],
          [ 6.8332e-03, -6.6307e-03,  1.6075e-02]],

         [[-5.4720e-03, -2.2991e-02, -1.3692e-02],
          [-2.1399e-02,  1.7000e-02,  1.3054e-02],
          [-9.8513e-03, -8.0557e-03, -1.9887e-03]],

         [[ 1.4790e-02, -1.3220e-02, -1.0410e-02],
          [-5.5840e-03,  2.0640e-02,  5.1468e-03],
          [ 7.3674e-03,  1.9212e-02,  6.6980e-03]],

         ...,

         [[-1.6281e-03,  1.5754e-02,  9.2469e-03],
          [ 1.2642e-02, -2.2126e-02,  1.7484e-02],
          [-1.9119e-02, -5.2625e-03,  1.3940e-02]],

         [[ 4.0233e-03,  6.4841e-03,  8.7352e-03],
          [-1.6357e-03,  1.9884e-02, -1.6493e-02],
          [ 5.9387e-03, -2.0590e-02, -2.3743e-02]],

         [[ 9.3852e-03, -5.5810e-03,  1.4611e-02],
          [-1.7080e-02,  1.5506e-02, -6.8125e-03],
          [-7.1492e-03, -1.1315e-02, -6.6964e-03]]],


        [[[-6.2058e-03, -1.1915e-02, -3.2792e-03],
          [ 2.3272e-02,  2.2374e-02, -2.1740e-02],
          [ 1.4382e-02, -6.1058e-03,  2.0229e-02]],

         [[-8.9180e-03, -6.3666e-04,  2.5783e-03],
          [-2.0547e-02, -9.7823e-03,  1.1473e-02],
          [ 3.8559e-03,  2.5627e-02, -8.6883e-03]],

         [[ 1.3119e-02, -9.7665e-03, -1.0461e-02],
          [ 1.0696e-02, -2.0115e-02,  1.0942e-02],
          [-1.5854e-02,  6.4932e-03, -2.0615e-02]],

         ...,

         [[ 2.4220e-03,  7.7794e-03,  1.1878e-02],
          [ 3.6140e-03, -2.1655e-02,  8.2962e-03],
          [-1.2910e-02, -1.3642e-02,  1.9484e-02]],

         [[ 1.2533e-02, -6.9630e-03, -1.9137e-02],
          [ 2.2039e-02, -1.6602e-02, -1.2907e-02],
          [ 1.6399e-02, -1.3819e-02,  1.8691e-02]],

         [[ 1.1749e-02, -1.6623e-02,  2.5537e-02],
          [ 7.6464e-03, -1.1869e-02,  1.6539e-02],
          [ 1.7731e-02, -7.1689e-03,  2.5620e-03]]],


        [[[-2.8143e-03, -1.6886e-02,  7.0635e-03],
          [-1.5838e-02, -8.3965e-03, -8.9239e-03],
          [ 9.5251e-03, -8.7291e-03, -1.5819e-02]],

         [[ 2.4566e-02,  1.4785e-02, -8.8557e-03],
          [-1.2308e-02, -2.1034e-02,  1.1206e-02],
          [-6.3177e-03,  4.2788e-03, -6.8757e-03]],

         [[-5.3096e-03,  2.1956e-02, -2.1547e-02],
          [ 3.9659e-03,  2.5667e-02,  2.2892e-02],
          [ 1.8709e-02,  1.4639e-02,  1.8937e-02]],

         ...,

         [[ 2.0497e-02,  2.6642e-02, -8.6860e-03],
          [-1.5991e-02,  7.2522e-03,  2.2937e-02],
          [-1.4394e-02, -1.6103e-03, -1.8429e-02]],

         [[-1.0512e-02, -6.2395e-04,  7.9801e-03],
          [ 4.7957e-03, -1.6699e-02, -5.4841e-03],
          [-2.3658e-02,  1.6909e-03,  1.5071e-02]],

         [[-5.4163e-03, -1.9524e-02,  1.8039e-02],
          [ 9.0752e-03,  1.4881e-02,  7.0844e-03],
          [ 1.1372e-02, -1.3095e-02, -1.7495e-02]]]])"
encConv4.bias,"tensor([ 6.9862e-03,  1.1196e-02, -2.0956e-03,  1.0748e-02, -1.1267e-02,
        -5.9076e-03,  1.3580e-02, -2.7298e-02, -1.3491e-02, -1.4475e-02,
         1.2153e-02, -5.4901e-03, -2.3786e-02,  9.2309e-03, -4.8536e-03,
        -2.2588e-02, -7.6987e-03,  1.8999e-02, -1.6915e-02,  1.7211e-02,
        -1.4610e-02, -2.4529e-02,  1.1302e-02,  1.8103e-02, -9.9049e-03,
         3.2461e-03,  8.7680e-03,  1.5324e-02, -3.3481e-02, -1.6260e-02,
        -1.7497e-02, -9.5750e-03, -3.8553e-03, -2.7832e-03,  1.1257e-02,
        -9.4580e-03,  1.1261e-02,  1.2857e-02,  1.8847e-02, -1.0400e-02,
        -2.4371e-02,  1.7771e-02, -4.6158e-03, -9.1010e-03,  1.6350e-02,
        -2.2211e-02,  3.3831e-03,  7.1356e-05, -1.6196e-02, -2.5365e-03,
        -4.6891e-03, -7.9406e-03, -9.5075e-03, -2.8380e-02, -3.9480e-03,
         3.0220e-03, -1.5098e-02,  8.2544e-03, -2.2383e-02,  1.1772e-02,
         1.4898e-02, -6.8309e-03,  9.6288e-03, -1.5715e-02])"
bn5.weight,"tensor([1.0003, 0.9955, 1.0009, 0.9961, 1.0003, 1.0005, 1.0026, 0.9971, 1.0002,
        1.0001, 0.9964, 1.0010, 0.9956, 1.0018, 1.0026, 1.0000, 1.0058, 1.0020,
        0.9976, 1.0046, 0.9969, 1.0002, 0.9968, 0.9953, 1.0017, 1.0025, 0.9987,
        1.0057, 1.0025, 0.9992, 0.9967, 0.9998, 0.9981, 0.9993, 0.9953, 0.9974,
        1.0053, 1.0011, 0.9981, 0.9977, 1.0012, 1.0020, 1.0055, 0.9997, 1.0021,
        0.9987, 0.9984, 0.9953, 0.9973, 0.9959, 1.0076, 1.0001, 1.0053, 0.9972,
        0.9995, 1.0013, 1.0030, 1.0006, 0.9956, 1.0051, 1.0016, 0.9988, 0.9972,
        0.9989])"
bn5.bias,"tensor([ 2.1581e-04, -2.6235e-03, -2.4334e-03,  3.4264e-03, -6.2914e-03,
        -2.4017e-04, -5.6279e-03,  1.9533e-03,  1.3747e-03, -5.8862e-03,
         2.6923e-03, -1.3954e-03,  4.5118e-03,  2.9338e-03, -2.0163e-03,
         1.1376e-03,  5.0821e-04, -3.6715e-03,  3.5390e-03,  3.6164e-03,
         1.0389e-03,  1.4433e-03,  6.1880e-03, -7.8932e-05, -5.1065e-03,
        -6.8772e-03,  5.7210e-04, -3.6859e-03,  3.2523e-03,  7.1971e-03,
         4.1847e-04,  2.5185e-03, -6.9519e-04, -7.9033e-03, -5.0455e-03,
        -6.5660e-04, -5.4967e-03, -2.1200e-03, -5.4098e-03,  7.8041e-05,
         4.2339e-03,  8.4938e-04,  1.0682e-03,  4.1450e-03, -7.6714e-03,
         3.1042e-03, -1.7944e-03,  1.3448e-03,  6.9060e-03, -1.4955e-03,
         5.1173e-03,  2.0783e-03,  4.1835e-03,  2.8477e-03, -2.0946e-04,
        -6.7090e-03,  5.4671e-03,  5.6885e-03,  9.0172e-04, -5.2108e-03,
        -2.7207e-03,  1.4717e-03,  2.3385e-03,  2.0650e-03])"
bn5.running_mean,"tensor([0.8347, 0.9109, 0.4839, 0.6348, 0.7040, 0.5880, 0.6543, 0.7121, 0.6757,
        0.5410, 0.6424, 0.5832, 0.5433, 0.5810, 0.5817, 0.5142, 0.4800, 0.7144,
        0.6746, 0.3370, 0.5517, 0.6534, 0.5737, 0.7829, 0.6455, 0.7809, 0.5094,
        0.5025, 0.4371, 0.5891, 0.7742, 0.5659, 0.6147, 0.5433, 0.7276, 0.6866,
        0.5521, 0.5292, 0.6928, 0.6130, 0.8398, 0.6740, 0.7663, 0.5645, 0.6175,
        0.5110, 0.6821, 0.5960, 0.5645, 0.7891, 0.6010, 0.5964, 0.4855, 0.6444,
        0.6030, 0.5035, 0.5922, 0.7323, 0.7807, 0.8985, 0.5741, 0.6032, 0.5788,
        0.7247])"
bn5.running_var,"tensor([1.0957, 1.6572, 1.0016, 1.1965, 0.6132, 0.8955, 0.7293, 0.8986, 1.1017,
        0.5951, 1.2505, 0.6630, 0.6743, 0.7535, 0.9043, 0.7739, 0.4548, 0.6707,
        0.9571, 0.4094, 0.8798, 1.1689, 0.8043, 1.7004, 0.9063, 1.2683, 0.6568,
        1.1053, 0.6387, 0.7440, 1.3435, 0.8291, 1.0360, 0.5950, 0.7937, 0.8934,
        0.7843, 0.9627, 0.9262, 0.6547, 1.0914, 1.2937, 0.8741, 0.7095, 1.0405,
        0.8813, 0.9091, 1.0476, 0.9846, 1.1338, 0.8139, 0.7052, 0.6966, 1.2434,
        0.8162, 0.5965, 1.0546, 1.1922, 1.4071, 1.4161, 0.7688, 1.2072, 1.0898,
        1.3707])"
bn5.num_batches_tracked,tensor(23348)
encConv5.weight,"tensor([[[[-0.0273,  0.0062, -0.0352],
          [-0.0102, -0.0354,  0.0330],
          [-0.0206, -0.0420, -0.0009]],

         [[ 0.0225,  0.0045, -0.0165],
          [ 0.0012,  0.0160,  0.0110],
          [ 0.0027,  0.0327,  0.0118]],

         [[ 0.0121, -0.0246, -0.0360],
          [ 0.0276,  0.0386, -0.0162],
          [-0.0368,  0.0126,  0.0038]],

         ...,

         [[-0.0050, -0.0012,  0.0109],
          [ 0.0073,  0.0283,  0.0281],
          [-0.0263,  0.0021,  0.0360]],

         [[-0.0139,  0.0159, -0.0117],
          [-0.0133, -0.0042,  0.0313],
          [ 0.0271,  0.0178, -0.0212]],

         [[-0.0163, -0.0009,  0.0105],
          [ 0.0274, -0.0037, -0.0299],
          [-0.0423,  0.0127,  0.0163]]],


        [[[-0.0166, -0.0066, -0.0173],
          [ 0.0355, -0.0121,  0.0049],
          [-0.0159, -0.0243,  0.0303]],

         [[ 0.0099,  0.0362,  0.0331],
          [ 0.0158, -0.0233,  0.0129],
          [-0.0251,  0.0191,  0.0435]],

         [[ 0.0249, -0.0246, -0.0437],
          [-0.0323,  0.0017, -0.0332],
          [ 0.0265,  0.0228, -0.0386]],

         ...,

         [[ 0.0337,  0.0102,  0.0020],
          [ 0.0391,  0.0304,  0.0292],
          [ 0.0418, -0.0248, -0.0210]],

         [[-0.0205,  0.0007, -0.0359],
          [-0.0254,  0.0277, -0.0207],
          [-0.0406,  0.0305, -0.0042]],

         [[ 0.0236, -0.0289, -0.0115],
          [-0.0187,  0.0427,  0.0016],
          [-0.0050, -0.0116,  0.0405]]],


        [[[-0.0330, -0.0170,  0.0241],
          [-0.0039, -0.0154, -0.0128],
          [-0.0086,  0.0059,  0.0147]],

         [[-0.0244,  0.0013,  0.0332],
          [ 0.0059, -0.0326,  0.0425],
          [ 0.0350, -0.0344,  0.0074]],

         [[-0.0404,  0.0133, -0.0010],
          [-0.0435,  0.0113,  0.0055],
          [ 0.0395, -0.0413, -0.0010]],

         ...,

         [[ 0.0293,  0.0093, -0.0316],
          [ 0.0268,  0.0135, -0.0405],
          [-0.0252,  0.0365, -0.0056]],

         [[-0.0092,  0.0174, -0.0399],
          [-0.0384, -0.0237, -0.0034],
          [ 0.0242,  0.0371, -0.0145]],

         [[-0.0089, -0.0223,  0.0254],
          [-0.0404,  0.0395,  0.0061],
          [-0.0028,  0.0139,  0.0264]]],


        ...,


        [[[ 0.0253,  0.0396,  0.0326],
          [ 0.0174,  0.0375, -0.0232],
          [-0.0384, -0.0385, -0.0132]],

         [[-0.0227,  0.0065, -0.0163],
          [-0.0025,  0.0036, -0.0274],
          [ 0.0378, -0.0053, -0.0373]],

         [[ 0.0003,  0.0289,  0.0122],
          [-0.0367,  0.0020, -0.0039],
          [ 0.0293, -0.0268,  0.0121]],

         ...,

         [[ 0.0018, -0.0214, -0.0279],
          [ 0.0407,  0.0448,  0.0107],
          [ 0.0359, -0.0033,  0.0315]],

         [[-0.0235, -0.0008,  0.0275],
          [-0.0286,  0.0340, -0.0183],
          [-0.0073,  0.0245,  0.0318]],

         [[-0.0188, -0.0198, -0.0159],
          [ 0.0445, -0.0363,  0.0148],
          [ 0.0044, -0.0290,  0.0034]]],


        [[[-0.0322, -0.0096, -0.0003],
          [ 0.0274,  0.0078,  0.0355],
          [-0.0036, -0.0093, -0.0186]],

         [[ 0.0205,  0.0250, -0.0082],
          [ 0.0238,  0.0162,  0.0076],
          [ 0.0146, -0.0172,  0.0065]],

         [[ 0.0084,  0.0002, -0.0283],
          [-0.0054, -0.0162, -0.0058],
          [-0.0095, -0.0020,  0.0309]],

         ...,

         [[-0.0440, -0.0404, -0.0359],
          [ 0.0050, -0.0018, -0.0033],
          [ 0.0171,  0.0004,  0.0238]],

         [[ 0.0337,  0.0035, -0.0124],
          [ 0.0346, -0.0163,  0.0128],
          [ 0.0267, -0.0005,  0.0087]],

         [[ 0.0258,  0.0444,  0.0430],
          [ 0.0214,  0.0380,  0.0413],
          [-0.0278,  0.0276, -0.0179]]],


        [[[ 0.0117,  0.0300,  0.0392],
          [ 0.0018, -0.0236, -0.0275],
          [-0.0046,  0.0276,  0.0284]],

         [[-0.0406,  0.0281, -0.0073],
          [ 0.0127, -0.0045, -0.0253],
          [-0.0005,  0.0219,  0.0160]],

         [[ 0.0270,  0.0057,  0.0389],
          [ 0.0161, -0.0277, -0.0338],
          [-0.0157, -0.0125, -0.0393]],

         ...,

         [[ 0.0382,  0.0193, -0.0148],
          [ 0.0238,  0.0296,  0.0093],
          [ 0.0383, -0.0085, -0.0127]],

         [[-0.0230,  0.0395, -0.0181],
          [-0.0330, -0.0217, -0.0070],
          [-0.0295,  0.0157, -0.0244]],

         [[ 0.0390, -0.0427,  0.0351],
          [-0.0053,  0.0102, -0.0044],
          [-0.0210,  0.0316, -0.0088]]]])"
encConv5.bias,"tensor([ 0.0112,  0.0361,  0.0032,  0.0278,  0.0383, -0.0022, -0.0220,  0.0314,
         0.0333, -0.0155, -0.0140,  0.0127,  0.0280, -0.0154,  0.0017, -0.0227,
        -0.0380,  0.0305,  0.0004,  0.0251, -0.0010,  0.0240, -0.0070,  0.0177,
        -0.0063,  0.0292, -0.0067,  0.0050, -0.0367,  0.0396,  0.0196,  0.0081,
        -0.0185, -0.0285, -0.0013,  0.0248,  0.0117,  0.0216, -0.0429, -0.0058,
        -0.0061,  0.0395, -0.0314, -0.0315, -0.0094, -0.0159, -0.0337, -0.0056,
        -0.0111,  0.0132, -0.0382, -0.0170,  0.0369, -0.0398,  0.0194,  0.0312,
         0.0023, -0.0163, -0.0110, -0.0389, -0.0393,  0.0025, -0.0319, -0.0256])"
bn6.weight,"tensor([0.9998, 0.9985, 1.0019, 0.9985, 1.0004, 0.9986, 1.0005, 0.9984, 1.0008,
        1.0030, 1.0018, 1.0009, 0.9992, 1.0009, 0.9974, 1.0063, 1.0006, 0.9997,
        0.9973, 1.0024, 0.9976, 0.9973, 0.9955, 0.9989, 1.0037, 0.9974, 1.0006,
        1.0024, 1.0039, 1.0011, 0.9976, 1.0017, 0.9988, 1.0013, 1.0009, 0.9989,
        0.9997, 1.0018, 0.9990, 1.0021, 1.0025, 1.0050, 1.0018, 0.9984, 1.0014,
        0.9997, 0.9980, 1.0027, 0.9996, 0.9981, 1.0024, 0.9958, 1.0027, 0.9982,
        0.9977, 0.9989, 0.9992, 0.9984, 1.0004, 0.9964, 1.0001, 0.9994, 1.0004,
        0.9971, 0.9997, 0.9965, 0.9984, 1.0048, 1.0014, 1.0031, 1.0000, 1.0008,
        0.9974, 0.9988, 0.9993, 1.0076, 1.0017, 0.9981, 1.0043, 1.0050, 1.0012,
        1.0006, 0.9999, 0.9987, 0.9976, 1.0002, 0.9992, 0.9976, 0.9977, 0.9981,
        0.9996, 1.0028, 1.0003, 0.9981, 0.9984, 0.9993, 0.9990, 0.9994, 0.9998,
        0.9985, 0.9969, 0.9983, 0.9991, 1.0004, 1.0036, 0.9979, 0.9974, 0.9999,
        0.9979, 1.0051, 0.9986, 0.9987, 0.9966, 1.0060, 0.9980, 0.9998, 0.9984,
        1.0044, 0.9986, 1.0032, 0.9980, 0.9987, 1.0007, 1.0016, 0.9997, 0.9980,
        1.0011, 0.9975])"
bn6.bias,"tensor([-2.9330e-03, -8.0539e-04, -3.0885e-03,  2.3353e-03,  3.4123e-03,
        -1.9369e-03,  7.3497e-04,  5.4717e-04,  9.3344e-04,  8.1204e-04,
         5.9299e-03,  2.8030e-03, -9.6814e-04,  5.4955e-04,  1.4115e-03,
        -4.3386e-03, -2.2131e-03,  1.6736e-03,  3.6224e-04,  2.3267e-03,
        -1.6028e-03,  1.3139e-03,  3.4210e-03, -3.9203e-03, -2.3010e-03,
         6.9512e-04, -1.0512e-03, -3.4902e-03, -1.4121e-03, -2.7803e-03,
         4.3226e-03,  1.8060e-03,  2.7772e-03,  9.1287e-04, -1.1305e-03,
        -4.7776e-06,  8.7728e-04,  1.5203e-03, -3.3939e-03,  4.8490e-03,
        -2.9190e-03, -1.9301e-03, -4.6016e-04, -9.9300e-04, -2.6532e-03,
        -1.7013e-03,  5.9839e-05,  2.4774e-03, -1.1904e-03, -2.3027e-03,
        -2.6622e-03,  4.8585e-04,  3.1865e-03,  1.5968e-03, -2.8631e-03,
         8.5472e-04,  1.3259e-03, -5.6120e-04,  2.2497e-03,  6.4556e-04,
         7.2976e-04, -9.4202e-04, -1.1954e-03,  3.8622e-03, -2.4680e-03,
        -6.8199e-04,  1.0484e-03,  7.4288e-04, -4.8930e-04,  1.0321e-03,
        -1.6612e-03,  1.4256e-03,  2.6380e-03, -5.5547e-04,  5.9351e-03,
        -3.2099e-03,  3.4266e-03,  3.6020e-03,  1.7685e-04,  1.3325e-03,
         8.3493e-04, -4.9008e-04, -2.6817e-03,  1.8129e-03, -1.0977e-03,
         1.9708e-03,  2.4639e-03, -1.7077e-03,  2.9115e-03, -1.1012e-03,
        -1.6011e-03,  1.9373e-03,  2.7385e-03, -1.3106e-03,  9.2222e-04,
         2.1227e-03, -5.4124e-04,  5.7362e-04,  1.4751e-03, -2.2955e-03,
        -9.4468e-04,  1.0077e-03,  3.2165e-03,  4.2196e-03,  3.0946e-03,
        -1.1959e-03,  5.2315e-05, -2.3217e-03,  2.6136e-03,  2.2524e-04,
        -2.4199e-03,  1.9712e-03,  3.3449e-03, -2.1625e-03, -3.7444e-03,
        -2.1230e-03,  2.7327e-03, -3.2903e-03,  4.5093e-04, -6.9967e-04,
        -1.7718e-03,  1.2465e-03,  2.9261e-03,  2.1900e-03,  1.2099e-03,
         1.3676e-03,  1.1370e-03,  7.5608e-04])"
bn6.running_mean,"tensor([0.8347, 0.9109, 0.4839, 0.6348, 0.7040, 0.5880, 0.6543, 0.7121, 0.6757,
        0.5410, 0.6424, 0.5832, 0.5433, 0.5810, 0.5817, 0.5142, 0.4800, 0.7144,
        0.6746, 0.3370, 0.5517, 0.6534, 0.5737, 0.7829, 0.6455, 0.7809, 0.5094,
        0.5025, 0.4371, 0.5891, 0.7742, 0.5659, 0.6147, 0.5433, 0.7276, 0.6866,
        0.5521, 0.5292, 0.6928, 0.6130, 0.8398, 0.6740, 0.7663, 0.5645, 0.6175,
        0.5110, 0.6821, 0.5960, 0.5645, 0.7891, 0.6010, 0.5964, 0.4855, 0.6444,
        0.6030, 0.5035, 0.5922, 0.7323, 0.7807, 0.8985, 0.5741, 0.6032, 0.5788,
        0.7247, 0.2364, 0.3622, 0.3061, 0.2424, 0.2604, 0.2777, 0.2438, 0.3886,
        0.2813, 0.3214, 0.3219, 0.2346, 0.2387, 0.3091, 0.2143, 0.2919, 0.2366,
        0.2862, 0.2202, 0.2969, 0.3021, 0.3494, 0.4064, 0.3700, 0.2495, 0.4981,
        0.2351, 0.2391, 0.2456, 0.3140, 0.2516, 0.2486, 0.2165, 0.2802, 0.2441,
        0.2509, 0.2193, 0.3880, 0.2200, 0.2779, 0.2087, 0.2369, 0.3217, 0.3332,
        0.3884, 0.2234, 0.2498, 0.2865, 0.3225, 0.2343, 0.3466, 0.3422, 0.3572,
        0.2204, 0.3029, 0.3315, 0.3045, 0.2252, 0.2562, 0.2067, 0.2529, 0.2937,
        0.3349, 0.3859])"
bn6.running_var,"tensor([1.0957, 1.6572, 1.0016, 1.1965, 0.6132, 0.8955, 0.7293, 0.8986, 1.1017,
        0.5951, 1.2505, 0.6630, 0.6743, 0.7535, 0.9043, 0.7739, 0.4548, 0.6707,
        0.9571, 0.4094, 0.8798, 1.1689, 0.8043, 1.7004, 0.9063, 1.2683, 0.6568,
        1.1053, 0.6387, 0.7440, 1.3435, 0.8291, 1.0360, 0.5950, 0.7937, 0.8934,
        0.7843, 0.9627, 0.9262, 0.6547, 1.0914, 1.2937, 0.8741, 0.7095, 1.0405,
        0.8813, 0.9091, 1.0476, 0.9846, 1.1338, 0.8139, 0.7052, 0.6966, 1.2434,
        0.8162, 0.5965, 1.0546, 1.1922, 1.4071, 1.4161, 0.7688, 1.2072, 1.0898,
        1.3707, 0.1185, 0.2478, 0.2447, 0.1699, 0.1894, 0.1974, 0.1499, 0.2505,
        0.1717, 0.3482, 0.1426, 0.1069, 0.1393, 0.2146, 0.1873, 0.1926, 0.1781,
        0.1827, 0.1333, 0.1960, 0.1407, 0.4155, 0.2093, 0.1771, 0.1469, 0.5070,
        0.1470, 0.1647, 0.1539, 0.2172, 0.1682, 0.2228, 0.1027, 0.2466, 0.1725,
        0.1555, 0.1632, 0.2149, 0.1193, 0.1622, 0.1014, 0.1060, 0.2338, 0.2628,
        0.4720, 0.1663, 0.1452, 0.1827, 0.2381, 0.1515, 0.2068, 0.2493, 0.3319,
        0.1263, 0.2255, 0.2298, 0.2015, 0.1492, 0.1453, 0.1087, 0.1450, 0.2255,
        0.2276, 0.3030])"
bn6.num_batches_tracked,tensor(23348)
encConv6.weight,"tensor([[[[-3.0096e-02, -1.6444e-02,  2.0185e-02],
          [ 1.5457e-02,  9.8568e-03,  1.8435e-02],
          [ 6.9333e-03,  2.8271e-02,  9.1847e-04]],

         [[-1.9503e-02, -1.9677e-02,  2.3574e-02],
          [-2.1619e-02, -2.7557e-02, -9.4710e-03],
          [-7.1545e-03, -3.1658e-02,  5.6946e-03]],

         [[-1.4904e-02,  1.2404e-02,  2.4247e-02],
          [ 2.7644e-02, -6.2216e-03,  1.1243e-02],
          [ 8.6540e-03, -7.0634e-04, -1.4048e-02]],

         ...,

         [[-1.7864e-04, -2.3030e-02, -2.5254e-02],
          [ 1.3824e-02, -2.8040e-02,  1.3193e-03],
          [ 2.6714e-02,  4.5779e-03, -1.0490e-02]],

         [[ 1.9593e-02,  2.2059e-02,  1.5938e-03],
          [ 1.0007e-02,  1.8981e-02,  2.6496e-02],
          [-1.6433e-02,  1.4557e-02,  1.9168e-02]],

         [[-7.1509e-03, -1.2351e-02, -5.1724e-03],
          [ 1.4534e-02,  2.7031e-02,  5.2534e-03],
          [-4.6382e-03, -1.7670e-02, -2.5061e-02]]],


        [[[-1.6108e-02,  1.0961e-02,  2.4845e-02],
          [ 7.5580e-03,  1.2909e-02,  8.4166e-03],
          [ 9.3876e-03, -1.5148e-02, -3.3599e-03]],

         [[ 2.5294e-03, -1.9449e-02,  2.9206e-04],
          [-2.0184e-02,  1.6975e-02, -2.2896e-02],
          [-1.2583e-02, -2.6606e-02,  2.4163e-03]],

         [[-1.3199e-02, -5.1914e-03,  1.3275e-02],
          [ 6.6659e-03, -1.4824e-02,  2.7641e-02],
          [ 9.1781e-03,  1.2632e-02, -1.4391e-02]],

         ...,

         [[-4.5900e-03, -8.0618e-03, -1.6993e-02],
          [-1.2192e-02, -1.6025e-02,  2.7534e-02],
          [-1.5226e-02, -1.1445e-02,  4.1680e-03]],

         [[-1.5975e-02,  9.6577e-04, -6.5004e-03],
          [ 2.8667e-02,  1.6551e-02,  1.2151e-02],
          [ 3.0349e-02, -8.8293e-03, -7.8033e-03]],

         [[-5.0904e-03, -2.4981e-05, -1.0943e-02],
          [ 4.0737e-04, -2.6335e-02, -1.7382e-02],
          [-1.3503e-02, -1.2646e-02, -9.2127e-03]]],


        [[[-2.3537e-02,  2.0995e-02,  3.0808e-02],
          [ 8.7735e-03,  6.4460e-05,  1.4513e-02],
          [-1.5717e-02,  2.8825e-02,  1.5126e-02]],

         [[-4.8288e-03,  1.1357e-02,  6.0978e-03],
          [-1.2367e-02, -2.5599e-02, -1.7587e-02],
          [ 7.1833e-03, -1.2788e-03,  1.5465e-02]],

         [[ 1.0266e-02, -1.9731e-02, -2.3625e-02],
          [-1.2841e-02,  2.8460e-02,  2.2225e-02],
          [-2.0567e-02, -1.6949e-02, -2.6739e-02]],

         ...,

         [[ 1.5139e-02, -1.2169e-02,  1.3594e-02],
          [ 1.2506e-02,  2.8666e-03,  1.9503e-02],
          [-4.8206e-03,  1.5997e-02, -3.1096e-02]],

         [[-1.2333e-02,  1.5553e-02,  3.1337e-03],
          [ 2.6557e-02, -8.3813e-03, -1.6232e-02],
          [ 8.2094e-04, -1.9129e-02,  4.6963e-03]],

         [[-2.2275e-03, -1.4791e-02, -1.7848e-02],
          [ 1.7596e-02, -2.0231e-02,  1.4783e-02],
          [-8.2598e-03,  2.6731e-02, -1.7425e-02]]],


        ...,


        [[[-1.5309e-02, -2.8979e-02,  1.0530e-02],
          [-3.8691e-03, -2.0800e-03,  1.2245e-05],
          [ 1.2862e-02, -1.0798e-03,  3.0700e-02]],

         [[-2.5505e-02, -4.1046e-03, -2.2259e-02],
          [-9.8969e-03, -2.4827e-02, -3.5908e-03],
          [-3.2462e-03,  1.4318e-03, -1.2521e-02]],

         [[-2.3651e-02, -2.2099e-02, -2.6857e-02],
          [-1.2850e-02, -2.9156e-02, -4.2023e-03],
          [-1.2717e-02, -9.9648e-03,  6.2393e-03]],

         ...,

         [[-2.2362e-02, -5.2269e-03,  2.5385e-03],
          [-3.2530e-02,  9.3122e-03, -2.2191e-02],
          [ 1.2806e-02, -9.3775e-03, -1.8968e-02]],

         [[-1.7368e-02, -9.5725e-03, -1.2026e-02],
          [ 8.8002e-04, -2.3414e-02,  2.6238e-02],
          [ 3.5547e-03, -1.6094e-03, -2.9519e-02]],

         [[-2.4466e-02, -1.9363e-02,  1.8323e-02],
          [-5.0224e-03, -9.2071e-03, -2.6899e-02],
          [-3.0525e-02, -1.9934e-02, -2.4565e-02]]],


        [[[ 1.4544e-02,  1.1262e-02,  1.1811e-02],
          [-2.2458e-02, -1.0187e-02,  3.1106e-03],
          [ 1.6153e-02,  7.5401e-03, -1.4542e-02]],

         [[-2.0496e-02, -1.7362e-02, -9.5991e-05],
          [ 6.5144e-03,  6.8866e-04, -4.2370e-03],
          [ 2.8712e-02, -2.3107e-03,  4.5569e-03]],

         [[ 2.1758e-02,  2.0058e-03,  2.0525e-02],
          [ 1.7136e-02, -1.2231e-02, -6.2469e-03],
          [ 1.7566e-02,  9.3696e-03, -1.2287e-02]],

         ...,

         [[-3.1648e-02, -2.5919e-02,  2.7301e-02],
          [-9.3873e-03,  1.8982e-02,  8.4257e-03],
          [-1.0136e-02,  1.5988e-02,  2.2100e-02]],

         [[-7.3119e-03, -3.0591e-02, -1.6380e-02],
          [ 7.3356e-03,  1.6844e-03,  1.8654e-02],
          [ 1.1556e-02,  1.4303e-02, -3.6437e-03]],

         [[-1.1164e-02, -6.9211e-03, -2.4728e-02],
          [-2.6198e-02, -1.7624e-02, -1.0411e-02],
          [ 1.7863e-02, -1.2110e-02,  1.5735e-02]]],


        [[[-9.3943e-03,  2.0469e-02,  2.0740e-02],
          [-2.6030e-02, -4.0987e-03, -2.8185e-02],
          [-3.9703e-03,  2.8578e-02,  9.3987e-03]],

         [[ 2.4798e-02,  1.3579e-03,  1.6467e-02],
          [-1.0861e-02, -3.0418e-02,  2.2234e-02],
          [-1.4385e-02, -1.6604e-03, -2.0308e-02]],

         [[-5.9129e-03,  2.5626e-02,  3.1998e-02],
          [-2.8601e-02, -2.5382e-02, -1.2939e-02],
          [-8.5415e-03,  1.4927e-02,  7.2262e-03]],

         ...,

         [[ 6.2498e-03,  2.0277e-02, -1.6541e-02],
          [ 1.6199e-02,  2.7150e-02, -2.7264e-03],
          [ 1.0323e-02, -8.5338e-03,  9.6619e-03]],

         [[ 6.9382e-03,  4.0751e-04,  9.0304e-03],
          [-1.3213e-02,  3.9155e-03, -1.5255e-02],
          [-1.9105e-02, -2.4822e-02, -2.0230e-02]],

         [[ 1.9991e-02,  9.4453e-03, -1.0337e-02],
          [-2.3704e-02, -1.4202e-02, -2.8164e-02],
          [-1.1848e-03,  1.4942e-02, -2.6805e-02]]]])"
encConv6.bias,"tensor([-0.0217, -0.0295,  0.0059, -0.0114,  0.0021,  0.0089,  0.0113, -0.0248,
        -0.0245,  0.0040,  0.0131,  0.0237,  0.0053, -0.0260, -0.0196,  0.0006,
        -0.0029, -0.0077, -0.0238,  0.0079, -0.0136,  0.0043, -0.0146, -0.0196,
        -0.0032, -0.0054, -0.0138,  0.0119,  0.0151,  0.0139, -0.0078, -0.0142,
        -0.0189, -0.0169,  0.0276, -0.0272,  0.0218,  0.0221,  0.0077, -0.0171,
         0.0028, -0.0192, -0.0225, -0.0213,  0.0057,  0.0200, -0.0068, -0.0125,
         0.0205,  0.0252,  0.0038, -0.0238,  0.0002, -0.0339,  0.0038, -0.0137,
        -0.0034, -0.0080,  0.0037, -0.0013, -0.0333, -0.0239, -0.0110,  0.0177])"
bn7.weight,"tensor([1.0057, 0.9933, 1.0031, 0.9971, 0.9997, 0.9969, 1.0051, 0.9975, 0.9973,
        0.9981, 0.9972, 1.0001, 0.9995, 0.9939, 1.0008, 1.0103, 1.0002, 0.9982,
        0.9974, 1.0029, 0.9984, 0.9991, 0.9960, 0.9962, 1.0098, 1.0050, 1.0032,
        1.0067, 1.0022, 0.9976, 0.9995, 1.0013, 0.9960, 0.9973, 0.9980, 1.0008,
        1.0057, 1.0063, 1.0008, 1.0005, 0.9979, 1.0081, 1.0035, 0.9973, 1.0032,
        1.0011, 0.9990, 0.9990, 1.0004, 0.9999, 1.0002, 0.9990, 1.0030, 0.9997,
        1.0003, 0.9985, 0.9990, 0.9956, 1.0015, 1.0043, 0.9981, 0.9951, 0.9978,
        0.9986, 0.9991, 0.9983, 1.0050, 1.0036, 1.0053, 1.0057, 1.0005, 0.9961,
        0.9971, 1.0023, 1.0005, 1.0138, 1.0013, 0.9989, 1.0044, 1.0016, 0.9965,
        0.9978, 1.0095, 0.9915, 0.9978, 1.0043, 0.9999, 0.9933, 1.0004, 0.9932,
        0.9980, 1.0014, 0.9977, 1.0045, 1.0013, 0.9995, 1.0040, 0.9974, 1.0073,
        0.9975, 1.0007, 0.9908, 1.0046, 1.0020, 1.0025, 0.9930, 1.0000, 0.9962,
        0.9949, 1.0042, 0.9961, 0.9971, 0.9964, 1.0102, 0.9975, 0.9992, 0.9993,
        1.0068, 0.9969, 1.0037, 0.9995, 0.9974, 0.9979, 1.0055, 0.9992, 1.0000,
        0.9973, 0.9977, 1.0016, 1.0075, 0.9986, 0.9991, 0.9999, 0.9989, 0.9998,
        1.0008, 0.9936, 0.9999, 0.9960, 0.9946, 0.9945, 0.9963, 0.9981, 0.9984,
        1.0003, 1.0026, 0.9984, 0.9987, 1.0056, 1.0018, 0.9968, 1.0012, 0.9956,
        0.9985, 1.0009, 0.9934, 1.0006, 0.9962, 1.0061, 0.9931, 0.9991, 0.9995,
        0.9968, 1.0041, 0.9966, 1.0001, 0.9985, 0.9998, 0.9990, 1.0042, 1.0013,
        0.9950, 1.0091, 0.9958, 0.9937, 0.9989, 0.9993, 0.9988, 0.9974, 1.0017,
        0.9948, 1.0057, 1.0003, 0.9997, 0.9958, 1.0030, 0.9978, 1.0014, 0.9995,
        1.0031, 1.0014, 1.0012])"
bn7.bias,"tensor([-2.3957e-03,  6.1963e-03, -8.5231e-03,  4.1950e-03, -1.2209e-03,
         2.1460e-04, -6.1437e-03,  8.8940e-03,  4.7118e-03, -2.6950e-03,
         8.3529e-03,  3.8489e-03, -6.7846e-03,  2.9200e-03, -7.6732e-03,
         3.8028e-03, -3.7482e-03,  1.3200e-03, -7.2566e-03, -7.2512e-03,
         5.1572e-03,  1.1011e-02,  1.3430e-02,  8.5043e-03,  1.7902e-03,
         4.4011e-03, -6.7002e-04, -1.0849e-02, -3.6494e-03, -9.3085e-03,
         1.8902e-03,  1.0527e-02,  7.7536e-03, -7.9219e-03, -3.6982e-04,
        -4.4275e-03, -1.1410e-03,  5.7788e-03,  6.0075e-03,  3.1731e-03,
        -3.6698e-03,  2.7183e-03,  2.1244e-03,  3.3808e-03, -6.8222e-03,
         4.8950e-03,  3.4380e-03,  5.0722e-03,  4.3752e-03, -3.2327e-03,
        -4.4629e-04,  6.4545e-04, -1.1880e-03,  1.6430e-02, -1.0691e-03,
         1.3957e-03,  5.6028e-03,  6.0357e-03,  1.1835e-03,  7.3915e-03,
        -3.5112e-03,  3.6979e-03,  5.9162e-03,  2.0439e-03,  5.2104e-03,
         9.6332e-03,  5.0775e-03, -8.5791e-03, -8.2690e-04,  2.1171e-03,
         1.3801e-02, -7.4501e-03,  1.4777e-03, -1.6050e-03,  4.6356e-03,
        -1.1303e-02,  5.6319e-03,  8.6363e-03, -6.6114e-03,  3.4195e-03,
         1.1952e-02,  5.6540e-03,  1.1668e-03,  3.2866e-03,  4.4738e-04,
         1.3200e-02,  2.1282e-03,  4.7997e-03,  5.1707e-03,  9.3243e-03,
         9.0681e-05,  2.3997e-03,  7.5682e-03,  5.2615e-03, -2.1955e-03,
         6.3140e-05, -4.8645e-03, -3.4801e-03, -1.2936e-02,  8.7273e-03,
        -1.6600e-03,  2.0299e-03, -4.3622e-03,  1.9137e-03, -3.5975e-03,
        -3.9572e-04,  7.3205e-03,  3.7915e-03,  4.3643e-03,  6.0616e-04,
        -1.3758e-03,  1.0217e-02,  8.8991e-03, -1.4579e-03,  7.2197e-03,
         8.1488e-04,  5.5401e-03, -3.8670e-04,  8.2797e-03, -1.0761e-03,
        -3.0790e-03,  3.7122e-03,  8.5630e-03, -8.7810e-04,  1.3925e-02,
         2.8647e-03,  2.5780e-03,  5.9949e-03,  7.0244e-05, -1.5733e-03,
         3.5004e-03, -2.9323e-03,  8.4911e-03,  7.6576e-03,  6.1701e-03,
        -8.4801e-04,  1.0499e-02,  5.2085e-03, -1.4874e-03,  7.2314e-03,
         7.3345e-03,  4.2536e-03,  7.0973e-03, -7.9451e-03, -3.1779e-03,
         6.7002e-03,  7.0250e-03,  2.7629e-03, -2.5611e-04, -4.6611e-03,
        -1.6607e-03,  1.8673e-04,  2.8884e-03,  8.0100e-04, -1.2215e-03,
         1.3881e-03, -2.1758e-03,  1.4280e-02, -2.0621e-03,  2.5332e-03,
         2.1164e-03, -1.5438e-03,  1.1696e-04, -1.1567e-03,  1.0786e-02,
         5.2985e-03, -1.7769e-03,  3.2875e-03,  1.0388e-02, -8.3312e-03,
         4.7338e-03, -1.8694e-03,  4.4599e-03,  8.5235e-03, -1.9216e-03,
        -2.5904e-03, -4.0299e-03,  2.4021e-03, -9.9307e-03,  4.4252e-03,
         3.7149e-03,  1.3833e-03, -3.4918e-04,  6.0609e-04, -7.6632e-04,
        -8.3953e-04,  4.6475e-04,  6.5614e-03, -1.1969e-04, -5.1974e-03,
         9.0164e-04,  9.2195e-03])"
bn7.running_mean,"tensor([0.8347, 0.9109, 0.4839, 0.6348, 0.7040, 0.5880, 0.6543, 0.7121, 0.6757,
        0.5410, 0.6424, 0.5832, 0.5433, 0.5810, 0.5817, 0.5142, 0.4800, 0.7144,
        0.6746, 0.3370, 0.5517, 0.6534, 0.5737, 0.7829, 0.6455, 0.7809, 0.5094,
        0.5025, 0.4371, 0.5891, 0.7742, 0.5659, 0.6147, 0.5433, 0.7276, 0.6866,
        0.5521, 0.5292, 0.6928, 0.6130, 0.8398, 0.6740, 0.7663, 0.5645, 0.6175,
        0.5110, 0.6821, 0.5960, 0.5645, 0.7891, 0.6010, 0.5964, 0.4855, 0.6444,
        0.6030, 0.5035, 0.5922, 0.7323, 0.7807, 0.8985, 0.5741, 0.6032, 0.5788,
        0.7247, 0.2364, 0.3622, 0.3061, 0.2424, 0.2604, 0.2777, 0.2438, 0.3886,
        0.2813, 0.3214, 0.3219, 0.2346, 0.2387, 0.3091, 0.2143, 0.2919, 0.2366,
        0.2862, 0.2202, 0.2969, 0.3021, 0.3494, 0.4064, 0.3700, 0.2495, 0.4981,
        0.2351, 0.2391, 0.2456, 0.3140, 0.2516, 0.2486, 0.2165, 0.2802, 0.2441,
        0.2509, 0.2193, 0.3880, 0.2200, 0.2779, 0.2087, 0.2369, 0.3217, 0.3332,
        0.3884, 0.2234, 0.2498, 0.2865, 0.3225, 0.2343, 0.3466, 0.3422, 0.3572,
        0.2204, 0.3029, 0.3315, 0.3045, 0.2252, 0.2562, 0.2067, 0.2529, 0.2937,
        0.3349, 0.3859, 0.3260, 0.2623, 0.2892, 0.2634, 0.3570, 0.3192, 0.4057,
        0.2894, 0.3293, 0.3048, 0.4185, 0.3699, 0.4247, 0.3330, 0.2601, 0.3137,
        0.2359, 0.2692, 0.2627, 0.2831, 0.2932, 0.3789, 0.2954, 0.3320, 0.3108,
        0.2848, 0.2845, 0.3146, 0.3042, 0.2929, 0.2340, 0.4273, 0.4212, 0.2418,
        0.2750, 0.2870, 0.3514, 0.3665, 0.3139, 0.2838, 0.3004, 0.3198, 0.3437,
        0.3191, 0.2811, 0.4732, 0.3162, 0.2166, 0.3311, 0.3633, 0.2621, 0.2603,
        0.3352, 0.2646, 0.2741, 0.2446, 0.3320, 0.2723, 0.3390, 0.2986, 0.3545,
        0.2662, 0.3157, 0.3693])"
bn7.running_var,"tensor([1.0957, 1.6572, 1.0016, 1.1965, 0.6132, 0.8955, 0.7293, 0.8986, 1.1017,
        0.5951, 1.2505, 0.6630, 0.6743, 0.7535, 0.9043, 0.7739, 0.4548, 0.6707,
        0.9571, 0.4094, 0.8798, 1.1689, 0.8043, 1.7004, 0.9063, 1.2683, 0.6568,
        1.1053, 0.6387, 0.7440, 1.3435, 0.8291, 1.0360, 0.5950, 0.7937, 0.8934,
        0.7843, 0.9627, 0.9262, 0.6547, 1.0914, 1.2937, 0.8741, 0.7095, 1.0405,
        0.8813, 0.9091, 1.0476, 0.9846, 1.1338, 0.8139, 0.7052, 0.6966, 1.2434,
        0.8162, 0.5965, 1.0546, 1.1922, 1.4071, 1.4161, 0.7688, 1.2072, 1.0898,
        1.3707, 0.1185, 0.2478, 0.2447, 0.1699, 0.1894, 0.1974, 0.1499, 0.2505,
        0.1717, 0.3482, 0.1426, 0.1069, 0.1393, 0.2146, 0.1873, 0.1926, 0.1781,
        0.1827, 0.1333, 0.1960, 0.1407, 0.4155, 0.2093, 0.1771, 0.1469, 0.5070,
        0.1470, 0.1647, 0.1539, 0.2172, 0.1682, 0.2228, 0.1027, 0.2466, 0.1725,
        0.1555, 0.1632, 0.2149, 0.1193, 0.1622, 0.1014, 0.1060, 0.2338, 0.2628,
        0.4720, 0.1663, 0.1452, 0.1827, 0.2381, 0.1515, 0.2068, 0.2493, 0.3319,
        0.1263, 0.2255, 0.2298, 0.2015, 0.1492, 0.1453, 0.1087, 0.1450, 0.2255,
        0.2276, 0.3030, 0.1988, 0.2324, 0.2020, 0.1603, 0.3792, 0.3153, 0.3626,
        0.2054, 0.2954, 0.2311, 0.4116, 0.4540, 0.3251, 0.2545, 0.1713, 0.3085,
        0.1942, 0.1992, 0.2002, 0.1639, 0.2311, 0.3713, 0.1807, 0.2812, 0.1764,
        0.2073, 0.2044, 0.2978, 0.2893, 0.2589, 0.1673, 0.3505, 0.2873, 0.1750,
        0.1458, 0.1729, 0.2753, 0.3481, 0.2024, 0.2185, 0.1915, 0.2577, 0.2953,
        0.2351, 0.2126, 0.5220, 0.2227, 0.1474, 0.2554, 0.3176, 0.1976, 0.2651,
        0.2534, 0.2397, 0.1658, 0.1415, 0.3460, 0.1717, 0.2610, 0.2425, 0.4626,
        0.1602, 0.2308, 0.2987])"
bn7.num_batches_tracked,tensor(23348)
encConv7.weight,"tensor([[[[-1.5150e-02,  2.7924e-02,  1.3128e-02],
          [ 3.7279e-03,  3.1178e-02, -1.4253e-02],
          [ 8.5203e-03,  3.0077e-02,  1.9253e-02]],

         [[ 1.7418e-02, -1.0303e-02,  1.3750e-02],
          [ 6.5247e-03, -1.6844e-03, -1.4109e-02],
          [-2.8799e-03,  7.3624e-03,  9.0985e-03]],

         [[-1.5418e-04, -2.4265e-02,  1.9528e-02],
          [-2.1486e-02,  2.5790e-02,  7.8138e-03],
          [ 1.3536e-02,  2.1704e-02, -4.8255e-03]],

         ...,

         [[ 1.2236e-02, -7.5405e-03, -1.4791e-02],
          [-1.3397e-02, -1.1989e-02,  2.5380e-02],
          [-1.8976e-02, -1.0296e-02,  1.5710e-02]],

         [[-2.0110e-03,  6.2210e-03, -6.4574e-03],
          [-4.0634e-03, -2.2694e-02,  6.1592e-03],
          [-1.8792e-02,  5.5957e-03, -2.8939e-03]],

         [[ 1.9809e-03, -5.6475e-05,  1.2011e-02],
          [ 1.7728e-02,  1.3959e-02, -2.3207e-02],
          [-7.2016e-03, -1.5096e-02,  9.0779e-04]]],


        [[[ 6.8879e-03, -2.0921e-02, -5.4704e-03],
          [ 2.6021e-02,  6.6061e-03,  6.7917e-03],
          [ 1.0708e-02,  2.1591e-02, -5.8551e-03]],

         [[-2.0949e-02,  1.2782e-02, -3.0630e-03],
          [-1.1120e-02,  1.6856e-02,  2.1777e-02],
          [-2.6012e-02,  1.5352e-02, -1.9507e-02]],

         [[ 1.8893e-03, -3.0788e-03, -1.3414e-02],
          [-2.3075e-02,  1.1842e-02, -9.1370e-03],
          [-2.5403e-02, -6.6454e-03,  5.0190e-03]],

         ...,

         [[-4.7552e-03, -2.6251e-02,  3.1582e-03],
          [ 1.8267e-03, -2.6291e-02, -1.8723e-02],
          [ 2.5828e-02,  1.0989e-02,  3.4925e-04]],

         [[ 2.4267e-02, -1.3346e-02,  8.0909e-03],
          [-8.7954e-04, -2.3997e-02, -5.5715e-03],
          [-8.9241e-03,  1.3819e-03, -1.9770e-04]],

         [[-1.0144e-04,  1.2241e-02,  1.8897e-02],
          [ 1.7720e-02, -2.6642e-02, -4.1522e-03],
          [ 3.0939e-02,  3.1531e-04, -1.8530e-02]]],


        [[[-2.6647e-02, -2.3930e-02,  2.1363e-02],
          [-2.2935e-02,  1.7037e-02,  9.2347e-04],
          [ 1.9321e-02, -2.1347e-02,  9.3646e-03]],

         [[ 2.6438e-02,  2.1927e-02,  1.1501e-02],
          [ 1.8246e-02,  2.4355e-02, -5.6840e-03],
          [-1.4437e-02, -2.1217e-02,  4.3588e-03]],

         [[ 8.2741e-03, -9.1990e-03,  1.1982e-02],
          [ 2.6188e-02,  3.6316e-03,  6.8410e-03],
          [ 8.8569e-03,  1.3052e-02,  3.6095e-03]],

         ...,

         [[-1.8214e-02,  2.3717e-03, -6.6329e-03],
          [-8.0830e-03,  2.3754e-02, -3.9191e-03],
          [ 1.9818e-02, -9.0159e-03, -7.2372e-03]],

         [[-2.0487e-02, -2.1907e-02,  5.9150e-03],
          [-1.0551e-02, -4.7141e-04,  1.8393e-02],
          [-9.5232e-03, -1.1409e-02,  7.3458e-03]],

         [[ 1.0543e-02, -1.7146e-02, -5.0630e-03],
          [-8.1144e-03,  1.8010e-02, -2.3524e-02],
          [-1.5288e-03,  2.4425e-02,  1.2714e-02]]],


        ...,


        [[[ 1.8429e-02,  1.1546e-02, -6.6604e-03],
          [-2.0342e-03,  7.3854e-03,  1.8834e-02],
          [-1.1740e-02, -1.0445e-02, -1.1992e-02]],

         [[-1.6238e-02,  8.3213e-03, -1.8966e-02],
          [-3.8067e-03,  1.5202e-02, -2.1113e-02],
          [-1.8075e-02,  1.7157e-02, -2.3791e-02]],

         [[ 1.9192e-02, -1.6649e-02, -2.1949e-02],
          [ 1.1358e-02, -1.0565e-02, -2.2845e-03],
          [-2.0651e-02,  1.0890e-02,  1.7864e-02]],

         ...,

         [[-1.9544e-02, -1.7241e-02,  5.7062e-03],
          [ 2.4447e-02, -1.8735e-02, -2.9604e-03],
          [ 2.4801e-02,  2.4440e-04,  1.4231e-02]],

         [[ 1.0022e-02, -2.5525e-02, -1.0853e-02],
          [ 7.3623e-03, -4.9207e-03, -2.4674e-02],
          [-6.9378e-03,  2.0823e-02, -6.9885e-05]],

         [[ 1.5344e-02, -2.0677e-02,  2.2725e-02],
          [-2.0916e-02,  4.8377e-03,  5.4932e-03],
          [ 1.5959e-02, -5.1394e-03,  1.5807e-02]]],


        [[[-6.4738e-03,  2.3105e-03, -2.4656e-02],
          [ 1.1681e-02, -1.4573e-02, -1.3208e-03],
          [-8.3984e-03, -1.1463e-02, -9.3618e-03]],

         [[ 3.7520e-03, -1.0065e-02,  2.0309e-02],
          [-8.5583e-03,  1.8030e-02, -5.0420e-03],
          [ 5.9606e-03, -1.8947e-02,  3.2524e-03]],

         [[ 2.4290e-02,  1.8539e-02, -2.2445e-03],
          [-1.5026e-02, -1.3058e-02,  6.3269e-03],
          [-2.1586e-02, -1.4679e-02,  1.2826e-02]],

         ...,

         [[-1.4179e-02, -1.4118e-02, -4.6266e-03],
          [-5.4342e-03,  1.4075e-02,  1.0392e-02],
          [ 5.2117e-03, -1.3622e-02,  5.8791e-03]],

         [[-8.3294e-03,  1.7975e-02,  2.6197e-02],
          [-1.7655e-02, -2.6471e-03, -8.8561e-03],
          [ 1.0797e-02,  1.5656e-02, -1.6335e-02]],

         [[ 3.9788e-04, -3.0457e-02, -1.5057e-03],
          [-1.0106e-02, -7.6895e-03, -1.7481e-02],
          [ 5.1121e-03,  2.5811e-04, -2.3069e-02]]],


        [[[ 3.0773e-03,  2.7637e-02,  2.3557e-03],
          [-8.3022e-03,  2.8378e-02,  7.3091e-03],
          [ 1.8263e-02,  3.3366e-02, -4.1873e-03]],

         [[ 1.3999e-02, -1.7919e-02,  1.9182e-02],
          [ 2.0567e-02,  1.5913e-02, -3.8769e-03],
          [-1.1080e-02,  1.0901e-02,  5.6204e-03]],

         [[-7.1874e-03,  1.0784e-02,  1.5965e-02],
          [ 1.0486e-02,  4.6860e-03, -2.8878e-02],
          [-2.6294e-02,  2.6073e-03, -1.0775e-02]],

         ...,

         [[-2.7554e-03,  2.8267e-02, -1.7076e-02],
          [ 2.5048e-02,  2.5081e-02,  9.7500e-03],
          [ 2.2326e-02, -1.3654e-03, -6.5102e-04]],

         [[ 1.4274e-03,  6.2288e-03, -1.2535e-02],
          [-2.2582e-02,  8.6193e-03, -2.7318e-03],
          [ 1.5481e-02,  9.1700e-03,  2.0926e-02]],

         [[ 1.9503e-02,  2.4665e-03,  1.7862e-03],
          [-2.1511e-02,  1.7044e-02, -2.8199e-03],
          [-2.3107e-02,  9.8748e-03, -4.1732e-03]]]])"
encConv7.bias,"tensor([-0.0314, -0.0172, -0.0064, -0.0135, -0.0067, -0.0140,  0.0105,  0.0118,
        -0.0060,  0.0120, -0.0272, -0.0239, -0.0034, -0.0259, -0.0270,  0.0092,
         0.0065, -0.0216, -0.0017, -0.0095, -0.0005, -0.0047, -0.0220, -0.0322,
        -0.0077, -0.0184,  0.0009, -0.0346, -0.0278,  0.0122, -0.0328, -0.0167,
        -0.0221,  0.0092,  0.0053,  0.0102, -0.0129, -0.0232, -0.0237,  0.0134,
         0.0095,  0.0144, -0.0248,  0.0003, -0.0180, -0.0222, -0.0248, -0.0138,
        -0.0235, -0.0149, -0.0146, -0.0263, -0.0210, -0.0044, -0.0091, -0.0250,
         0.0019, -0.0180,  0.0019,  0.0203, -0.0140, -0.0086, -0.0017,  0.0043])"
bn8.weight,"tensor([1.0047, 1.0098, 1.0021, 0.9994, 0.9965, 1.0074, 1.0150, 0.9982, 1.0025,
        0.9966, 1.0075, 0.9969, 0.9925, 1.0037, 1.0062, 1.0039, 1.0000, 0.9981,
        0.9950, 0.9971, 1.0119, 0.9983, 0.9947, 1.0021, 0.9992, 1.0011, 0.9981,
        1.0115, 0.9958, 0.9987, 0.9887, 0.9904, 0.9937, 1.0020, 1.0010, 0.9963,
        1.0064, 0.9993, 0.9919, 0.9997, 0.9947, 0.9996, 0.9926, 0.9980, 0.9930,
        0.9942, 0.9920, 0.9978, 1.0037, 1.0028, 0.9966, 0.9991, 1.0023, 0.9963,
        1.0065, 1.0153, 1.0009, 1.0035, 0.9969, 0.9927, 1.0055, 1.0032, 0.9932,
        1.0008])"
bn8.bias,"tensor([-0.0059, -0.0098,  0.0010,  0.0151,  0.0108, -0.0090, -0.0171,  0.0021,
         0.0042,  0.0084, -0.0113, -0.0009,  0.0103, -0.0014, -0.0121,  0.0014,
        -0.0140,  0.0002, -0.0086, -0.0007,  0.0071, -0.0135, -0.0014, -0.0058,
         0.0043, -0.0011,  0.0106,  0.0071,  0.0018,  0.0006, -0.0038,  0.0045,
         0.0109, -0.0061,  0.0192,  0.0010, -0.0009,  0.0061, -0.0011,  0.0042,
         0.0016,  0.0073,  0.0025,  0.0002,  0.0026,  0.0063,  0.0061,  0.0015,
         0.0102, -0.0014,  0.0159,  0.0003,  0.0035,  0.0075,  0.0055, -0.0079,
        -0.0066,  0.0005, -0.0131, -0.0037,  0.0082, -0.0059, -0.0037,  0.0042])"
bn8.running_mean,"tensor([0.4836, 0.5170, 0.5357, 0.5236, 0.4962, 0.4977, 0.5353, 0.5020, 0.5004,
        0.4701, 0.4471, 0.4165, 0.5223, 0.4290, 0.6227, 0.5488, 0.5007, 0.5397,
        0.4219, 0.5554, 0.5478, 0.6254, 0.7190, 0.4784, 0.4162, 0.4914, 0.5878,
        0.4218, 0.4563, 0.4901, 0.5295, 0.6381, 0.4913, 0.6114, 0.7105, 0.5437,
        0.6315, 0.5922, 0.5477, 0.6729, 0.4475, 0.5270, 0.6469, 0.5892, 0.6179,
        0.5554, 0.5059, 0.5954, 0.3814, 0.5282, 0.5886, 0.4780, 0.7325, 0.6829,
        0.4144, 0.4371, 0.4425, 0.4900, 0.7468, 0.5537, 0.5690, 0.6252, 0.4319,
        0.5029])"
bn8.running_var,"tensor([0.8522, 0.6185, 1.1223, 0.8676, 0.7497, 0.5478, 0.7361, 0.4435, 0.4904,
        0.6317, 0.5699, 0.5571, 0.9287, 0.6547, 0.9506, 0.7727, 0.9852, 0.6749,
        0.4636, 0.9443, 0.7498, 1.6259, 0.7868, 0.4922, 0.5725, 0.6266, 0.9382,
        0.7471, 0.6591, 0.7084, 0.7187, 0.7720, 0.9934, 0.7454, 1.3806, 0.8874,
        0.9839, 0.8408, 0.6705, 0.7600, 0.5743, 0.8298, 1.0463, 1.0426, 0.7031,
        0.9856, 0.4853, 0.6673, 0.5899, 0.6448, 0.9894, 0.8309, 1.0230, 1.4152,
        0.6413, 0.5035, 0.4524, 0.5123, 1.1844, 0.6001, 0.9386, 0.9274, 0.5536,
        0.4816])"
bn8.num_batches_tracked,tensor(23348)
encConv8.weight,"tensor([[[[-0.0378,  0.0047, -0.0174],
          [-0.0018, -0.0408, -0.0141],
          [-0.0110, -0.0140, -0.0394]],

         [[-0.0374, -0.0174,  0.0212],
          [-0.0228,  0.0354,  0.0390],
          [-0.0231, -0.0189,  0.0076]],

         [[ 0.0321,  0.0088, -0.0075],
          [-0.0364,  0.0035,  0.0258],
          [-0.0061,  0.0105,  0.0483]],

         ...,

         [[-0.0330,  0.0183,  0.0170],
          [ 0.0005, -0.0282, -0.0139],
          [-0.0119, -0.0343,  0.0176]],

         [[ 0.0363, -0.0347,  0.0277],
          [ 0.0275,  0.0029,  0.0265],
          [ 0.0241,  0.0155, -0.0091]],

         [[-0.0330, -0.0119, -0.0081],
          [ 0.0319,  0.0366,  0.0362],
          [-0.0460,  0.0199, -0.0127]]],


        [[[ 0.0197, -0.0269,  0.0162],
          [-0.0323, -0.0126, -0.0307],
          [ 0.0187,  0.0230, -0.0375]],

         [[-0.0142, -0.0283, -0.0045],
          [-0.0106,  0.0417,  0.0316],
          [ 0.0194, -0.0272,  0.0184]],

         [[ 0.0420, -0.0379,  0.0414],
          [ 0.0259,  0.0126, -0.0332],
          [-0.0417, -0.0224, -0.0245]],

         ...,

         [[ 0.0245,  0.0046,  0.0323],
          [ 0.0248, -0.0421, -0.0093],
          [ 0.0272, -0.0416, -0.0371]],

         [[ 0.0395, -0.0233,  0.0280],
          [-0.0254, -0.0055, -0.0023],
          [ 0.0010,  0.0155, -0.0239]],

         [[-0.0174,  0.0208,  0.0132],
          [-0.0005,  0.0218, -0.0215],
          [-0.0311, -0.0009, -0.0219]]],


        [[[ 0.0285,  0.0095,  0.0160],
          [ 0.0376,  0.0100,  0.0228],
          [ 0.0371, -0.0196,  0.0259]],

         [[ 0.0264, -0.0153, -0.0454],
          [-0.0158,  0.0334,  0.0109],
          [-0.0041,  0.0172,  0.0370]],

         [[-0.0301,  0.0273,  0.0168],
          [ 0.0231, -0.0236,  0.0207],
          [ 0.0249,  0.0158,  0.0294]],

         ...,

         [[ 0.0187, -0.0277,  0.0182],
          [ 0.0032,  0.0104,  0.0221],
          [-0.0186,  0.0229, -0.0309]],

         [[-0.0175, -0.0300, -0.0357],
          [ 0.0443, -0.0068, -0.0244],
          [-0.0038,  0.0248,  0.0310]],

         [[ 0.0336, -0.0088, -0.0200],
          [ 0.0443, -0.0176,  0.0399],
          [-0.0284,  0.0008, -0.0382]]],


        ...,


        [[[ 0.0152,  0.0010, -0.0443],
          [-0.0051, -0.0268,  0.0340],
          [ 0.0047, -0.0419, -0.0221]],

         [[ 0.0055, -0.0311,  0.0080],
          [ 0.0404, -0.0290, -0.0369],
          [-0.0187,  0.0131, -0.0109]],

         [[ 0.0317, -0.0165,  0.0247],
          [ 0.0327,  0.0245,  0.0163],
          [-0.0115,  0.0105,  0.0295]],

         ...,

         [[ 0.0259,  0.0105, -0.0093],
          [-0.0020,  0.0135, -0.0020],
          [ 0.0475,  0.0297,  0.0014]],

         [[ 0.0019,  0.0263,  0.0198],
          [ 0.0222,  0.0298, -0.0114],
          [-0.0097,  0.0090,  0.0268]],

         [[-0.0088, -0.0339,  0.0229],
          [ 0.0400, -0.0032,  0.0357],
          [-0.0059,  0.0339, -0.0322]]],


        [[[-0.0157, -0.0057,  0.0215],
          [-0.0101, -0.0015,  0.0186],
          [-0.0381,  0.0036,  0.0403]],

         [[ 0.0218,  0.0290,  0.0279],
          [-0.0369,  0.0053, -0.0328],
          [ 0.0026,  0.0226,  0.0033]],

         [[-0.0250,  0.0277,  0.0005],
          [ 0.0283, -0.0021, -0.0272],
          [-0.0121,  0.0019, -0.0129]],

         ...,

         [[ 0.0121, -0.0274, -0.0177],
          [-0.0162,  0.0398,  0.0072],
          [ 0.0303,  0.0158,  0.0122]],

         [[ 0.0363, -0.0228,  0.0428],
          [-0.0153,  0.0240, -0.0317],
          [ 0.0406,  0.0321,  0.0162]],

         [[ 0.0097, -0.0054, -0.0425],
          [-0.0412,  0.0130, -0.0116],
          [-0.0158, -0.0401, -0.0431]]],


        [[[-0.0367,  0.0083,  0.0034],
          [ 0.0088, -0.0140, -0.0037],
          [ 0.0381, -0.0195,  0.0256]],

         [[-0.0006,  0.0305, -0.0264],
          [ 0.0353, -0.0326, -0.0257],
          [-0.0220, -0.0152, -0.0095]],

         [[-0.0007, -0.0375, -0.0301],
          [ 0.0376, -0.0381, -0.0012],
          [ 0.0027, -0.0112, -0.0436]],

         ...,

         [[ 0.0025, -0.0226, -0.0108],
          [-0.0158,  0.0154, -0.0121],
          [ 0.0048, -0.0071, -0.0065]],

         [[-0.0035,  0.0157, -0.0386],
          [ 0.0216,  0.0118,  0.0126],
          [-0.0050, -0.0304, -0.0037]],

         [[-0.0252,  0.0353,  0.0227],
          [-0.0165, -0.0045, -0.0049],
          [-0.0321,  0.0322,  0.0351]]]])"
encConv8.bias,"tensor([-0.0239, -0.0231,  0.0313, -0.0109, -0.0394, -0.0079, -0.0484,  0.0287,
         0.0130,  0.0190, -0.0019,  0.0040,  0.0027,  0.0187, -0.0222,  0.0298,
        -0.0077, -0.0393,  0.0338, -0.0399, -0.0164, -0.0109, -0.0247,  0.0073,
        -0.0175, -0.0435,  0.0060, -0.0140, -0.0080,  0.0276, -0.0016,  0.0241,
         0.0220, -0.0532, -0.0396,  0.0174, -0.0157,  0.0212, -0.0367, -0.0293,
        -0.0444, -0.0232, -0.0482, -0.0007, -0.0514, -0.0153,  0.0209, -0.0224,
        -0.0323, -0.0048,  0.0002, -0.0168, -0.0094, -0.0319,  0.0094,  0.0103,
        -0.0496, -0.0418, -0.0083,  0.0204,  0.0143,  0.0143, -0.0280, -0.0499])"
bn9.weight,"tensor([1.0008, 1.0022, 0.9962, 0.9970, 1.0005, 1.0006, 1.0068, 0.9984, 0.9976,
        0.9964, 0.9974, 1.0012, 0.9987, 1.0004, 0.9971, 1.0023, 1.0024, 1.0014,
        0.9990, 1.0012, 1.0099, 1.0027, 0.9983, 0.9990, 1.0009, 0.9995, 0.9950,
        1.0047, 0.9927, 0.9981, 0.9972, 0.9955, 0.9951, 1.0050, 0.9972, 0.9991,
        1.0041, 0.9990, 0.9984, 1.0017, 0.9961, 0.9944, 0.9972, 0.9951, 0.9972,
        0.9961, 0.9961, 1.0016, 1.0017, 0.9981, 0.9971, 0.9972, 0.9986, 0.9969,
        0.9990, 1.0071, 1.0008, 1.0035, 0.9952, 0.9968, 0.9990, 0.9997, 0.9994,
        1.0003, 0.9998, 1.0049, 1.0029, 1.0002, 1.0009, 1.0034, 1.0030, 0.9970,
        1.0001, 1.0040, 0.9997, 1.0010, 1.0033, 0.9970, 0.9992, 1.0057, 1.0042,
        1.0040, 0.9999, 1.0027, 0.9986, 0.9987, 0.9988, 1.0013, 0.9971, 1.0050,
        0.9995, 0.9976, 1.0029, 0.9989, 1.0009, 0.9983, 1.0008, 0.9970, 0.9982,
        1.0013, 0.9967, 1.0015, 1.0006, 0.9949, 1.0008, 0.9997, 1.0042, 0.9977,
        0.9985, 1.0006, 0.9974, 0.9971, 1.0062, 1.0012, 1.0022, 1.0004, 1.0023,
        1.0011, 1.0030, 1.0023, 0.9965, 0.9998, 1.0032, 1.0010, 1.0054, 0.9978,
        0.9951, 1.0027])"
bn9.bias,"tensor([ 8.8396e-04,  5.8662e-03,  3.3348e-03,  7.4131e-03,  5.5523e-03,
        -4.0545e-03, -1.0410e-02,  5.1523e-03, -4.5064e-04,  6.7502e-03,
         6.1280e-04,  4.8317e-04,  5.7255e-03,  2.6559e-03, -2.9239e-03,
        -2.5560e-03,  8.5430e-03,  5.9468e-03, -1.7985e-03,  2.3323e-03,
        -4.3414e-03, -1.0641e-02,  1.4926e-03,  7.0264e-03,  7.4798e-03,
        -3.2028e-03,  3.8908e-03, -1.9681e-03,  1.1449e-02,  2.8072e-03,
        -5.4713e-03,  1.6636e-03, -1.6023e-03, -1.0726e-02,  4.1518e-03,
         4.5101e-03, -1.0860e-02,  4.5807e-03,  4.8333e-03,  7.2078e-03,
         3.7673e-03,  5.7118e-03,  7.4813e-03,  1.5926e-03,  5.1545e-03,
         5.4405e-03, -2.3938e-04, -1.3002e-02,  4.1766e-03,  1.4173e-03,
         9.8155e-03,  3.4509e-03,  1.0636e-03,  4.5708e-03, -6.6751e-03,
        -4.4045e-03, -2.7517e-04,  1.0645e-03,  6.4977e-03, -1.5422e-03,
         6.8587e-03,  1.0431e-04,  1.3331e-02, -3.2848e-03,  1.2466e-03,
        -3.7790e-04, -2.1117e-03, -3.8642e-03,  1.1794e-02, -7.2385e-03,
         6.7540e-03,  6.9939e-03,  2.8004e-03, -5.1135e-05,  3.5500e-03,
        -1.5348e-03,  8.7114e-04,  4.8851e-03,  1.8608e-02, -3.1192e-03,
        -3.4029e-03, -4.5253e-03,  6.5105e-03, -2.2648e-03,  9.5951e-03,
         1.4931e-03,  1.0914e-03,  1.4915e-02,  9.0298e-04, -6.9862e-03,
         9.0206e-03,  5.6415e-03, -2.9181e-03,  6.8554e-03,  1.2873e-02,
         4.4805e-03, -2.2339e-04,  4.2654e-03,  3.0333e-03, -3.5052e-03,
        -3.2428e-04,  1.4057e-02,  7.8554e-04,  2.2928e-03,  4.4022e-03,
         4.6717e-03, -3.7297e-03,  3.1300e-03,  2.6792e-03, -5.3068e-03,
        -4.7819e-04,  1.6666e-03,  2.4495e-03,  7.1583e-03,  6.5181e-03,
         7.3611e-03,  9.2650e-03,  8.0522e-03,  4.1508e-03, -3.0871e-03,
        -4.0152e-03,  3.4696e-03, -7.9579e-03,  3.1209e-03, -3.2254e-03,
         1.2657e-02,  6.7833e-03,  1.4757e-03])"
bn9.running_mean,"tensor([0.4836, 0.5170, 0.5357, 0.5236, 0.4962, 0.4977, 0.5353, 0.5020, 0.5004,
        0.4701, 0.4471, 0.4165, 0.5223, 0.4290, 0.6227, 0.5488, 0.5007, 0.5397,
        0.4219, 0.5554, 0.5478, 0.6254, 0.7190, 0.4784, 0.4162, 0.4914, 0.5878,
        0.4218, 0.4563, 0.4901, 0.5295, 0.6381, 0.4913, 0.6114, 0.7105, 0.5437,
        0.6315, 0.5922, 0.5477, 0.6729, 0.4475, 0.5270, 0.6469, 0.5892, 0.6179,
        0.5554, 0.5059, 0.5954, 0.3814, 0.5282, 0.5886, 0.4780, 0.7325, 0.6829,
        0.4144, 0.4371, 0.4425, 0.4900, 0.7468, 0.5537, 0.5690, 0.6252, 0.4319,
        0.5029, 0.2486, 0.2425, 0.2807, 0.2229, 0.2533, 0.2179, 0.2454, 0.3138,
        0.2619, 0.2523, 0.2104, 0.3330, 0.2899, 0.3259, 0.2986, 0.2539, 0.2262,
        0.2638, 0.2657, 0.2525, 0.2979, 0.3413, 0.2413, 0.2745, 0.2734, 0.2190,
        0.2989, 0.2528, 0.2175, 0.2993, 0.3012, 0.3031, 0.2350, 0.2155, 0.2584,
        0.2658, 0.2958, 0.3694, 0.2296, 0.2732, 0.2239, 0.2234, 0.1992, 0.3356,
        0.2183, 0.3287, 0.2763, 0.2959, 0.2037, 0.2124, 0.2428, 0.2559, 0.2633,
        0.2922, 0.3239, 0.2277, 0.2386, 0.2378, 0.2209, 0.3235, 0.2403, 0.2929,
        0.2829, 0.1927])"
bn9.running_var,"tensor([0.8522, 0.6185, 1.1223, 0.8676, 0.7497, 0.5478, 0.7361, 0.4435, 0.4904,
        0.6317, 0.5699, 0.5571, 0.9287, 0.6547, 0.9506, 0.7727, 0.9852, 0.6749,
        0.4636, 0.9443, 0.7498, 1.6259, 0.7868, 0.4922, 0.5725, 0.6266, 0.9382,
        0.7471, 0.6591, 0.7084, 0.7187, 0.7720, 0.9934, 0.7454, 1.3806, 0.8874,
        0.9839, 0.8408, 0.6705, 0.7600, 0.5743, 0.8298, 1.0463, 1.0426, 0.7031,
        0.9856, 0.4853, 0.6673, 0.5899, 0.6448, 0.9894, 0.8309, 1.0230, 1.4152,
        0.6413, 0.5035, 0.4524, 0.5123, 1.1844, 0.6001, 0.9386, 0.9274, 0.5536,
        0.4816, 0.1782, 0.1411, 0.1841, 0.1462, 0.1378, 0.1127, 0.1991, 0.2173,
        0.2261, 0.1430, 0.1167, 0.2516, 0.2061, 0.2811, 0.2625, 0.1536, 0.1180,
        0.1999, 0.1310, 0.1565, 0.2255, 0.2832, 0.1561, 0.2002, 0.2190, 0.2195,
        0.1450, 0.2188, 0.1404, 0.2090, 0.1581, 0.1597, 0.1545, 0.1558, 0.2180,
        0.1594, 0.1898, 0.3955, 0.1232, 0.1593, 0.1442, 0.1431, 0.1242, 0.2441,
        0.1525, 0.2266, 0.2041, 0.2174, 0.1026, 0.1038, 0.1616, 0.1676, 0.1197,
        0.1859, 0.2672, 0.1663, 0.1572, 0.1410, 0.1646, 0.2277, 0.1467, 0.1771,
        0.1948, 0.1089])"
bn9.num_batches_tracked,tensor(23348)
encConv9.weight,"tensor([[[[-2.3299e-02, -3.0007e-02,  6.5992e-03],
          [ 3.7430e-03, -2.9721e-02, -1.4593e-02],
          [-2.2687e-02,  1.3216e-02, -3.4419e-03]],

         [[-1.6039e-02, -1.7351e-02, -1.6527e-02],
          [ 1.0095e-02, -1.5828e-02,  3.1098e-02],
          [-2.0758e-02,  3.5522e-02,  2.2755e-02]],

         [[-1.9883e-02, -7.7421e-05, -9.2039e-03],
          [ 2.6639e-02,  6.0770e-03, -2.3761e-02],
          [-2.7934e-02,  2.9969e-03, -8.6895e-03]],

         ...,

         [[-2.9935e-02,  1.5049e-02,  2.4721e-02],
          [-1.8872e-02, -2.0380e-02, -5.5713e-03],
          [-2.3491e-02,  3.4404e-02, -6.2784e-03]],

         [[ 6.4684e-03, -1.9761e-02,  1.2792e-03],
          [-1.6317e-02,  1.0676e-02, -9.0554e-03],
          [-1.6522e-02, -6.7021e-03,  6.4223e-03]],

         [[ 1.0686e-02, -1.6728e-02,  2.3850e-04],
          [ 4.1951e-03, -2.2558e-03,  6.4484e-03],
          [-1.7665e-02, -1.1996e-02, -4.6033e-03]]],


        [[[ 3.9844e-03, -8.7966e-03, -7.3754e-03],
          [ 1.0342e-02,  3.5021e-02,  1.2192e-02],
          [-2.0443e-03,  6.3776e-03,  1.7017e-02]],

         [[-1.9585e-02,  7.3014e-03,  1.4713e-02],
          [ 1.2122e-02, -2.0147e-02, -1.1228e-02],
          [ 3.1929e-03,  1.0402e-02, -2.2858e-02]],

         [[-1.9777e-02, -1.2754e-03, -9.3436e-03],
          [ 2.4089e-02,  2.4127e-02,  7.2836e-03],
          [-1.6032e-02,  2.2014e-02, -1.6702e-02]],

         ...,

         [[ 2.5650e-02,  2.4079e-02,  2.0828e-02],
          [ 9.5712e-03, -3.0001e-02, -1.8893e-03],
          [ 9.8006e-03, -1.7220e-02,  2.5369e-02]],

         [[ 1.1305e-02,  1.7589e-03, -1.4254e-03],
          [-2.9477e-02,  5.6564e-03,  1.3824e-02],
          [-1.7435e-02,  2.7740e-02, -3.2034e-02]],

         [[-2.4965e-02, -3.5959e-03, -2.3339e-02],
          [ 1.2666e-02,  1.8191e-02, -1.1743e-02],
          [ 2.4458e-02, -2.5281e-02,  1.8484e-02]]],


        [[[ 2.8707e-03, -4.7844e-03, -1.5734e-02],
          [ 3.0533e-02,  9.9441e-03,  4.3680e-03],
          [ 1.9385e-02, -1.1543e-02, -5.7834e-03]],

         [[ 4.9926e-03,  8.8637e-03, -2.5360e-02],
          [ 1.1433e-02,  1.8785e-02, -2.0745e-02],
          [ 2.9120e-02, -1.3268e-02,  1.7685e-02]],

         [[-6.4433e-03, -2.8274e-02, -3.0062e-02],
          [-3.0594e-02,  4.5994e-03, -9.3170e-03],
          [-2.8669e-02,  2.3367e-02,  1.6361e-02]],

         ...,

         [[-2.9315e-02, -1.2959e-02,  1.1177e-02],
          [-1.7930e-04,  1.5854e-02, -2.9999e-02],
          [-1.0895e-02,  2.0450e-02, -2.4086e-02]],

         [[-8.5215e-03, -1.3736e-03, -1.4049e-02],
          [ 7.9945e-03, -2.2891e-02, -4.5749e-03],
          [-8.2998e-03,  1.0233e-02,  9.8873e-03]],

         [[-3.5317e-03,  2.8284e-02,  8.7929e-03],
          [ 1.8858e-02,  1.6458e-02,  1.9230e-02],
          [ 1.1315e-02, -3.0234e-03,  9.3685e-03]]],


        ...,


        [[[ 3.3903e-03,  2.2149e-02,  1.1934e-02],
          [ 1.0383e-02, -9.8875e-03,  1.4903e-03],
          [-1.1740e-02,  4.5915e-03,  1.1053e-02]],

         [[-3.0645e-02,  2.5860e-02, -2.5593e-02],
          [-1.1540e-02, -1.3581e-02,  1.3413e-02],
          [-1.6167e-03,  2.4074e-02,  2.8611e-02]],

         [[ 1.2138e-02, -2.4610e-02,  4.9697e-03],
          [ 5.1300e-03,  1.0450e-02, -1.0785e-02],
          [ 9.7250e-03, -1.4417e-02,  2.9362e-02]],

         ...,

         [[-2.0469e-02, -1.7498e-02, -2.4845e-02],
          [-2.5328e-02,  7.1374e-03, -3.1871e-02],
          [-1.8921e-03,  4.0680e-04, -2.5973e-02]],

         [[-5.4503e-03, -1.7406e-02, -1.4672e-02],
          [ 2.4743e-02,  2.5584e-02,  2.3308e-02],
          [-2.3609e-02, -1.9710e-02, -1.8453e-03]],

         [[-2.0765e-02, -1.0857e-02,  2.9399e-02],
          [-2.2660e-02, -1.1742e-02, -2.1942e-02],
          [-1.3456e-02, -1.0886e-02, -8.5161e-03]]],


        [[[ 1.0968e-02,  2.0019e-02,  2.4136e-02],
          [ 2.0360e-02,  1.2041e-02, -2.6210e-02],
          [-2.8182e-02,  1.8384e-02,  1.0285e-02]],

         [[-2.7085e-02, -3.3325e-02,  1.1641e-02],
          [ 1.0530e-03, -1.0156e-02,  2.0617e-02],
          [ 1.9866e-02, -2.3276e-02, -1.5470e-02]],

         [[-2.3739e-02,  2.4008e-02, -9.0199e-03],
          [ 1.5786e-02,  4.0435e-03,  9.3736e-03],
          [-7.9583e-03,  7.2463e-03, -8.6451e-04]],

         ...,

         [[ 2.9402e-02,  1.8834e-02, -2.3368e-02],
          [-2.3782e-03,  1.3103e-02,  1.2922e-02],
          [-3.3193e-03, -5.3384e-03, -3.0763e-02]],

         [[-2.2342e-02, -6.8753e-03,  2.6508e-03],
          [ 1.9586e-02,  1.6708e-02, -2.9897e-02],
          [-2.3328e-02, -2.4977e-02, -3.9581e-03]],

         [[ 2.2274e-02,  1.7900e-02, -2.2072e-02],
          [-1.5807e-02,  1.5867e-02, -1.9540e-02],
          [ 1.2737e-02, -1.9784e-02, -2.3903e-02]]],


        [[[-1.7691e-02, -1.0723e-02, -1.5606e-02],
          [-2.6109e-02, -2.8434e-02,  1.3205e-02],
          [-1.2806e-03, -2.5263e-02,  4.4098e-03]],

         [[ 5.1624e-03,  6.8596e-03,  3.3871e-02],
          [-8.1595e-03,  1.0271e-02,  2.1069e-02],
          [ 2.0686e-03, -1.8454e-02, -1.7390e-02]],

         [[-2.4843e-02,  2.7920e-02, -1.4926e-02],
          [-5.6442e-03,  9.6879e-03,  1.8129e-02],
          [-3.4532e-03,  1.8692e-02, -7.9933e-03]],

         ...,

         [[ 2.4806e-02, -1.1205e-02,  2.0951e-02],
          [-2.4749e-02,  2.5912e-03,  5.5900e-03],
          [ 1.4949e-03,  1.0944e-02, -3.8050e-02]],

         [[ 2.3661e-02,  2.5402e-02, -4.4972e-03],
          [ 2.5736e-02, -3.0352e-02,  2.4821e-02],
          [-2.4923e-02, -1.6935e-03,  1.2943e-02]],

         [[ 6.4836e-03, -1.0415e-02, -1.0630e-02],
          [-4.2005e-03, -2.9807e-02, -2.3941e-02],
          [ 1.6544e-02, -1.5273e-02, -2.2202e-02]]]])"
encConv9.bias,"tensor([-0.0339, -0.0369,  0.0135, -0.0372, -0.0007, -0.0143, -0.0314, -0.0155,
         0.0091, -0.0225,  0.0090, -0.0044, -0.0228, -0.0068, -0.0343,  0.0136,
         0.0163,  0.0094, -0.0296, -0.0296,  0.0098,  0.0168,  0.0001, -0.0014,
        -0.0343, -0.0369,  0.0156, -0.0282, -0.0141, -0.0100, -0.0034, -0.0333,
         0.0029,  0.0100,  0.0226, -0.0160,  0.0030,  0.0144, -0.0342, -0.0152,
        -0.0239, -0.0342, -0.0053,  0.0162, -0.0007, -0.0023, -0.0212, -0.0098,
        -0.0034,  0.0214, -0.0078, -0.0142, -0.0237, -0.0394, -0.0366, -0.0152,
        -0.0028, -0.0233, -0.0126, -0.0391, -0.0353, -0.0033,  0.0096, -0.0161])"
bn10.weight,"tensor([1.0007, 1.0043, 0.9963, 0.9951, 0.9946, 0.9988, 1.0145, 1.0022, 1.0009,
        0.9952, 1.0026, 0.9979, 0.9882, 0.9977, 0.9979, 1.0002, 1.0004, 1.0022,
        0.9977, 0.9933, 1.0089, 0.9998, 1.0008, 0.9954, 0.9985, 1.0014, 0.9901,
        1.0050, 0.9888, 0.9958, 0.9942, 0.9944, 0.9913, 1.0026, 0.9910, 0.9980,
        1.0063, 1.0019, 0.9911, 0.9929, 0.9943, 0.9989, 0.9903, 0.9901, 0.9975,
        0.9898, 0.9942, 0.9992, 1.0021, 1.0004, 0.9905, 0.9948, 0.9980, 0.9905,
        1.0013, 1.0056, 0.9980, 1.0058, 0.9913, 0.9967, 1.0013, 0.9980, 0.9941,
        0.9966, 0.9923, 1.0011, 1.0033, 1.0056, 0.9994, 1.0092, 1.0049, 0.9921,
        1.0069, 1.0078, 1.0029, 1.0020, 1.0001, 0.9936, 0.9993, 1.0036, 1.0158,
        1.0047, 0.9983, 1.0030, 0.9963, 0.9976, 1.0033, 1.0058, 0.9988, 1.0044,
        0.9995, 0.9952, 1.0003, 0.9971, 0.9954, 0.9956, 1.0010, 0.9990, 0.9999,
        0.9973, 0.9970, 0.9902, 1.0042, 0.9964, 1.0037, 0.9927, 1.0073, 0.9912,
        0.9949, 0.9952, 1.0007, 0.9885, 1.0089, 1.0017, 0.9977, 1.0008, 0.9963,
        0.9978, 1.0049, 1.0038, 0.9954, 0.9992, 1.0045, 1.0008, 1.0021, 0.9978,
        0.9887, 1.0037, 0.9919, 1.0068, 1.0001, 1.0079, 0.9948, 0.9941, 1.0000,
        1.0006, 1.0050, 0.9985, 0.9970, 1.0034, 1.0019, 1.0022, 0.9962, 1.0045,
        1.0074, 0.9972, 1.0046, 1.0005, 1.0018, 1.0001, 0.9970, 0.9997, 1.0033,
        1.0047, 0.9962, 0.9945, 1.0015, 1.0064, 0.9981, 1.0080, 1.0017, 1.0035,
        1.0001, 0.9953, 0.9987, 1.0020, 1.0014, 1.0013, 1.0052, 1.0002, 0.9963,
        1.0067, 0.9928, 1.0008, 1.0087, 1.0094, 1.0063, 0.9984, 1.0016, 0.9982,
        0.9918, 1.0020, 1.0008, 1.0011, 0.9977, 1.0019, 0.9972, 1.0034, 1.0047,
        1.0016, 0.9998, 1.0074])"
bn10.bias,"tensor([-2.0763e-03, -2.7543e-02, -9.4471e-03,  8.6591e-03, -2.8360e-04,
        -2.9146e-02, -4.3181e-02,  3.2423e-02, -1.6522e-02,  3.3082e-02,
        -2.2176e-02,  3.1452e-03,  1.1016e-02,  3.0699e-03,  1.4217e-02,
         8.2967e-03,  9.6960e-03,  3.1507e-03, -3.3572e-02,  1.2233e-02,
        -3.7934e-02,  2.8848e-04,  4.0016e-02,  9.6228e-03,  7.5844e-03,
         2.1867e-02,  2.4551e-02,  1.0187e-02,  1.6529e-02,  1.8518e-02,
         3.2558e-02,  4.6247e-03,  2.3753e-02,  2.7642e-03,  2.1000e-02,
         3.5782e-02, -8.0721e-03,  1.6778e-03,  2.1162e-02,  2.4749e-02,
        -1.3691e-02,  3.0862e-02,  5.2728e-02,  1.6959e-04,  6.0803e-02,
         4.9561e-03, -1.1399e-02,  1.9062e-02,  6.8858e-03, -1.2928e-02,
         4.5043e-02,  1.7898e-02, -9.8334e-04,  5.4600e-02, -1.3126e-03,
        -3.9197e-02,  2.4765e-03,  5.8805e-03,  1.7147e-02, -2.1320e-02,
         3.4528e-02,  3.5802e-02,  4.1472e-02, -5.9086e-03,  4.2286e-03,
         2.3907e-02,  2.7633e-03,  1.6778e-02,  2.6991e-02,  1.6461e-03,
         1.9729e-02,  2.4614e-02,  1.6854e-02, -1.9384e-03,  1.1703e-02,
        -1.0130e-03,  4.4363e-03,  3.3584e-02,  7.5647e-02, -1.9321e-02,
        -1.5768e-02, -1.0673e-02,  3.6206e-02,  3.5250e-02,  3.8556e-02,
         3.7772e-02, -1.3879e-02,  5.5224e-02,  4.6808e-03, -1.7701e-02,
         7.8441e-03,  6.2720e-02, -2.5508e-02, -7.1370e-03,  2.5914e-02,
         3.5093e-03,  3.0432e-02, -1.4126e-04,  6.0374e-02,  1.2597e-02,
         4.9866e-02,  4.6653e-02,  9.1840e-03,  3.3876e-02,  1.4068e-02,
         1.6740e-02, -1.5881e-02,  4.6981e-02,  2.1643e-02,  9.0924e-03,
        -1.8758e-02,  1.0910e-02,  1.4799e-02,  3.0938e-03,  7.0144e-03,
         2.3939e-02,  1.8879e-02,  4.9801e-02, -1.1726e-02,  1.5484e-02,
         2.3657e-02,  3.4894e-02, -1.6518e-02,  1.5239e-03,  8.9846e-04,
         5.5946e-02, -5.0591e-03, -1.4141e-02,  5.9565e-02, -5.6028e-03,
         1.3136e-02,  2.5439e-02,  1.4529e-02,  3.9153e-02,  1.7011e-02,
         1.5113e-03,  2.7551e-02, -6.3515e-03,  3.7635e-02,  7.1386e-03,
        -1.8849e-02, -3.6738e-03,  2.6020e-02,  1.7004e-02,  2.3983e-02,
         2.2772e-02,  1.9163e-03,  2.7893e-02, -3.4351e-02,  6.7030e-04,
         3.9754e-02,  1.5975e-02,  2.8169e-02, -5.6298e-03, -1.8346e-02,
         1.3423e-02,  2.1990e-02, -2.3568e-02,  4.6647e-02, -1.4463e-03,
         4.7486e-02, -2.7761e-02,  4.6013e-03,  4.1117e-03, -2.0963e-03,
         3.6837e-02,  3.1311e-03, -2.5485e-02,  9.4466e-03,  6.6574e-02,
         4.7629e-02,  1.3922e-02,  2.0132e-02,  4.5482e-02,  4.0664e-03,
        -4.3621e-02, -1.1244e-02,  5.8526e-02,  2.0271e-03,  4.8666e-02,
         3.3312e-02,  8.7280e-03, -1.2657e-05,  1.2276e-02,  2.7574e-02,
        -3.8913e-03,  1.7367e-02, -4.1372e-02, -2.6983e-02, -2.4670e-02,
        -7.2950e-03, -1.2309e-03])"
bn10.running_mean,"tensor([0.4836, 0.5170, 0.5357, 0.5236, 0.4962, 0.4977, 0.5353, 0.5020, 0.5004,
        0.4701, 0.4471, 0.4165, 0.5223, 0.4290, 0.6227, 0.5488, 0.5007, 0.5397,
        0.4219, 0.5554, 0.5478, 0.6254, 0.7190, 0.4784, 0.4162, 0.4914, 0.5878,
        0.4218, 0.4563, 0.4901, 0.5295, 0.6381, 0.4913, 0.6114, 0.7105, 0.5437,
        0.6315, 0.5922, 0.5477, 0.6729, 0.4475, 0.5270, 0.6469, 0.5892, 0.6179,
        0.5554, 0.5059, 0.5954, 0.3814, 0.5282, 0.5886, 0.4780, 0.7325, 0.6829,
        0.4144, 0.4371, 0.4425, 0.4900, 0.7468, 0.5537, 0.5690, 0.6252, 0.4319,
        0.5029, 0.2486, 0.2425, 0.2807, 0.2229, 0.2533, 0.2179, 0.2454, 0.3138,
        0.2619, 0.2523, 0.2104, 0.3330, 0.2899, 0.3259, 0.2986, 0.2539, 0.2262,
        0.2638, 0.2657, 0.2525, 0.2979, 0.3413, 0.2413, 0.2745, 0.2734, 0.2190,
        0.2989, 0.2528, 0.2175, 0.2993, 0.3012, 0.3031, 0.2350, 0.2155, 0.2584,
        0.2658, 0.2958, 0.3694, 0.2296, 0.2732, 0.2239, 0.2234, 0.1992, 0.3356,
        0.2183, 0.3287, 0.2763, 0.2959, 0.2037, 0.2124, 0.2428, 0.2559, 0.2633,
        0.2922, 0.3239, 0.2277, 0.2386, 0.2378, 0.2209, 0.3235, 0.2403, 0.2929,
        0.2829, 0.1927, 0.3224, 0.2886, 0.2971, 0.2723, 0.2926, 0.3284, 0.3127,
        0.3195, 0.2998, 0.2799, 0.2511, 0.2628, 0.2747, 0.2500, 0.2969, 0.2632,
        0.3230, 0.2927, 0.2926, 0.2209, 0.3235, 0.2997, 0.2973, 0.3506, 0.3279,
        0.2637, 0.2671, 0.2873, 0.2870, 0.2344, 0.3170, 0.2570, 0.3191, 0.2424,
        0.2992, 0.2530, 0.2863, 0.2807, 0.2470, 0.3338, 0.2837, 0.2654, 0.3314,
        0.3125, 0.2840, 0.3280, 0.2535, 0.2546, 0.2301, 0.3497, 0.3022, 0.3146,
        0.3014, 0.2492, 0.2300, 0.2653, 0.3248, 0.2844, 0.3166, 0.2655, 0.2444,
        0.2495, 0.3224, 0.2537])"
bn10.running_var,"tensor([0.8522, 0.6185, 1.1223, 0.8676, 0.7497, 0.5478, 0.7361, 0.4435, 0.4904,
        0.6317, 0.5699, 0.5571, 0.9287, 0.6547, 0.9506, 0.7727, 0.9852, 0.6749,
        0.4636, 0.9443, 0.7498, 1.6259, 0.7868, 0.4922, 0.5725, 0.6266, 0.9382,
        0.7471, 0.6591, 0.7084, 0.7187, 0.7720, 0.9934, 0.7454, 1.3806, 0.8874,
        0.9839, 0.8408, 0.6705, 0.7600, 0.5743, 0.8298, 1.0463, 1.0426, 0.7031,
        0.9856, 0.4853, 0.6673, 0.5899, 0.6448, 0.9894, 0.8309, 1.0230, 1.4152,
        0.6413, 0.5035, 0.4524, 0.5123, 1.1844, 0.6001, 0.9386, 0.9274, 0.5536,
        0.4816, 0.1782, 0.1411, 0.1841, 0.1462, 0.1378, 0.1127, 0.1991, 0.2173,
        0.2261, 0.1430, 0.1167, 0.2516, 0.2061, 0.2811, 0.2625, 0.1536, 0.1180,
        0.1999, 0.1310, 0.1565, 0.2255, 0.2832, 0.1561, 0.2002, 0.2190, 0.2195,
        0.1450, 0.2188, 0.1404, 0.2090, 0.1581, 0.1597, 0.1545, 0.1558, 0.2180,
        0.1594, 0.1898, 0.3955, 0.1232, 0.1593, 0.1442, 0.1431, 0.1242, 0.2441,
        0.1525, 0.2266, 0.2041, 0.2174, 0.1026, 0.1038, 0.1616, 0.1676, 0.1197,
        0.1859, 0.2672, 0.1663, 0.1572, 0.1410, 0.1646, 0.2277, 0.1467, 0.1771,
        0.1948, 0.1089, 0.2630, 0.2189, 0.1760, 0.2253, 0.1921, 0.1987, 0.2290,
        0.3022, 0.1890, 0.2089, 0.1810, 0.1982, 0.1586, 0.1534, 0.1970, 0.2000,
        0.2570, 0.2797, 0.2342, 0.1355, 0.2131, 0.1918, 0.2070, 0.3004, 0.2072,
        0.2088, 0.1692, 0.2839, 0.2201, 0.1622, 0.2166, 0.1923, 0.3177, 0.1574,
        0.2436, 0.1262, 0.1709, 0.2067, 0.1897, 0.2559, 0.2031, 0.2002, 0.2883,
        0.2897, 0.1895, 0.3005, 0.1784, 0.1638, 0.1511, 0.3286, 0.1973, 0.2470,
        0.2328, 0.1936, 0.1827, 0.1562, 0.2604, 0.1960, 0.2551, 0.2186, 0.1765,
        0.1797, 0.2671, 0.1733])"
bn10.num_batches_tracked,tensor(23348)
encConv10.weight,"tensor([[[[ 1.5340e-02,  4.3238e-03, -1.2453e-02],
