0,1
bn1.weight,"tensor([1.0085, 0.9804, 0.9985])"
bn1.bias,"tensor([0.0467, 0.0567, 0.0596])"
bn1.running_mean,"tensor([0.5102, 0.4221, 0.3786])"
bn1.running_var,"tensor([0.0923, 0.0790, 0.0785])"
bn1.num_batches_tracked,tensor(23348)
encConv1.weight,"tensor([[[[-0.1335, -0.1160, -0.1439,  0.0514],
          [-0.1007, -0.1111,  0.0931, -0.0312],
          [ 0.0351, -0.0242,  0.1069, -0.0101],
          [-0.0141, -0.1194,  0.0608, -0.0472]],

         [[-0.1066,  0.0676,  0.0393,  0.0021],
          [ 0.0804, -0.0714, -0.1354, -0.0045],
          [-0.0413,  0.0324,  0.0021,  0.0654],
          [ 0.0360, -0.1292,  0.0030, -0.0587]],

         [[ 0.0496, -0.1204, -0.0209, -0.1235],
          [ 0.0056,  0.0623, -0.1246, -0.0967],
          [ 0.0405, -0.1016,  0.0821, -0.0970],
          [-0.0545,  0.0049,  0.0347, -0.1411]]],


        [[[ 0.0113, -0.0007,  0.0250, -0.1119],
          [ 0.0672, -0.0101,  0.0443,  0.1207],
          [-0.0799,  0.1451, -0.0158, -0.0442],
          [ 0.0725,  0.0895, -0.0016,  0.0588]],

         [[ 0.0141, -0.1097, -0.1444,  0.0389],
          [ 0.0705,  0.0642,  0.1014,  0.0434],
          [ 0.0768,  0.0861,  0.1287,  0.0737],
          [ 0.0803,  0.1421,  0.0411,  0.0089]],

         [[ 0.0511, -0.1440,  0.1111, -0.0677],
          [ 0.0464,  0.1176, -0.0299,  0.0363],
          [-0.0352, -0.0452, -0.1032,  0.1146],
          [ 0.0524,  0.0481, -0.0896, -0.1268]]],


        [[[-0.1353, -0.0869, -0.1170,  0.0220],
          [-0.1181,  0.0042,  0.1219, -0.0888],
          [-0.0289,  0.1048, -0.0455, -0.0143],
          [ 0.1417,  0.1243,  0.1295,  0.0837]],

         [[ 0.1340, -0.0226, -0.1315,  0.0441],
          [ 0.0040, -0.0826,  0.0962, -0.0516],
          [-0.0390,  0.1055, -0.1323, -0.0382],
          [-0.0158,  0.0233,  0.0417,  0.1333]],

         [[ 0.1128, -0.0867, -0.0615,  0.0287],
          [-0.0549,  0.1184, -0.0496, -0.0753],
          [ 0.0066, -0.0303,  0.0366, -0.0380],
          [ 0.1051, -0.0017,  0.0579, -0.0793]]],


        ...,


        [[[ 0.1420,  0.0023,  0.0129,  0.0234],
          [ 0.0619,  0.0680,  0.1021, -0.1306],
          [-0.1004,  0.1348, -0.0592,  0.0730],
          [-0.0520, -0.0271, -0.1316, -0.0226]],

         [[-0.0644,  0.0393,  0.1098,  0.1398],
          [ 0.0695, -0.0892, -0.1373,  0.0754],
          [ 0.0157, -0.1164,  0.0131,  0.0363],
          [-0.0138,  0.1036, -0.1212,  0.0784]],

         [[ 0.1297,  0.0210,  0.0758, -0.0800],
          [-0.0700, -0.0201, -0.0409,  0.0062],
          [-0.0234,  0.1452,  0.0144, -0.1213],
          [ 0.0313, -0.0118,  0.0193,  0.1358]]],


        [[[-0.0060,  0.0318, -0.1469, -0.1448],
          [-0.0208, -0.0998, -0.0146, -0.1337],
          [ 0.0976,  0.0481,  0.1190, -0.0546],
          [ 0.0949,  0.0164, -0.0364, -0.0901]],

         [[ 0.1018, -0.1479,  0.0851, -0.1298],
          [ 0.1306,  0.0569,  0.1324,  0.0743],
          [ 0.0040,  0.1281, -0.0230, -0.0880],
          [ 0.0048, -0.1335, -0.0460,  0.0306]],

         [[-0.0578,  0.0691,  0.1241, -0.0884],
          [ 0.0572,  0.1305,  0.1401, -0.0591],
          [-0.1285, -0.1236,  0.1252, -0.0492],
          [-0.1241, -0.0518, -0.0425, -0.0879]]],


        [[[ 0.1283, -0.0628,  0.1032, -0.0834],
          [ 0.1115,  0.1076,  0.0299, -0.0914],
          [-0.0753, -0.0733, -0.1225, -0.1055],
          [-0.0551, -0.0613,  0.0203,  0.1085]],

         [[-0.0967, -0.0526, -0.0451,  0.0720],
          [-0.0680,  0.0871,  0.1120, -0.0527],
          [-0.1113,  0.0807,  0.0958, -0.0237],
          [-0.0875, -0.0249,  0.1234, -0.0916]],

         [[ 0.0463, -0.1122,  0.1407,  0.0406],
          [-0.0227, -0.1034, -0.1008, -0.1048],
          [ 0.0124, -0.0866,  0.0395, -0.0818],
          [-0.0611, -0.0704, -0.0353,  0.0257]]]])"
encConv1.bias,"tensor([-0.1020,  0.0396, -0.0103, -0.1014, -0.1341, -0.0445,  0.1282,  0.0249,
         0.0213,  0.0631, -0.1305,  0.0068, -0.0334,  0.1463,  0.0448, -0.0088,
        -0.1030, -0.0041, -0.0998,  0.0409, -0.0901,  0.1271,  0.0033,  0.0609,
         0.0276,  0.0472,  0.1330,  0.0704, -0.0986,  0.0919, -0.0571,  0.0986,
         0.0360, -0.1113, -0.0109, -0.0171, -0.0638, -0.0207,  0.0066, -0.1540,
         0.0547, -0.0284, -0.0451, -0.1137, -0.0140,  0.0759,  0.1252,  0.0270,
         0.0914, -0.0870, -0.0946,  0.1263, -0.0651,  0.1130, -0.0883, -0.0140,
         0.1158,  0.0627, -0.0335, -0.1352, -0.0744, -0.0237,  0.0567, -0.0822])"
bn2.weight,"tensor([0.9990, 1.0004, 1.0064, 1.0003, 0.9979, 1.0008, 0.9987, 1.0008, 0.9974,
        0.9966, 0.9978, 1.0006, 0.9974, 0.9990, 1.0043, 0.9970, 0.9963, 0.9982,
        1.0016, 1.0036, 1.0007, 1.0007, 0.9977, 1.0040, 0.9951, 0.9986, 1.0004,
        1.0040, 0.9992, 0.9964, 0.9966, 1.0010, 1.0017, 1.0001, 1.0075, 0.9996,
        0.9981, 1.0029, 1.0040, 0.9994, 0.9979, 0.9999, 0.9985, 0.9975, 1.0055,
        0.9998, 0.9977, 0.9961, 1.0004, 0.9999, 0.9985, 1.0013, 1.0003, 0.9961,
        1.0018, 1.0013, 1.0013, 1.0000, 1.0019, 1.0009, 1.0008, 0.9964, 1.0033,
        0.9980])"
bn2.bias,"tensor([-0.0055,  0.0030,  0.0031, -0.0067, -0.0023, -0.0089,  0.0092, -0.0017,
         0.0099,  0.0013, -0.0017, -0.0031, -0.0064,  0.0075, -0.0063, -0.0012,
        -0.0033, -0.0025, -0.0074, -0.0017, -0.0059, -0.0031,  0.0048, -0.0077,
        -0.0032, -0.0052,  0.0012,  0.0047, -0.0118,  0.0075,  0.0011, -0.0057,
         0.0017, -0.0068, -0.0047, -0.0106,  0.0008, -0.0109, -0.0045, -0.0152,
        -0.0041,  0.0014, -0.0101, -0.0087, -0.0034, -0.0007,  0.0040, -0.0032,
        -0.0085, -0.0146, -0.0075, -0.0046, -0.0033,  0.0050, -0.0116, -0.0107,
         0.0040, -0.0032, -0.0057, -0.0142, -0.0057,  0.0079,  0.0027, -0.0062])"
bn2.running_mean,"tensor([0.4358, 0.4702, 0.0953, 0.1202, 0.4109, 0.1253, 0.1678, 0.4103, 0.1825,
        0.1299, 0.0950, 0.5314, 0.0808, 0.1901, 0.1076, 0.2020, 0.2673, 0.0955,
        0.2084, 0.0755, 0.3407, 0.2662, 0.2400, 0.2656, 0.1797, 0.2020, 0.2869,
        0.2023, 0.2581, 0.1634, 0.1628, 0.2152, 0.2077, 0.1186, 0.0822, 0.0642,
        0.1423, 0.4237, 0.0943, 0.0595, 0.4765, 0.1157, 0.1305, 0.2281, 0.2708,
        0.1496, 0.2257, 0.3554, 0.1840, 0.2236, 0.0565, 0.1600, 0.2333, 0.1630,
        0.4093, 0.1485, 0.2307, 0.1137, 0.0563, 0.3191, 0.1629, 0.1779, 0.1746,
        0.2094])"
bn2.running_var,"tensor([0.3369, 0.3552, 0.0215, 0.0388, 0.3247, 0.0250, 0.0383, 0.2602, 0.0685,
        0.0206, 0.0203, 0.4680, 0.0155, 0.0442, 0.0182, 0.0648, 0.1166, 0.0222,
        0.0710, 0.0133, 0.2268, 0.0927, 0.0992, 0.1033, 0.0466, 0.0661, 0.1109,
        0.0759, 0.1325, 0.0559, 0.0799, 0.0577, 0.0592, 0.0347, 0.0170, 0.0102,
        0.0372, 0.3558, 0.0216, 0.0103, 0.4156, 0.0393, 0.0302, 0.1038, 0.1292,
        0.0328, 0.0606, 0.2612, 0.0366, 0.1245, 0.0089, 0.0293, 0.1157, 0.0349,
        0.3015, 0.0387, 0.0495, 0.0183, 0.0066, 0.1852, 0.0505, 0.0633, 0.0487,
        0.0763])"
bn2.num_batches_tracked,tensor(23348)
encConv2.weight,"tensor([[[[-5.5245e-03,  2.8310e-02,  1.8391e-02],
          [-1.8502e-02,  2.4631e-02, -7.2617e-04],
          [-3.0669e-05, -1.0242e-02,  5.5835e-04]],

         [[-6.3767e-03, -2.9720e-02, -3.6447e-02],
          [-2.8018e-03,  3.2356e-02, -3.5755e-02],
          [-1.4595e-02, -4.0569e-03,  3.5243e-02]],

         [[ 9.1143e-03, -4.3187e-02,  2.1087e-02],
          [ 1.8263e-02,  3.4252e-02,  3.9449e-03],
          [-2.7347e-02, -8.5863e-03, -3.1809e-02]],

         ...,

         [[ 2.1104e-02,  6.1937e-03, -2.1204e-03],
          [ 1.1585e-02, -1.2640e-03, -3.1480e-02],
          [-1.4211e-02,  3.5653e-02,  3.4272e-02]],

         [[-1.0483e-02, -5.0963e-03, -4.1313e-02],
          [-1.5061e-02,  3.8827e-02, -3.2562e-02],
          [-1.1208e-02, -3.6674e-02, -3.5819e-02]],

         [[-1.7203e-02, -3.7309e-02, -3.3917e-02],
          [ 2.1013e-02, -4.0577e-02, -3.9351e-02],
          [ 3.3401e-02, -3.6217e-02,  6.1925e-03]]],


        [[[ 3.1238e-02, -4.8829e-03, -5.0184e-03],
          [ 3.5075e-02, -2.6270e-02, -1.3972e-02],
          [-2.2320e-02,  4.0986e-02,  2.6598e-02]],

         [[ 2.3234e-03, -5.9539e-03, -1.0268e-02],
          [ 2.7162e-02,  4.2278e-02, -1.5114e-02],
          [ 1.2113e-02,  3.6855e-03,  3.5325e-02]],

         [[ 5.9261e-03,  2.0315e-02,  1.7949e-03],
          [-2.9896e-02,  2.4630e-02,  4.5603e-03],
          [-3.8662e-02, -9.8624e-03, -3.8273e-02]],

         ...,

         [[-7.2062e-03, -5.6929e-03, -6.7621e-03],
          [-3.6934e-02,  1.1517e-02, -1.5993e-02],
          [ 4.5017e-02, -2.5626e-02, -2.3986e-02]],

         [[-2.4038e-02,  1.8616e-02,  3.8050e-02],
          [ 3.9203e-02, -1.9927e-02, -2.4979e-02],
          [ 2.6769e-02, -2.0054e-02,  1.0287e-03]],

         [[-8.8249e-03, -2.0058e-02, -3.6699e-02],
          [-2.7616e-03,  1.3115e-02,  2.5464e-02],
          [-5.9864e-03, -8.2522e-03,  1.9797e-02]]],


        [[[-4.2245e-02, -2.9079e-02,  1.3393e-03],
          [ 2.5937e-02, -3.9818e-02, -1.8485e-02],
          [ 5.7106e-03, -5.5353e-03, -3.5564e-02]],

         [[-1.8103e-02,  2.2543e-02,  3.2308e-02],
          [-3.7035e-02,  2.2747e-02,  2.5880e-02],
          [ 2.5985e-02, -7.8429e-03,  4.3236e-03]],

         [[-6.9247e-03,  3.8015e-02, -4.1986e-02],
          [-2.9329e-02,  3.2116e-02,  1.2607e-02],
          [ 2.0486e-02,  3.0936e-02,  3.6424e-02]],

         ...,

         [[ 1.1644e-02, -5.4134e-03,  6.3957e-03],
          [ 1.7417e-02,  5.3467e-03, -2.8752e-02],
          [ 7.3721e-03, -6.5579e-04,  1.5757e-02]],

         [[-2.9437e-03, -2.0590e-03, -9.3325e-04],
          [ 1.9438e-02, -3.7872e-02,  9.3114e-03],
          [ 2.9731e-02,  1.3946e-02,  1.5306e-02]],

         [[ 3.4983e-02,  2.2857e-02, -2.0978e-03],
          [-6.4712e-03,  3.6011e-02, -3.5605e-02],
          [ 4.3342e-02,  2.8200e-03,  1.8983e-02]]],


        ...,


        [[[-2.4707e-02,  2.3453e-04, -2.2848e-02],
          [ 1.2555e-03,  3.4709e-02, -3.0003e-02],
          [-3.8204e-02, -1.7792e-02,  1.2017e-02]],

         [[ 3.7548e-02, -1.8937e-02,  2.3041e-02],
          [ 3.1611e-02, -2.3204e-02,  1.8533e-02],
          [-1.1174e-02,  1.8168e-02, -3.1888e-02]],

         [[-1.2081e-02, -3.5202e-02,  4.1117e-02],
          [-3.2867e-02, -1.6296e-03, -2.9596e-02],
          [-3.4066e-02, -1.0651e-02, -2.9157e-02]],

         ...,

         [[-2.3132e-02,  4.1048e-02,  1.5866e-02],
          [-2.1328e-02, -7.6024e-03, -3.5298e-02],
          [-3.9900e-02, -3.2350e-02,  2.8038e-02]],

         [[ 1.1564e-02, -2.1032e-02, -2.4441e-02],
          [ 1.1953e-02, -3.8072e-02, -3.7873e-02],
          [-2.7540e-02,  4.3143e-02, -1.4123e-02]],

         [[ 4.2816e-02,  1.5607e-02,  6.5755e-03],
          [-2.2699e-02, -3.9375e-03,  3.4507e-02],
          [ 4.9428e-03, -5.5541e-03,  3.4579e-02]]],


        [[[-4.4417e-03, -2.7430e-02,  3.3069e-02],
          [-3.2915e-02, -1.5855e-02, -1.2713e-02],
          [ 1.2044e-02,  3.8259e-03,  4.0585e-02]],

         [[-3.7347e-02, -1.0140e-02,  2.0176e-02],
          [-2.5264e-02,  8.9264e-03, -1.6374e-02],
          [ 1.2003e-02,  1.0477e-02,  3.1153e-02]],

         [[ 2.6560e-02,  1.2248e-02, -1.7491e-02],
          [ 5.5437e-02,  3.0614e-02, -2.3040e-03],
          [ 3.5252e-02,  2.2711e-02,  2.0519e-02]],

         ...,

         [[ 3.5882e-02,  2.1184e-02, -3.1705e-02],
          [-3.1251e-02, -2.1851e-02, -2.6093e-02],
          [-2.1664e-02, -5.4737e-04,  1.7731e-02]],

         [[-1.5478e-02,  7.0230e-03,  1.8790e-02],
          [ 1.2853e-02,  2.4841e-02,  5.0343e-02],
          [-1.9136e-02, -1.9650e-02,  1.9757e-02]],

         [[-1.5956e-02, -7.3763e-03, -1.2014e-02],
          [ 3.6971e-02, -3.9660e-02,  3.7971e-02],
          [-1.3078e-03, -2.1595e-02,  3.7460e-02]]],


        [[[ 5.0309e-03,  1.9552e-02, -6.2958e-03],
          [ 1.8456e-02, -1.1766e-02,  4.0451e-02],
          [-5.9055e-03,  3.4556e-02, -1.9569e-02]],

         [[ 2.9689e-02,  4.1504e-04, -2.2666e-02],
          [-2.6724e-02,  8.2561e-04,  2.4533e-02],
          [-1.0260e-02, -2.7480e-02,  2.9196e-02]],

         [[ 2.3004e-02,  1.8486e-02, -4.8752e-03],
          [-3.4965e-02, -3.5390e-02,  5.2436e-03],
          [-1.0541e-03, -1.0755e-02, -3.8939e-02]],

         ...,

         [[ 2.0418e-02,  5.6541e-03, -2.0367e-03],
          [ 3.8929e-02,  3.7398e-02, -2.0362e-02],
          [ 1.9948e-02, -4.4339e-03,  1.4563e-03]],

         [[-1.6834e-03,  8.8458e-03,  3.1638e-02],
          [ 2.6762e-02, -2.6189e-03,  8.3263e-03],
          [ 3.2400e-02, -8.0959e-03, -1.8083e-03]],

         [[ 3.6754e-02, -5.8183e-04,  3.8966e-02],
          [-3.5951e-02, -1.0576e-03, -2.7278e-02],
          [ 6.9712e-03, -2.8450e-02,  1.3076e-02]]]])"
encConv2.bias,"tensor([ 0.0235, -0.0072,  0.0027, -0.0180, -0.0096, -0.0125,  0.0384, -0.0021,
         0.0231, -0.0493, -0.0111, -0.0198,  0.0264, -0.0191,  0.0272,  0.0492,
         0.0282, -0.0321, -0.0143,  0.0265,  0.0372,  0.0128, -0.0023, -0.0101,
         0.0286, -0.0111,  0.0440, -0.0039, -0.0080,  0.0058, -0.0003,  0.0203,
        -0.0212, -0.0022,  0.0200,  0.0107,  0.0153,  0.0379,  0.0225,  0.0241,
         0.0030,  0.0312, -0.0263, -0.0136, -0.0120,  0.0067,  0.0191,  0.0137,
        -0.0068, -0.0384, -0.0318, -0.0052,  0.0308,  0.0136,  0.0120,  0.0307,
        -0.0085,  0.0003, -0.0096,  0.0105,  0.0393,  0.0194,  0.0162, -0.0374])"
bn3.weight,"tensor([0.9984, 0.9986, 0.9999, 1.0001, 0.9993, 0.9976, 0.9997, 0.9985, 0.9997,
        1.0023, 0.9988, 0.9993, 0.9991, 1.0020, 1.0027, 1.0010, 0.9982, 1.0010,
        0.9998, 1.0004, 1.0009, 1.0013, 0.9984, 0.9994, 0.9977, 0.9993, 0.9991,
        1.0029, 0.9982, 0.9970, 0.9980, 1.0014, 0.9992, 0.9985, 0.9980, 1.0006,
        0.9988, 0.9980, 1.0005, 0.9990, 0.9995, 0.9961, 0.9980, 0.9998, 0.9991,
        0.9992, 0.9990, 0.9979, 0.9985, 1.0001, 1.0007, 0.9977, 0.9996, 1.0015,
        0.9998, 0.9989, 0.9992, 1.0015, 1.0005, 1.0008, 0.9988, 0.9996, 1.0012,
        0.9995, 1.0001, 1.0010, 1.0001, 1.0000, 1.0005, 1.0001, 1.0012, 1.0018,
        0.9992, 1.0056, 0.9982, 1.0008, 1.0031, 1.0004, 1.0014, 0.9993, 0.9983,
        0.9993, 1.0002, 1.0007, 0.9988, 0.9960, 0.9995, 1.0012, 1.0013, 1.0021,
        1.0023, 1.0023, 0.9997, 0.9971, 1.0010, 0.9971, 1.0052, 1.0003, 0.9981,
        0.9987, 0.9982, 1.0007, 0.9997, 1.0024, 1.0010, 0.9993, 0.9986, 1.0008,
        1.0003, 1.0022, 1.0025, 0.9979, 0.9971, 0.9990, 0.9991, 0.9994, 1.0020,
        1.0010, 1.0014, 1.0009, 0.9981, 0.9990, 0.9997, 0.9999, 1.0039, 1.0024,
        1.0038, 1.0017])"
bn3.bias,"tensor([-4.5000e-03,  4.8081e-03,  3.5423e-03,  6.8069e-03,  3.1886e-03,
        -8.8022e-03,  3.5857e-04,  9.4257e-03, -1.3100e-03, -1.4483e-04,
         2.7695e-03,  2.1187e-03,  2.6915e-03,  2.8240e-03, -6.1751e-03,
        -7.5871e-03, -2.9143e-03, -7.1547e-03, -4.7207e-03,  4.9921e-03,
         4.2624e-03,  4.3171e-03, -9.5022e-03, -4.8847e-03,  5.4183e-03,
        -2.3930e-03,  1.6673e-03,  5.5288e-03,  1.5361e-03,  6.3548e-03,
         2.2498e-03, -9.2415e-05,  3.1579e-03,  5.9718e-03, -3.3069e-03,
        -8.8775e-04,  5.8088e-03,  2.7573e-03,  3.1867e-03,  3.3741e-04,
         6.5475e-03,  3.0718e-04, -9.1038e-03, -8.3523e-03, -4.5577e-03,
        -8.5073e-04, -1.8297e-03, -1.1354e-03,  3.3699e-03, -3.6330e-03,
        -4.9552e-03,  2.3069e-03, -1.7808e-03, -1.4677e-03,  6.1433e-03,
        -4.3627e-04,  1.6218e-04, -9.6372e-03,  5.9863e-04, -4.7073e-03,
        -2.1007e-03, -2.1133e-03, -8.2666e-04, -3.1337e-03,  1.7892e-03,
         3.7501e-03, -6.8037e-04, -4.4170e-03,  2.1756e-03, -2.2678e-03,
        -2.9373e-03, -3.4229e-03, -3.8307e-04, -4.5978e-03, -6.5842e-03,
        -2.1283e-03,  5.4629e-04,  2.4702e-03, -2.6538e-04,  1.3467e-03,
        -5.8143e-03, -7.0113e-03, -4.1567e-03,  7.7726e-03,  1.2613e-03,
         1.5961e-03, -1.5979e-03, -5.6611e-03,  1.2117e-02,  1.9703e-03,
        -3.9054e-03, -3.7215e-04,  4.3987e-03, -8.7983e-03, -9.4488e-03,
         6.3005e-03,  5.5376e-03, -2.5453e-03, -7.0567e-04, -7.8743e-04,
         1.0839e-03,  6.5702e-03, -5.0873e-03, -4.3709e-04, -1.1108e-02,
        -4.6094e-03, -4.9960e-03, -4.2993e-04,  7.7719e-03, -1.0273e-02,
        -2.6657e-03,  1.2442e-02, -1.7676e-03,  3.2751e-03, -4.3277e-03,
         6.2453e-03,  6.7798e-04, -6.4109e-03,  9.0117e-03,  5.2556e-03,
         1.4033e-03,  3.8789e-04,  6.0014e-03, -8.8337e-03,  1.0430e-03,
        -6.8076e-03,  9.4890e-04, -2.4322e-03])"
bn3.running_mean,"tensor([0.4358, 0.4702, 0.0953, 0.1202, 0.4109, 0.1253, 0.1678, 0.4103, 0.1825,
        0.1299, 0.0950, 0.5314, 0.0808, 0.1901, 0.1076, 0.2020, 0.2673, 0.0955,
        0.2084, 0.0755, 0.3407, 0.2662, 0.2400, 0.2656, 0.1797, 0.2020, 0.2869,
        0.2023, 0.2581, 0.1634, 0.1628, 0.2152, 0.2077, 0.1186, 0.0822, 0.0642,
        0.1423, 0.4237, 0.0943, 0.0595, 0.4765, 0.1157, 0.1305, 0.2281, 0.2708,
        0.1496, 0.2257, 0.3554, 0.1840, 0.2236, 0.0565, 0.1600, 0.2333, 0.1630,
        0.4093, 0.1485, 0.2307, 0.1137, 0.0563, 0.3191, 0.1629, 0.1779, 0.1746,
        0.2094, 0.3707, 0.3334, 0.1895, 0.3710, 0.2505, 0.2809, 0.3919, 0.2186,
        0.3559, 0.2389, 0.3067, 0.4431, 0.2232, 0.3930, 0.1963, 0.2432, 0.2466,
        0.2733, 0.2777, 0.2982, 0.3371, 0.2635, 0.3311, 0.3342, 0.4603, 0.2643,
        0.3185, 0.2016, 0.3618, 0.1984, 0.2288, 0.1831, 0.2014, 0.2979, 0.1784,
        0.3326, 0.3095, 0.2361, 0.2344, 0.4605, 0.2825, 0.4570, 0.3194, 0.4356,
        0.3097, 0.2116, 0.2003, 0.2844, 0.3500, 0.3145, 0.2089, 0.2972, 0.2076,
        0.3160, 0.2441, 0.2495, 0.3441, 0.4606, 0.2683, 0.2355, 0.3107, 0.3088,
        0.2301, 0.2553])"
bn3.running_var,"tensor([0.3369, 0.3552, 0.0215, 0.0388, 0.3247, 0.0250, 0.0383, 0.2602, 0.0685,
        0.0206, 0.0203, 0.4680, 0.0155, 0.0442, 0.0182, 0.0648, 0.1166, 0.0222,
        0.0710, 0.0133, 0.2268, 0.0927, 0.0992, 0.1033, 0.0466, 0.0661, 0.1109,
        0.0759, 0.1325, 0.0559, 0.0799, 0.0577, 0.0592, 0.0347, 0.0170, 0.0102,
        0.0372, 0.3558, 0.0216, 0.0103, 0.4156, 0.0393, 0.0302, 0.1038, 0.1292,
        0.0328, 0.0606, 0.2612, 0.0366, 0.1245, 0.0089, 0.0293, 0.1157, 0.0349,
        0.3015, 0.0387, 0.0495, 0.0183, 0.0066, 0.1852, 0.0505, 0.0633, 0.0487,
        0.0763, 0.1727, 0.2609, 0.1074, 0.2602, 0.1112, 0.1813, 0.2523, 0.1118,
        0.2252, 0.1458, 0.2727, 0.2400, 0.1299, 0.4264, 0.1106, 0.1063, 0.0997,
        0.1727, 0.1424, 0.1299, 0.2158, 0.1896, 0.2286, 0.2245, 0.2221, 0.1846,
        0.1374, 0.0917, 0.1994, 0.0974, 0.1413, 0.0739, 0.1457, 0.1944, 0.0944,
        0.1398, 0.3586, 0.1136, 0.1475, 0.3075, 0.2220, 0.1986, 0.1399, 0.3889,
        0.1386, 0.1176, 0.1028, 0.1174, 0.2019, 0.1444, 0.1059, 0.2382, 0.1011,
        0.2445, 0.1300, 0.1088, 0.1688, 0.3803, 0.1447, 0.1505, 0.1255, 0.2947,
        0.1966, 0.2086])"
bn3.num_batches_tracked,tensor(23348)
encConv3.weight,"tensor([[[[-0.0138, -0.0290,  0.0132],
          [ 0.0069,  0.0077, -0.0281],
          [-0.0179, -0.0143, -0.0274]],

         [[-0.0274,  0.0258,  0.0049],
          [ 0.0062,  0.0153,  0.0271],
          [ 0.0053,  0.0151, -0.0271]],

         [[-0.0178, -0.0173, -0.0136],
          [ 0.0162,  0.0115,  0.0190],
          [-0.0239,  0.0146, -0.0081]],

         ...,

         [[-0.0085,  0.0224, -0.0016],
          [-0.0234, -0.0161,  0.0117],
          [ 0.0144,  0.0061, -0.0101]],

         [[-0.0177,  0.0154, -0.0212],
          [ 0.0107, -0.0230, -0.0172],
          [ 0.0222, -0.0209, -0.0001]],

         [[ 0.0066,  0.0282, -0.0080],
          [ 0.0279, -0.0060,  0.0171],
          [-0.0239,  0.0136,  0.0236]]],


        [[[ 0.0146,  0.0203,  0.0269],
          [ 0.0239, -0.0258,  0.0106],
          [ 0.0231, -0.0007, -0.0257]],

         [[ 0.0205,  0.0329, -0.0240],
          [-0.0127,  0.0041, -0.0018],
          [-0.0074,  0.0290, -0.0217]],

         [[ 0.0005,  0.0286,  0.0173],
          [ 0.0171, -0.0030, -0.0050],
          [-0.0234, -0.0294, -0.0111]],

         ...,

         [[-0.0075,  0.0228, -0.0272],
          [ 0.0053, -0.0152, -0.0092],
          [-0.0025,  0.0027,  0.0177]],

         [[-0.0055,  0.0050,  0.0125],
          [-0.0077,  0.0150, -0.0079],
          [-0.0069, -0.0307,  0.0091]],

         [[ 0.0163, -0.0162, -0.0063],
          [-0.0156, -0.0085, -0.0209],
          [-0.0277, -0.0273, -0.0184]]],


        [[[-0.0132, -0.0062, -0.0248],
          [ 0.0149,  0.0078,  0.0274],
          [-0.0178,  0.0270,  0.0085]],

         [[-0.0235, -0.0256,  0.0170],
          [-0.0171,  0.0212,  0.0053],
          [ 0.0153, -0.0232,  0.0282]],

         [[-0.0220, -0.0101, -0.0319],
          [-0.0336,  0.0244,  0.0280],
          [-0.0120,  0.0100,  0.0279]],

         ...,

         [[-0.0276, -0.0009,  0.0187],
          [ 0.0026,  0.0088,  0.0131],
          [ 0.0054, -0.0042, -0.0084]],

         [[-0.0042,  0.0154, -0.0187],
          [-0.0291, -0.0147,  0.0170],
          [ 0.0065,  0.0131, -0.0280]],

         [[-0.0209, -0.0150, -0.0285],
          [-0.0170, -0.0020,  0.0167],
          [ 0.0079, -0.0070,  0.0031]]],


        ...,


        [[[ 0.0152, -0.0233,  0.0159],
          [-0.0189,  0.0279,  0.0119],
          [-0.0022, -0.0285, -0.0133]],

         [[ 0.0101,  0.0103,  0.0034],
          [-0.0101,  0.0053, -0.0198],
          [-0.0175,  0.0273, -0.0126]],

         [[ 0.0133, -0.0214, -0.0023],
          [ 0.0142,  0.0246,  0.0153],
          [ 0.0199,  0.0111, -0.0276]],

         ...,

         [[-0.0089, -0.0150, -0.0054],
          [-0.0008,  0.0166, -0.0240],
          [-0.0027, -0.0271, -0.0186]],

         [[-0.0226,  0.0046,  0.0076],
          [-0.0219, -0.0154, -0.0283],
          [-0.0265, -0.0192, -0.0199]],

         [[ 0.0138,  0.0328, -0.0032],
          [ 0.0007, -0.0035, -0.0062],
          [-0.0249, -0.0004,  0.0184]]],


        [[[-0.0273, -0.0052,  0.0231],
          [-0.0182,  0.0176,  0.0250],
          [ 0.0293, -0.0006, -0.0068]],

         [[-0.0236,  0.0220,  0.0043],
          [-0.0274, -0.0218,  0.0117],
          [ 0.0095,  0.0144,  0.0005]],

         [[-0.0021, -0.0184, -0.0195],
          [-0.0127,  0.0070, -0.0197],
          [-0.0086,  0.0234,  0.0287]],

         ...,

         [[ 0.0009,  0.0172,  0.0125],
          [ 0.0255, -0.0109, -0.0283],
          [-0.0198,  0.0237,  0.0097]],

         [[-0.0076,  0.0164,  0.0114],
          [-0.0081, -0.0232, -0.0156],
          [ 0.0135,  0.0130, -0.0120]],

         [[-0.0091, -0.0058,  0.0086],
          [-0.0150, -0.0271,  0.0155],
          [-0.0038, -0.0230,  0.0179]]],


        [[[-0.0102, -0.0284, -0.0267],
          [ 0.0291, -0.0275,  0.0209],
          [ 0.0194,  0.0255,  0.0114]],

         [[ 0.0078, -0.0250,  0.0165],
          [ 0.0083, -0.0153,  0.0033],
          [-0.0033, -0.0024,  0.0036]],

         [[-0.0205,  0.0040, -0.0070],
          [-0.0181, -0.0070,  0.0030],
          [ 0.0139,  0.0127, -0.0269]],

         ...,

         [[-0.0069, -0.0120,  0.0042],
          [-0.0194,  0.0261, -0.0065],
          [-0.0289,  0.0199,  0.0007]],

         [[ 0.0043, -0.0209, -0.0279],
          [ 0.0202,  0.0287,  0.0029],
          [ 0.0063, -0.0248,  0.0021]],

         [[ 0.0116,  0.0047, -0.0164],
          [ 0.0275, -0.0239, -0.0244],
          [-0.0123,  0.0160,  0.0245]]]])"
encConv3.bias,"tensor([-0.0133,  0.0120, -0.0142, -0.0131, -0.0263,  0.0196, -0.0364, -0.0024,
        -0.0298,  0.0023, -0.0024,  0.0185, -0.0020,  0.0134,  0.0080,  0.0092,
        -0.0123, -0.0180,  0.0101, -0.0319,  0.0024, -0.0553,  0.0257,  0.0042,
        -0.0205,  0.0156,  0.0293, -0.0196,  0.0086, -0.0039,  0.0178, -0.0281,
         0.0136, -0.0225, -0.0098,  0.0113, -0.0139, -0.0357, -0.0278, -0.0066,
         0.0024,  0.0261, -0.0086, -0.0039,  0.0145,  0.0124, -0.0067, -0.0241,
         0.0053, -0.0018, -0.0227, -0.0111, -0.0161, -0.0092, -0.0229, -0.0344,
        -0.0129,  0.0215, -0.0278, -0.0078, -0.0252, -0.0221,  0.0252, -0.0153])"
bn4.weight,"tensor([0.9976, 0.9999, 0.9982, 0.9990, 0.9988, 1.0010, 1.0049, 0.9979, 0.9999,
        1.0034, 0.9974, 1.0023, 0.9999, 1.0008, 1.0013, 1.0030, 0.9996, 0.9999,
        1.0025, 1.0018, 0.9991, 1.0029, 1.0013, 0.9982, 0.9984, 1.0038, 1.0005,
        1.0051, 1.0038, 0.9969, 1.0012, 1.0046, 1.0030, 1.0025, 1.0048, 1.0019,
        1.0006, 0.9997, 1.0044, 1.0006, 1.0004, 0.9991, 0.9973, 1.0014, 1.0004,
        1.0049, 1.0017, 0.9981, 1.0014, 0.9994, 1.0037, 0.9980, 0.9992, 1.0015,
        1.0027, 0.9999, 0.9993, 1.0034, 1.0000, 1.0012, 0.9997, 0.9988, 1.0021,
        0.9998, 0.9985, 0.9998, 0.9961, 0.9971, 0.9996, 0.9981, 0.9964, 1.0000,
        0.9978, 1.0005, 0.9984, 0.9983, 1.0003, 0.9977, 1.0009, 1.0019, 0.9989,
        0.9994, 0.9981, 0.9993, 0.9988, 0.9954, 0.9993, 1.0023, 0.9955, 1.0021,
        0.9984, 1.0044, 0.9975, 0.9969, 0.9990, 0.9981, 1.0007, 0.9960, 0.9970,
        0.9990, 0.9971, 1.0004, 0.9975, 0.9969, 0.9988, 0.9961, 0.9983, 0.9963,
        0.9999, 1.0007, 1.0005, 0.9975, 0.9961, 0.9991, 0.9997, 0.9975, 0.9987,
        0.9994, 0.9981, 1.0000, 0.9969, 0.9964, 0.9968, 0.9999, 1.0005, 0.9999,
        0.9997, 0.9968, 1.0014, 1.0015, 1.0071, 1.0009, 0.9998, 1.0009, 1.0045,
        0.9983, 1.0001, 0.9992, 0.9978, 1.0035, 0.9990, 0.9997, 0.9992, 0.9988,
        0.9998, 0.9984, 0.9971, 0.9985, 0.9969, 1.0061, 1.0006, 0.9997, 1.0005,
        0.9973, 1.0001, 1.0020, 1.0087, 0.9963, 0.9973, 1.0016, 0.9956, 1.0045,
        0.9983, 0.9991, 0.9988, 0.9979, 1.0013, 0.9969, 1.0004, 1.0047, 0.9978,
        1.0026, 1.0002, 1.0045, 0.9963, 0.9985, 0.9979, 0.9997, 0.9966, 0.9995,
        0.9988, 0.9986, 1.0025, 1.0090, 1.0084, 0.9995, 0.9966, 0.9976, 0.9989,
        1.0010, 0.9977, 0.9993])"
bn4.bias,"tensor([-1.1623e-02,  6.5146e-03,  2.1634e-03,  6.6166e-03,  5.8532e-04,
        -8.5925e-03,  4.4661e-03,  4.7564e-03,  5.8992e-03,  3.9033e-03,
        -4.5752e-03, -1.5743e-02, -9.9965e-04,  3.1633e-03,  1.1943e-02,
         5.7387e-04,  6.3469e-03,  7.0913e-03, -1.3084e-02, -2.3798e-03,
         1.1529e-02,  1.3395e-02, -1.9477e-02, -1.6664e-03,  9.6155e-03,
         1.9089e-04,  1.0917e-02,  1.1032e-02, -1.3274e-02,  1.3927e-03,
        -3.4566e-03,  6.7580e-03, -3.8991e-03, -1.4972e-02,  4.4660e-03,
        -2.2785e-03, -1.2680e-02,  7.0968e-03, -9.5563e-03, -1.6392e-02,
         5.9267e-03,  1.1337e-03,  8.0439e-03, -5.7032e-03, -1.3916e-02,
        -5.5465e-03,  5.8941e-03,  5.2527e-03, -1.4086e-03,  1.1854e-02,
        -8.3409e-03, -3.0057e-03,  3.5150e-03,  4.1336e-03, -1.0975e-02,
        -5.9053e-03, -5.3622e-03,  6.6283e-03,  4.2928e-03, -7.5880e-03,
        -9.1147e-03, -2.0539e-03, -5.7677e-03, -8.1884e-03, -1.1100e-03,
         1.0694e-03, -1.7117e-04, -1.8935e-03,  4.7280e-03, -3.7336e-03,
        -3.0047e-03, -2.9700e-03,  7.2363e-03, -6.2562e-03, -8.2828e-03,
         2.9926e-03,  2.8754e-03, -5.5104e-03, -1.6340e-03, -9.2180e-03,
        -2.0826e-03,  7.9842e-04,  8.4991e-04,  6.7623e-03, -1.9842e-03,
        -1.1934e-02, -1.0020e-03,  6.2071e-03,  2.8967e-04, -9.2845e-03,
         8.5652e-03,  1.3270e-02, -1.3136e-04,  1.3550e-03,  7.8066e-04,
        -6.4961e-03,  5.4173e-03, -5.0273e-03, -8.5155e-05, -2.3272e-03,
         2.3355e-03,  3.9428e-03,  2.0870e-03, -1.0078e-03, -1.2345e-02,
         4.0169e-03, -3.4018e-03, -4.4067e-03,  1.0626e-02, -3.3923e-03,
         5.3728e-03,  4.7031e-03,  3.9654e-03, -6.5382e-03, -4.9942e-03,
        -1.3504e-03,  1.3375e-02, -1.2404e-02,  9.0846e-03,  5.3365e-03,
         8.6995e-03, -3.9901e-03,  3.3086e-03, -9.6122e-03,  3.0136e-03,
        -1.0134e-02,  1.5294e-02, -4.6991e-03, -3.8724e-03,  2.5875e-03,
         2.0816e-02,  5.3976e-03, -2.9893e-03, -7.8503e-03, -9.9050e-03,
        -2.3164e-03, -8.4674e-04, -9.8210e-03,  7.8013e-04, -4.5457e-03,
         5.4106e-03, -5.0449e-03, -1.6180e-02,  1.7024e-03,  3.5837e-03,
         2.0053e-03, -1.2682e-03, -3.5569e-03, -6.7043e-04, -2.5921e-02,
         1.7323e-02, -1.5706e-02, -7.4232e-04,  1.9187e-03,  5.3402e-03,
        -1.3258e-02,  1.9084e-02,  1.5167e-03, -1.7079e-03, -9.7057e-03,
        -6.3836e-03, -6.2995e-04,  8.1052e-04,  1.7212e-03, -1.7326e-03,
         7.0294e-03, -1.6096e-02, -5.0360e-03,  9.6722e-05,  9.4221e-03,
         7.7683e-04,  1.6777e-02,  1.2356e-02,  1.3255e-02,  6.2036e-03,
         4.2200e-03, -2.6068e-03, -4.8740e-03, -4.7670e-03, -1.4744e-03,
         1.2034e-02,  4.0049e-03,  7.4299e-03,  2.1405e-02, -1.1118e-02,
        -1.4636e-02, -2.0688e-03, -4.7422e-03, -7.4662e-03, -4.6536e-03,
         3.0060e-03, -7.7012e-03])"
bn4.running_mean,"tensor([0.4358, 0.4702, 0.0953, 0.1202, 0.4109, 0.1253, 0.1678, 0.4103, 0.1825,
        0.1299, 0.0950, 0.5314, 0.0808, 0.1901, 0.1076, 0.2020, 0.2673, 0.0955,
        0.2084, 0.0755, 0.3407, 0.2662, 0.2400, 0.2656, 0.1797, 0.2020, 0.2869,
        0.2023, 0.2581, 0.1634, 0.1628, 0.2152, 0.2077, 0.1186, 0.0822, 0.0642,
        0.1423, 0.4237, 0.0943, 0.0595, 0.4765, 0.1157, 0.1305, 0.2281, 0.2708,
        0.1496, 0.2257, 0.3554, 0.1840, 0.2236, 0.0565, 0.1600, 0.2333, 0.1630,
        0.4093, 0.1485, 0.2307, 0.1137, 0.0563, 0.3191, 0.1629, 0.1779, 0.1746,
        0.2094, 0.3707, 0.3334, 0.1895, 0.3710, 0.2505, 0.2809, 0.3919, 0.2186,
        0.3559, 0.2389, 0.3067, 0.4431, 0.2232, 0.3930, 0.1963, 0.2432, 0.2466,
        0.2733, 0.2777, 0.2982, 0.3371, 0.2635, 0.3311, 0.3342, 0.4603, 0.2643,
        0.3185, 0.2016, 0.3618, 0.1984, 0.2288, 0.1831, 0.2014, 0.2979, 0.1784,
        0.3326, 0.3095, 0.2361, 0.2344, 0.4605, 0.2825, 0.4570, 0.3194, 0.4356,
        0.3097, 0.2116, 0.2003, 0.2844, 0.3500, 0.3145, 0.2089, 0.2972, 0.2076,
        0.3160, 0.2441, 0.2495, 0.3441, 0.4606, 0.2683, 0.2355, 0.3107, 0.3088,
        0.2301, 0.2553, 0.2570, 0.2980, 0.2267, 0.2011, 0.3600, 0.3537, 0.2379,
        0.4837, 0.4183, 0.3415, 0.4597, 0.2646, 0.1615, 0.2525, 0.4395, 0.6113,
        0.4098, 0.2221, 0.4294, 0.3281, 0.1905, 0.3231, 0.3926, 0.2782, 0.2522,
        0.5148, 0.3512, 0.2063, 0.2743, 0.3093, 0.6502, 0.3789, 0.2764, 0.1890,
        0.5116, 0.3587, 0.4703, 0.3161, 0.3048, 0.5411, 0.2415, 0.3687, 0.3873,
        0.4110, 0.2241, 0.3010, 0.3319, 0.3187, 0.1966, 0.1709, 0.3839, 0.2701,
        0.3092, 0.3520, 0.2557, 0.2007, 0.2436, 0.3727, 0.2750, 0.4204, 0.2217,
        0.3141, 0.5684, 0.2183])"
bn4.running_var,"tensor([0.3369, 0.3552, 0.0215, 0.0388, 0.3247, 0.0250, 0.0383, 0.2602, 0.0685,
        0.0206, 0.0203, 0.4680, 0.0155, 0.0442, 0.0182, 0.0648, 0.1166, 0.0222,
        0.0710, 0.0133, 0.2268, 0.0927, 0.0992, 0.1033, 0.0466, 0.0661, 0.1109,
        0.0759, 0.1325, 0.0559, 0.0799, 0.0577, 0.0592, 0.0347, 0.0170, 0.0102,
        0.0372, 0.3558, 0.0216, 0.0103, 0.4156, 0.0393, 0.0302, 0.1038, 0.1292,
        0.0328, 0.0606, 0.2612, 0.0366, 0.1245, 0.0089, 0.0293, 0.1157, 0.0349,
        0.3015, 0.0387, 0.0495, 0.0183, 0.0066, 0.1852, 0.0505, 0.0633, 0.0487,
        0.0763, 0.1727, 0.2609, 0.1074, 0.2602, 0.1112, 0.1813, 0.2523, 0.1118,
        0.2252, 0.1458, 0.2727, 0.2400, 0.1299, 0.4264, 0.1106, 0.1063, 0.0997,
        0.1727, 0.1424, 0.1299, 0.2158, 0.1896, 0.2286, 0.2245, 0.2221, 0.1846,
        0.1374, 0.0917, 0.1994, 0.0974, 0.1413, 0.0739, 0.1457, 0.1944, 0.0944,
        0.1398, 0.3586, 0.1136, 0.1475, 0.3075, 0.2220, 0.1986, 0.1399, 0.3889,
        0.1386, 0.1176, 0.1028, 0.1174, 0.2019, 0.1444, 0.1059, 0.2382, 0.1011,
        0.2445, 0.1300, 0.1088, 0.1688, 0.3803, 0.1447, 0.1505, 0.1255, 0.2947,
        0.1966, 0.2086, 0.1154, 0.1345, 0.1776, 0.0903, 0.2015, 0.3951, 0.1469,
        0.3278, 0.3529, 0.4027, 0.2588, 0.1143, 0.0725, 0.1602, 0.6278, 0.7581,
        0.4003, 0.1163, 0.2117, 0.2861, 0.0996, 0.1741, 0.2991, 0.2542, 0.1478,
        0.4036, 0.1566, 0.1140, 0.2001, 0.1513, 0.5038, 0.2173, 0.1523, 0.0929,
        0.6110, 0.1645, 0.3473, 0.2787, 0.2467, 0.2923, 0.1413, 0.2100, 0.2795,
        0.2902, 0.1379, 0.1800, 0.1924, 0.1810, 0.0993, 0.0910, 0.1869, 0.1297,
        0.1974, 0.3264, 0.1741, 0.1514, 0.1630, 0.3380, 0.2523, 0.3718, 0.1515,
        0.2086, 0.4188, 0.1621])"
bn4.num_batches_tracked,tensor(23348)
encConv4.weight,"tensor([[[[ 0.0230, -0.0064, -0.0160],
          [ 0.0182, -0.0016, -0.0184],
          [-0.0248,  0.0007,  0.0071]],

         [[ 0.0162, -0.0158,  0.0002],
          [-0.0064,  0.0109, -0.0233],
          [-0.0097, -0.0023, -0.0178]],

         [[ 0.0108,  0.0078, -0.0164],
          [-0.0002, -0.0055,  0.0289],
          [-0.0106, -0.0121,  0.0136]],

         ...,

         [[ 0.0088,  0.0229, -0.0207],
          [ 0.0028, -0.0150, -0.0029],
          [ 0.0158, -0.0124,  0.0197]],

         [[ 0.0168, -0.0181, -0.0087],
          [ 0.0023, -0.0129, -0.0262],
          [-0.0006,  0.0021,  0.0180]],

         [[ 0.0140,  0.0250,  0.0125],
          [ 0.0190,  0.0120, -0.0054],
          [ 0.0103,  0.0013, -0.0119]]],


        [[[ 0.0241,  0.0123,  0.0041],
          [ 0.0121,  0.0009,  0.0237],
          [-0.0079, -0.0005,  0.0129]],

         [[ 0.0235, -0.0012, -0.0071],
          [-0.0007,  0.0110, -0.0229],
          [ 0.0213,  0.0193,  0.0207]],

         [[-0.0104,  0.0068,  0.0128],
          [ 0.0066,  0.0010, -0.0056],
          [-0.0026,  0.0173, -0.0146]],

         ...,

         [[ 0.0112,  0.0097,  0.0202],
          [ 0.0271, -0.0186, -0.0179],
          [ 0.0092, -0.0174,  0.0096]],

         [[ 0.0147, -0.0198, -0.0029],
          [ 0.0156,  0.0090, -0.0077],
          [ 0.0211,  0.0178,  0.0142]],

         [[ 0.0137,  0.0002,  0.0144],
          [-0.0081, -0.0056, -0.0133],
          [ 0.0122, -0.0148, -0.0120]]],


        [[[-0.0105, -0.0130,  0.0083],
          [ 0.0207,  0.0215,  0.0126],
          [ 0.0081, -0.0089, -0.0051]],

         [[ 0.0009,  0.0102,  0.0144],
          [-0.0039, -0.0167, -0.0016],
          [-0.0184, -0.0099,  0.0159]],

         [[-0.0116, -0.0129,  0.0048],
          [ 0.0091, -0.0164, -0.0118],
          [-0.0245,  0.0033,  0.0167]],

         ...,

         [[ 0.0076,  0.0054, -0.0077],
          [-0.0101,  0.0253, -0.0193],
          [ 0.0249,  0.0023, -0.0124]],

         [[-0.0103, -0.0134, -0.0187],
          [-0.0091, -0.0026,  0.0096],
          [-0.0022, -0.0239,  0.0144]],

         [[-0.0020, -0.0179, -0.0075],
          [-0.0157,  0.0191, -0.0085],
          [-0.0084,  0.0092, -0.0197]]],


        ...,


        [[[ 0.0128,  0.0049, -0.0158],
          [-0.0014, -0.0217, -0.0079],
          [-0.0016, -0.0148, -0.0046]],

         [[ 0.0212, -0.0033,  0.0059],
          [ 0.0050,  0.0132,  0.0023],
          [ 0.0190, -0.0158, -0.0123]],

         [[-0.0152,  0.0005,  0.0207],
          [-0.0019, -0.0175,  0.0235],
          [ 0.0152, -0.0140, -0.0052]],

         ...,

         [[-0.0248,  0.0024, -0.0172],
          [-0.0238, -0.0003, -0.0126],
          [-0.0042,  0.0040,  0.0157]],

         [[-0.0073, -0.0115, -0.0268],
          [-0.0147, -0.0069,  0.0049],
          [-0.0109,  0.0143,  0.0003]],

         [[-0.0016,  0.0252, -0.0162],
          [ 0.0212, -0.0080,  0.0004],
          [-0.0253, -0.0041, -0.0244]]],


        [[[-0.0084, -0.0081,  0.0174],
          [-0.0010, -0.0190,  0.0160],
          [-0.0248, -0.0230, -0.0241]],

         [[-0.0049,  0.0084,  0.0245],
          [-0.0051, -0.0129,  0.0037],
          [-0.0190,  0.0068,  0.0128]],

         [[ 0.0175, -0.0168,  0.0272],
          [ 0.0245,  0.0006,  0.0169],
          [ 0.0190,  0.0090, -0.0077]],

         ...,

         [[-0.0078, -0.0234, -0.0255],
          [ 0.0158, -0.0068, -0.0068],
          [-0.0240,  0.0071, -0.0035]],

         [[-0.0036,  0.0027,  0.0192],
          [-0.0007, -0.0084,  0.0127],
          [ 0.0163,  0.0191,  0.0196]],

         [[ 0.0268,  0.0009,  0.0104],
          [ 0.0193,  0.0197, -0.0067],
          [ 0.0177, -0.0221, -0.0030]]],


        [[[-0.0182,  0.0150, -0.0037],
          [-0.0204,  0.0234,  0.0188],
          [ 0.0134,  0.0153,  0.0024]],

         [[ 0.0141, -0.0115,  0.0092],
          [-0.0066, -0.0172, -0.0062],
          [-0.0201,  0.0128, -0.0205]],

         [[-0.0059,  0.0064, -0.0212],
          [ 0.0048,  0.0216, -0.0188],
          [-0.0086,  0.0130,  0.0230]],

         ...,

         [[-0.0023, -0.0046, -0.0164],
          [ 0.0157,  0.0239, -0.0130],
          [ 0.0083,  0.0110, -0.0100]],

         [[-0.0106,  0.0016,  0.0221],
          [-0.0215,  0.0187, -0.0081],
          [-0.0171, -0.0009, -0.0067]],

         [[-0.0097,  0.0184,  0.0199],
          [ 0.0190,  0.0199,  0.0198],
          [ 0.0150, -0.0030,  0.0052]]]])"
encConv4.bias,"tensor([ 1.0905e-02,  2.0934e-05, -2.4329e-02, -4.5160e-03,  2.2902e-02,
        -4.0122e-03,  3.4252e-03,  1.1120e-02,  3.9567e-02,  6.2898e-03,
         4.6274e-04, -9.1303e-03, -5.3736e-03, -7.0142e-04,  2.4617e-02,
        -2.5911e-02,  2.7172e-04,  3.6558e-03,  2.0867e-03,  1.0007e-02,
        -6.9324e-03, -4.6376e-03, -9.9298e-03, -3.9380e-03,  7.5036e-03,
        -9.8821e-03, -8.0656e-04, -3.3540e-03, -2.2476e-02, -5.4982e-03,
        -1.5402e-02,  5.0431e-03, -2.6788e-02, -2.9468e-02,  1.0093e-03,
         8.0465e-03, -2.7969e-03,  1.1068e-03,  1.3670e-03, -9.0154e-03,
        -2.7525e-03, -1.2914e-02,  2.1722e-03,  1.3871e-02, -1.1396e-02,
        -4.6031e-03, -2.0816e-02,  4.1919e-04,  1.2048e-02,  1.7421e-02,
        -1.2253e-02,  9.2786e-03, -5.7558e-03,  1.0770e-02,  1.6513e-02,
         2.0374e-02,  1.7218e-02, -2.2783e-02,  3.2936e-02, -2.7570e-03,
         8.4028e-03,  5.5901e-03, -6.3353e-03, -4.8140e-02])"
bn5.weight,"tensor([1.0065, 1.0006, 0.9977, 1.0015, 0.9989, 1.0024, 0.9998, 0.9963, 1.0023,
        0.9965, 0.9994, 0.9952, 0.9990, 0.9904, 0.9979, 1.0051, 1.0002, 0.9995,
        0.9983, 0.9985, 1.0021, 0.9980, 0.9958, 0.9980, 1.0009, 0.9974, 0.9991,
        1.0018, 1.0034, 1.0050, 0.9990, 1.0036, 0.9967, 1.0052, 0.9932, 0.9966,
        0.9968, 1.0055, 1.0014, 1.0048, 1.0017, 1.0041, 0.9998, 0.9961, 1.0011,
        0.9981, 0.9947, 1.0060, 1.0041, 0.9970, 0.9980, 1.0008, 0.9983, 0.9990,
        0.9988, 0.9986, 0.9972, 0.9942, 1.0054, 1.0029, 0.9943, 1.0031, 1.0020,
        1.0070])"
bn5.bias,"tensor([-0.0078, -0.0044, -0.0068, -0.0088,  0.0048, -0.0009,  0.0050,  0.0021,
         0.0159, -0.0095, -0.0053,  0.0016, -0.0184, -0.0079, -0.0062, -0.0271,
        -0.0175,  0.0024, -0.0188, -0.0134, -0.0053, -0.0033,  0.0060, -0.0129,
        -0.0083,  0.0040, -0.0123, -0.0017, -0.0178,  0.0176, -0.0027, -0.0159,
        -0.0067, -0.0218,  0.0007, -0.0064,  0.0015,  0.0051, -0.0115, -0.0143,
        -0.0087, -0.0091, -0.0087, -0.0027,  0.0034, -0.0159,  0.0012, -0.0113,
         0.0099,  0.0123, -0.0058,  0.0196, -0.0015,  0.0031, -0.0014, -0.0056,
         0.0032, -0.0209,  0.0129,  0.0043, -0.0031, -0.0020,  0.0023, -0.0225])"
bn5.running_mean,"tensor([0.4675, 0.5487, 0.4838, 0.4199, 0.8164, 0.7443, 0.5793, 0.7728, 0.4163,
        0.6219, 0.3208, 0.7486, 0.6262, 0.6825, 0.6586, 0.4445, 0.4440, 0.7669,
        0.8657, 0.5313, 0.6388, 0.6730, 0.7007, 0.6795, 0.7694, 0.7685, 0.8801,
        0.5353, 0.1848, 0.3861, 0.8766, 0.4924, 0.3277, 0.2761, 0.9986, 1.1015,
        0.4283, 0.6970, 0.6915, 0.3161, 0.7164, 0.4940, 0.3367, 0.4602, 0.4789,
        0.9465, 0.7828, 0.3611, 0.7224, 0.8832, 0.8230, 0.7671, 0.6942, 0.6801,
        0.4348, 0.5081, 1.1477, 0.5790, 0.6321, 0.4934, 0.8132, 0.5193, 0.7444,
        0.2811])"
bn5.running_var,"tensor([0.3490, 1.0634, 0.5145, 0.4660, 0.4788, 0.9218, 0.9053, 0.9354, 0.3689,
        0.6393, 0.3406, 0.6257, 0.9979, 0.5913, 0.7967, 0.8229, 0.4910, 1.0985,
        1.2288, 0.6984, 0.8198, 0.6649, 0.8152, 0.9826, 0.7646, 0.5595, 0.8190,
        0.4279, 0.1541, 0.2923, 1.7777, 0.6094, 0.3802, 0.3481, 0.7687, 1.6071,
        0.3470, 0.5143, 0.7070, 0.2648, 0.6078, 0.5415, 0.4595, 0.4244, 0.5249,
        1.6639, 0.9272, 0.3101, 0.5890, 0.7463, 1.2777, 0.7115, 0.5376, 1.1445,
        0.4761, 0.6339, 1.7495, 1.0026, 0.7066, 0.4566, 1.6323, 0.4364, 0.8520,
        0.3454])"
bn5.num_batches_tracked,tensor(23348)
encConv5.weight,"tensor([[[[ 0.0031,  0.0243,  0.0052],
          [-0.0194,  0.0364, -0.0237],
          [ 0.0358,  0.0490, -0.0320]],

         [[ 0.0014, -0.0133, -0.0374],
          [ 0.0339,  0.0368, -0.0129],
          [-0.0208, -0.0325,  0.0354]],

         [[ 0.0220, -0.0239,  0.0198],
          [ 0.0085, -0.0338,  0.0468],
          [ 0.0013,  0.0132,  0.0348]],

         ...,

         [[ 0.0207,  0.0283,  0.0251],
          [-0.0074, -0.0239,  0.0177],
          [-0.0359,  0.0270,  0.0301]],

         [[-0.0236, -0.0264, -0.0217],
          [ 0.0305,  0.0389, -0.0325],
          [-0.0093,  0.0024, -0.0146]],

         [[ 0.0132, -0.0181, -0.0246],
          [-0.0045, -0.0231,  0.0044],
          [-0.0181, -0.0067, -0.0093]]],


        [[[ 0.0244, -0.0228,  0.0142],
          [ 0.0363,  0.0404, -0.0164],
          [-0.0224,  0.0039,  0.0261]],

         [[ 0.0334,  0.0297, -0.0225],
          [ 0.0204, -0.0028,  0.0427],
          [ 0.0028, -0.0133,  0.0439]],

         [[-0.0287,  0.0295,  0.0209],
          [-0.0295, -0.0050,  0.0310],
          [-0.0051, -0.0311,  0.0025]],

         ...,

         [[-0.0007, -0.0471, -0.0115],
          [ 0.0025,  0.0217, -0.0023],
          [-0.0150,  0.0077,  0.0114]],

         [[ 0.0049,  0.0328, -0.0302],
          [ 0.0242,  0.0159,  0.0236],
          [ 0.0430, -0.0314,  0.0292]],

         [[ 0.0312,  0.0064,  0.0044],
          [-0.0287,  0.0215,  0.0187],
          [ 0.0179,  0.0310,  0.0013]]],


        [[[ 0.0062,  0.0277,  0.0269],
          [-0.0272,  0.0402, -0.0173],
          [ 0.0165, -0.0019,  0.0185]],

         [[ 0.0137, -0.0096, -0.0300],
          [-0.0062,  0.0236, -0.0076],
          [ 0.0293,  0.0182,  0.0078]],

         [[-0.0427, -0.0023, -0.0096],
          [-0.0096,  0.0297,  0.0188],
          [ 0.0120, -0.0254, -0.0220]],

         ...,

         [[-0.0204, -0.0423,  0.0383],
          [ 0.0399,  0.0323, -0.0469],
          [ 0.0015,  0.0099, -0.0399]],

         [[-0.0213,  0.0171, -0.0236],
          [ 0.0202,  0.0167, -0.0187],
          [ 0.0240,  0.0202,  0.0351]],

         [[-0.0016, -0.0201, -0.0340],
          [-0.0385, -0.0171,  0.0310],
          [-0.0027,  0.0262,  0.0344]]],


        ...,


        [[[-0.0336, -0.0074,  0.0326],
          [-0.0185,  0.0125,  0.0344],
          [-0.0039,  0.0066,  0.0005]],

         [[ 0.0395, -0.0133,  0.0126],
          [ 0.0138, -0.0008,  0.0360],
          [-0.0101, -0.0059, -0.0309]],

         [[-0.0128,  0.0328, -0.0257],
          [-0.0326,  0.0332,  0.0213],
          [-0.0161,  0.0080, -0.0084]],

         ...,

         [[ 0.0269, -0.0098,  0.0358],
          [ 0.0260, -0.0363, -0.0232],
          [-0.0096, -0.0207, -0.0353]],

         [[-0.0424,  0.0007,  0.0400],
          [ 0.0235, -0.0247,  0.0331],
          [-0.0037,  0.0144, -0.0005]],

         [[ 0.0217, -0.0069,  0.0315],
          [ 0.0369,  0.0379,  0.0386],
          [ 0.0298, -0.0316,  0.0382]]],


        [[[-0.0367, -0.0355, -0.0022],
          [-0.0311,  0.0382, -0.0188],
          [ 0.0135,  0.0354, -0.0343]],

         [[ 0.0179, -0.0110, -0.0101],
          [-0.0379,  0.0369, -0.0066],
          [ 0.0065,  0.0032, -0.0146]],

         [[ 0.0223,  0.0218, -0.0116],
          [ 0.0055,  0.0120, -0.0343],
          [ 0.0093,  0.0092, -0.0160]],

         ...,

         [[ 0.0445,  0.0291,  0.0359],
          [ 0.0444,  0.0467,  0.0178],
          [-0.0127, -0.0301, -0.0109]],

         [[ 0.0369, -0.0146,  0.0101],
          [-0.0019,  0.0332,  0.0214],
          [ 0.0467, -0.0298,  0.0166]],

         [[-0.0011, -0.0406,  0.0266],
          [-0.0429, -0.0376, -0.0064],
          [ 0.0133,  0.0406,  0.0079]]],


        [[[-0.0285, -0.0309,  0.0052],
          [ 0.0345,  0.0107, -0.0084],
          [-0.0233, -0.0200,  0.0366]],

         [[-0.0208,  0.0309, -0.0212],
          [ 0.0034,  0.0092, -0.0378],
          [-0.0388,  0.0402,  0.0096]],

         [[ 0.0241, -0.0423, -0.0093],
          [-0.0166,  0.0244,  0.0068],
          [ 0.0283,  0.0143, -0.0167]],

         ...,

         [[-0.0061, -0.0015, -0.0258],
          [ 0.0269, -0.0267, -0.0309],
          [-0.0405,  0.0200,  0.0222]],

         [[ 0.0282,  0.0251,  0.0203],
          [ 0.0056, -0.0169, -0.0075],
          [ 0.0029, -0.0042, -0.0419]],

         [[ 0.0224,  0.0254, -0.0360],
          [-0.0236,  0.0165, -0.0028],
          [-0.0438, -0.0327, -0.0230]]]])"
encConv5.bias,"tensor([-0.0057, -0.0395,  0.0322, -0.0113, -0.0070, -0.0247,  0.0163,  0.0071,
         0.0213, -0.0103,  0.0216, -0.0011,  0.0324, -0.0016, -0.0032,  0.0169,
        -0.0368,  0.0033, -0.0015, -0.0022,  0.0143,  0.0218,  0.0411,  0.0166,
         0.0372,  0.0031,  0.0265,  0.0320, -0.0218,  0.0133, -0.0071, -0.0360,
        -0.0087, -0.0398,  0.0109,  0.0034,  0.0260,  0.0382,  0.0191,  0.0017,
         0.0243,  0.0159, -0.0210,  0.0097, -0.0185, -0.0059, -0.0341, -0.0322,
        -0.0125, -0.0304, -0.0446,  0.0027, -0.0305, -0.0110,  0.0007, -0.0235,
         0.0277, -0.0146,  0.0370, -0.0117, -0.0163, -0.0242, -0.0056,  0.0099])"
bn6.weight,"tensor([0.9995, 0.9979, 0.9983, 0.9991, 0.9989, 0.9965, 1.0002, 0.9970, 0.9968,
        1.0002, 0.9981, 0.9991, 0.9979, 1.0010, 0.9983, 1.0007, 0.9976, 0.9971,
        0.9976, 0.9987, 0.9968, 0.9997, 0.9974, 0.9979, 0.9974, 0.9986, 0.9996,
        0.9990, 1.0012, 1.0002, 0.9993, 1.0007, 1.0003, 1.0005, 0.9975, 0.9997,
        1.0030, 0.9978, 1.0014, 1.0024, 0.9998, 0.9984, 0.9990, 0.9981, 0.9965,
        0.9987, 0.9986, 0.9982, 0.9973, 0.9985, 0.9993, 0.9981, 1.0007, 0.9977,
        0.9999, 0.9982, 0.9959, 0.9996, 1.0040, 0.9980, 0.9983, 0.9984, 1.0010,
        0.9973, 1.0053, 0.9993, 0.9991, 0.9989, 1.0021, 0.9993, 1.0013, 1.0013,
        0.9978, 0.9969, 1.0027, 0.9986, 1.0015, 1.0036, 0.9996, 0.9995, 0.9984,
        1.0004, 1.0102, 1.0063, 1.0022, 0.9994, 1.0039, 0.9960, 1.0019, 1.0039,
        1.0060, 0.9990, 1.0037, 1.0006, 1.0037, 0.9995, 1.0015, 1.0004, 0.9978,
        1.0061, 1.0084, 0.9975, 1.0051, 0.9987, 0.9984, 1.0026, 1.0020, 1.0020,
        1.0002, 1.0016, 1.0020, 1.0021, 0.9982, 0.9966, 1.0016, 0.9977, 0.9999,
        1.0005, 1.0008, 1.0004, 1.0023, 1.0012, 0.9985, 0.9958, 0.9964, 0.9985,
        1.0007, 1.0023])"
bn6.bias,"tensor([-3.7261e-03, -1.4209e-03, -5.8080e-03, -1.1571e-02, -1.5650e-03,
         1.7733e-03, -3.5811e-03, -1.0637e-04, -1.0086e-02, -9.1733e-03,
        -2.6617e-03,  2.1727e-05, -6.7711e-03, -7.2489e-03, -6.5092e-03,
        -2.4770e-03, -2.2777e-03, -1.9605e-03, -1.6614e-03,  2.6594e-03,
        -1.4700e-03, -1.1040e-03, -5.5721e-04,  1.5998e-03, -5.8804e-03,
        -3.7100e-04,  1.8743e-03,  6.3280e-03, -6.7514e-03,  4.6185e-04,
        -6.9588e-03, -7.7053e-03, -8.8006e-03, -4.1518e-03, -2.1946e-03,
         1.3453e-03,  7.8193e-03,  9.4614e-05, -5.4421e-03, -5.5920e-03,
        -8.7025e-03, -7.6535e-03, -3.5524e-03,  5.1323e-03,  2.6914e-03,
         5.2237e-03, -9.0691e-04, -1.7479e-03,  5.3482e-03, -9.7861e-04,
        -3.6894e-03,  1.0023e-03, -3.5256e-03,  9.2869e-04, -4.8354e-03,
         2.2030e-03,  9.4304e-03,  4.6238e-03,  8.2251e-03,  1.7944e-03,
        -1.0838e-03, -9.0802e-03, -3.2250e-03, -6.8781e-03,  7.0738e-03,
        -1.2536e-02,  6.1822e-03,  5.4965e-04, -5.3356e-03, -6.9076e-03,
         2.2216e-03, -4.3078e-03, -8.0937e-03,  1.2412e-03,  3.7504e-03,
         6.8183e-03, -9.1044e-03,  5.8819e-03, -4.0779e-03,  1.3483e-04,
        -5.7506e-03,  1.0891e-03,  8.2096e-04, -1.4436e-03,  4.6737e-03,
        -8.7517e-03, -7.7542e-03, -2.1794e-03, -4.0752e-03, -2.7744e-03,
        -3.0219e-03,  1.0447e-04, -2.8815e-04, -1.4108e-03, -2.3166e-03,
        -1.0080e-02, -1.0559e-02, -8.5922e-04, -1.6758e-03, -8.8243e-04,
        -5.8049e-04, -8.1106e-04, -8.0189e-04,  3.1081e-03, -3.0157e-03,
        -7.0380e-03,  8.3449e-04, -1.4548e-03, -5.2552e-04,  4.7579e-03,
         2.0391e-03, -8.6233e-04, -2.4534e-03, -6.5307e-03, -8.1466e-03,
         5.7059e-03, -2.3551e-04, -3.5831e-03, -2.4117e-03,  4.5841e-03,
         1.6555e-03,  2.1543e-03, -7.1566e-03, -3.3161e-03, -1.1988e-02,
        -6.6967e-03, -1.9172e-03,  7.7127e-03])"
bn6.running_mean,"tensor([0.4675, 0.5487, 0.4838, 0.4199, 0.8164, 0.7443, 0.5793, 0.7728, 0.4163,
        0.6219, 0.3208, 0.7486, 0.6262, 0.6825, 0.6586, 0.4445, 0.4440, 0.7669,
        0.8657, 0.5313, 0.6388, 0.6730, 0.7007, 0.6795, 0.7694, 0.7685, 0.8801,
        0.5353, 0.1848, 0.3861, 0.8766, 0.4924, 0.3277, 0.2761, 0.9986, 1.1015,
        0.4283, 0.6970, 0.6915, 0.3161, 0.7164, 0.4940, 0.3367, 0.4602, 0.4789,
        0.9465, 0.7828, 0.3611, 0.7224, 0.8832, 0.8230, 0.7671, 0.6942, 0.6801,
        0.4348, 0.5081, 1.1477, 0.5790, 0.6321, 0.4934, 0.8132, 0.5193, 0.7444,
        0.2811, 0.2096, 0.1697, 0.2739, 0.4001, 0.2493, 0.2951, 0.2812, 0.3738,
        0.2845, 0.2812, 0.2748, 0.1903, 0.2772, 0.2421, 0.2717, 0.2525, 0.2333,
        0.3935, 0.1793, 0.3812, 0.2274, 0.2368, 0.3621, 0.2422, 0.3818, 0.3588,
        0.1896, 0.3405, 0.2337, 0.5992, 0.2191, 0.1541, 0.3027, 0.2904, 0.3131,
        0.4310, 0.2101, 0.4220, 0.2513, 0.3769, 0.2480, 0.4029, 0.2254, 0.2657,
        0.2757, 0.2038, 0.3430, 0.2146, 0.3190, 0.2858, 0.1504, 0.3768, 0.3037,
        0.2553, 0.4316, 0.3644, 0.3034, 0.2727, 0.4975, 0.3511, 0.2286, 0.4390,
        0.2068, 0.2509])"
bn6.running_var,"tensor([0.3490, 1.0634, 0.5145, 0.4660, 0.4788, 0.9218, 0.9053, 0.9354, 0.3689,
        0.6393, 0.3406, 0.6257, 0.9979, 0.5913, 0.7967, 0.8229, 0.4910, 1.0985,
        1.2288, 0.6984, 0.8198, 0.6649, 0.8152, 0.9826, 0.7646, 0.5595, 0.8190,
        0.4279, 0.1541, 0.2923, 1.7777, 0.6094, 0.3802, 0.3481, 0.7687, 1.6071,
        0.3470, 0.5143, 0.7070, 0.2648, 0.6078, 0.5415, 0.4595, 0.4244, 0.5249,
        1.6639, 0.9272, 0.3101, 0.5890, 0.7463, 1.2777, 0.7115, 0.5376, 1.1445,
        0.4761, 0.6339, 1.7495, 1.0026, 0.7066, 0.4566, 1.6323, 0.4364, 0.8520,
        0.3454, 0.1253, 0.1807, 0.2182, 0.3032, 0.1724, 0.2014, 0.1639, 0.1980,
        0.2446, 0.2575, 0.1469, 0.0818, 0.2125, 0.1782, 0.1816, 0.2109, 0.1254,
        0.1861, 0.0900, 0.1728, 0.1749, 0.1228, 0.1437, 0.1240, 0.1826, 0.1334,
        0.0957, 0.2346, 0.0922, 0.2665, 0.1045, 0.1317, 0.1037, 0.2911, 0.3715,
        0.2348, 0.0858, 0.2615, 0.1128, 0.1348, 0.1650, 0.2321, 0.1385, 0.1193,
        0.1542, 0.1022, 0.2172, 0.0800, 0.3334, 0.3463, 0.1075, 0.1926, 0.1621,
        0.2241, 0.2420, 0.1404, 0.1334, 0.1670, 0.2768, 0.1859, 0.2394, 0.3499,
        0.1052, 0.1171])"
bn6.num_batches_tracked,tensor(23348)
encConv6.weight,"tensor([[[[ 0.0022,  0.0224,  0.0234],
          [-0.0056, -0.0059, -0.0191],
          [ 0.0133,  0.0062,  0.0130]],

         [[ 0.0046,  0.0049, -0.0054],
          [ 0.0272, -0.0266,  0.0105],
          [ 0.0179, -0.0247, -0.0035]],

         [[ 0.0260, -0.0016,  0.0087],
          [ 0.0012,  0.0209, -0.0291],
          [-0.0067,  0.0033,  0.0043]],

         ...,

         [[ 0.0171,  0.0111,  0.0054],
          [ 0.0171,  0.0011, -0.0133],
          [ 0.0274,  0.0048,  0.0033]],

         [[ 0.0010, -0.0268, -0.0241],
          [ 0.0237,  0.0168,  0.0041],
          [ 0.0302, -0.0198, -0.0063]],

         [[-0.0078, -0.0059, -0.0131],
          [-0.0284, -0.0013, -0.0276],
          [ 0.0113,  0.0042, -0.0062]]],


        [[[ 0.0055, -0.0155,  0.0110],
          [-0.0105, -0.0126,  0.0211],
          [-0.0118, -0.0091,  0.0084]],

         [[-0.0215, -0.0109, -0.0045],
          [ 0.0105, -0.0286,  0.0257],
          [-0.0188,  0.0237,  0.0109]],

         [[-0.0182,  0.0027, -0.0120],
          [ 0.0082,  0.0114, -0.0214],
          [-0.0134, -0.0187, -0.0064]],

         ...,

         [[ 0.0187, -0.0214,  0.0021],
          [ 0.0281,  0.0102, -0.0058],
          [-0.0180,  0.0199,  0.0110]],

         [[-0.0228, -0.0252,  0.0024],
          [ 0.0299,  0.0218, -0.0040],
          [ 0.0137, -0.0073, -0.0019]],

         [[ 0.0215, -0.0089,  0.0084],
          [-0.0118, -0.0133, -0.0204],
          [ 0.0057,  0.0155, -0.0162]]],


        [[[ 0.0297, -0.0225,  0.0032],
          [ 0.0097,  0.0052, -0.0265],
          [-0.0021,  0.0022,  0.0078]],

         [[-0.0284,  0.0169,  0.0092],
          [ 0.0118, -0.0123, -0.0095],
          [ 0.0250,  0.0004, -0.0005]],

         [[-0.0254,  0.0081, -0.0132],
          [ 0.0108,  0.0066, -0.0191],
          [ 0.0163,  0.0249,  0.0026]],

         ...,

         [[-0.0064, -0.0055,  0.0145],
          [-0.0346,  0.0215,  0.0071],
          [ 0.0051,  0.0045,  0.0231]],

         [[-0.0115,  0.0078,  0.0258],
          [-0.0139, -0.0096, -0.0164],
          [-0.0167,  0.0179, -0.0116]],

         [[-0.0133, -0.0427, -0.0191],
          [-0.0389, -0.0169, -0.0348],
          [ 0.0003, -0.0101, -0.0288]]],


        ...,


        [[[-0.0146,  0.0220,  0.0022],
          [-0.0119,  0.0095,  0.0154],
          [-0.0165, -0.0058,  0.0247]],

         [[ 0.0064, -0.0032,  0.0042],
          [ 0.0251,  0.0127, -0.0208],
          [ 0.0289, -0.0180,  0.0152]],

         [[ 0.0189,  0.0134,  0.0258],
          [ 0.0218,  0.0133,  0.0014],
          [ 0.0217,  0.0236,  0.0120]],

         ...,

         [[ 0.0145,  0.0289,  0.0076],
          [ 0.0232, -0.0241,  0.0247],
          [-0.0273,  0.0210, -0.0063]],

         [[ 0.0052,  0.0164, -0.0128],
          [ 0.0255, -0.0003,  0.0198],
          [ 0.0090,  0.0070, -0.0115]],

         [[-0.0200,  0.0261,  0.0210],
          [-0.0095,  0.0145, -0.0169],
          [-0.0228,  0.0231,  0.0093]]],


        [[[ 0.0066, -0.0115, -0.0259],
          [ 0.0140,  0.0140,  0.0184],
          [ 0.0136, -0.0106,  0.0127]],

         [[ 0.0027,  0.0249, -0.0239],
          [-0.0037, -0.0212, -0.0015],
          [ 0.0050, -0.0114,  0.0107]],

         [[-0.0060, -0.0210,  0.0014],
          [ 0.0261, -0.0218,  0.0305],
          [-0.0069, -0.0164, -0.0064]],

         ...,

         [[-0.0234, -0.0180,  0.0282],
          [ 0.0248,  0.0318, -0.0033],
          [-0.0040, -0.0005,  0.0212]],

         [[-0.0338, -0.0241,  0.0242],
          [ 0.0261, -0.0311,  0.0064],
          [ 0.0267,  0.0095, -0.0245]],

         [[ 0.0120,  0.0198,  0.0230],
          [ 0.0182, -0.0119, -0.0242],
          [-0.0083, -0.0131,  0.0232]]],


        [[[ 0.0030,  0.0218,  0.0165],
          [-0.0207, -0.0243, -0.0266],
          [-0.0068, -0.0233,  0.0119]],

         [[ 0.0150,  0.0186, -0.0040],
          [-0.0252, -0.0246,  0.0137],
          [ 0.0148, -0.0094,  0.0133]],

         [[ 0.0218, -0.0022, -0.0031],
          [ 0.0073,  0.0268,  0.0221],
          [-0.0166, -0.0244, -0.0278]],

         ...,

         [[ 0.0052, -0.0229, -0.0209],
          [ 0.0273, -0.0013,  0.0048],
          [ 0.0040,  0.0094, -0.0294]],

         [[-0.0278, -0.0104, -0.0225],
          [-0.0229, -0.0032, -0.0188],
          [ 0.0266,  0.0298, -0.0092]],

         [[ 0.0168, -0.0151,  0.0231],
          [ 0.0266, -0.0004,  0.0069],
          [ 0.0045,  0.0011, -0.0135]]]])"
encConv6.bias,"tensor([ 1.7656e-02, -1.3117e-02, -1.8457e-02, -1.7113e-02, -5.2399e-03,
        -1.7982e-02,  2.5138e-02,  1.6287e-02, -1.7967e-02, -2.4796e-02,
         6.9757e-03, -6.2332e-02,  2.3630e-02, -2.2303e-02, -1.1268e-02,
        -1.0371e-02, -2.1416e-02, -2.8717e-02, -1.3622e-02,  2.7187e-02,
         1.2433e-02, -2.0013e-02,  2.1441e-02, -2.3210e-02,  7.9246e-03,
         1.2237e-02,  1.6923e-02,  2.1433e-03,  1.7187e-02,  4.1839e-04,
         5.9056e-03,  4.0617e-05,  2.7348e-02,  2.0118e-02,  1.2350e-02,
         2.3823e-02,  3.0663e-03, -1.1186e-02, -1.2711e-02, -1.8977e-02,
         1.7349e-02,  2.3826e-02,  8.8700e-03,  9.9439e-03, -1.8422e-02,
        -5.8649e-03, -1.2346e-02, -4.5049e-03,  3.5226e-02,  1.9432e-02,
         1.5951e-02, -3.0716e-03,  1.6387e-02, -1.8322e-02, -1.5048e-02,
        -3.9415e-03,  5.8216e-03,  1.2694e-02,  1.8166e-03, -7.3552e-03,
        -1.9013e-02, -1.4359e-02, -2.3508e-02,  2.4584e-03])"
bn7.weight,"tensor([1.0010, 0.9990, 1.0002, 1.0006, 0.9993, 1.0017, 0.9982, 0.9977, 1.0000,
        1.0024, 0.9998, 0.9999, 0.9966, 1.0074, 0.9982, 0.9994, 1.0011, 1.0016,
        0.9997, 1.0034, 1.0031, 1.0000, 1.0023, 0.9967, 0.9996, 0.9995, 0.9980,
        1.0027, 0.9998, 1.0046, 0.9997, 1.0015, 1.0009, 1.0012, 1.0000, 1.0001,
        1.0026, 0.9977, 0.9982, 1.0012, 0.9999, 1.0030, 0.9989, 1.0026, 1.0042,
        1.0002, 0.9969, 0.9971, 1.0025, 0.9995, 0.9994, 0.9989, 1.0063, 0.9998,
        1.0033, 1.0025, 1.0025, 1.0007, 1.0026, 0.9993, 0.9935, 1.0008, 0.9967,
        1.0002, 1.0022, 1.0012, 0.9965, 0.9988, 0.9966, 0.9938, 0.9993, 0.9952,
        0.9992, 0.9966, 1.0040, 0.9988, 0.9979, 1.0023, 0.9970, 0.9963, 0.9978,
        0.9981, 1.0026, 0.9992, 0.9981, 0.9971, 1.0004, 0.9942, 0.9973, 0.9989,
        0.9986, 0.9946, 1.0024, 0.9946, 1.0025, 1.0012, 1.0077, 0.9969, 0.9988,
        0.9968, 1.0008, 0.9976, 0.9990, 0.9971, 0.9934, 0.9964, 0.9972, 0.9966,
        0.9995, 1.0004, 0.9973, 1.0003, 0.9954, 0.9996, 0.9989, 0.9980, 0.9955,
        0.9994, 0.9952, 0.9982, 0.9981, 0.9958, 0.9974, 0.9968, 1.0001, 1.0006,
        0.9988, 0.9961, 0.9998, 0.9979, 1.0147, 1.0013, 1.0042, 0.9987, 1.0065,
        0.9974, 1.0062, 1.0000, 0.9976, 1.0045, 0.9992, 0.9973, 1.0002, 1.0011,
        0.9983, 1.0017, 0.9979, 1.0019, 0.9967, 0.9969, 0.9961, 1.0002, 0.9970,
        0.9978, 1.0016, 0.9996, 1.0081, 1.0011, 1.0056, 0.9970, 1.0003, 0.9967,
        0.9977, 0.9965, 0.9955, 1.0009, 0.9982, 1.0035, 1.0028, 0.9974, 1.0216,
        0.9981, 1.0017, 1.0000, 0.9934, 1.0009, 1.0039, 0.9951, 0.9988, 1.0093,
        0.9977, 0.9972, 0.9945, 1.0018, 1.0015, 1.0088, 0.9999, 0.9973, 1.0002,
        0.9978, 1.0046, 1.0004])"
bn7.bias,"tensor([-2.2221e-02, -8.7683e-03, -1.2705e-02, -1.5588e-02,  9.4796e-03,
         7.4184e-03, -7.3597e-03,  3.5500e-03, -3.6410e-03, -1.1208e-02,
         7.6782e-03,  2.3669e-02, -3.3371e-03, -1.6206e-02, -2.3284e-02,
        -1.2647e-02, -1.2507e-02,  2.5176e-03,  3.4030e-03, -7.0208e-03,
         1.9257e-02,  8.9856e-03, -9.6652e-03, -6.5088e-03,  7.7520e-03,
         1.6052e-02,  2.0752e-03,  3.6336e-03, -1.3498e-02,  8.3367e-03,
         1.2357e-03, -2.0189e-02, -1.3084e-02, -2.7517e-02,  1.1999e-02,
         1.9246e-03,  7.7861e-03,  1.0967e-02,  1.1651e-02, -1.4579e-02,
         2.7284e-03, -1.5085e-02, -2.0097e-02,  8.6312e-03, -7.4130e-03,
         1.6019e-03,  3.0696e-03,  6.4836e-03,  1.6723e-02,  8.1166e-03,
        -1.8455e-02, -2.8517e-03,  1.0890e-04, -1.8405e-02, -1.7856e-02,
         7.5671e-04,  2.1061e-02, -1.1231e-02,  2.2004e-02,  6.9654e-03,
        -1.6717e-02,  2.5769e-03,  3.9805e-03, -1.3445e-02, -8.0586e-04,
        -1.5523e-02, -6.1356e-03, -1.0494e-02, -9.5620e-03, -3.5799e-03,
        -9.2114e-03, -1.2167e-02, -1.4298e-02, -4.3250e-03,  1.3886e-02,
        -1.5323e-03, -1.6161e-02,  1.3606e-02, -6.5255e-03, -1.7500e-02,
        -1.5196e-02,  6.5958e-03,  4.6734e-03, -4.2313e-03,  1.9847e-03,
        -1.5765e-02,  4.9980e-03,  3.5030e-03, -1.9132e-03, -1.0432e-02,
         7.4150e-03, -1.4275e-03,  6.8134e-04, -5.8996e-03, -3.1283e-03,
        -2.1582e-02,  1.3095e-03, -3.2844e-03, -1.7137e-02, -2.1289e-03,
         1.5627e-04, -1.7836e-03,  8.9778e-04,  6.0932e-03, -8.4770e-03,
         7.2608e-03, -6.5313e-03,  7.3015e-03, -3.4161e-03,  7.7000e-03,
        -1.0481e-03, -5.7908e-03, -8.3284e-03, -1.9849e-02, -2.9985e-02,
         3.0615e-03,  6.6064e-03, -7.3298e-03, -2.8236e-03,  2.9393e-03,
         4.8765e-03,  4.4447e-03,  1.2426e-02,  2.2336e-03, -1.1024e-02,
        -6.3723e-03,  1.1206e-02,  3.5163e-04,  2.4304e-02, -1.7969e-02,
         4.2571e-02, -1.5537e-02, -1.4750e-02,  2.0654e-02,  1.1834e-02,
        -7.2612e-03,  1.0966e-02, -1.3990e-02,  3.1344e-04, -3.1315e-02,
        -5.1038e-03, -2.2104e-02, -1.3385e-02, -6.2188e-03, -1.0711e-03,
        -1.0434e-02,  1.3909e-02, -4.0222e-03,  5.1118e-04, -8.1021e-03,
        -4.3612e-03,  3.3415e-03,  7.0171e-03, -1.6758e-02, -5.0500e-03,
        -8.4218e-03, -1.1581e-02,  4.0902e-03,  2.4626e-04, -3.1494e-03,
        -7.8942e-03, -6.3325e-03,  1.3525e-02, -3.5026e-03, -6.0577e-03,
        -1.2172e-02,  1.9237e-03,  2.8246e-03, -1.1021e-02, -1.4691e-02,
         3.4862e-02, -1.2348e-02, -5.5540e-03, -1.8792e-02, -3.3446e-03,
        -6.4200e-03, -2.6090e-03, -5.7473e-03, -1.5461e-02, -2.2995e-03,
         4.7284e-04,  7.9744e-03,  1.7965e-04, -2.3864e-02,  1.8111e-02,
         3.6746e-02, -2.1132e-02, -8.0903e-05,  1.5296e-03,  3.0239e-03,
        -4.4875e-03, -5.9125e-03])"
bn7.running_mean,"tensor([0.4675, 0.5487, 0.4838, 0.4199, 0.8164, 0.7443, 0.5793, 0.7728, 0.4163,
        0.6219, 0.3208, 0.7486, 0.6262, 0.6825, 0.6586, 0.4445, 0.4440, 0.7669,
        0.8657, 0.5313, 0.6388, 0.6730, 0.7007, 0.6795, 0.7694, 0.7685, 0.8801,
        0.5353, 0.1848, 0.3861, 0.8766, 0.4924, 0.3277, 0.2761, 0.9986, 1.1015,
        0.4283, 0.6970, 0.6915, 0.3161, 0.7164, 0.4940, 0.3367, 0.4602, 0.4789,
        0.9465, 0.7828, 0.3611, 0.7224, 0.8832, 0.8230, 0.7671, 0.6942, 0.6801,
        0.4348, 0.5081, 1.1477, 0.5790, 0.6321, 0.4934, 0.8132, 0.5193, 0.7444,
        0.2811, 0.2096, 0.1697, 0.2739, 0.4001, 0.2493, 0.2951, 0.2812, 0.3738,
        0.2845, 0.2812, 0.2748, 0.1903, 0.2772, 0.2421, 0.2717, 0.2525, 0.2333,
        0.3935, 0.1793, 0.3812, 0.2274, 0.2368, 0.3621, 0.2422, 0.3818, 0.3588,
        0.1896, 0.3405, 0.2337, 0.5992, 0.2191, 0.1541, 0.3027, 0.2904, 0.3131,
        0.4310, 0.2101, 0.4220, 0.2513, 0.3769, 0.2480, 0.4029, 0.2254, 0.2657,
        0.2757, 0.2038, 0.3430, 0.2146, 0.3190, 0.2858, 0.1504, 0.3768, 0.3037,
        0.2553, 0.4316, 0.3644, 0.3034, 0.2727, 0.4975, 0.3511, 0.2286, 0.4390,
        0.2068, 0.2509, 0.2794, 0.2257, 0.2212, 0.2049, 0.1897, 0.3483, 0.3268,
        0.5065, 0.2087, 0.3094, 0.2405, 0.2704, 0.5645, 0.3748, 0.2759, 0.2263,
        0.2652, 0.2699, 0.1674, 0.5115, 0.4638, 0.4753, 0.3068, 0.3140, 0.4240,
        0.4303, 0.2848, 0.3939, 0.2964, 0.2717, 0.3201, 0.4339, 0.2488, 0.4937,
        0.2504, 0.3879, 0.2460, 0.2181, 0.3909, 0.2655, 0.3015, 0.6460, 0.2887,
        0.5026, 0.2949, 0.2421, 0.3708, 0.3278, 0.3154, 0.5050, 0.2051, 0.2244,
        0.3333, 0.3844, 0.6186, 0.2111, 0.3776, 0.3203, 0.2976, 0.3337, 0.2499,
        0.3171, 0.2595, 0.2592])"
bn7.running_var,"tensor([0.3490, 1.0634, 0.5145, 0.4660, 0.4788, 0.9218, 0.9053, 0.9354, 0.3689,
        0.6393, 0.3406, 0.6257, 0.9979, 0.5913, 0.7967, 0.8229, 0.4910, 1.0985,
        1.2288, 0.6984, 0.8198, 0.6649, 0.8152, 0.9826, 0.7646, 0.5595, 0.8190,
        0.4279, 0.1541, 0.2923, 1.7777, 0.6094, 0.3802, 0.3481, 0.7687, 1.6071,
        0.3470, 0.5143, 0.7070, 0.2648, 0.6078, 0.5415, 0.4595, 0.4244, 0.5249,
        1.6639, 0.9272, 0.3101, 0.5890, 0.7463, 1.2777, 0.7115, 0.5376, 1.1445,
        0.4761, 0.6339, 1.7495, 1.0026, 0.7066, 0.4566, 1.6323, 0.4364, 0.8520,
        0.3454, 0.1253, 0.1807, 0.2182, 0.3032, 0.1724, 0.2014, 0.1639, 0.1980,
        0.2446, 0.2575, 0.1469, 0.0818, 0.2125, 0.1782, 0.1816, 0.2109, 0.1254,
        0.1861, 0.0900, 0.1728, 0.1749, 0.1228, 0.1437, 0.1240, 0.1826, 0.1334,
        0.0957, 0.2346, 0.0922, 0.2665, 0.1045, 0.1317, 0.1037, 0.2911, 0.3715,
        0.2348, 0.0858, 0.2615, 0.1128, 0.1348, 0.1650, 0.2321, 0.1385, 0.1193,
        0.1542, 0.1022, 0.2172, 0.0800, 0.3334, 0.3463, 0.1075, 0.1926, 0.1621,
        0.2241, 0.2420, 0.1404, 0.1334, 0.1670, 0.2768, 0.1859, 0.2394, 0.3499,
        0.1052, 0.1171, 0.1751, 0.1766, 0.1447, 0.1048, 0.1238, 0.2708, 0.2103,
        0.3372, 0.1157, 0.4450, 0.1616, 0.1540, 0.4116, 0.5344, 0.2613, 0.1569,
        0.1399, 0.3508, 0.0723, 0.3306, 0.3986, 0.3327, 0.2788, 0.2435, 0.2493,
        0.5320, 0.1231, 0.2891, 0.1827, 0.1970, 0.1816, 0.5628, 0.1165, 0.4587,
        0.1781, 0.2343, 0.1382, 0.1410, 0.2736, 0.2067, 0.1746, 0.6643, 0.1297,
        0.5096, 0.1453, 0.1551, 0.3524, 0.1478, 0.1248, 0.5328, 0.1016, 0.1383,
        0.2458, 0.2199, 0.7803, 0.1082, 0.2164, 0.1442, 0.3260, 0.1609, 0.1994,
        0.3579, 0.1909, 0.1259])"
bn7.num_batches_tracked,tensor(23348)
encConv7.weight,"tensor([[[[ 1.2583e-02,  7.6585e-03,  4.6329e-03],
          [-1.4085e-02,  1.8225e-02, -1.1786e-02],
          [ 2.1186e-02,  2.9142e-02,  2.2168e-04]],

         [[ 1.4961e-03, -1.8235e-02, -1.1173e-02],
          [-1.4091e-02,  9.7397e-03,  1.7309e-02],
          [-1.1105e-02,  1.9671e-03, -1.2894e-02]],

         [[ 1.2046e-02, -9.9972e-03, -8.0066e-03],
          [ 2.5475e-02, -6.0205e-03,  1.7998e-02],
          [ 2.8024e-04,  2.2751e-02,  2.3443e-02]],

         ...,

         [[-1.7155e-02, -8.9127e-03,  7.8872e-03],
          [-8.7827e-03, -2.2150e-02,  1.3880e-02],
          [ 1.4888e-02, -2.9064e-02, -1.0221e-02]],

         [[ 1.7309e-02, -1.0077e-03,  2.3070e-02],
          [-1.6167e-03, -2.6709e-03, -2.2702e-02],
          [ 2.1488e-02,  1.0972e-02,  1.3873e-02]],

         [[ 2.0373e-02,  1.2275e-02,  1.7144e-02],
          [-1.6097e-02, -1.2542e-02,  6.0328e-03],
          [-1.4768e-02,  5.7731e-03,  2.5694e-03]]],


        [[[-2.5156e-02,  1.3283e-02,  1.3568e-02],
          [-1.6620e-02, -1.7839e-02,  7.0307e-03],
          [-5.7705e-03,  7.4817e-03,  1.7120e-02]],

         [[-2.4314e-02, -1.1667e-02,  5.5753e-03],
          [-1.8827e-02,  1.6631e-02, -2.1322e-02],
          [-1.4437e-02,  4.8346e-04, -6.7080e-03]],

         [[-6.5948e-03, -1.4098e-02, -1.6662e-02],
          [-1.4197e-02,  5.1671e-03, -2.2112e-02],
          [-1.6253e-02, -1.1511e-02,  2.1208e-02]],

         ...,

         [[-1.6767e-02, -2.2117e-02, -1.7182e-05],
          [-1.1655e-02,  8.6862e-03, -9.9312e-05],
          [-1.2593e-02,  1.7676e-02,  1.8522e-02]],

         [[-7.1797e-03, -2.2119e-02,  7.4581e-03],
          [-1.2279e-02,  1.3890e-02,  1.6383e-02],
          [-1.6300e-02,  1.4377e-02,  1.4718e-03]],

         [[ 2.5330e-02,  8.5623e-03,  3.9880e-03],
          [ 4.9931e-03,  1.1698e-02,  1.0485e-02],
          [ 9.7752e-03, -1.7284e-04, -1.9199e-02]]],


        [[[-1.1008e-03, -4.8140e-04,  2.5319e-02],
          [-1.2241e-02,  1.6857e-02, -3.3801e-03],
          [-6.3127e-03,  2.2975e-02, -6.9862e-03]],

         [[ 3.9657e-03, -1.8864e-02,  2.2865e-02],
          [ 1.9467e-02,  1.2178e-02,  1.2242e-03],
          [ 1.9019e-02, -1.6177e-02, -4.0742e-03]],

         [[ 7.7198e-03, -1.7724e-02, -3.8701e-03],
          [ 6.8973e-03, -1.3177e-02,  1.6730e-03],
          [-1.3620e-02,  3.3587e-04, -1.9864e-02]],

         ...,

         [[-8.9436e-03,  2.5680e-02,  2.3359e-02],
          [-1.0514e-02, -1.6408e-02,  8.8328e-03],
          [ 9.7865e-04, -1.6013e-02,  1.6336e-02]],

         [[ 9.2904e-03, -9.2412e-03, -1.3631e-02],
          [-1.1905e-02, -1.1028e-03,  3.1717e-03],
          [-1.3876e-02,  1.6042e-02,  1.1615e-02]],

         [[-1.9424e-02, -2.3963e-02,  1.5144e-02],
          [-5.8089e-03, -2.0168e-02,  9.6158e-03],
          [ 1.6181e-02,  1.2226e-02, -6.3547e-03]]],


        ...,


        [[[-9.9269e-03,  5.1257e-03, -2.0940e-02],
          [ 1.2345e-02,  2.5801e-02, -1.2523e-02],
          [ 2.0790e-02,  1.3505e-02, -1.4521e-02]],

         [[-2.3007e-02, -2.3981e-02,  1.3999e-02],
          [ 1.3118e-02, -1.0290e-02,  2.1736e-02],
          [ 6.1114e-04,  1.8119e-02,  2.0701e-02]],

         [[-1.1283e-03,  1.4776e-02, -1.7917e-02],
          [-1.6702e-02,  9.2068e-03, -2.3202e-03],
          [-1.7083e-02, -4.3613e-04,  2.0482e-02]],

         ...,

         [[ 2.2308e-03,  2.9803e-03,  2.2295e-02],
          [ 1.3720e-02,  1.6850e-02,  4.9370e-03],
          [-7.5931e-03, -9.2908e-03, -1.3612e-02]],

         [[-2.5743e-03, -1.5364e-02,  1.8320e-02],
          [ 1.2845e-03,  1.2413e-02,  7.8421e-03],
          [ 8.7418e-03, -6.4825e-03, -3.1036e-02]],

         [[ 1.7768e-03,  1.3865e-03, -1.7053e-02],
          [ 1.2540e-02, -8.3887e-03,  1.3518e-02],
          [ 1.0542e-02, -2.0853e-02, -1.7191e-03]]],


        [[[-3.0511e-02, -2.5215e-02,  1.5231e-02],
          [ 1.1948e-02,  5.9045e-04,  4.8553e-03],
          [ 1.6851e-02, -1.1399e-02,  2.0842e-02]],

         [[-9.7558e-03, -1.4680e-04,  1.2818e-02],
          [-1.6743e-02,  1.4065e-02,  9.2975e-03],
          [-1.4548e-02,  6.0095e-03,  4.9209e-03]],

         [[-2.8727e-02,  1.1254e-02, -1.8202e-04],
          [-3.2254e-02, -2.5531e-02,  2.3110e-02],
          [-1.2251e-02,  2.4497e-02, -1.1948e-02]],

         ...,

         [[ 1.5856e-02,  7.7443e-03,  1.6604e-02],
          [-1.3460e-02, -7.2816e-03, -4.2530e-03],
          [-2.9383e-03,  1.8757e-02, -6.9956e-03]],

         [[ 3.5354e-03, -5.7505e-03, -2.1397e-02],
          [ 6.1137e-03,  1.6304e-03, -1.6474e-02],
          [ 1.7870e-02, -7.6404e-03,  1.1576e-03]],

         [[-2.9000e-03,  2.6839e-03,  1.1384e-02],
          [ 1.7258e-02, -3.9162e-03,  1.2736e-02],
          [-9.9401e-03,  1.2858e-02, -2.5188e-02]]],


        [[[ 2.5635e-03,  1.6754e-02, -1.5774e-02],
          [-5.8555e-03, -8.8209e-03,  1.1444e-02],
          [-1.1738e-04, -1.2843e-02, -8.7149e-03]],

         [[ 8.1445e-03,  2.0320e-03,  1.6707e-02],
          [ 9.2744e-03,  1.5612e-02, -2.2792e-02],
          [-3.0316e-06, -3.1624e-02, -9.5286e-03]],

         [[ 4.0333e-03,  9.8274e-04, -1.1093e-03],
          [ 2.3597e-02, -1.7796e-02,  1.4087e-02],
          [ 1.0726e-02, -9.3390e-03, -1.9299e-03]],

         ...,

         [[-8.2670e-03,  2.9898e-04, -1.6182e-02],
          [-6.4834e-03, -1.0846e-02,  1.9788e-02],
          [-2.0442e-02, -1.7070e-02,  1.3593e-02]],

         [[-2.4566e-02,  1.3603e-02,  2.8371e-02],
          [ 1.6304e-02,  2.9479e-02,  1.4380e-02],
          [ 1.4800e-02, -1.2020e-02,  9.5059e-03]],

         [[-1.0950e-02, -1.7700e-02, -2.5610e-02],
          [-2.7229e-02, -5.2036e-03, -2.0581e-02],
          [-4.0628e-03,  1.8639e-02,  7.6273e-03]]]])"
encConv7.bias,"tensor([-0.0258, -0.0144, -0.0171,  0.0120,  0.0131,  0.0338,  0.0217, -0.0137,
         0.0082, -0.0057,  0.0080, -0.0584,  0.0238, -0.0204, -0.0051,  0.0030,
         0.0160,  0.0150, -0.0200,  0.0303,  0.0277,  0.0029,  0.0470,  0.0278,
         0.0131,  0.0227, -0.0089, -0.0148, -0.0132,  0.0208,  0.0081,  0.0179,
        -0.0240,  0.0241,  0.0188,  0.0268, -0.0428, -0.0013, -0.0039, -0.0092,
        -0.0131, -0.0129, -0.0120, -0.0023, -0.0086,  0.0147,  0.0031, -0.0049,
        -0.0149,  0.0277, -0.0184,  0.0021,  0.0060, -0.0010, -0.0029,  0.0249,
        -0.0202,  0.0274,  0.0173,  0.0313,  0.0162,  0.0370,  0.0168,  0.0372])"
bn8.weight,"tensor([0.9989, 0.9952, 1.0005, 0.9932, 0.9953, 0.9993, 0.9958, 1.0011, 0.9968,
        0.9977, 0.9992, 1.0041, 1.0011, 0.9968, 0.9965, 0.9986, 0.9942, 0.9990,
        0.9992, 1.0047, 0.9984, 0.9969, 1.0031, 1.0067, 0.9982, 0.9935, 1.0042,
        0.9972, 1.0016, 1.0057, 1.0003, 1.0052, 1.0097, 0.9954, 0.9949, 0.9979,
        1.0049, 0.9965, 1.0079, 1.0065, 1.0031, 0.9990, 0.9930, 0.9992, 0.9996,
        1.0038, 0.9995, 0.9928, 1.0010, 0.9956, 0.9955, 1.0017, 0.9963, 0.9983,
        1.0028, 0.9956, 1.0128, 1.0150, 0.9937, 1.0011, 0.9951, 1.0008, 0.9976,
        0.9996])"
bn8.bias,"tensor([-0.0173, -0.0019, -0.0101,  0.0066, -0.0117,  0.0045,  0.0118, -0.0062,
        -0.0154, -0.0070, -0.0148, -0.0112,  0.0175,  0.0091, -0.0060,  0.0052,
         0.0101, -0.0150,  0.0042,  0.0037,  0.0007,  0.0198,  0.0095, -0.0037,
        -0.0002, -0.0034, -0.0301,  0.0037,  0.0039, -0.0032, -0.0176, -0.0138,
         0.0163,  0.0075, -0.0105,  0.0030, -0.0187,  0.0022, -0.0008, -0.0198,
         0.0066, -0.0253,  0.0002, -0.0179,  0.0167,  0.0233,  0.0037, -0.0117,
         0.0028, -0.0021,  0.0115,  0.0154, -0.0165,  0.0029,  0.0101, -0.0034,
         0.0015,  0.0043,  0.0232, -0.0091, -0.0022, -0.0045,  0.0128,  0.0092])"
bn8.running_mean,"tensor([0.3582, 0.5874, 0.3443, 0.6507, 0.4384, 0.7773, 0.6421, 0.5120, 0.3455,
        0.6503, 0.4143, 0.2075, 0.5447, 0.7930, 0.3719, 0.5134, 0.7546, 0.3429,
        0.4539, 0.4015, 0.4536, 0.4173, 0.3903, 0.3703, 0.5404, 0.7494, 0.4098,
        0.5191, 0.4112, 0.3197, 0.6155, 0.5106, 0.7191, 0.8406, 0.6212, 0.6810,
        0.2241, 0.6489, 0.3923, 0.4685, 0.5903, 0.4181, 0.4064, 0.4341, 0.5503,
        0.4576, 0.7132, 0.5182, 0.6016, 0.4716, 0.7290, 0.5892, 0.3985, 0.6327,
        0.5185, 0.4409, 0.3419, 0.3134, 1.1015, 0.4411, 0.6074, 0.4696, 0.6708,
        0.5896])"
bn8.running_var,"tensor([0.7180, 0.9989, 0.3977, 0.7905, 0.7751, 0.7306, 0.5016, 0.5313, 0.5313,
        0.7901, 0.7998, 0.4096, 0.4593, 1.2251, 0.4406, 0.4495, 0.9941, 0.3185,
        0.5084, 0.3950, 0.4803, 0.3099, 0.3191, 0.3360, 0.4533, 1.1187, 0.6035,
        0.4470, 0.5126, 0.2308, 1.0927, 0.3185, 0.7311, 0.9498, 1.1890, 0.5479,
        0.2762, 0.5236, 0.4172, 0.9765, 0.7564, 1.0750, 0.5481, 0.7172, 0.4192,
        0.4221, 0.5121, 0.5930, 0.4634, 0.4690, 1.1758, 0.4817, 0.8107, 0.5003,
        0.4193, 0.5415, 0.3354, 0.2067, 0.9318, 0.4038, 0.5691, 0.4890, 0.5196,
        0.3965])"
bn8.num_batches_tracked,tensor(23348)
encConv8.weight,"tensor([[[[-5.6795e-03,  2.5261e-02, -7.6786e-03],
          [-9.1491e-03, -8.0434e-04, -3.3955e-02],
          [ 3.6202e-02,  2.0900e-02,  2.0590e-02]],

         [[-3.5114e-02, -9.9458e-03,  3.1382e-02],
          [ 9.8977e-03, -3.3496e-02,  1.6229e-02],
          [ 9.1905e-03,  4.5008e-02, -3.1506e-02]],

         [[-1.2497e-02, -2.4467e-02,  3.1861e-02],
          [ 1.5364e-02,  3.5021e-02,  2.5514e-03],
          [-3.8294e-02,  2.9673e-02,  3.7214e-02]],

         ...,

         [[-1.5431e-02, -3.1058e-02, -2.2645e-02],
          [-2.9773e-02,  3.3943e-02, -2.1602e-03],
          [-8.2813e-03,  3.3324e-02, -2.5278e-02]],

         [[-5.3130e-03, -7.5212e-03,  2.3286e-02],
          [-2.8646e-02, -2.3746e-02, -7.6905e-03],
          [ 3.3989e-02,  1.7281e-02, -8.6331e-03]],

         [[-1.8996e-02,  3.1789e-02,  7.4491e-03],
          [-3.6050e-02,  1.4439e-02, -4.2042e-04],
          [ 2.5899e-02,  2.4906e-02,  2.3514e-02]]],


        [[[ 4.7051e-03,  2.0836e-02,  2.1165e-02],
          [ 1.7949e-02, -2.1481e-02, -2.9634e-02],
          [ 2.9636e-02, -1.9424e-02, -1.7690e-02]],

         [[ 3.2566e-02, -1.2177e-02, -3.8135e-03],
          [ 1.4489e-03, -4.0423e-03,  6.5688e-03],
          [ 4.3364e-02,  3.1874e-02,  2.0024e-02]],

         [[ 2.7845e-02, -2.4130e-02,  2.5337e-02],
          [ 3.1067e-02,  1.2630e-02,  3.4709e-03],
          [ 2.0864e-02,  2.2052e-02, -2.4570e-02]],

         ...,

         [[-1.1513e-02, -3.1621e-02, -3.2095e-02],
          [-3.3147e-02, -1.6689e-02, -1.6175e-02],
          [-3.7063e-02, -1.2176e-02,  3.5681e-03]],

         [[ 3.8907e-03, -3.4591e-02,  2.5063e-02],
          [-2.0990e-02, -1.0602e-02,  1.4864e-02],
          [-1.1860e-02,  4.4228e-02,  4.1543e-02]],

         [[-2.2343e-02, -1.4850e-02, -2.3784e-02],
          [ 2.9582e-02,  3.2201e-02, -1.1411e-03],
          [ 3.4607e-02, -1.9919e-02, -2.6000e-02]]],


        [[[-3.8195e-02,  5.2143e-03, -2.5486e-02],
          [-1.8330e-05,  3.0521e-02,  3.4401e-02],
          [ 3.6049e-02, -3.9054e-02, -3.1837e-03]],

         [[ 3.9013e-02, -3.0671e-02, -1.3699e-02],
          [-2.6387e-02,  3.5579e-02, -2.1782e-03],
          [ 1.1335e-02,  2.3895e-02, -1.7938e-02]],

         [[ 1.5016e-02, -1.8727e-02,  1.7546e-02],
          [ 3.2973e-02, -3.6755e-02,  1.0029e-02],
          [ 3.6124e-02, -3.4242e-02,  1.8065e-02]],

         ...,

         [[-3.3942e-02,  2.1808e-02,  3.1647e-02],
          [-1.6646e-03,  4.9117e-04,  2.5021e-02],
          [ 7.6883e-04,  4.2612e-02,  1.6685e-02]],

         [[-3.0799e-02,  3.0241e-02,  3.1433e-03],
          [-2.1891e-03, -6.5926e-03, -2.1833e-03],
          [ 1.9168e-02,  3.3294e-02, -2.7732e-02]],

         [[ 1.0863e-02, -2.5987e-02, -1.9816e-02],
          [ 4.5224e-02, -1.3278e-02, -6.6905e-03],
          [ 5.8938e-03,  3.0396e-02,  3.6125e-02]]],


        ...,


        [[[-1.3562e-02,  2.8529e-02, -6.2169e-03],
          [-3.0832e-02, -3.2879e-02,  1.4609e-02],
          [-1.7374e-02, -5.2910e-03, -3.5835e-02]],

         [[ 7.4152e-03,  9.8991e-03, -9.6245e-03],
          [ 9.9857e-03,  2.6354e-02, -2.2111e-02],
          [-1.4987e-02, -2.8221e-03, -3.4979e-02]],

         [[-3.5745e-02,  3.8409e-02,  1.0028e-02],
          [ 4.5078e-03,  1.1383e-02,  3.6459e-02],
          [-3.1031e-02, -2.4340e-02, -3.2529e-02]],

         ...,

         [[-3.3166e-02, -2.3605e-02, -1.3598e-02],
          [-2.1582e-02, -3.0659e-03,  1.0194e-02],
          [-2.7844e-02, -3.2691e-02, -4.6401e-02]],

         [[ 1.6989e-03, -4.2065e-02,  1.5665e-02],
          [-3.2231e-02,  3.3912e-02, -2.3459e-03],
          [-3.9814e-02,  9.2446e-03,  1.7985e-02]],

         [[ 5.8794e-03,  2.8776e-02, -4.0910e-02],
          [-1.5465e-02,  1.3802e-02,  1.5935e-02],
          [ 9.9349e-03,  1.4824e-02,  1.7928e-02]]],


        [[[-2.4015e-02, -2.0518e-02,  3.2267e-02],
          [-2.0618e-02,  3.0942e-02, -6.9386e-04],
          [-3.5079e-02, -3.5897e-02, -3.0277e-02]],

         [[-6.3885e-03, -2.3502e-02,  2.4340e-02],
          [ 1.0791e-02,  1.8472e-02, -5.2575e-03],
          [-1.8837e-02, -4.2250e-02,  3.5040e-02]],

         [[-4.2727e-02,  2.6956e-02,  1.9078e-02],
          [-1.5069e-02, -9.4176e-03, -2.4727e-02],
          [-3.5119e-02, -3.8205e-02,  1.6544e-02]],

         ...,

         [[ 5.3933e-03,  2.5696e-02,  7.4192e-03],
          [ 6.9402e-03,  2.2908e-02,  1.8495e-02],
          [-2.0655e-02, -6.5786e-03, -1.7934e-02]],

         [[ 2.1602e-02,  3.4750e-02, -4.0733e-02],
          [-1.6627e-02,  8.5295e-04,  8.9253e-03],
          [ 4.6411e-02,  4.5204e-03,  3.3607e-02]],

         [[-1.6460e-03,  9.7982e-03,  2.7253e-02],
          [-4.2876e-02,  3.9898e-02,  2.8985e-02],
          [ 9.5891e-03,  3.3306e-02, -4.0542e-02]]],


        [[[ 1.6430e-02,  1.1364e-02,  2.1625e-02],
          [-1.5036e-03,  1.4029e-02, -2.8374e-02],
          [-2.7049e-02,  3.5153e-04, -2.8676e-02]],

         [[ 3.7928e-02,  1.1348e-02,  3.0092e-02],
          [ 1.9983e-02, -2.8374e-03,  6.6190e-03],
          [-1.8619e-02,  3.0533e-02, -8.2055e-03]],

         [[-3.9740e-02,  2.1906e-03, -3.5135e-02],
          [-2.8683e-02, -7.9278e-04, -1.2200e-02],
          [-1.4521e-03, -1.0999e-02, -3.4059e-02]],

         ...,

         [[ 8.3699e-03, -7.0731e-03,  2.6932e-03],
          [-4.1288e-02, -4.4410e-02,  1.0388e-02],
          [-2.8648e-02,  2.1324e-02,  2.3624e-02]],

         [[-1.0131e-02, -4.1284e-02,  2.6857e-02],
          [ 2.7396e-02,  2.6867e-02, -2.0123e-02],
          [ 4.8847e-03,  8.8034e-03, -2.7767e-02]],

         [[ 3.5119e-02,  3.0758e-02, -3.6123e-02],
          [-2.3696e-02, -3.8530e-03, -3.5562e-02],
          [-2.5217e-02, -8.1186e-04, -2.0302e-02]]]])"
encConv8.bias,"tensor([-0.0018,  0.0382,  0.0331,  0.0329, -0.0271,  0.0232,  0.0329,  0.0099,
        -0.0139, -0.0029,  0.0187,  0.0323, -0.0031,  0.0393, -0.0170, -0.0132,
         0.0011,  0.0386, -0.0042, -0.0288, -0.0281,  0.0006, -0.0198, -0.0307,
         0.0257, -0.0085, -0.0284, -0.0018, -0.0090,  0.0413,  0.0571,  0.0039,
        -0.0175,  0.0114, -0.0235,  0.0043, -0.0067,  0.0242, -0.0035,  0.0425,
        -0.0462,  0.0323,  0.0311, -0.0062, -0.0121,  0.0291,  0.0159,  0.0215,
        -0.0553, -0.0056,  0.0374, -0.0108,  0.0204, -0.0037, -0.0182, -0.0444,
        -0.0328,  0.0148,  0.0241,  0.0107, -0.0091, -0.0412,  0.0009, -0.0060])"
bn9.weight,"tensor([0.9990, 0.9964, 0.9985, 0.9961, 1.0003, 0.9975, 1.0009, 0.9997, 0.9990,
        0.9974, 1.0003, 1.0013, 0.9996, 0.9981, 0.9979, 0.9976, 0.9973, 1.0000,
        0.9972, 0.9968, 1.0001, 0.9968, 1.0023, 1.0038, 0.9993, 0.9985, 1.0006,
        0.9980, 0.9992, 1.0017, 1.0000, 1.0003, 0.9966, 0.9969, 0.9961, 0.9997,
        1.0014, 0.9999, 0.9995, 0.9993, 1.0003, 1.0007, 0.9949, 0.9992, 0.9975,
        1.0006, 0.9975, 0.9973, 0.9961, 1.0007, 0.9962, 0.9985, 0.9971, 0.9990,
        1.0006, 0.9982, 1.0002, 1.0070, 0.9975, 0.9996, 0.9968, 1.0012, 0.9968,
        0.9989, 0.9976, 1.0005, 0.9990, 0.9965, 1.0008, 1.0003, 0.9988, 0.9983,
        1.0025, 0.9993, 1.0059, 1.0014, 1.0077, 1.0211, 1.0009, 1.0065, 1.0016,
        1.0065, 0.9963, 1.0089, 0.9983, 0.9991, 1.0157, 0.9953, 0.9957, 1.0031,
        1.0017, 0.9973, 1.0000, 1.0026, 1.0054, 1.0003, 1.0038, 0.9990, 0.9984,
        1.0012, 1.0040, 0.9972, 0.9999, 1.0019, 1.0015, 0.9985, 0.9966, 0.9994,
        1.0026, 0.9985, 1.0001, 0.9991, 1.0004, 1.0009, 1.0010, 0.9948, 0.9978,
        1.0001, 1.0023, 1.0025, 0.9950, 1.0015, 0.9975, 0.9999, 0.9993, 1.0006,
        1.0022, 0.9969])"
bn9.bias,"tensor([-9.4407e-03, -3.4105e-03, -4.0017e-03,  2.7086e-03, -6.9941e-03,
         1.0875e-02, -2.0890e-03, -3.3743e-04, -7.7631e-03, -2.4759e-03,
        -3.5566e-03, -5.5845e-03,  1.2324e-02,  4.1260e-03, -4.0954e-03,
        -4.2371e-03, -1.5830e-03, -3.4214e-03,  3.0476e-03, -5.3381e-03,
         5.8733e-03,  4.6508e-03,  3.5530e-03,  1.9217e-03, -4.6059e-03,
         2.4501e-04, -5.3640e-03, -2.9873e-03, -8.4220e-03, -3.5538e-05,
        -6.4160e-03, -5.4446e-03, -1.3496e-03,  1.2238e-03,  1.3298e-03,
         5.8382e-03, -6.0353e-03, -2.4252e-03, -1.3137e-02,  9.2275e-04,
        -1.3259e-03, -1.2425e-03,  1.2062e-03, -9.2467e-03, -1.2576e-03,
         3.0749e-03,  1.5196e-02,  2.2168e-03,  2.8810e-03,  6.7832e-03,
         2.7960e-03,  7.3230e-03, -7.4605e-03,  1.4003e-03, -6.3865e-03,
         5.9271e-04,  1.9671e-03,  7.9017e-03,  7.7576e-03, -7.4023e-03,
         2.7074e-03, -6.3252e-03,  3.3994e-03,  1.0610e-02,  1.2961e-02,
        -4.2446e-03,  6.1736e-03, -3.8255e-03, -8.3063e-03, -2.1827e-03,
        -2.8264e-04, -5.4893e-03, -1.5724e-03,  7.8219e-03,  1.7658e-03,
         4.3906e-03,  2.3300e-03, -4.7762e-03, -5.4607e-03,  1.1022e-02,
        -3.1296e-03, -7.0024e-03, -1.6794e-03,  3.6480e-03,  2.1026e-05,
         4.4476e-03,  8.6061e-03, -7.3226e-03, -6.7536e-03,  6.8852e-03,
        -1.5421e-02, -6.9883e-04, -4.5400e-03, -8.6735e-03,  8.8084e-03,
        -4.6141e-03,  1.3995e-03, -6.2274e-03,  1.3241e-02, -3.5727e-03,
        -8.5933e-03,  4.1741e-04, -7.0156e-03, -6.9095e-03, -1.3866e-03,
         3.0578e-03,  7.9698e-03, -5.3151e-03, -6.1165e-03, -8.4201e-03,
        -2.8879e-04, -5.4386e-03,  6.5350e-04,  8.8707e-04, -4.6801e-03,
         4.6993e-04, -3.9604e-03, -1.7728e-03, -8.4908e-03, -4.6916e-04,
         1.4550e-03, -5.2509e-03,  2.7107e-03, -8.0208e-03, -9.5079e-04,
        -1.4706e-03,  9.4040e-04,  3.3341e-03])"
bn9.running_mean,"tensor([0.3582, 0.5874, 0.3443, 0.6507, 0.4384, 0.7773, 0.6421, 0.5120, 0.3455,
        0.6503, 0.4143, 0.2075, 0.5447, 0.7930, 0.3719, 0.5134, 0.7546, 0.3429,
        0.4539, 0.4015, 0.4536, 0.4173, 0.3903, 0.3703, 0.5404, 0.7494, 0.4098,
        0.5191, 0.4112, 0.3197, 0.6155, 0.5106, 0.7191, 0.8406, 0.6212, 0.6810,
        0.2241, 0.6489, 0.3923, 0.4685, 0.5903, 0.4181, 0.4064, 0.4341, 0.5503,
        0.4576, 0.7132, 0.5182, 0.6016, 0.4716, 0.7290, 0.5892, 0.3985, 0.6327,
        0.5185, 0.4409, 0.3419, 0.3134, 1.1015, 0.4411, 0.6074, 0.4696, 0.6708,
        0.5896, 0.3961, 0.3147, 0.2908, 0.3182, 0.3112, 0.2901, 0.4245, 0.2315,
        0.3191, 0.3333, 0.3200, 0.3206, 0.1634, 0.2203, 0.2728, 0.2363, 0.3278,
        0.2851, 0.4150, 0.1642, 0.2126, 0.3111, 0.1236, 0.2794, 0.2556, 0.1897,
        0.2288, 0.3552, 0.2324, 0.3597, 0.3343, 0.3078, 0.2258, 0.4120, 0.4255,
        0.2047, 0.2130, 0.2578, 0.2873, 0.3063, 0.2326, 0.4615, 0.2768, 0.3756,
        0.3016, 0.2799, 0.2699, 0.2539, 0.1931, 0.2091, 0.3511, 0.3995, 0.2330,
        0.2638, 0.2310, 0.1445, 0.2182, 0.3747, 0.3242, 0.2591, 0.2323, 0.2182,
        0.3392, 0.2900])"
bn9.running_var,"tensor([0.7180, 0.9989, 0.3977, 0.7905, 0.7751, 0.7306, 0.5016, 0.5313, 0.5313,
        0.7901, 0.7998, 0.4096, 0.4593, 1.2251, 0.4406, 0.4495, 0.9941, 0.3185,
        0.5084, 0.3950, 0.4803, 0.3099, 0.3191, 0.3360, 0.4533, 1.1187, 0.6035,
        0.4470, 0.5126, 0.2308, 1.0927, 0.3185, 0.7311, 0.9498, 1.1890, 0.5479,
        0.2762, 0.5236, 0.4172, 0.9765, 0.7564, 1.0750, 0.5481, 0.7172, 0.4192,
        0.4221, 0.5121, 0.5930, 0.4634, 0.4690, 1.1758, 0.4817, 0.8107, 0.5003,
        0.4193, 0.5415, 0.3354, 0.2067, 0.9318, 0.4038, 0.5691, 0.4890, 0.5196,
        0.3965, 0.2188, 0.2125, 0.1879, 0.2433, 0.3391, 0.3184, 0.2824, 0.2648,
        0.2193, 0.1872, 0.2113, 0.1535, 0.0642, 0.0996, 0.2780, 0.1132, 0.1754,
        0.1345, 0.3301, 0.0783, 0.0929, 0.1810, 0.0532, 0.1830, 0.1686, 0.0975,
        0.3002, 0.2692, 0.2233, 0.1336, 0.1520, 0.2235, 0.1134, 0.2883, 0.3269,
        0.1077, 0.1628, 0.1566, 0.3220, 0.1826, 0.2818, 0.2082, 0.1549, 0.9384,
        0.1663, 0.4830, 0.1870, 0.4698, 0.1468, 0.1201, 0.1594, 0.2802, 0.2551,
        0.3687, 0.2137, 0.0734, 0.1408, 0.1678, 0.1733, 0.2596, 0.1325, 0.1771,
        0.1381, 0.2266])"
bn9.num_batches_tracked,tensor(23348)
encConv9.weight,"tensor([[[[ 1.9613e-02, -3.1375e-03,  1.5259e-02],
          [ 6.2311e-04, -2.6196e-02, -1.1167e-02],
          [ 9.2531e-03,  5.3819e-03, -3.3414e-04]],

         [[-4.1899e-03,  1.3341e-02, -1.8409e-02],
          [ 1.7320e-03,  1.8253e-02, -1.3671e-02],
          [-2.2782e-02,  3.6028e-03,  2.6218e-02]],

         [[-1.8447e-02, -2.6266e-02, -1.3640e-03],
          [-1.9081e-02,  1.9436e-02,  3.3205e-03],
          [-2.4316e-02,  8.9272e-03,  2.4311e-02]],

         ...,

         [[-2.8154e-02, -2.1435e-02, -6.5606e-03],
          [-5.2943e-03, -2.0524e-02,  7.4325e-03],
          [-2.7425e-02, -2.0547e-02, -1.3282e-02]],

         [[-1.9555e-02,  2.3126e-02,  5.9821e-03],
          [-8.3414e-03,  1.7212e-02,  2.0004e-02],
          [ 3.0622e-02, -7.1559e-05,  2.5573e-02]],

         [[-1.6644e-02, -8.6689e-03,  1.9341e-02],
          [ 1.3533e-02, -1.6750e-02,  1.9270e-02],
          [-8.1304e-03,  1.0351e-02, -1.3757e-02]]],


        [[[-1.2915e-02, -1.3625e-02,  1.6963e-02],
          [-1.4339e-02,  2.7307e-02,  1.3903e-02],
          [ 1.6048e-02,  9.6128e-03,  3.0145e-02]],

         [[-2.5667e-02, -1.5782e-02, -2.3023e-02],
          [ 1.4712e-03,  2.6746e-02,  1.6653e-02],
          [-2.3419e-02,  1.0939e-02,  1.8351e-02]],

         [[ 2.8127e-02, -1.8226e-02, -1.9710e-02],
          [ 7.1230e-03, -4.0045e-04, -5.0181e-03],
          [-2.2384e-02,  2.3354e-02, -1.3559e-02]],

         ...,

         [[ 2.3168e-02,  1.1080e-02, -5.1574e-03],
          [-1.5289e-02,  4.2943e-03,  1.7266e-02],
          [-7.7376e-03,  3.0729e-02,  5.4765e-03]],

         [[-1.9688e-02,  1.9613e-03, -9.9525e-03],
          [ 1.0988e-02,  1.9002e-02, -2.0246e-02],
          [-1.1652e-02, -4.8628e-03,  1.3672e-02]],

         [[-1.9867e-02, -1.0212e-02,  5.5691e-03],
          [ 6.9435e-04, -1.6195e-02,  2.1987e-02],
          [ 2.4722e-02,  9.9146e-03,  2.4995e-02]]],


        [[[ 1.4443e-02,  5.2053e-04,  1.6804e-02],
          [-4.2923e-03, -1.0916e-03,  2.9631e-02],
          [ 2.8204e-02,  1.6693e-02, -5.7076e-03]],

         [[ 1.5637e-02, -1.9782e-02, -3.1910e-03],
          [-1.0764e-02, -2.6400e-02,  2.4552e-02],
          [ 2.2305e-04, -1.4588e-02,  1.3131e-03]],

         [[-2.1882e-03,  2.6032e-02, -2.3546e-02],
          [-1.1643e-02, -8.7523e-03,  1.7573e-03],
          [-2.8246e-02,  1.8782e-03, -1.6675e-02]],

         ...,

         [[-2.3253e-02, -9.3914e-03,  5.5436e-03],
          [-1.1875e-02,  2.6835e-02,  2.6484e-02],
          [-2.1159e-02,  4.6815e-03,  1.0615e-02]],

         [[-2.5892e-02, -2.0743e-02,  9.8336e-03],
          [ 1.8734e-02, -8.7879e-03, -1.2561e-02],
          [-7.0619e-03, -1.1366e-02,  1.6260e-02]],

         [[ 1.4107e-02, -6.0985e-03,  1.0385e-02],
          [ 4.9621e-03,  1.5991e-02,  1.0986e-02],
          [-2.4762e-02,  3.6687e-03,  1.0992e-02]]],


        ...,


        [[[-2.4366e-02, -2.6423e-02, -1.7476e-02],
          [-5.2797e-03,  6.2786e-03,  3.0940e-02],
          [ 1.9112e-02, -1.0612e-02,  1.5595e-02]],

         [[ 4.7313e-03,  1.9913e-02, -4.9786e-03],
          [-4.2619e-03, -7.5110e-03, -2.2726e-02],
          [-2.1205e-02,  6.4296e-04,  2.1641e-02]],

         [[-1.2212e-02,  1.3893e-02, -1.7179e-02],
          [ 4.8623e-04,  1.9385e-02,  1.4989e-02],
          [ 1.2490e-02, -5.2582e-03, -2.7912e-02]],

         ...,

         [[ 2.1012e-02,  1.9903e-02, -1.6753e-02],
          [-8.6011e-03,  1.3127e-02, -1.9394e-02],
          [ 7.6641e-04, -2.6762e-02, -1.1132e-02]],

         [[-2.5356e-02, -1.9769e-02, -1.9277e-02],
          [-3.3464e-03, -2.6173e-03, -2.1084e-02],
          [ 3.2960e-02, -7.1061e-03, -2.4557e-02]],

         [[-6.0770e-03, -2.6985e-02,  2.4517e-02],
          [-1.9882e-03, -1.7750e-02,  2.6547e-02],
          [ 1.3639e-03,  6.9102e-03,  1.2246e-02]]],


        [[[-2.5797e-02,  1.1425e-02, -1.1257e-02],
          [-2.3623e-02,  1.1138e-02,  3.8071e-03],
          [ 1.0858e-02,  2.3709e-02, -1.4150e-02]],

         [[ 2.1748e-02,  1.5579e-02,  2.8569e-02],
          [-5.6205e-05,  2.6935e-02,  1.5696e-02],
          [-5.3423e-03, -1.6915e-02,  1.3150e-02]],

         [[-1.7236e-02, -3.6672e-03,  2.5613e-03],
          [ 7.7291e-04, -9.9885e-03, -1.3674e-02],
          [ 5.0186e-03,  1.8084e-02,  6.6503e-03]],

         ...,

         [[-2.5073e-02,  2.6955e-02, -6.5266e-03],
          [-1.9215e-02,  2.1752e-02, -2.2074e-02],
          [-2.2599e-02,  5.9530e-03,  2.7957e-02]],

         [[ 1.3226e-02, -6.0727e-03,  1.2718e-02],
          [ 2.0817e-02, -1.7622e-02,  3.4073e-03],
          [ 1.0588e-02,  2.4365e-03, -1.4455e-02]],

         [[-2.6167e-02, -1.5967e-02,  7.3261e-03],
          [ 1.3233e-02,  2.6973e-02,  1.4338e-03],
          [ 1.1992e-02,  1.7716e-02, -2.5273e-03]]],


        [[[ 6.0941e-03,  2.7088e-02,  1.5521e-03],
          [ 1.6174e-02,  1.2276e-02, -1.5594e-02],
          [ 2.1266e-02, -4.8721e-03,  1.7110e-02]],

         [[ 1.3403e-02,  1.3397e-02, -1.1383e-02],
          [-1.4438e-02,  3.8430e-03, -1.7976e-02],
          [-1.8425e-02, -2.8752e-02,  1.4478e-02]],

         [[-2.4749e-02, -6.4499e-03,  1.7770e-02],
          [-2.2311e-02,  1.1626e-02, -6.4840e-03],
          [ 1.2043e-02, -2.7214e-02,  2.2069e-02]],

         ...,

         [[-1.0265e-02, -2.0743e-02, -1.7806e-02],
          [-2.7562e-02,  2.4935e-02,  8.7972e-03],
          [ 5.6493e-03,  8.0425e-03,  9.9452e-03]],

         [[ 2.4993e-02, -2.2862e-02, -1.7162e-02],
          [ 9.9506e-03, -1.3757e-02, -1.3101e-02],
          [-6.2109e-03,  8.5334e-03,  1.8060e-02]],

         [[-4.7450e-03,  2.7937e-02,  1.4990e-02],
          [-1.7603e-02, -2.0967e-02,  1.4356e-02],
          [-5.1502e-03,  1.7812e-02, -2.7728e-02]]]])"
encConv9.bias,"tensor([-0.0331, -0.0342, -0.0224,  0.0263,  0.0092, -0.0034,  0.0109,  0.0203,
         0.0177,  0.0143,  0.0219,  0.0179,  0.0050,  0.0329,  0.0071, -0.0101,
         0.0118,  0.0187, -0.0042, -0.0259, -0.0114,  0.0244, -0.0205, -0.0234,
         0.0224,  0.0052,  0.0126,  0.0081,  0.0054, -0.0298,  0.0040, -0.0190,
         0.0032,  0.0204,  0.0023,  0.0182, -0.0066, -0.0085,  0.0089, -0.0344,
        -0.0342, -0.0089, -0.0207,  0.0348,  0.0180,  0.0043, -0.0341, -0.0077,
        -0.0056, -0.0058,  0.0068, -0.0206,  0.0162,  0.0136, -0.0158,  0.0068,
        -0.0213,  0.0254, -0.0228,  0.0249,  0.0086,  0.0155,  0.0189,  0.0189])"
bn10.weight,"tensor([1.0011, 0.9962, 0.9966, 0.9993, 0.9998, 0.9967, 0.9990, 0.9986, 1.0004,
        1.0011, 1.0025, 0.9969, 0.9942, 0.9987, 1.0006, 0.9994, 0.9944, 1.0000,
        0.9976, 1.0041, 0.9994, 0.9986, 0.9978, 1.0069, 0.9956, 0.9973, 1.0017,
        0.9999, 0.9998, 1.0024, 1.0019, 0.9979, 0.9985, 0.9959, 0.9917, 0.9993,
        0.9967, 0.9996, 1.0035, 1.0011, 0.9991, 1.0003, 0.9954, 0.9997, 1.0015,
        0.9993, 0.9960, 0.9935, 0.9947, 0.9987, 0.9964, 0.9954, 0.9982, 1.0014,
        1.0024, 0.9980, 0.9969, 1.0055, 0.9971, 0.9960, 0.9958, 1.0042, 0.9975,
        0.9998, 0.9930, 0.9938, 1.0006, 0.9951, 1.0035, 1.0017, 0.9928, 0.9972,
        0.9964, 0.9945, 1.0001, 1.0023, 1.0012, 1.0156, 1.0019, 1.0002, 0.9969,
        1.0071, 0.9928, 1.0044, 0.9979, 0.9988, 1.0034, 1.0046, 0.9943, 1.0041,
        0.9988, 0.9937, 0.9975, 1.0078, 1.0039, 1.0011, 1.0020, 0.9932, 0.9952,
        0.9980, 1.0023, 0.9986, 0.9992, 0.9969, 1.0009, 0.9951, 0.9939, 0.9999,
        0.9982, 0.9992, 0.9926, 0.9987, 1.0018, 1.0013, 0.9962, 0.9962, 0.9990,
        0.9994, 0.9964, 1.0027, 0.9963, 0.9976, 0.9956, 0.9993, 0.9961, 1.0001,
        0.9970, 0.9927, 1.0003, 0.9992, 0.9981, 1.0021, 1.0025, 0.9995, 1.0020,
        1.0047, 0.9955, 1.0023, 0.9960, 1.0000, 0.9991, 1.0023, 0.9993, 1.0022,
        1.0008, 1.0009, 0.9967, 0.9971, 1.0027, 1.0082, 1.0206, 0.9996, 0.9964,
        1.0077, 0.9955, 1.0099, 0.9979, 1.0010, 0.9980, 1.0074, 1.0039, 1.0080,
        1.0030, 0.9958, 0.9932, 1.0098, 0.9994, 1.0143, 1.0019, 1.0060, 1.0016,
        1.0047, 1.0008, 1.0000, 1.0092, 0.9984, 0.9978, 1.0057, 1.0070, 0.9993,
        0.9977, 0.9957, 1.0098, 1.0022, 0.9933, 0.9948, 1.0066, 1.0004, 1.0037,
        0.9951, 1.0000, 0.9957])"
bn10.bias,"tensor([-3.4399e-02,  2.2614e-02, -1.2232e-02,  2.1589e-02, -2.2921e-02,
         9.3268e-03,  7.6215e-03,  1.1151e-03, -1.5133e-02,  1.4133e-02,
        -3.9511e-02, -4.8570e-02,  1.0933e-02,  1.7244e-02,  2.5921e-02,
         1.9415e-02,  7.9370e-03, -5.0579e-03, -2.5064e-02,  1.1565e-03,
         1.1862e-02, -1.7372e-03,  2.6906e-03,  9.7442e-03,  4.0193e-03,
         2.0684e-02, -2.2265e-02,  2.1272e-02,  9.7160e-03, -8.8457e-03,
        -2.7180e-02,  1.3715e-02,  1.8841e-02,  6.9327e-03, -2.4014e-03,
         2.3719e-02, -2.7533e-02,  9.0175e-03,  1.7475e-03, -3.7079e-02,
        -1.4886e-02, -2.6423e-02, -3.9824e-03, -2.6978e-02, -1.3946e-02,
        -1.7691e-03,  1.6841e-02, -3.8242e-03,  8.9694e-03,  1.6959e-02,
         2.6401e-02,  7.1727e-03, -1.9260e-02,  1.6890e-03,  2.3002e-02,
        -6.4300e-03,  2.4272e-02,  1.7312e-02,  1.9091e-02,  1.3930e-02,
         8.7366e-03, -8.3956e-03, -5.3335e-03,  1.4240e-02,  2.4433e-02,
        -1.6411e-02,  8.5784e-03, -2.0640e-03, -3.0545e-02, -1.5777e-02,
         2.6551e-03, -6.0213e-04,  1.1472e-02,  1.1556e-02, -1.7921e-02,
        -6.7929e-03,  1.1677e-02,  2.2790e-02, -3.2195e-02,  1.9279e-02,
        -1.3260e-02,  1.2023e-02, -6.9646e-03,  5.3872e-05,  6.4342e-03,
        -8.1423e-03,  2.5767e-02,  8.7929e-03,  2.5257e-02,  3.0125e-02,
        -1.9479e-02, -8.9394e-03, -2.1469e-02,  1.8637e-03,  3.1264e-02,
        -1.8138e-04,  1.7247e-02,  1.6484e-02,  1.0631e-02, -7.9693e-03,
        -1.3833e-02,  2.4741e-03,  3.9162e-03,  1.5004e-02, -4.2949e-02,
         6.0637e-03, -3.4235e-03, -4.2197e-02,  8.2158e-03, -1.2109e-02,
        -6.4056e-03, -3.2587e-02, -1.8167e-02, -9.7952e-03,  5.0799e-03,
        -1.6204e-03, -1.9365e-02, -3.4333e-02, -1.7116e-02,  1.0355e-04,
         2.7166e-02, -1.2555e-02, -6.9569e-03, -1.7766e-02,  1.8158e-02,
        -1.4428e-02, -1.1130e-02,  1.5561e-02, -1.0939e-02, -1.5635e-02,
        -2.3463e-03, -5.9652e-03, -1.2029e-02, -2.9168e-02, -2.2675e-02,
         5.0874e-03, -1.6189e-02,  9.4609e-05,  1.1492e-02,  1.0641e-02,
        -2.3575e-02,  3.8493e-03,  9.5816e-04, -1.8146e-02, -4.8398e-03,
        -8.6861e-03,  4.9028e-03, -2.9126e-02, -1.4453e-03, -1.0933e-02,
        -4.3625e-02, -3.0633e-03, -1.7658e-02, -7.5321e-03, -2.2485e-02,
         1.3122e-03, -2.7722e-02, -1.7512e-02, -2.6726e-02,  1.9208e-02,
        -1.6785e-02,  4.8977e-04, -8.8797e-03, -3.5262e-02, -4.3092e-04,
         1.0770e-02, -5.2010e-03, -2.7427e-03, -2.0614e-02, -9.6000e-03,
        -1.4898e-02,  1.1800e-02, -1.1612e-02, -7.3455e-04,  1.7260e-02,
        -6.5227e-03, -1.7429e-02, -2.7612e-02, -1.9813e-02,  5.7739e-03,
         9.8826e-04, -2.6186e-02,  1.5531e-02, -3.4467e-03, -7.4962e-03,
        -1.0338e-02, -4.6590e-02,  7.0509e-03, -7.8927e-03, -6.3503e-03,
        -6.4986e-03, -1.8559e-02])"
bn10.running_mean,"tensor([0.3582, 0.5874, 0.3443, 0.6507, 0.4384, 0.7773, 0.6421, 0.5120, 0.3455,
        0.6503, 0.4143, 0.2075, 0.5447, 0.7930, 0.3719, 0.5134, 0.7546, 0.3429,
        0.4539, 0.4015, 0.4536, 0.4173, 0.3903, 0.3703, 0.5404, 0.7494, 0.4098,
        0.5191, 0.4112, 0.3197, 0.6155, 0.5106, 0.7191, 0.8406, 0.6212, 0.6810,
        0.2241, 0.6489, 0.3923, 0.4685, 0.5903, 0.4181, 0.4064, 0.4341, 0.5503,
        0.4576, 0.7132, 0.5182, 0.6016, 0.4716, 0.7290, 0.5892, 0.3985, 0.6327,
        0.5185, 0.4409, 0.3419, 0.3134, 1.1015, 0.4411, 0.6074, 0.4696, 0.6708,
        0.5896, 0.3961, 0.3147, 0.2908, 0.3182, 0.3112, 0.2901, 0.4245, 0.2315,
        0.3191, 0.3333, 0.3200, 0.3206, 0.1634, 0.2203, 0.2728, 0.2363, 0.3278,
        0.2851, 0.4150, 0.1642, 0.2126, 0.3111, 0.1236, 0.2794, 0.2556, 0.1897,
        0.2288, 0.3552, 0.2324, 0.3597, 0.3343, 0.3078, 0.2258, 0.4120, 0.4255,
        0.2047, 0.2130, 0.2578, 0.2873, 0.3063, 0.2326, 0.4615, 0.2768, 0.3756,
        0.3016, 0.2799, 0.2699, 0.2539, 0.1931, 0.2091, 0.3511, 0.3995, 0.2330,
        0.2638, 0.2310, 0.1445, 0.2182, 0.3747, 0.3242, 0.2591, 0.2323, 0.2182,
        0.3392, 0.2900, 0.2894, 0.3220, 0.2747, 0.3046, 0.3862, 0.4020, 0.3062,
        0.3207, 0.3246, 0.3101, 0.4598, 0.3087, 0.3641, 0.2911, 0.3423, 0.2917,
        0.3056, 0.3338, 0.2872, 0.2574, 0.2305, 0.2915, 0.2417, 0.3369, 0.3371,
        0.2958, 0.4004, 0.2651, 0.3673, 0.2494, 0.3473, 0.2285, 0.3017, 0.2461,
        0.2649, 0.3323, 0.2628, 0.2154, 0.2756, 0.2022, 0.2386, 0.2402, 0.2400,
        0.2762, 0.2552, 0.2223, 0.1795, 0.2970, 0.3355, 0.4254, 0.3229, 0.3337,
        0.3206, 0.3262, 0.3102, 0.2170, 0.2918, 0.2727, 0.3038, 0.3132, 0.2416,
        0.2274, 0.2431, 0.2842])"
bn10.running_var,"tensor([0.7180, 0.9989, 0.3977, 0.7905, 0.7751, 0.7306, 0.5016, 0.5313, 0.5313,
        0.7901, 0.7998, 0.4096, 0.4593, 1.2251, 0.4406, 0.4495, 0.9941, 0.3185,
        0.5084, 0.3950, 0.4803, 0.3099, 0.3191, 0.3360, 0.4533, 1.1187, 0.6035,
        0.4470, 0.5126, 0.2308, 1.0927, 0.3185, 0.7311, 0.9498, 1.1890, 0.5479,
        0.2762, 0.5236, 0.4172, 0.9765, 0.7564, 1.0750, 0.5481, 0.7172, 0.4192,
        0.4221, 0.5121, 0.5930, 0.4634, 0.4690, 1.1758, 0.4817, 0.8107, 0.5003,
        0.4193, 0.5415, 0.3354, 0.2067, 0.9318, 0.4038, 0.5691, 0.4890, 0.5196,
        0.3965, 0.2188, 0.2125, 0.1879, 0.2433, 0.3391, 0.3184, 0.2824, 0.2648,
        0.2193, 0.1872, 0.2113, 0.1535, 0.0642, 0.0996, 0.2780, 0.1132, 0.1754,
        0.1345, 0.3301, 0.0783, 0.0929, 0.1810, 0.0532, 0.1830, 0.1686, 0.0975,
        0.3002, 0.2692, 0.2233, 0.1336, 0.1520, 0.2235, 0.1134, 0.2883, 0.3269,
        0.1077, 0.1628, 0.1566, 0.3220, 0.1826, 0.2818, 0.2082, 0.1549, 0.9384,
        0.1663, 0.4830, 0.1870, 0.4698, 0.1468, 0.1201, 0.1594, 0.2802, 0.2551,
        0.3687, 0.2137, 0.0734, 0.1408, 0.1678, 0.1733, 0.2596, 0.1325, 0.1771,
        0.1381, 0.2266, 0.1979, 0.6983, 0.2417, 0.1462, 0.1865, 0.2557, 0.4115,
        0.2044, 0.1870, 0.2125, 0.3563, 0.1317, 0.4656, 0.1442, 0.3546, 0.2816,
        0.3069, 0.3749, 0.1482, 0.2229, 0.1532, 0.1745, 0.1657, 0.1899, 0.6579,
        0.1312, 0.2572, 0.1069, 0.9488, 0.2476, 0.4535, 0.1356, 0.2288, 0.1411,
        0.1355, 0.4857, 0.1587, 0.1264, 0.1921, 0.1157, 0.3178, 0.2216, 0.2870,
        0.1429, 0.2550, 0.1744, 0.0828, 0.5072, 0.4850, 0.2632, 0.1989, 0.2495,
        0.2271, 0.5080, 0.1536, 0.0989, 0.2113, 0.1649, 0.6005, 0.2144, 0.1316,
        0.1381, 0.1355, 0.1638])"
bn10.num_batches_tracked,tensor(23348)
encConv10.weight,"tensor([[[[ 1.3116e-02,  7.3114e-03,  1.9984e-02],
          [ 6.6651e-03, -1.1754e-02, -2.9709e-02],
          [-2.3170e-02,  1.6656e-03,  1.7319e-02]],

         [[ 4.4399e-03,  2.4892e-02, -2.1098e-02],
          [-2.6169e-02, -5.6919e-03, -8.4720e-03],
          [ 1.9160e-02,  1.9754e-02,  1.2849e-02]],

         [[-8.9022e-03, -3.5361e-03, -2.0624e-03],
          [-8.6555e-03,  1.3696e-02,  1.3472e-02],
          [-1.6379e-02, -6.3669e-03, -1.1202e-02]],

         ...,

         [[ 8.0433e-03,  6.9755e-03, -4.2624e-03],
          [-1.9979e-02, -8.2356e-04, -5.5402e-03],
          [-2.2682e-02, -3.5065e-03, -1.8828e-02]],

         [[-8.2693e-03,  1.2825e-02, -8.3786e-03],
          [-8.0266e-03,  1.2188e-02, -2.4147e-02],
          [ 1.8138e-02, -2.0583e-02,  1.8336e-03]],

         [[-1.2673e-02, -1.9217e-02,  8.1849e-03],
          [-2.4569e-02, -1.3616e-02, -9.5333e-03],
          [ 2.0561e-02, -2.6842e-03, -2.4241e-03]]],


        [[[-1.3492e-02,  1.9908e-02, -7.9509e-04],
          [ 4.9736e-03, -9.4478e-03,  4.1973e-03],
          [-2.4394e-02,  2.2994e-02, -1.3245e-02]],

         [[ 3.6349e-03, -7.5411e-04, -9.8308e-03],
          [-1.5954e-02, -7.6826e-03,  8.6098e-04],
          [ 1.2514e-02,  2.1231e-02, -1.2214e-02]],

         [[-1.2698e-03, -4.1782e-03, -8.4683e-03],
          [ 4.1063e-03,  2.0211e-02, -1.0100e-02],
