0,1
bn1.weight,"tensor([1.0199, 0.9673, 0.9499])"
bn1.bias,"tensor([0.0844, 0.0387, 0.0559])"
bn1.running_mean,"tensor([0.5155, 0.4280, 0.3799])"
bn1.running_var,"tensor([0.0937, 0.0809, 0.0798])"
bn1.num_batches_tracked,tensor(22450)
encConv1.weight,"tensor([[[[ 0.0778,  0.0160, -0.0706, -0.0011],
          [ 0.1049, -0.0054, -0.1434, -0.0229],
          [-0.0824,  0.0316, -0.0646,  0.0515],
          [-0.0078,  0.0519, -0.1156,  0.0186]],

         [[ 0.0558,  0.0446,  0.0542,  0.1170],
          [ 0.0170,  0.0191, -0.0745, -0.0773],
          [ 0.0378, -0.0203, -0.0959, -0.0916],
          [ 0.0999, -0.0331, -0.0074,  0.1314]],

         [[ 0.0091, -0.0977,  0.0511, -0.1312],
          [-0.0219,  0.0044, -0.1285,  0.0634],
          [-0.1048,  0.0277, -0.0956, -0.1319],
          [ 0.0807, -0.0078, -0.1218, -0.0319]]],


        [[[ 0.0214, -0.0494,  0.0272, -0.0482],
          [-0.1421, -0.0807,  0.0924, -0.0315],
          [ 0.0380,  0.0726,  0.0426,  0.1287],
          [ 0.1093,  0.1360,  0.0639,  0.0529]],

         [[ 0.0305, -0.0383, -0.0301, -0.0021],
          [-0.0504, -0.0238, -0.0804, -0.1361],
          [ 0.1131,  0.0560,  0.1452,  0.0327],
          [-0.1159,  0.0675,  0.1028,  0.0138]],

         [[-0.1307,  0.1069,  0.0116,  0.0813],
          [-0.1283, -0.1297,  0.0878,  0.0599],
          [ 0.1264,  0.1340, -0.1000,  0.0419],
          [ 0.0118,  0.0715,  0.1128, -0.0994]]],


        [[[ 0.0358, -0.1108, -0.0898, -0.0554],
          [-0.1438, -0.1177, -0.1040,  0.0792],
          [ 0.0800, -0.1409,  0.0017,  0.1277],
          [ 0.0174, -0.0026, -0.0308,  0.1262]],

         [[ 0.0505,  0.0356,  0.0898,  0.0677],
          [-0.1241, -0.1212,  0.1203,  0.1062],
          [ 0.0170,  0.0440,  0.1274,  0.0820],
          [-0.0132,  0.0241,  0.0063, -0.0519]],

         [[-0.1217, -0.1028,  0.0607, -0.1192],
          [-0.1401, -0.0658, -0.1419,  0.0433],
          [-0.0862, -0.0724, -0.0431, -0.1207],
          [ 0.0275, -0.0251,  0.1103,  0.0230]]],


        ...,


        [[[-0.1331, -0.0561, -0.0870, -0.1363],
          [ 0.1176,  0.1212,  0.0623, -0.1032],
          [-0.1069,  0.0966,  0.0568,  0.0156],
          [-0.0950, -0.0476, -0.1518,  0.0554]],

         [[-0.0403, -0.0350, -0.0357, -0.0809],
          [ 0.0033,  0.0968, -0.0260, -0.0968],
          [ 0.0278, -0.0307,  0.0244,  0.1086],
          [-0.1169,  0.0331,  0.0286,  0.0353]],

         [[ 0.0225,  0.1334, -0.1145,  0.0915],
          [-0.1097, -0.0502, -0.1153, -0.1228],
          [-0.0623, -0.0902, -0.1025,  0.1016],
          [-0.1258,  0.0812,  0.0198, -0.1255]]],


        [[[ 0.0587, -0.0357, -0.0185,  0.1220],
          [ 0.0768, -0.1320, -0.0474, -0.0305],
          [-0.1385, -0.0962, -0.0916,  0.0752],
          [ 0.0461, -0.1125, -0.0207,  0.0054]],

         [[-0.0360, -0.0126,  0.0005, -0.1243],
          [ 0.0963, -0.1387,  0.0899,  0.0597],
          [ 0.0863, -0.0459,  0.0613, -0.1087],
          [-0.1191,  0.0866, -0.0107, -0.0603]],

         [[ 0.0488, -0.0336, -0.1074, -0.0177],
          [ 0.0680,  0.1153, -0.0423,  0.1126],
          [-0.1223,  0.0120,  0.0422, -0.0512],
          [-0.0669,  0.0542,  0.1063, -0.0965]]],


        [[[ 0.0361,  0.0272,  0.0835, -0.1165],
          [ 0.1137, -0.1047, -0.1276, -0.0794],
          [ 0.0262,  0.1015,  0.0079, -0.0546],
          [ 0.0650, -0.1343, -0.0650, -0.0003]],

         [[ 0.0579, -0.1329, -0.0252, -0.0175],
          [-0.0457, -0.1332,  0.0642, -0.1328],
          [-0.1153, -0.0339, -0.0958,  0.0950],
          [-0.0838,  0.1260, -0.1049, -0.0026]],

         [[-0.0320,  0.0753,  0.1219, -0.0959],
          [-0.0245, -0.1205,  0.0839, -0.0356],
          [ 0.1044,  0.0903,  0.0922,  0.1336],
          [-0.0864, -0.1125, -0.0508,  0.0276]]]])"
encConv1.bias,"tensor([-0.0008, -0.0426,  0.0981,  0.0871, -0.0596,  0.0819,  0.1169, -0.0009,
         0.0664, -0.0391, -0.0533, -0.0606, -0.1279,  0.1000, -0.1331,  0.0682,
        -0.1504, -0.1826,  0.1277,  0.1476,  0.0443,  0.0764,  0.0158,  0.0839,
        -0.1022,  0.0844,  0.0799,  0.0855,  0.1288,  0.0029,  0.1488,  0.0807,
         0.0049, -0.1430,  0.0586,  0.1877,  0.1381,  0.0282,  0.1376,  0.1711,
        -0.0675, -0.0951,  0.0429,  0.0677, -0.1102, -0.1835,  0.1170,  0.0583,
         0.0358, -0.0858,  0.0587,  0.0702, -0.0377, -0.0881,  0.0419, -0.1746,
        -0.0413, -0.0410, -0.0447, -0.0504,  0.0096, -0.1360,  0.0844, -0.1347])"
bn2.weight,"tensor([0.9985, 0.9989, 0.9986, 1.0040, 1.0014, 1.0000, 1.0024, 1.0032, 0.9986,
        0.9993, 0.9930, 1.0015, 0.9905, 0.9966, 1.0015, 0.9972, 0.9974, 1.0013,
        0.9990, 1.0012, 1.0026, 0.9996, 1.0014, 1.0016, 1.0015, 1.0051, 0.9967,
        1.0010, 1.0015, 0.9979, 0.9976, 1.0031, 0.9974, 0.9950, 0.9982, 0.9937,
        1.0016, 1.0020, 0.9986, 1.0025, 0.9984, 0.9996, 0.9972, 1.0011, 1.0048,
        1.0040, 1.0028, 1.0012, 0.9960, 1.0008, 0.9974, 1.0048, 0.9994, 1.0006,
        0.9975, 0.9996, 1.0005, 1.0043, 1.0009, 0.9968, 0.9963, 1.0015, 0.9981,
        0.9998])"
bn2.bias,"tensor([ 1.3598e-03,  6.8898e-03,  7.0617e-03, -8.4908e-03, -2.1002e-02,
        -3.6863e-04, -6.4793e-03, -2.3213e-02, -7.9037e-03, -9.8125e-03,
        -8.3004e-03, -1.7425e-02,  1.3073e-02, -1.7092e-03, -5.6378e-03,
        -1.2112e-02, -1.3163e-02, -2.3598e-02, -7.9653e-03, -1.2928e-02,
        -4.7534e-05,  3.3314e-03, -2.3434e-02, -1.2791e-02, -1.6456e-02,
        -1.7667e-02, -5.7365e-03, -4.1754e-03, -8.6169e-03, -7.4526e-03,
        -2.0373e-03, -1.8192e-03, -1.0966e-02, -1.0006e-02, -1.3496e-02,
        -3.5588e-03, -1.1674e-02, -1.4779e-02, -2.2660e-02, -6.9919e-03,
        -2.8642e-04, -1.5662e-02,  3.5492e-03, -3.3345e-03, -1.8614e-02,
        -2.6951e-02, -1.6246e-02,  2.0635e-03, -8.0258e-03, -6.0095e-03,
        -3.7842e-03, -7.4705e-03,  4.0806e-03,  3.2856e-03,  1.9801e-03,
        -1.5471e-02, -1.0829e-02, -2.0534e-02, -1.6605e-02, -1.2126e-02,
         6.2317e-03, -6.3304e-03, -1.3434e-02, -2.5403e-02])"
bn2.running_mean,"tensor([0.2336, 0.3268, 0.2933, 0.5533, 0.4083, 0.1537, 0.4706, 0.5615, 0.3691,
        0.1378, 0.1723, 0.3702, 0.0844, 0.2878, 0.2293, 0.3910, 0.1438, 0.0521,
        0.2195, 0.2013, 0.1724, 0.1575, 0.3494, 0.4620, 0.3571, 0.2317, 0.2752,
        0.6846, 0.3090, 0.1031, 0.4894, 0.1248, 0.2306, 0.1580, 0.4177, 0.2155,
        0.1579, 0.2270, 0.3613, 0.1950, 0.3933, 0.1593, 0.2218, 0.1472, 0.0809,
        0.0574, 0.2390, 0.1831, 0.1830, 0.4199, 0.1688, 0.1837, 0.4601, 0.1875,
        0.2524, 0.0557, 0.3656, 0.2289, 0.2465, 0.2839, 0.1782, 0.3034, 0.2341,
        0.1864])"
bn2.running_var,"tensor([0.0831, 0.1842, 0.1209, 0.4613, 0.2876, 0.0384, 0.3514, 0.5162, 0.2058,
        0.0376, 0.0529, 0.2715, 0.0291, 0.1338, 0.1069, 0.2266, 0.0486, 0.0093,
        0.0863, 0.0403, 0.0637, 0.0331, 0.2022, 0.3440, 0.2313, 0.0640, 0.0970,
        0.8003, 0.1016, 0.0185, 0.3369, 0.0228, 0.0890, 0.0436, 0.3812, 0.0556,
        0.0213, 0.0790, 0.1986, 0.0234, 0.2918, 0.0564, 0.0645, 0.0311, 0.0157,
        0.0113, 0.0867, 0.0522, 0.0710, 0.2894, 0.0393, 0.0396, 0.4350, 0.0801,
        0.0934, 0.0098, 0.2254, 0.0933, 0.1508, 0.1228, 0.0885, 0.1805, 0.0850,
        0.0740])"
bn2.num_batches_tracked,tensor(22450)
encConv2.weight,"tensor([[[[ 3.8978e-02, -1.2823e-02, -3.6406e-02],
          [ 2.8289e-02, -3.7598e-02, -3.5896e-02],
          [-3.0702e-03, -3.9212e-03, -1.5672e-02]],

         [[-2.6045e-02, -3.0499e-02,  2.5405e-02],
          [-1.3697e-02, -1.5339e-02, -2.3156e-02],
          [ 2.4091e-03, -1.4842e-02,  4.1265e-03]],

         [[-5.0214e-03, -2.7752e-03, -2.6753e-02],
          [ 2.1092e-02, -8.3329e-03,  3.9519e-02],
          [ 1.9646e-02,  2.7503e-02, -1.7969e-02]],

         ...,

         [[-2.3747e-02, -2.4690e-02,  2.7490e-02],
          [-4.8359e-03,  4.0918e-02,  2.7882e-02],
          [ 3.1576e-02, -2.5106e-02,  5.5305e-03]],

         [[ 3.8354e-02, -7.4829e-04,  3.8274e-02],
          [-2.7838e-02,  2.4571e-03,  8.9486e-03],
          [-4.0243e-03,  9.7392e-03,  8.5557e-03]],

         [[-2.4723e-03, -1.7127e-03,  2.7970e-02],
          [-1.1596e-02, -1.8462e-02,  3.5272e-03],
          [ 2.2090e-02,  3.0470e-02,  8.3231e-05]]],


        [[[-2.5632e-02,  1.9748e-02, -3.3705e-02],
          [ 1.1188e-02, -3.5366e-02,  3.5447e-02],
          [-5.1740e-03, -4.4233e-02,  2.0587e-02]],

         [[-3.3758e-02, -1.6456e-03, -9.9008e-04],
          [-2.8587e-02, -3.3085e-02,  2.3145e-02],
          [-3.7182e-02, -7.7635e-03,  2.2155e-02]],

         [[ 2.9485e-02,  1.7728e-02, -4.5140e-02],
          [-3.0041e-02, -2.2987e-02, -3.4483e-02],
          [-1.2870e-02, -2.0903e-02,  2.5131e-02]],

         ...,

         [[ 2.4779e-02, -2.7729e-02,  3.3047e-02],
          [-2.8199e-02, -2.4648e-03, -2.8100e-02],
          [ 2.8996e-02, -2.2021e-02,  1.0297e-02]],

         [[-2.9473e-04,  1.5167e-02,  3.8133e-02],
          [-3.2227e-02,  2.7304e-02, -5.5052e-03],
          [-1.1829e-02, -2.4890e-02,  1.6508e-03]],

         [[-2.0068e-02, -3.8279e-02,  4.5076e-03],
          [ 6.2422e-03,  1.5761e-02, -3.2335e-02],
          [ 3.1720e-02, -1.5074e-02, -4.6314e-02]]],


        [[[ 9.9294e-03,  2.9762e-02,  3.3089e-02],
          [-3.8368e-02, -1.6701e-02, -7.6453e-03],
          [-3.8404e-02, -2.5259e-02,  3.8573e-02]],

         [[-1.9532e-03,  4.5951e-03,  1.5124e-02],
          [ 2.1670e-02, -1.4965e-02, -5.5971e-03],
          [-3.5253e-02, -2.7883e-02, -3.8709e-02]],

         [[ 2.1683e-02, -1.7382e-02,  8.5179e-03],
          [ 2.4936e-02, -3.8971e-02, -3.8923e-02],
          [ 4.3107e-02, -3.0420e-02, -9.2235e-03]],

         ...,

         [[-2.5991e-02,  2.6841e-02, -3.1253e-03],
          [ 3.9088e-03,  3.3247e-02, -2.4084e-02],
          [ 9.9298e-03, -3.0998e-02,  5.1224e-05]],

         [[-2.2691e-03, -2.6423e-03, -3.1555e-02],
          [ 8.0911e-04,  3.3202e-02,  1.6446e-02],
          [ 3.0349e-02, -3.5112e-02, -1.0173e-02]],

         [[-2.1230e-02,  4.0055e-02,  2.2765e-03],
          [ 3.8355e-02,  2.8762e-02,  2.4686e-02],
          [-2.0676e-02,  4.2164e-02, -1.1608e-02]]],


        ...,


        [[[-1.0247e-02, -2.3753e-02,  1.3220e-02],
          [-3.8502e-02, -8.8215e-03, -1.9665e-02],
          [-2.9474e-02, -4.5130e-02,  1.2680e-02]],

         [[ 1.8121e-02, -3.9974e-02,  3.7480e-02],
          [-2.5238e-05, -9.8267e-03,  3.6743e-02],
          [ 1.9889e-02,  3.5157e-02, -2.1668e-02]],

         [[ 1.1061e-02, -2.4248e-02,  8.3003e-03],
          [-9.0147e-03, -5.6288e-03,  1.1268e-02],
          [ 2.4224e-03, -3.4539e-02, -1.3865e-02]],

         ...,

         [[-2.3620e-02, -3.8464e-02, -3.9673e-02],
          [ 5.5193e-03, -2.7640e-02,  9.6077e-03],
          [-2.5161e-02,  3.1450e-02,  1.4732e-02]],

         [[-3.8385e-02,  9.2814e-03, -3.4863e-02],
          [-1.2482e-02,  2.2675e-02, -1.7986e-02],
          [-8.0974e-03, -3.5340e-03,  1.4793e-02]],

         [[ 1.4317e-02,  2.6786e-02, -3.9212e-02],
          [-1.7187e-02,  3.3999e-02,  2.0880e-05],
          [ 5.4150e-03,  2.0376e-02,  1.5446e-02]]],


        [[[ 1.1757e-02, -3.1469e-02,  1.2377e-02],
          [ 2.8415e-02, -2.1727e-03,  2.6399e-04],
          [-1.4253e-02, -2.2842e-02, -1.3971e-02]],

         [[ 1.0424e-02, -1.6211e-03,  1.1570e-02],
          [-3.1304e-02, -1.7479e-02,  1.4423e-02],
          [ 3.4718e-03, -1.1492e-02,  1.5537e-02]],

         [[-1.2697e-02,  4.3075e-03,  3.9331e-02],
          [-2.8816e-02,  2.1905e-02, -4.6682e-03],
          [-1.8322e-02, -1.9313e-02,  2.4841e-02]],

         ...,

         [[-3.3919e-02,  7.2366e-03,  1.1564e-02],
          [-2.2341e-02,  2.3928e-03,  3.5069e-02],
          [ 3.6553e-02,  1.0603e-02,  3.1088e-02]],

         [[ 3.7637e-02, -3.8943e-02, -9.5451e-03],
          [ 3.1974e-02,  1.2834e-02,  3.5613e-03],
          [-6.9006e-03, -1.0696e-02,  3.1439e-02]],

         [[-7.0091e-03,  2.3243e-02,  3.6819e-02],
          [-5.1856e-03,  7.5191e-03,  4.5859e-02],
          [ 2.3136e-02, -3.3701e-02,  1.2908e-02]]],


        [[[ 1.4096e-03, -3.3986e-02,  4.1723e-02],
          [-2.3353e-02,  2.6956e-02,  1.3188e-02],
          [-3.1995e-02, -2.7663e-02,  1.4459e-02]],

         [[-2.3114e-02,  2.8051e-02,  1.0990e-02],
          [-4.0801e-02,  3.1004e-03, -4.1210e-02],
          [-3.6515e-02,  1.5914e-02, -2.8348e-02]],

         [[-2.1117e-02, -2.7261e-02,  4.3782e-03],
          [-2.2718e-02, -1.7119e-02, -1.2612e-02],
          [ 1.3251e-02,  1.6734e-02, -2.2247e-02]],

         ...,

         [[ 1.2113e-02,  7.1836e-03, -1.8732e-02],
          [ 3.1831e-02,  1.8895e-02,  7.9944e-03],
          [-2.4004e-04,  4.4551e-02, -2.8834e-02]],

         [[-1.4090e-02, -1.1772e-02,  4.4982e-03],
          [ 3.3709e-02,  3.9477e-03,  4.0057e-02],
          [ 2.2058e-02, -1.5198e-02,  4.3226e-02]],

         [[-3.5673e-02, -3.8496e-02, -1.8301e-02],
          [-2.6480e-02, -7.4087e-03, -3.6491e-02],
          [ 2.0644e-02, -1.5898e-02, -3.3029e-02]]]])"
encConv2.bias,"tensor([ 0.0172, -0.0374, -0.0135, -0.0351, -0.0523, -0.0297, -0.0368,  0.0218,
        -0.0039,  0.0096,  0.0211, -0.0238, -0.0193,  0.0102,  0.0173, -0.0620,
        -0.0332, -0.0217,  0.0508,  0.0169,  0.0304,  0.0173, -0.0387, -0.0259,
         0.0205,  0.0324, -0.0733, -0.0307,  0.0061,  0.0282,  0.0071,  0.0246,
         0.0125, -0.0101, -0.0270,  0.0225, -0.0311,  0.0057, -0.0326, -0.0071,
        -0.0244,  0.0168,  0.0190, -0.0093, -0.0207, -0.0200,  0.0120,  0.0104,
         0.0259, -0.0243, -0.0004,  0.0004, -0.0248,  0.0230,  0.0292, -0.0352,
         0.0059,  0.0051, -0.0416,  0.0214,  0.0341, -0.0200, -0.0111, -0.0169])"
bn3.weight,"tensor([0.9983, 1.0005, 0.9977, 1.0005, 0.9986, 0.9993, 1.0012, 0.9991, 0.9993,
        0.9966, 0.9953, 1.0001, 0.9962, 1.0015, 0.9969, 0.9999, 0.9970, 0.9956,
        0.9999, 1.0013, 0.9974, 0.9978, 0.9995, 0.9979, 0.9983, 0.9997, 0.9993,
        0.9986, 0.9970, 0.9993, 1.0024, 0.9985, 1.0001, 0.9966, 0.9987, 0.9993,
        0.9999, 0.9966, 0.9995, 1.0017, 0.9977, 0.9998, 0.9984, 0.9989, 0.9966,
        0.9979, 0.9979, 0.9997, 0.9985, 0.9989, 1.0019, 0.9990, 0.9979, 0.9993,
        0.9970, 0.9960, 0.9988, 0.9980, 0.9979, 0.9959, 0.9993, 0.9983, 1.0004,
        0.9966, 0.9972, 1.0023, 1.0034, 1.0020, 1.0019, 0.9994, 0.9996, 1.0052,
        1.0013, 1.0005, 1.0007, 1.0025, 1.0029, 1.0012, 0.9985, 1.0051, 1.0011,
        0.9982, 1.0061, 0.9981, 1.0000, 1.0021, 1.0020, 1.0010, 0.9995, 0.9977,
        1.0020, 1.0014, 1.0017, 1.0010, 1.0018, 1.0003, 1.0056, 1.0026, 0.9986,
        0.9987, 0.9994, 1.0002, 1.0002, 1.0046, 0.9982, 1.0001, 0.9992, 1.0013,
        1.0001, 1.0017, 0.9984, 0.9987, 0.9986, 1.0024, 1.0002, 1.0094, 0.9993,
        1.0008, 0.9986, 1.0009, 1.0006, 0.9992, 1.0015, 0.9984, 1.0001, 1.0001,
        1.0072, 0.9973])"
bn3.bias,"tensor([ 0.0056,  0.0112, -0.0012,  0.0143, -0.0060,  0.0026,  0.0181,  0.0018,
        -0.0207,  0.0012, -0.0093,  0.0156,  0.0081, -0.0053, -0.0133,  0.0135,
        -0.0009, -0.0088, -0.0015, -0.0019,  0.0053,  0.0218,  0.0002,  0.0057,
        -0.0006, -0.0150, -0.0027, -0.0040, -0.0185, -0.0187,  0.0046,  0.0023,
         0.0097, -0.0003,  0.0078, -0.0047, -0.0179, -0.0046, -0.0006, -0.0047,
         0.0039,  0.0045, -0.0039, -0.0027, -0.0220, -0.0042, -0.0096,  0.0167,
        -0.0093,  0.0145,  0.0192,  0.0006,  0.0103,  0.0033,  0.0164,  0.0036,
        -0.0050,  0.0002, -0.0088, -0.0002,  0.0015,  0.0047, -0.0187, -0.0149,
        -0.0129, -0.0039,  0.0092,  0.0161, -0.0157, -0.0032, -0.0018,  0.0034,
        -0.0218, -0.0029, -0.0357,  0.0253, -0.0057,  0.0022, -0.0024, -0.0185,
         0.0098,  0.0110, -0.0202, -0.0035, -0.0065,  0.0146,  0.0019, -0.0097,
         0.0126, -0.0173, -0.0224, -0.0168, -0.0106, -0.0182, -0.0132, -0.0282,
         0.0072, -0.0082, -0.0005, -0.0181,  0.0037, -0.0206, -0.0067, -0.0040,
         0.0076, -0.0228,  0.0145, -0.0299, -0.0068, -0.0025, -0.0005, -0.0029,
        -0.0248,  0.0059,  0.0124,  0.0251,  0.0058,  0.0005,  0.0099, -0.0178,
        -0.0009, -0.0038, -0.0165,  0.0034,  0.0102, -0.0184, -0.0274,  0.0034])"
bn3.running_mean,"tensor([0.2336, 0.3268, 0.2933, 0.5533, 0.4083, 0.1537, 0.4706, 0.5615, 0.3691,
        0.1378, 0.1723, 0.3702, 0.0844, 0.2878, 0.2293, 0.3910, 0.1438, 0.0521,
        0.2195, 0.2013, 0.1724, 0.1575, 0.3494, 0.4620, 0.3571, 0.2317, 0.2752,
        0.6846, 0.3090, 0.1031, 0.4894, 0.1248, 0.2306, 0.1580, 0.4177, 0.2155,
        0.1579, 0.2270, 0.3613, 0.1950, 0.3933, 0.1593, 0.2218, 0.1472, 0.0809,
        0.0574, 0.2390, 0.1831, 0.1830, 0.4199, 0.1688, 0.1837, 0.4601, 0.1875,
        0.2524, 0.0557, 0.3656, 0.2289, 0.2465, 0.2839, 0.1782, 0.3034, 0.2341,
        0.1864, 0.4572, 0.4864, 0.1999, 0.2197, 0.2103, 0.1986, 0.1693, 0.4849,
        0.1422, 0.2658, 0.3303, 0.1389, 0.3604, 0.4806, 0.5984, 0.2175, 0.2352,
        0.4561, 0.4897, 0.2745, 0.6231, 0.2017, 0.3111, 0.6118, 0.3198, 0.2092,
        0.1722, 0.5534, 0.5362, 0.5463, 0.6564, 0.5108, 0.1979, 0.5578, 0.1946,
        0.6042, 0.6484, 0.2143, 0.4929, 0.5584, 0.1959, 0.3711, 0.1977, 0.3460,
        0.2105, 0.2524, 0.5921, 0.5406, 0.3926, 0.3167, 0.4938, 0.5061, 0.1834,
        0.5773, 0.2489, 0.2658, 0.4607, 0.2584, 0.2753, 0.2436, 0.3616, 0.6010,
        0.3769, 0.5604])"
bn3.running_var,"tensor([0.0831, 0.1842, 0.1209, 0.4613, 0.2876, 0.0384, 0.3514, 0.5162, 0.2058,
        0.0376, 0.0529, 0.2715, 0.0291, 0.1338, 0.1069, 0.2266, 0.0486, 0.0093,
        0.0863, 0.0403, 0.0637, 0.0331, 0.2022, 0.3440, 0.2313, 0.0640, 0.0970,
        0.8003, 0.1016, 0.0185, 0.3369, 0.0228, 0.0890, 0.0436, 0.3812, 0.0556,
        0.0213, 0.0790, 0.1986, 0.0234, 0.2918, 0.0564, 0.0645, 0.0311, 0.0157,
        0.0113, 0.0867, 0.0522, 0.0710, 0.2894, 0.0393, 0.0396, 0.4350, 0.0801,
        0.0934, 0.0098, 0.2254, 0.0933, 0.1508, 0.1228, 0.0885, 0.1805, 0.0850,
        0.0740, 0.5784, 0.3239, 0.1329, 0.1155, 0.1111, 0.1038, 0.0645, 0.2930,
        0.0534, 0.1302, 0.3759, 0.0768, 0.2448, 0.4155, 0.5828, 0.1494, 0.1600,
        0.3371, 0.2362, 0.1850, 0.3502, 0.0867, 0.2198, 0.5542, 0.1811, 0.1145,
        0.1020, 0.7139, 0.4138, 0.3263, 0.7956, 0.5932, 0.0841, 0.4277, 0.1394,
        0.5025, 0.8381, 0.1082, 0.5572, 0.3715, 0.0941, 0.1426, 0.1070, 0.4012,
        0.1376, 0.1546, 0.5212, 0.5933, 0.4824, 0.2748, 0.5398, 0.2955, 0.0873,
        0.4642, 0.1694, 0.2263, 0.3193, 0.1735, 0.2456, 0.1774, 0.1960, 0.6426,
        0.4004, 0.4374])"
bn3.num_batches_tracked,tensor(22450)
encConv3.weight,"tensor([[[[-1.2351e-02,  2.8028e-03, -1.2735e-02],
          [-9.3326e-03,  2.1452e-02, -2.4399e-02],
          [-1.2427e-02,  9.9720e-03, -1.4209e-02]],

         [[-3.3933e-03, -5.9388e-03, -8.1716e-03],
          [-9.9498e-03,  5.0466e-04,  1.9217e-02],
          [-2.4239e-02, -6.2329e-03, -2.3280e-02]],

         [[ 1.2020e-02, -7.4956e-03,  1.6603e-02],
          [ 2.6151e-02, -4.7831e-03, -8.2531e-03],
          [ 1.4829e-02, -2.5287e-02,  9.9249e-03]],

         ...,

         [[ 2.4892e-03,  1.5815e-02, -2.7303e-02],
          [-2.5272e-02,  2.3819e-02,  6.6191e-03],
          [-2.7852e-02,  2.8076e-02,  5.1203e-03]],

         [[ 9.8099e-03, -9.0453e-04,  3.6203e-03],
          [ 2.1798e-02, -5.2909e-03,  3.9306e-03],
          [-9.6147e-03,  1.4588e-02, -8.2935e-03]],

         [[-2.2204e-02,  2.4151e-02, -8.0229e-03],
          [ 9.9699e-03, -1.5998e-03,  3.6802e-03],
          [-7.8445e-03,  2.9026e-02,  1.8990e-02]]],


        [[[ 1.7210e-02,  2.1318e-02, -2.0763e-03],
          [-2.9015e-02, -3.0357e-03, -2.1204e-02],
          [ 4.1885e-03,  2.0014e-02,  1.0968e-02]],

         [[-4.4615e-04,  1.6750e-02,  1.9066e-02],
          [-8.5653e-03, -2.1603e-02, -2.0683e-02],
          [-6.9861e-03, -9.7450e-03, -1.5249e-02]],

         [[-1.6724e-02, -7.7875e-03,  2.1664e-02],
          [ 1.3899e-03,  2.2625e-02, -4.2431e-03],
          [-2.1171e-02, -2.8025e-03,  1.7452e-02]],

         ...,

         [[-2.0938e-02,  2.6127e-02,  1.9203e-03],
          [ 4.7367e-03, -1.2639e-02, -9.9516e-03],
          [-6.5725e-03,  1.9975e-02, -8.1855e-03]],

         [[-9.5812e-03, -2.0182e-02,  7.5601e-03],
          [ 2.0466e-02,  3.3287e-02,  1.3419e-02],
          [-4.7971e-03, -1.5981e-02, -3.7808e-03]],

         [[ 9.9731e-04,  2.1307e-02, -1.9845e-03],
          [-2.8138e-02, -9.1131e-03, -2.3589e-02],
          [ 7.8063e-03,  1.1873e-02,  2.4555e-02]]],


        [[[ 1.7510e-02,  1.0870e-02,  1.5632e-02],
          [ 1.1651e-02,  2.6591e-02,  6.9535e-04],
          [-6.0428e-05,  4.2572e-03, -2.3736e-02]],

         [[ 4.6685e-03,  2.8927e-02, -1.0830e-02],
          [-2.4530e-02, -2.8574e-02,  1.8566e-02],
          [-6.2647e-03,  5.3230e-03,  3.5134e-04]],

         [[-2.1967e-02, -1.6546e-02,  2.3894e-02],
          [-2.2905e-03, -6.2835e-03, -1.7687e-02],
          [-8.8171e-03,  2.2110e-02,  9.1470e-03]],

         ...,

         [[-5.9805e-03, -9.5870e-03, -1.5595e-02],
          [-1.3083e-02,  1.0110e-02,  1.9356e-03],
          [-2.6628e-03,  2.6123e-02, -2.0532e-03]],

         [[ 1.7526e-02, -8.1679e-03,  2.1019e-02],
          [-1.0048e-02,  2.9683e-02,  1.2866e-02],
          [ 1.6309e-02,  1.3436e-03,  2.7073e-02]],

         [[ 4.8842e-03, -9.7640e-03, -1.8163e-02],
          [-1.4726e-02, -2.6917e-02, -2.5854e-02],
          [-2.3149e-02, -9.2977e-04,  1.9118e-03]]],


        ...,


        [[[ 2.2870e-03, -2.6797e-02, -2.5437e-02],
          [ 2.0689e-02, -7.2981e-03, -2.6250e-02],
          [ 1.3940e-03, -1.0342e-02,  9.2886e-03]],

         [[-1.2003e-02,  9.1773e-03, -1.2094e-03],
          [-1.4066e-02, -1.5361e-02,  2.2644e-02],
          [ 2.1664e-03, -7.9728e-03,  2.4864e-02]],

         [[ 1.4020e-02,  2.6189e-02, -1.2287e-02],
          [ 1.9649e-02, -2.1831e-02, -1.4998e-02],
          [-6.2866e-03,  1.5058e-02,  2.0963e-02]],

         ...,

         [[-3.1844e-02,  7.9587e-03,  1.8385e-02],
          [-4.3919e-03,  1.3945e-02,  2.5500e-02],
          [-3.3483e-02, -2.6944e-03, -1.5909e-02]],

         [[-1.5407e-02,  1.9278e-02,  1.5841e-02],
          [-3.7519e-02, -8.9710e-04,  1.1410e-03],
          [-2.5404e-03, -9.3154e-03,  7.8855e-03]],

         [[ 2.7200e-02,  7.0717e-03,  2.2368e-02],
          [-6.2176e-03,  6.7417e-03,  1.4638e-02],
          [ 2.8758e-02, -6.5880e-03,  1.6098e-03]]],


        [[[ 2.0034e-02,  8.2430e-03, -2.9702e-02],
          [-1.0024e-02,  1.3383e-02, -9.6605e-03],
          [ 1.7915e-02,  2.5237e-02, -1.1103e-02]],

         [[ 4.3879e-03,  1.9521e-02,  1.2680e-02],
          [ 8.7639e-03, -2.6532e-02, -1.6533e-02],
          [ 2.4707e-02, -1.0995e-02, -3.0801e-02]],

         [[ 2.4069e-03, -1.5324e-02, -1.5589e-02],
          [-2.1527e-02,  2.0485e-02, -1.7118e-02],
          [-1.8522e-02,  1.2532e-02, -1.2952e-02]],

         ...,

         [[-3.3773e-03,  2.5375e-02,  2.5424e-02],
          [-1.7832e-02, -2.5488e-02, -1.2169e-02],
          [-9.7013e-03,  2.2274e-02, -1.2144e-02]],

         [[-1.5165e-02, -2.4724e-02, -1.8427e-02],
          [-2.5789e-02, -3.1450e-02, -2.1420e-02],
          [-9.5778e-03,  2.1402e-02, -3.5439e-02]],

         [[-1.4752e-02,  4.8755e-03,  9.1899e-03],
          [-7.5823e-03, -2.8717e-03,  1.3210e-02],
          [ 2.9916e-02, -1.7465e-02, -2.1501e-02]]],


        [[[ 2.6418e-03,  1.5751e-03,  1.2122e-02],
          [-2.3576e-02, -2.6925e-02,  2.4758e-02],
          [ 7.7640e-03,  1.7573e-02,  2.8303e-02]],

         [[-1.5135e-02,  3.7515e-03,  2.6358e-02],
          [-2.7238e-02,  9.7646e-03, -1.6734e-02],
          [-1.9788e-02,  1.9041e-03,  2.5737e-02]],

         [[-2.8796e-02,  1.1011e-02, -3.3064e-02],
          [ 6.4434e-04, -1.5351e-04,  2.8219e-03],
          [ 2.1447e-02,  6.8073e-03, -3.3832e-02]],

         ...,

         [[-6.1474e-03, -2.5572e-02, -1.4301e-02],
          [-8.5315e-03,  2.1731e-02,  8.0308e-03],
          [ 1.1618e-03, -1.9494e-02,  2.1739e-02]],

         [[ 3.7392e-03, -2.7653e-02, -2.9025e-02],
          [ 7.3305e-03,  8.8254e-03,  5.2647e-04],
          [ 2.6431e-02, -2.2635e-02, -1.0185e-02]],

         [[ 7.4558e-03, -9.0729e-03,  2.1699e-02],
          [ 8.4309e-03,  2.2387e-02,  2.8289e-02],
          [ 9.0287e-03, -2.5571e-02, -6.6385e-03]]]])"
encConv3.bias,"tensor([ 0.0161, -0.0104, -0.0009, -0.0173, -0.0058, -0.0294, -0.0120, -0.0028,
        -0.0058, -0.0081, -0.0032, -0.0046, -0.0236, -0.0427,  0.0061, -0.0012,
         0.0145, -0.0935, -0.0217,  0.0076,  0.0274, -0.0229, -0.0189, -0.0669,
        -0.0110, -0.0161, -0.0124,  0.0155,  0.0091, -0.0011, -0.0093,  0.0158,
         0.0260, -0.0182,  0.0223, -0.0239,  0.0165,  0.0107,  0.0019, -0.0302,
         0.0129,  0.0237, -0.0131, -0.0043, -0.0225, -0.0337, -0.0394, -0.0293,
         0.0072,  0.0131,  0.0222, -0.0307,  0.0101, -0.0093,  0.0141, -0.0139,
         0.0198, -0.0095, -0.0108, -0.0252,  0.0413,  0.0028, -0.0198, -0.0106])"
bn4.weight,"tensor([1.0006, 0.9994, 0.9972, 1.0017, 1.0009, 1.0022, 1.0042, 0.9999, 0.9994,
        0.9966, 0.9998, 1.0028, 0.9961, 1.0016, 0.9976, 1.0001, 0.9988, 0.9971,
        1.0047, 1.0101, 1.0024, 1.0029, 1.0014, 1.0027, 0.9993, 0.9992, 0.9997,
        0.9976, 1.0050, 0.9992, 1.0038, 0.9991, 0.9997, 1.0008, 1.0029, 1.0038,
        0.9972, 0.9997, 0.9983, 1.0007, 1.0029, 0.9989, 0.9982, 1.0003, 0.9978,
        0.9989, 0.9996, 1.0000, 0.9978, 1.0015, 0.9984, 1.0016, 0.9995, 1.0016,
        1.0007, 0.9976, 0.9975, 1.0003, 0.9984, 1.0021, 0.9984, 0.9993, 1.0051,
        0.9974, 0.9981, 0.9968, 0.9955, 0.9988, 0.9976, 0.9973, 0.9979, 0.9947,
        0.9969, 0.9977, 0.9984, 1.0000, 0.9984, 0.9958, 0.9982, 0.9978, 0.9991,
        0.9984, 0.9977, 0.9971, 0.9985, 0.9954, 0.9968, 0.9968, 0.9992, 0.9975,
        1.0001, 0.9972, 0.9957, 1.0009, 0.9975, 0.9965, 0.9963, 0.9967, 0.9995,
        0.9971, 0.9976, 0.9973, 0.9986, 0.9963, 0.9969, 1.0005, 0.9962, 1.0010,
        0.9981, 0.9992, 0.9981, 0.9998, 0.9988, 0.9993, 0.9980, 0.9970, 0.9983,
        0.9970, 0.9993, 0.9967, 0.9992, 0.9984, 0.9973, 0.9964, 0.9985, 0.9973,
        0.9969, 0.9982, 0.9958, 1.0003, 0.9991, 0.9982, 1.0004, 1.0049, 1.0005,
        0.9977, 1.0000, 0.9959, 1.0046, 1.0003, 0.9976, 1.0034, 0.9999, 1.0027,
        1.0039, 1.0060, 1.0043, 0.9995, 1.0012, 1.0003, 0.9966, 1.0104, 1.0026,
        0.9988, 0.9982, 1.0072, 0.9997, 0.9989, 0.9988, 0.9979, 0.9994, 1.0039,
        0.9991, 0.9968, 1.0021, 1.0074, 1.0010, 1.0025, 0.9973, 0.9999, 0.9999,
        1.0028, 1.0000, 1.0003, 1.0122, 0.9988, 0.9999, 1.0022, 1.0023, 0.9986,
        1.0009, 0.9985, 1.0037, 1.0017, 1.0003, 0.9983, 0.9985, 1.0021, 1.0050,
        1.0010, 1.0054, 0.9981])"
bn4.bias,"tensor([-1.5697e-02,  1.0227e-02,  1.2300e-03,  3.6659e-02, -2.1590e-02,
        -1.4344e-03,  4.1974e-03, -1.5437e-02, -9.8549e-03, -3.1685e-03,
         2.1120e-03,  1.9484e-02, -1.2096e-02, -1.4022e-02, -9.9452e-03,
         3.4955e-03, -1.2067e-02, -3.7381e-03,  2.2934e-02,  2.4481e-02,
         8.1101e-03, -1.3774e-02, -1.5245e-02, -1.5492e-02, -6.2085e-03,
        -2.5142e-02, -1.5212e-02,  7.9244e-03, -2.0928e-02, -1.2636e-02,
         1.4819e-02,  1.2117e-02, -1.0874e-02, -1.5299e-02,  9.5563e-03,
        -7.2411e-03,  1.1845e-02,  1.4338e-02,  1.7914e-04,  2.5484e-02,
        -1.6777e-02, -7.1733e-03,  9.2526e-04,  7.0031e-03, -2.5473e-02,
        -1.4648e-02,  3.2803e-03, -4.9458e-03,  2.2321e-02,  8.1526e-03,
         2.2682e-02,  8.2921e-03,  9.1965e-03,  1.0808e-02,  1.0196e-02,
        -6.7954e-03,  7.1968e-03, -1.8356e-02,  1.2650e-02,  1.4878e-02,
         2.3612e-03, -3.7150e-03, -6.7572e-03, -1.1432e-02, -7.8226e-04,
         1.2261e-02,  1.4655e-02,  1.0124e-02,  1.1880e-03,  1.4625e-02,
         7.6070e-04,  1.4225e-02, -1.2521e-02,  3.1520e-03,  7.6223e-03,
        -1.3497e-02, -1.8243e-05,  3.3119e-03,  1.5712e-02,  4.1922e-03,
         2.5763e-03, -2.0894e-02,  2.8863e-03,  6.7441e-04,  9.0193e-03,
         4.8751e-03,  8.5693e-04, -8.8258e-03,  8.8404e-03, -1.0737e-02,
         5.4952e-03,  6.4778e-03, -1.0269e-02,  4.7106e-03, -9.0563e-03,
        -1.1872e-02,  3.0688e-03, -9.7807e-03,  6.8773e-03, -3.3209e-03,
        -9.5634e-03, -1.4440e-02, -1.0412e-02, -2.8965e-03,  1.1058e-02,
         1.8840e-02,  5.7218e-03,  1.1593e-02,  7.2232e-03,  5.6908e-03,
         7.5133e-03,  1.3689e-02,  1.4040e-02,  1.2358e-02, -1.1632e-02,
         1.1411e-02, -9.4136e-03,  4.8642e-03,  8.0483e-04, -1.0947e-02,
        -4.3723e-03, -9.9774e-04, -1.2327e-02,  1.0158e-02, -8.1433e-03,
        -5.4323e-03, -1.4306e-02,  9.1139e-03, -2.0848e-02, -1.3902e-02,
        -2.2358e-02, -9.6557e-04,  5.4870e-04, -4.2893e-02,  6.3222e-03,
        -2.8851e-02, -2.0258e-02,  1.7166e-02,  3.7461e-02, -1.1107e-02,
        -1.2946e-04, -2.9025e-02, -1.5584e-02,  3.1651e-02,  3.5068e-02,
        -4.8171e-02,  1.9890e-02,  5.3221e-03,  1.7800e-02,  3.5174e-03,
        -1.2077e-02, -3.6078e-02, -2.2207e-02, -7.4588e-03,  7.5036e-03,
         4.4779e-02, -1.3519e-02, -7.8588e-03, -1.0466e-02, -6.1495e-03,
        -5.0414e-03,  1.1993e-02, -2.8325e-03, -1.5733e-02,  2.8314e-02,
         4.5707e-02,  1.5653e-02, -3.9874e-03, -6.7725e-03,  1.3237e-02,
         2.8802e-02, -2.3755e-02,  1.2479e-03,  8.5688e-03, -2.9172e-02,
        -6.7266e-03,  2.6883e-02, -6.6509e-04,  3.5519e-02, -4.3479e-03,
        -1.1875e-02,  1.8346e-02, -1.1185e-05,  1.0424e-02, -6.7384e-03,
        -7.9166e-03, -4.9897e-03, -3.1098e-02,  3.2980e-02,  3.4707e-02,
        -3.5176e-02, -6.0992e-03])"
bn4.running_mean,"tensor([0.2336, 0.3268, 0.2933, 0.5533, 0.4083, 0.1537, 0.4706, 0.5615, 0.3691,
        0.1378, 0.1723, 0.3702, 0.0844, 0.2878, 0.2293, 0.3910, 0.1438, 0.0521,
        0.2195, 0.2013, 0.1724, 0.1575, 0.3494, 0.4620, 0.3571, 0.2317, 0.2752,
        0.6846, 0.3090, 0.1031, 0.4894, 0.1248, 0.2306, 0.1580, 0.4177, 0.2155,
        0.1579, 0.2270, 0.3613, 0.1950, 0.3933, 0.1593, 0.2218, 0.1472, 0.0809,
        0.0574, 0.2390, 0.1831, 0.1830, 0.4199, 0.1688, 0.1837, 0.4601, 0.1875,
        0.2524, 0.0557, 0.3656, 0.2289, 0.2465, 0.2839, 0.1782, 0.3034, 0.2341,
        0.1864, 0.4572, 0.4864, 0.1999, 0.2197, 0.2103, 0.1986, 0.1693, 0.4849,
        0.1422, 0.2658, 0.3303, 0.1389, 0.3604, 0.4806, 0.5984, 0.2175, 0.2352,
        0.4561, 0.4897, 0.2745, 0.6231, 0.2017, 0.3111, 0.6118, 0.3198, 0.2092,
        0.1722, 0.5534, 0.5362, 0.5463, 0.6564, 0.5108, 0.1979, 0.5578, 0.1946,
        0.6042, 0.6484, 0.2143, 0.4929, 0.5584, 0.1959, 0.3711, 0.1977, 0.3460,
        0.2105, 0.2524, 0.5921, 0.5406, 0.3926, 0.3167, 0.4938, 0.5061, 0.1834,
        0.5773, 0.2489, 0.2658, 0.4607, 0.2584, 0.2753, 0.2436, 0.3616, 0.6010,
        0.3769, 0.5604, 0.3876, 0.2451, 0.1709, 0.2483, 0.6572, 0.1413, 0.5530,
        0.2911, 0.1320, 0.1901, 0.2928, 0.2443, 0.3684, 0.1788, 0.1833, 0.3050,
        0.2894, 0.0913, 0.1656, 0.1703, 0.2087, 0.3509, 0.3267, 0.1726, 0.1465,
        0.2584, 0.3925, 0.1692, 0.2756, 0.5804, 0.3228, 0.6983, 0.4268, 0.3463,
        0.7005, 0.1306, 0.3807, 0.1748, 0.3579, 0.1968, 0.3478, 0.1892, 0.3340,
        0.9274, 0.3771, 0.3533, 0.1337, 0.3152, 0.2004, 0.5883, 0.4719, 0.2640,
        0.3108, 0.5939, 0.1833, 0.1635, 0.3872, 0.3614, 0.2224, 0.1465, 0.2650,
        0.2967, 0.6183, 0.1292])"
bn4.running_var,"tensor([0.0831, 0.1842, 0.1209, 0.4613, 0.2876, 0.0384, 0.3514, 0.5162, 0.2058,
        0.0376, 0.0529, 0.2715, 0.0291, 0.1338, 0.1069, 0.2266, 0.0486, 0.0093,
        0.0863, 0.0403, 0.0637, 0.0331, 0.2022, 0.3440, 0.2313, 0.0640, 0.0970,
        0.8003, 0.1016, 0.0185, 0.3369, 0.0228, 0.0890, 0.0436, 0.3812, 0.0556,
        0.0213, 0.0790, 0.1986, 0.0234, 0.2918, 0.0564, 0.0645, 0.0311, 0.0157,
        0.0113, 0.0867, 0.0522, 0.0710, 0.2894, 0.0393, 0.0396, 0.4350, 0.0801,
        0.0934, 0.0098, 0.2254, 0.0933, 0.1508, 0.1228, 0.0885, 0.1805, 0.0850,
        0.0740, 0.5784, 0.3239, 0.1329, 0.1155, 0.1111, 0.1038, 0.0645, 0.2930,
        0.0534, 0.1302, 0.3759, 0.0768, 0.2448, 0.4155, 0.5828, 0.1494, 0.1600,
        0.3371, 0.2362, 0.1850, 0.3502, 0.0867, 0.2198, 0.5542, 0.1811, 0.1145,
        0.1020, 0.7139, 0.4138, 0.3263, 0.7956, 0.5932, 0.0841, 0.4277, 0.1394,
        0.5025, 0.8381, 0.1082, 0.5572, 0.3715, 0.0941, 0.1426, 0.1070, 0.4012,
        0.1376, 0.1546, 0.5212, 0.5933, 0.4824, 0.2748, 0.5398, 0.2955, 0.0873,
        0.4642, 0.1694, 0.2263, 0.3193, 0.1735, 0.2456, 0.1774, 0.1960, 0.6426,
        0.4004, 0.4374, 0.2669, 0.2248, 0.1042, 0.1030, 0.4442, 0.0938, 0.4509,
        0.2442, 0.0637, 0.1171, 0.1534, 0.2157, 0.1412, 0.1563, 0.1291, 0.2043,
        0.1200, 0.0420, 0.0965, 0.0714, 0.0764, 0.4283, 0.1443, 0.0617, 0.0981,
        0.1679, 0.2519, 0.0810, 0.3110, 0.3774, 0.1660, 1.2477, 0.3064, 0.1734,
        0.6967, 0.0601, 0.2563, 0.0818, 0.2148, 0.1403, 0.4392, 0.0881, 0.1537,
        1.4500, 0.2284, 0.3541, 0.0772, 0.3600, 0.1152, 0.3376, 0.2825, 0.2436,
        0.2107, 0.3349, 0.0784, 0.0731, 0.2378, 0.3461, 0.1053, 0.0697, 0.1013,
        0.1364, 0.4628, 0.0439])"
bn4.num_batches_tracked,tensor(22450)
encConv4.weight,"tensor([[[[ 0.0186, -0.0148, -0.0134],
          [ 0.0152,  0.0058,  0.0195],
          [ 0.0051, -0.0112,  0.0202]],

         [[-0.0198,  0.0164, -0.0097],
          [-0.0066,  0.0034,  0.0036],
          [ 0.0080, -0.0257,  0.0056]],

         [[-0.0246, -0.0006, -0.0023],
          [ 0.0158,  0.0220,  0.0070],
          [ 0.0033, -0.0100,  0.0194]],

         ...,

         [[-0.0132,  0.0028, -0.0145],
          [ 0.0017,  0.0104, -0.0021],
          [-0.0225, -0.0054, -0.0062]],

         [[ 0.0035, -0.0128,  0.0046],
          [ 0.0213, -0.0083, -0.0055],
          [ 0.0092, -0.0168,  0.0189]],

         [[ 0.0110, -0.0018, -0.0076],
          [-0.0151, -0.0147, -0.0145],
          [ 0.0148,  0.0088,  0.0137]]],


        [[[ 0.0054, -0.0053,  0.0006],
          [-0.0266, -0.0118,  0.0027],
          [-0.0012, -0.0083, -0.0132]],

         [[ 0.0108,  0.0214, -0.0109],
          [ 0.0006, -0.0044,  0.0108],
          [-0.0113, -0.0149,  0.0079]],

         [[-0.0087,  0.0049,  0.0017],
          [-0.0078, -0.0037,  0.0196],
          [ 0.0098, -0.0301, -0.0185]],

         ...,

         [[-0.0095, -0.0254,  0.0138],
          [-0.0227, -0.0213, -0.0106],
          [ 0.0057, -0.0231,  0.0128]],

         [[ 0.0278,  0.0249,  0.0070],
          [-0.0008,  0.0129,  0.0112],
          [ 0.0203,  0.0212, -0.0024]],

         [[-0.0176, -0.0154, -0.0106],
          [-0.0112, -0.0149, -0.0084],
          [-0.0108,  0.0164,  0.0031]]],


        [[[ 0.0081, -0.0160,  0.0206],
          [-0.0099, -0.0127, -0.0157],
          [ 0.0028, -0.0178,  0.0239]],

         [[-0.0164,  0.0214,  0.0256],
          [ 0.0058,  0.0220, -0.0164],
          [-0.0209,  0.0229,  0.0090]],

         [[-0.0052,  0.0218, -0.0153],
          [-0.0035, -0.0136, -0.0225],
          [ 0.0094,  0.0074, -0.0050]],

         ...,

         [[-0.0183,  0.0174, -0.0041],
          [-0.0101,  0.0224, -0.0186],
          [-0.0262, -0.0012,  0.0023]],

         [[-0.0069,  0.0109,  0.0152],
          [ 0.0094, -0.0093, -0.0012],
          [-0.0041,  0.0008, -0.0090]],

         [[-0.0067, -0.0018,  0.0126],
          [-0.0160,  0.0071, -0.0106],
          [ 0.0150, -0.0185, -0.0055]]],


        ...,


        [[[-0.0070,  0.0020, -0.0123],
          [ 0.0244, -0.0193, -0.0199],
          [ 0.0045,  0.0130,  0.0132]],

         [[-0.0081,  0.0176,  0.0163],
          [-0.0133,  0.0134,  0.0245],
          [-0.0147, -0.0143, -0.0091]],

         [[-0.0038, -0.0030, -0.0131],
          [-0.0042,  0.0034, -0.0119],
          [-0.0183,  0.0230,  0.0195]],

         ...,

         [[ 0.0001,  0.0010, -0.0191],
          [-0.0254,  0.0007, -0.0191],
          [ 0.0051, -0.0323, -0.0164]],

         [[ 0.0150, -0.0084,  0.0116],
          [ 0.0147,  0.0099, -0.0078],
          [ 0.0194,  0.0024,  0.0253]],

         [[-0.0005, -0.0148,  0.0157],
          [-0.0130,  0.0057, -0.0017],
          [-0.0037,  0.0117,  0.0192]]],


        [[[-0.0090,  0.0010, -0.0200],
          [ 0.0175,  0.0152,  0.0050],
          [-0.0065, -0.0099,  0.0051]],

         [[-0.0142,  0.0007, -0.0009],
          [ 0.0111,  0.0075,  0.0008],
          [-0.0106,  0.0087,  0.0170]],

         [[-0.0158, -0.0219,  0.0153],
          [-0.0256, -0.0180,  0.0106],
          [-0.0233, -0.0062,  0.0101]],

         ...,

         [[ 0.0048, -0.0157,  0.0007],
          [-0.0059, -0.0100, -0.0053],
          [-0.0006, -0.0026,  0.0177]],

         [[ 0.0250,  0.0268, -0.0010],
          [ 0.0093, -0.0128,  0.0101],
          [ 0.0116,  0.0230,  0.0265]],

         [[ 0.0238,  0.0165, -0.0047],
          [ 0.0199,  0.0100, -0.0095],
          [ 0.0110,  0.0209, -0.0167]]],


        [[[ 0.0198, -0.0277, -0.0049],
          [-0.0109, -0.0192, -0.0052],
          [ 0.0112, -0.0038,  0.0241]],

         [[ 0.0081,  0.0035,  0.0146],
          [ 0.0015, -0.0065,  0.0080],
          [ 0.0179,  0.0238, -0.0109]],

         [[-0.0114,  0.0034,  0.0042],
          [-0.0041, -0.0130, -0.0014],
          [ 0.0115, -0.0238, -0.0245]],

         ...,

         [[-0.0093, -0.0126, -0.0147],
          [ 0.0048,  0.0039,  0.0219],
          [-0.0016,  0.0255, -0.0069]],

         [[ 0.0034, -0.0020,  0.0233],
          [ 0.0215,  0.0064, -0.0164],
          [-0.0156,  0.0095,  0.0185]],

         [[ 0.0212, -0.0054,  0.0053],
          [-0.0087,  0.0017, -0.0168],
          [-0.0201,  0.0176,  0.0040]]]])"
encConv4.bias,"tensor([-0.0089, -0.0061,  0.0008,  0.0249, -0.0139,  0.0407,  0.0216,  0.0017,
         0.0119,  0.0188,  0.0407,  0.0122, -0.0274, -0.0180, -0.0172,  0.0174,
        -0.0025,  0.0156, -0.0169, -0.0047,  0.0287, -0.0047,  0.0146, -0.0039,
        -0.0105, -0.0106,  0.0200, -0.0553, -0.0113,  0.0062, -0.0518,  0.0071,
         0.0199,  0.0084, -0.0367, -0.0061,  0.0169, -0.0137,  0.0239,  0.0041,
        -0.0058,  0.0005, -0.0165, -0.0011, -0.0929,  0.0150,  0.0138, -0.0017,
        -0.0076,  0.0231,  0.0236,  0.0218, -0.0257,  0.0043,  0.0125, -0.0133,
         0.0170, -0.0023,  0.0181,  0.0349, -0.0067, -0.0303,  0.0014,  0.0183])"
bn5.weight,"tensor([0.9967, 1.0024, 0.9978, 0.9969, 1.0044, 0.9926, 0.9928, 0.9968, 0.9968,
        1.0002, 0.9983, 0.9974, 0.9998, 0.9970, 1.0059, 1.0006, 0.9999, 0.9979,
        0.9959, 0.9961, 0.9976, 1.0003, 0.9916, 1.0012, 1.0047, 1.0007, 1.0001,
        1.0107, 1.0005, 0.9956, 1.0065, 0.9955, 1.0054, 1.0050, 1.0055, 1.0036,
        0.9948, 1.0014, 1.0004, 1.0001, 0.9987, 1.0003, 0.9944, 0.9974, 1.0217,
        1.0076, 0.9943, 0.9923, 0.9997, 0.9993, 0.9940, 0.9975, 1.0022, 0.9993,
        0.9961, 0.9918, 0.9980, 1.0003, 0.9982, 0.9978, 1.0048, 1.0030, 0.9939,
        0.9984])"
bn5.bias,"tensor([-6.8834e-03, -4.1344e-02, -2.6064e-04,  1.1468e-02, -2.1919e-02,
         2.7996e-02, -1.1296e-02, -5.4240e-03, -2.1568e-02, -9.4937e-04,
        -7.9529e-03,  9.4683e-03, -3.5824e-02, -1.4944e-02, -3.1892e-02,
        -2.8900e-02, -7.3235e-03, -1.9825e-02,  1.1705e-02, -1.4308e-02,
        -1.6446e-02, -1.7997e-02,  1.3043e-02, -8.8836e-04, -3.5457e-02,
         1.0017e-02,  7.9767e-03, -5.9846e-02, -1.2703e-02,  1.0514e-02,
        -4.3061e-02,  9.9977e-03,  1.6216e-02,  4.1563e-02, -2.5908e-02,
        -1.1357e-02, -1.3055e-02, -2.3893e-02, -2.4478e-02, -1.6186e-02,
        -6.7095e-03,  1.9887e-03, -4.2329e-03,  9.0017e-03, -5.9416e-02,
         2.7028e-02,  1.3762e-02,  1.2044e-02, -1.6122e-03,  4.9607e-03,
         1.5359e-02,  2.3172e-02, -2.2035e-02,  2.9649e-02, -1.7704e-02,
         2.7522e-02, -2.4434e-02, -1.3559e-02,  1.5012e-02, -6.2395e-03,
        -5.3831e-05, -2.1144e-02, -2.8579e-02,  7.0408e-03])"
bn5.running_mean,"tensor([0.2344, 0.2878, 0.6254, 0.5314, 0.2336, 0.6717, 0.4967, 0.5570, 0.8525,
        0.2280, 0.4516, 0.8587, 0.2692, 0.7497, 0.1481, 0.7647, 0.8679, 0.6266,
        0.7106, 0.3106, 0.7606, 0.2999, 0.9473, 0.4137, 0.2259, 0.4279, 0.4240,
        0.0639, 0.6070, 0.5942, 0.1554, 0.6815, 0.3557, 0.4272, 0.1641, 0.2447,
        0.4551, 0.1884, 0.5480, 0.6075, 0.4902, 0.4459, 0.9048, 0.6500, 0.1329,
        0.4793, 0.7790, 0.2679, 0.2914, 0.5494, 0.7688, 0.8039, 0.4745, 0.6048,
        0.2833, 0.8221, 0.4215, 0.3060, 0.6275, 0.7952, 0.5186, 0.1827, 0.3990,
        0.7016])"
bn5.running_var,"tensor([0.2541, 0.2973, 0.7582, 0.2389, 0.3123, 0.4850, 0.2034, 0.3632, 1.2484,
        0.2016, 0.2002, 1.0391, 0.2022, 1.3123, 0.1758, 0.7855, 1.2566, 0.2728,
        1.1730, 0.3374, 0.4575, 0.4407, 0.9728, 0.3603, 0.2222, 0.7302, 0.3722,
        0.0457, 1.5028, 0.6989, 0.2014, 0.7851, 0.3341, 0.3126, 0.1081, 0.3409,
        0.3799, 0.2584, 0.6389, 0.6599, 0.3281, 0.2676, 1.3929, 0.6929, 0.0445,
        0.3675, 0.3779, 0.1188, 0.1829, 0.2684, 1.1428, 0.9947, 0.8119, 0.7000,
        0.3560, 0.8034, 0.3467, 0.2265, 0.4828, 0.4437, 0.3584, 0.1962, 0.2839,
        0.5124])"
bn5.num_batches_tracked,tensor(22450)
encConv5.weight,"tensor([[[[ 0.0071, -0.0040,  0.0335],
          [ 0.0120, -0.0129,  0.0175],
          [ 0.0073, -0.0450, -0.0066]],

         [[-0.0147,  0.0208,  0.0025],
          [-0.0305, -0.0010,  0.0170],
          [ 0.0246,  0.0317, -0.0166]],

         [[ 0.0398, -0.0302, -0.0259],
          [-0.0088, -0.0259, -0.0433],
          [-0.0006,  0.0084,  0.0033]],

         ...,

         [[-0.0318, -0.0129,  0.0004],
          [ 0.0398, -0.0169, -0.0134],
          [ 0.0119, -0.0128,  0.0334]],

         [[ 0.0255, -0.0258,  0.0250],
          [-0.0049, -0.0250,  0.0069],
          [-0.0056, -0.0143, -0.0296]],

         [[-0.0104,  0.0139,  0.0016],
          [ 0.0279,  0.0290, -0.0027],
          [ 0.0323, -0.0132,  0.0095]]],


        [[[ 0.0289,  0.0282,  0.0036],
          [-0.0271,  0.0217, -0.0138],
          [ 0.0075,  0.0120, -0.0390]],

         [[-0.0243,  0.0067,  0.0332],
          [ 0.0157,  0.0260,  0.0193],
          [-0.0037, -0.0344,  0.0378]],

         [[-0.0301, -0.0140, -0.0065],
          [ 0.0304, -0.0010, -0.0377],
          [ 0.0364, -0.0398, -0.0401]],

         ...,

         [[-0.0294,  0.0314,  0.0036],
          [ 0.0458,  0.0434,  0.0082],
          [ 0.0312,  0.0423, -0.0390]],

         [[-0.0025,  0.0076,  0.0323],
          [-0.0301,  0.0032,  0.0234],
          [ 0.0025,  0.0439, -0.0067]],

         [[ 0.0165,  0.0127,  0.0052],
          [ 0.0388, -0.0124, -0.0313],
          [ 0.0259,  0.0335,  0.0316]]],


        [[[-0.0226, -0.0132, -0.0211],
          [-0.0293,  0.0382,  0.0203],
          [-0.0323,  0.0009, -0.0304]],

         [[-0.0115, -0.0159,  0.0276],
          [ 0.0143, -0.0190,  0.0231],
          [-0.0188,  0.0266, -0.0294]],

         [[ 0.0342,  0.0265, -0.0097],
          [ 0.0179,  0.0017,  0.0232],
          [ 0.0114, -0.0219, -0.0266]],

         ...,

         [[-0.0158, -0.0165, -0.0194],
          [ 0.0001, -0.0290, -0.0028],
          [ 0.0008, -0.0120, -0.0084]],

         [[-0.0044, -0.0038,  0.0418],
          [-0.0370,  0.0364,  0.0114],
          [ 0.0092, -0.0139,  0.0078]],

         [[ 0.0017, -0.0195, -0.0025],
          [ 0.0403,  0.0032, -0.0025],
          [ 0.0317, -0.0260,  0.0302]]],


        ...,


        [[[ 0.0027,  0.0220, -0.0345],
          [-0.0151,  0.0270, -0.0320],
          [-0.0284, -0.0032, -0.0198]],

         [[ 0.0370,  0.0422, -0.0107],
          [ 0.0017,  0.0168, -0.0256],
          [ 0.0185,  0.0321,  0.0005]],

         [[-0.0230, -0.0275,  0.0094],
          [ 0.0228,  0.0120,  0.0031],
          [-0.0338, -0.0029,  0.0192]],

         ...,

         [[-0.0010,  0.0298, -0.0189],
          [ 0.0224, -0.0046,  0.0129],
          [ 0.0102,  0.0143, -0.0249]],

         [[ 0.0268, -0.0006,  0.0178],
          [-0.0127,  0.0212,  0.0008],
          [-0.0233, -0.0349, -0.0033]],

         [[ 0.0308, -0.0205, -0.0197],
          [-0.0165, -0.0194, -0.0223],
          [-0.0256,  0.0065, -0.0026]]],


        [[[ 0.0102,  0.0324, -0.0408],
          [ 0.0159,  0.0197, -0.0148],
          [ 0.0066, -0.0310, -0.0080]],

         [[-0.0196, -0.0011, -0.0333],
          [-0.0108, -0.0211, -0.0187],
          [-0.0342,  0.0006, -0.0086]],

         [[-0.0181,  0.0383, -0.0265],
          [-0.0133, -0.0364, -0.0181],
          [-0.0012, -0.0077, -0.0246]],

         ...,

         [[-0.0337,  0.0400, -0.0067],
          [ 0.0103, -0.0104,  0.0309],
          [-0.0004,  0.0440, -0.0052]],

         [[ 0.0325, -0.0362, -0.0291],
          [-0.0264, -0.0069, -0.0286],
          [ 0.0281,  0.0276,  0.0430]],

         [[ 0.0034, -0.0102, -0.0084],
          [-0.0299,  0.0147,  0.0310],
          [-0.0013,  0.0237, -0.0028]]],


        [[[-0.0095,  0.0001, -0.0400],
          [ 0.0189,  0.0076,  0.0244],
          [ 0.0284, -0.0186,  0.0009]],

         [[ 0.0394,  0.0388,  0.0207],
          [-0.0105, -0.0247, -0.0346],
          [ 0.0294, -0.0046, -0.0368]],

         [[ 0.0215,  0.0370,  0.0157],
          [ 0.0362,  0.0261, -0.0049],
          [ 0.0132,  0.0388,  0.0028]],

         ...,

         [[ 0.0201,  0.0091,  0.0134],
          [-0.0132, -0.0166,  0.0329],
          [-0.0290,  0.0118, -0.0264]],

         [[-0.0167,  0.0012,  0.0209],
          [-0.0149, -0.0009, -0.0171],
          [ 0.0344, -0.0373, -0.0137]],

         [[ 0.0355,  0.0185, -0.0265],
          [-0.0051,  0.0298, -0.0163],
          [ 0.0053,  0.0183,  0.0397]]]])"
encConv5.bias,"tensor([-0.0290, -0.0469, -0.0075, -0.0460, -0.0356,  0.0426, -0.0277,  0.0378,
         0.0276, -0.0220, -0.0235,  0.0011, -0.0262, -0.0146,  0.0076,  0.0168,
        -0.0104, -0.0277, -0.0188, -0.0155, -0.0143, -0.0257, -0.0234,  0.0081,
         0.0020,  0.0369,  0.0295, -0.0251, -0.0009,  0.0203,  0.0063, -0.0259,
        -0.0143,  0.0174, -0.0728,  0.0103, -0.0375, -0.0109,  0.0062, -0.0206,
         0.0240, -0.0134,  0.0470,  0.0438,  0.0103, -0.0212, -0.0090, -0.0347,
        -0.0010, -0.0052,  0.0057, -0.0347, -0.0171, -0.0166, -0.0090, -0.0422,
         0.0181,  0.0043, -0.0511, -0.0141, -0.0318,  0.0010, -0.0414, -0.0265])"
bn6.weight,"tensor([0.9999, 0.9995, 0.9988, 0.9988, 0.9990, 0.9954, 0.9993, 0.9980, 0.9982,
        1.0012, 1.0008, 0.9964, 0.9975, 0.9995, 0.9997, 0.9987, 0.9968, 0.9985,
        0.9967, 0.9991, 0.9977, 1.0008, 0.9980, 0.9987, 0.9994, 0.9991, 0.9998,
        1.0012, 0.9981, 0.9964, 1.0003, 0.9980, 0.9966, 0.9989, 0.9998, 0.9984,
        0.9991, 0.9986, 0.9976, 0.9980, 0.9999, 0.9999, 0.9990, 0.9985, 1.0014,
        1.0004, 0.9997, 0.9959, 0.9980, 0.9978, 0.9978, 0.9979, 0.9987, 0.9977,
        1.0010, 0.9983, 0.9981, 0.9988, 0.9999, 0.9947, 1.0017, 1.0010, 1.0030,
        1.0001, 1.0065, 1.0027, 1.0021, 1.0018, 1.0007, 0.9969, 0.9981, 1.0028,
        0.9991, 1.0036, 0.9991, 1.0003, 0.9993, 0.9944, 0.9985, 0.9965, 0.9999,
        1.0011, 1.0038, 1.0016, 0.9992, 1.0042, 1.0020, 0.9984, 0.9993, 0.9991,
        1.0015, 1.0047, 1.0014, 0.9998, 1.0025, 1.0003, 1.0031, 1.0018, 1.0072,
        0.9983, 1.0088, 0.9995, 1.0005, 1.0005, 0.9978, 0.9984, 1.0031, 0.9941,
        1.0024, 1.0017, 1.0003, 0.9988, 1.0014, 0.9981, 1.0053, 1.0024, 1.0021,
        0.9993, 1.0021, 1.0002, 1.0011, 0.9957, 0.9996, 1.0044, 1.0027, 1.0039,
        1.0034, 1.0001])"
bn6.bias,"tensor([-5.7860e-03, -1.9069e-02, -9.2357e-03,  4.6924e-03, -7.9254e-03,
        -2.1606e-04,  3.4234e-03,  1.3451e-03,  4.0862e-03, -5.0743e-03,
         2.4445e-03, -5.2058e-03, -1.4109e-02, -1.4532e-02, -1.3874e-02,
         1.3127e-03,  1.2594e-02,  1.2541e-02,  2.3651e-04, -1.6198e-02,
         3.0323e-04, -1.3173e-02, -1.4476e-04, -1.3006e-02, -5.0439e-04,
        -8.3023e-03, -6.7301e-03, -1.8503e-02,  5.2589e-03, -4.9727e-03,
        -1.3057e-02,  1.1015e-04,  5.9856e-04,  1.1340e-02, -2.9086e-03,
         9.6512e-04,  1.1244e-03, -1.2710e-02, -5.9812e-03, -1.1122e-02,
        -6.9578e-03,  4.3722e-03, -5.8536e-03, -8.3041e-03, -1.1164e-02,
         3.3858e-03,  6.6506e-03,  1.0975e-02, -4.1714e-03, -1.2240e-02,
         2.2338e-03,  6.9582e-03, -9.6936e-03, -2.3731e-03, -6.8048e-04,
         5.8505e-03, -1.1239e-02, -4.8395e-03, -8.2196e-03, -2.2714e-04,
         2.7135e-03, -1.9743e-03, -9.1126e-03, -5.3941e-04,  2.9769e-04,
        -6.5955e-03, -1.5589e-02, -1.0646e-02, -2.5609e-02, -2.8664e-03,
        -3.5993e-03,  1.4154e-02, -1.2152e-02,  8.5872e-03,  5.4291e-03,
        -9.2016e-03, -1.0661e-02,  9.8341e-03, -5.5995e-03,  1.3048e-04,
         1.0402e-04,  6.6776e-03,  9.6341e-03, -1.5835e-02,  2.0745e-02,
        -2.5442e-02,  5.9439e-03,  8.1308e-03, -1.1675e-02,  2.7767e-03,
        -7.9434e-03, -1.3226e-02, -3.0822e-03, -6.5019e-03, -1.5630e-02,
        -1.2878e-02, -1.2096e-02,  3.4900e-03, -3.3003e-02,  9.1747e-03,
        -9.2154e-03,  1.3171e-02, -4.4769e-04, -9.3532e-03,  8.0610e-03,
        -1.7610e-02,  6.2555e-04, -2.8263e-04, -5.7976e-03, -1.3811e-02,
        -8.3952e-03,  1.9042e-03, -3.3049e-03, -1.3289e-03,  6.3684e-05,
        -1.7206e-05, -9.7521e-03,  9.2829e-04, -1.1919e-02, -8.9435e-03,
        -1.7270e-02,  6.1019e-04, -6.3788e-03,  1.4106e-02,  2.7837e-03,
        -1.7300e-02, -1.8558e-02, -7.5344e-03])"
bn6.running_mean,"tensor([0.2344, 0.2878, 0.6254, 0.5314, 0.2336, 0.6717, 0.4967, 0.5570, 0.8525,
        0.2280, 0.4516, 0.8587, 0.2692, 0.7497, 0.1481, 0.7647, 0.8679, 0.6266,
        0.7106, 0.3106, 0.7606, 0.2999, 0.9473, 0.4137, 0.2259, 0.4279, 0.4240,
        0.0639, 0.6070, 0.5942, 0.1554, 0.6815, 0.3557, 0.4272, 0.1641, 0.2447,
        0.4551, 0.1884, 0.5480, 0.6075, 0.4902, 0.4459, 0.9048, 0.6500, 0.1329,
        0.4793, 0.7790, 0.2679, 0.2914, 0.5494, 0.7688, 0.8039, 0.4745, 0.6048,
        0.2833, 0.8221, 0.4215, 0.3060, 0.6275, 0.7952, 0.5186, 0.1827, 0.3990,
        0.7016, 0.3412, 0.1601, 0.3764, 0.1716, 0.3040, 0.5999, 0.4608, 0.2217,
        0.3853, 0.2182, 0.2502, 0.2378, 0.4942, 0.2483, 0.1732, 0.2792, 0.3886,
        0.3884, 0.2234, 0.2127, 0.5586, 0.1223, 0.2683, 0.4368, 0.3179, 0.4104,
        0.1990, 0.1581, 0.3928, 0.3090, 0.2393, 0.2068, 0.2032, 0.4300, 0.1074,
        0.4094, 0.1219, 0.2655, 0.3836, 0.2322, 0.2792, 0.3385, 0.4309, 0.3241,
        0.2995, 0.3853, 0.2502, 0.1984, 0.1880, 0.2909, 0.3696, 0.2251, 0.2521,
        0.2592, 0.1756, 0.2566, 0.2190, 0.6066, 0.1272, 0.1810, 0.3363, 0.2447,
        0.2002, 0.2423])"
bn6.running_var,"tensor([0.2541, 0.2973, 0.7582, 0.2389, 0.3123, 0.4850, 0.2034, 0.3632, 1.2484,
        0.2016, 0.2002, 1.0391, 0.2022, 1.3123, 0.1758, 0.7855, 1.2566, 0.2728,
        1.1730, 0.3374, 0.4575, 0.4407, 0.9728, 0.3603, 0.2222, 0.7302, 0.3722,
        0.0457, 1.5028, 0.6989, 0.2014, 0.7851, 0.3341, 0.3126, 0.1081, 0.3409,
        0.3799, 0.2584, 0.6389, 0.6599, 0.3281, 0.2676, 1.3929, 0.6929, 0.0445,
        0.3675, 0.3779, 0.1188, 0.1829, 0.2684, 1.1428, 0.9947, 0.8119, 0.7000,
        0.3560, 0.8034, 0.3467, 0.2265, 0.4828, 0.4437, 0.3584, 0.1962, 0.2839,
        0.5124, 0.1745, 0.2351, 0.1942, 0.3317, 0.4779, 0.5601, 0.6204, 0.1604,
        0.1440, 0.2636, 0.2110, 0.2612, 0.5556, 0.1259, 0.1808, 0.3634, 0.1481,
        0.2113, 0.2322, 0.4370, 0.3563, 0.1137, 0.4078, 0.3480, 0.6672, 0.4337,
        0.1343, 0.2362, 0.6343, 0.5457, 0.4253, 0.4636, 0.3346, 0.4056, 0.0491,
        0.4643, 0.0463, 0.1822, 0.8904, 0.3908, 0.1554, 0.0825, 0.1638, 0.1823,
        0.0859, 0.2369, 0.3099, 0.2170, 0.2502, 0.3395, 0.1744, 0.1958, 0.3328,
        0.3031, 0.2923, 0.6259, 0.3008, 0.4935, 0.1425, 0.1640, 0.1885, 0.4431,
        0.4438, 0.1736])"
bn6.num_batches_tracked,tensor(22450)
encConv6.weight,"tensor([[[[ 0.0069, -0.0079,  0.0164],
          [ 0.0290, -0.0005, -0.0255],
          [-0.0151,  0.0120,  0.0166]],

         [[ 0.0150, -0.0059,  0.0231],
          [ 0.0162,  0.0066,  0.0180],
          [ 0.0113,  0.0226,  0.0251]],

         [[-0.0263,  0.0259, -0.0229],
          [-0.0034, -0.0239, -0.0110],
          [-0.0069,  0.0219,  0.0342]],

         ...,

         [[ 0.0127, -0.0187, -0.0105],
          [-0.0129,  0.0204,  0.0256],
          [ 0.0251, -0.0188, -0.0227]],

         [[-0.0232, -0.0307,  0.0141],
          [ 0.0119, -0.0032, -0.0093],
          [-0.0210, -0.0185, -0.0198]],

         [[-0.0255, -0.0011,  0.0064],
          [-0.0068,  0.0191,  0.0071],
          [ 0.0184,  0.0150,  0.0086]]],


        [[[-0.0276,  0.0152, -0.0316],
          [-0.0198,  0.0194, -0.0059],
          [ 0.0326, -0.0071, -0.0107]],

         [[-0.0187, -0.0216,  0.0158],
          [ 0.0215,  0.0197, -0.0030],
          [ 0.0212, -0.0083,  0.0098]],

         [[-0.0235,  0.0103, -0.0239],
          [-0.0088, -0.0040,  0.0253],
          [ 0.0109,  0.0322, -0.0147]],

         ...,

         [[-0.0344, -0.0014, -0.0010],
          [-0.0077, -0.0370,  0.0194],
          [ 0.0220, -0.0075, -0.0232]],

         [[-0.0092,  0.0038,  0.0201],
          [ 0.0012, -0.0072,  0.0202],
          [-0.0263, -0.0030, -0.0256]],

         [[-0.0296,  0.0108,  0.0133],
          [ 0.0125,  0.0052,  0.0121],
          [ 0.0033,  0.0278, -0.0078]]],


        [[[ 0.0076,  0.0249, -0.0084],
          [-0.0121,  0.0110, -0.0204],
          [ 0.0264,  0.0162,  0.0059]],

         [[-0.0037, -0.0266, -0.0277],
          [ 0.0206,  0.0240, -0.0244],
          [ 0.0182,  0.0145,  0.0243]],

         [[-0.0149, -0.0015, -0.0148],
          [ 0.0240, -0.0106,  0.0034],
          [ 0.0242,  0.0140, -0.0133]],

         ...,

         [[-0.0237,  0.0201, -0.0149],
          [-0.0224,  0.0061, -0.0157],
          [ 0.0135,  0.0128,  0.0205]],

         [[ 0.0021,  0.0065, -0.0322],
          [-0.0094, -0.0118,  0.0093],
          [ 0.0064, -0.0289, -0.0231]],

         [[-0.0010,  0.0140, -0.0215],
          [ 0.0030, -0.0025, -0.0031],
          [ 0.0042, -0.0065, -0.0182]]],


        ...,


        [[[-0.0154, -0.0126, -0.0263],
          [-0.0006,  0.0102, -0.0214],
          [ 0.0319, -0.0186,  0.0271]],

         [[ 0.0214,  0.0047, -0.0238],
          [ 0.0009,  0.0118, -0.0093],
          [ 0.0094, -0.0141, -0.0189]],

         [[ 0.0039, -0.0077, -0.0021],
          [-0.0051, -0.0002,  0.0093],
          [-0.0058,  0.0285, -0.0100]],

         ...,

         [[-0.0254, -0.0113, -0.0202],
          [ 0.0199,  0.0080,  0.0023],
          [ 0.0218, -0.0123, -0.0011]],

         [[-0.0295, -0.0014, -0.0027],
          [-0.0174, -0.0002,  0.0196],
          [-0.0052,  0.0164,  0.0116]],

         [[-0.0049,  0.0105,  0.0005],
          [ 0.0145,  0.0008,  0.0250],
          [-0.0023, -0.0216,  0.0155]]],


        [[[ 0.0056,  0.0242,  0.0134],
          [ 0.0063, -0.0237,  0.0145],
          [-0.0176, -0.0072,  0.0121]],

         [[ 0.0113, -0.0106,  0.0110],
          [ 0.0225,  0.0235, -0.0115],
          [-0.0085, -0.0140, -0.0143]],

         [[ 0.0273,  0.0240,  0.0188],
          [ 0.0091,  0.0044, -0.0037],
          [-0.0231, -0.0212, -0.0083]],

         ...,

         [[ 0.0180, -0.0087, -0.0213],
          [-0.0136, -0.0230, -0.0152],
          [ 0.0104, -0.0095, -0.0126]],

         [[-0.0026,  0.0248,  0.0248],
          [ 0.0230, -0.0084, -0.0114],
          [ 0.0160, -0.0052,  0.0070]],

         [[ 0.0280, -0.0092,  0.0253],
          [-0.0093,  0.0044,  0.0189],
          [-0.0256,  0.0159, -0.0213]]],


        [[[ 0.0190,  0.0035,  0.0015],
          [-0.0265,  0.0250, -0.0229],
          [ 0.0149,  0.0037,  0.0005]],

         [[-0.0002, -0.0147,  0.0280],
          [-0.0253,  0.0132,  0.0122],
          [ 0.0004,  0.0133,  0.0039]],

         [[-0.0268, -0.0016,  0.0265],
          [-0.0092, -0.0177,  0.0002],
          [-0.0253,  0.0063, -0.0180]],

         ...,

         [[ 0.0078,  0.0116, -0.0224],
          [ 0.0006,  0.0262,  0.0249],
          [-0.0231, -0.0189,  0.0015]],

         [[ 0.0084,  0.0051,  0.0150],
          [ 0.0179, -0.0039,  0.0008],
          [-0.0108, -0.0022,  0.0068]],

         [[ 0.0080,  0.0044,  0.0073],
          [ 0.0078,  0.0151, -0.0202],
          [-0.0192,  0.0154,  0.0213]]]])"
encConv6.bias,"tensor([-0.0010,  0.0126, -0.0033, -0.0169,  0.0031,  0.0154,  0.0112,  0.0259,
        -0.0138, -0.0319,  0.0089,  0.0128,  0.0015,  0.0245, -0.0099, -0.0114,
        -0.0087,  0.0111, -0.0329,  0.0007,  0.0504,  0.0090,  0.0416,  0.0306,
        -0.0490, -0.0083,  0.0167,  0.0375,  0.0412,  0.0220, -0.0295, -0.0342,
         0.0135,  0.0111,  0.0088, -0.0138, -0.0122, -0.0236,  0.0146, -0.0407,
         0.0256, -0.0272, -0.0253, -0.0110, -0.0296, -0.0035, -0.0174,  0.0257,
        -0.0025,  0.0107,  0.0049, -0.0144, -0.0151, -0.0191,  0.0004,  0.0217,
        -0.0080, -0.0387,  0.0037,  0.0089, -0.0210, -0.0068, -0.0027,  0.0165])"
bn7.weight,"tensor([0.9980, 1.0000, 1.0043, 1.0036, 1.0030, 1.0034, 1.0003, 1.0022, 1.0029,
        0.9982, 0.9971, 1.0011, 0.9965, 1.0034, 1.0002, 0.9991, 1.0026, 0.9985,
        1.0032, 0.9981, 0.9970, 1.0000, 1.0040, 1.0015, 0.9986, 0.9996, 0.9994,
        0.9957, 0.9956, 0.9991, 1.0010, 1.0011, 0.9967, 0.9987, 1.0015, 1.0003,
        1.0003, 1.0032, 0.9992, 1.0058, 1.0014, 1.0000, 0.9976, 0.9993, 0.9915,
        1.0035, 0.9992, 1.0017, 1.0002, 1.0004, 1.0005, 0.9999, 1.0013, 1.0001,
        0.9987, 1.0025, 1.0003, 1.0025, 0.9994, 1.0002, 0.9979, 1.0005, 1.0008,
        1.0012, 0.9916, 1.0029, 0.9962, 1.0021, 0.9998, 0.9951, 0.9955, 0.9961,
        0.9926, 0.9972, 0.9919, 0.9962, 0.9973, 0.9949, 1.0015, 1.0014, 0.9982,
        0.9933, 0.9951, 0.9991, 0.9977, 0.9961, 1.0006, 0.9980, 1.0000, 0.9929,
        0.9977, 1.0020, 0.9997, 1.0006, 0.9996, 1.0002, 0.9989, 0.9955, 0.9989,
        0.9978, 1.0017, 0.9908, 0.9968, 1.0006, 0.9970, 0.9946, 0.9977, 0.9938,
        0.9966, 0.9945, 0.9989, 0.9991, 0.9976, 0.9969, 0.9940, 0.9969, 0.9991,
        0.9972, 0.9985, 1.0005, 1.0005, 0.9970, 1.0000, 0.9956, 0.9948, 1.0033,
        1.0007, 0.9915, 1.0010, 1.0001, 0.9956, 0.9995, 0.9954, 0.9958, 0.9980,
        0.9961, 1.0013, 1.0041, 0.9958, 0.9976, 1.0025, 0.9976, 0.9995, 0.9994,
        1.0001, 0.9983, 1.0157, 0.9997, 1.0030, 1.0008, 1.0044, 1.0018, 1.0083,
        0.9973, 0.9983, 1.0050, 1.0039, 1.0040, 1.0056, 1.0029, 0.9995, 1.0009,
        0.9967, 1.0001, 1.0009, 0.9968, 1.0021, 1.0029, 0.9971, 0.9965, 0.9989,
        1.0006, 0.9985, 0.9958, 0.9967, 0.9976, 1.0001, 1.0044, 0.9980, 1.0010,
        1.0015, 1.0031, 1.0024, 1.0003, 1.0009, 0.9988, 1.0095, 1.0008, 1.0023,
        1.0028, 1.0032, 0.9994])"
bn7.bias,"tensor([ 0.0069, -0.0051,  0.0002,  0.0211, -0.0429,  0.0342,  0.0123,  0.0380,
        -0.0363, -0.0104,  0.0060,  0.0375, -0.0214, -0.0516, -0.0320,  0.0083,
         0.0227,  0.0032,  0.0113, -0.0225,  0.0085, -0.0413,  0.0221, -0.0161,
        -0.0185,  0.0089,  0.0121, -0.0326,  0.0252,  0.0029, -0.0457,  0.0105,
        -0.0233,  0.0109, -0.0419, -0.0452,  0.0069, -0.0314, -0.0146, -0.0542,
         0.0227, -0.0007,  0.0218,  0.0036, -0.0206,  0.0174,  0.0177,  0.0321,
         0.0225,  0.0080,  0.0121,  0.0103, -0.0102,  0.0132, -0.0164, -0.0464,
        -0.0286,  0.0045, -0.0051, -0.0066, -0.0096, -0.0256, -0.0089,  0.0262,
         0.0026, -0.0505, -0.0023, -0.0500, -0.0246, -0.0207,  0.0128,  0.0025,
         0.0137, -0.0217,  0.0015, -0.0061, -0.0211,  0.0369, -0.0120, -0.0057,
        -0.0251, -0.0196,  0.0020, -0.0382, -0.0120, -0.0183, -0.0250, -0.0124,
        -0.0023,  0.0132, -0.0336, -0.0378, -0.0167, -0.0246, -0.0271, -0.0383,
        -0.0353, -0.0138, -0.0375,  0.0238, -0.0126, -0.0118,  0.0006, -0.0283,
         0.0286, -0.0081, -0.0134, -0.0180, -0.0080, -0.0132,  0.0082, -0.0111,
         0.0095, -0.0055, -0.0114, -0.0223, -0.0297, -0.0281, -0.0038, -0.0124,
        -0.0262, -0.0104,  0.0030,  0.0199, -0.0279, -0.0596, -0.0267, -0.0365,
         0.0157, -0.0106,  0.0098,  0.0149, -0.0186, -0.0109,  0.0118, -0.0143,
        -0.0201,  0.0315, -0.0281, -0.0066, -0.0160,  0.0214,  0.0134, -0.0135,
         0.0092,  0.0040, -0.0502, -0.0248, -0.0053,  0.0269, -0.0399, -0.0145,
        -0.0317, -0.0359, -0.0196, -0.0209,  0.0046, -0.0251, -0.0322, -0.0373,
         0.0170, -0.0146,  0.0056, -0.0135,  0.0144, -0.0211, -0.0431, -0.0325,
        -0.0199,  0.0007,  0.0348, -0.0340,  0.0134, -0.0036,  0.0043, -0.0246,
        -0.0334, -0.0434,  0.0123, -0.0156, -0.0432, -0.0068,  0.0526,  0.0638,
         0.0016, -0.0211,  0.0600, -0.0249, -0.0001, -0.0196,  0.0039,  0.0172])"
bn7.running_mean,"tensor([0.2344, 0.2878, 0.6254, 0.5314, 0.2336, 0.6717, 0.4967, 0.5570, 0.8525,
        0.2280, 0.4516, 0.8587, 0.2692, 0.7497, 0.1481, 0.7647, 0.8679, 0.6266,
        0.7106, 0.3106, 0.7606, 0.2999, 0.9473, 0.4137, 0.2259, 0.4279, 0.4240,
        0.0639, 0.6070, 0.5942, 0.1554, 0.6815, 0.3557, 0.4272, 0.1641, 0.2447,
        0.4551, 0.1884, 0.5480, 0.6075, 0.4902, 0.4459, 0.9048, 0.6500, 0.1329,
        0.4793, 0.7790, 0.2679, 0.2914, 0.5494, 0.7688, 0.8039, 0.4745, 0.6048,
        0.2833, 0.8221, 0.4215, 0.3060, 0.6275, 0.7952, 0.5186, 0.1827, 0.3990,
        0.7016, 0.3412, 0.1601, 0.3764, 0.1716, 0.3040, 0.5999, 0.4608, 0.2217,
        0.3853, 0.2182, 0.2502, 0.2378, 0.4942, 0.2483, 0.1732, 0.2792, 0.3886,
        0.3884, 0.2234, 0.2127, 0.5586, 0.1223, 0.2683, 0.4368, 0.3179, 0.4104,
        0.1990, 0.1581, 0.3928, 0.3090, 0.2393, 0.2068, 0.2032, 0.4300, 0.1074,
        0.4094, 0.1219, 0.2655, 0.3836, 0.2322, 0.2792, 0.3385, 0.4309, 0.3241,
        0.2995, 0.3853, 0.2502, 0.1984, 0.1880, 0.2909, 0.3696, 0.2251, 0.2521,
        0.2592, 0.1756, 0.2566, 0.2190, 0.6066, 0.1272, 0.1810, 0.3363, 0.2447,
        0.2002, 0.2423, 0.1802, 0.4099, 0.4344, 0.1492, 0.5801, 0.5687, 0.5923,
        0.4878, 0.2045, 0.1195, 0.5409, 0.3121, 0.2144, 0.3104, 0.2581, 0.3137,
        0.3515, 0.4907, 0.1647, 0.2047, 0.4709, 0.1910, 0.5150, 0.3223, 0.1164,
        0.3398, 0.2184, 0.3027, 0.2628, 0.5577, 0.1607, 0.1518, 0.1572, 0.4957,
        0.2621, 0.2959, 0.1549, 0.4901, 0.3777, 0.1298, 0.2393, 0.5927, 0.2106,
        0.2334, 0.1745, 0.4903, 0.5404, 0.2992, 0.6376, 0.1869, 0.3332, 0.2244,
        0.2265, 0.1987, 0.4856, 0.2441, 0.1829, 0.2287, 0.1725, 0.4042, 0.1267,
        0.2857, 0.2155, 0.1953])"
bn7.running_var,"tensor([0.2541, 0.2973, 0.7582, 0.2389, 0.3123, 0.4850, 0.2034, 0.3632, 1.2484,
        0.2016, 0.2002, 1.0391, 0.2022, 1.3123, 0.1758, 0.7855, 1.2566, 0.2728,
        1.1730, 0.3374, 0.4575, 0.4407, 0.9728, 0.3603, 0.2222, 0.7302, 0.3722,
        0.0457, 1.5028, 0.6989, 0.2014, 0.7851, 0.3341, 0.3126, 0.1081, 0.3409,
        0.3799, 0.2584, 0.6389, 0.6599, 0.3281, 0.2676, 1.3929, 0.6929, 0.0445,
        0.3675, 0.3779, 0.1188, 0.1829, 0.2684, 1.1428, 0.9947, 0.8119, 0.7000,
        0.3560, 0.8034, 0.3467, 0.2265, 0.4828, 0.4437, 0.3584, 0.1962, 0.2839,
        0.5124, 0.1745, 0.2351, 0.1942, 0.3317, 0.4779, 0.5601, 0.6204, 0.1604,
        0.1440, 0.2636, 0.2110, 0.2612, 0.5556, 0.1259, 0.1808, 0.3634, 0.1481,
        0.2113, 0.2322, 0.4370, 0.3563, 0.1137, 0.4078, 0.3480, 0.6672, 0.4337,
        0.1343, 0.2362, 0.6343, 0.5457, 0.4253, 0.4636, 0.3346, 0.4056, 0.0491,
        0.4643, 0.0463, 0.1822, 0.8904, 0.3908, 0.1554, 0.0825, 0.1638, 0.1823,
        0.0859, 0.2369, 0.3099, 0.2170, 0.2502, 0.3395, 0.1744, 0.1958, 0.3328,
        0.3031, 0.2923, 0.6259, 0.3008, 0.4935, 0.1425, 0.1640, 0.1885, 0.4431,
        0.4438, 0.1736, 0.1380, 0.1604, 0.1429, 0.0563, 0.2706, 0.7468, 0.2543,
        0.1526, 0.4024, 0.0476, 0.4838, 0.1652, 0.5226, 0.1616, 0.1286, 0.0865,
        0.1189, 0.2753, 0.0785, 0.1982, 0.1581, 0.0946, 0.1235, 0.0876, 0.0815,
        0.0885, 0.2266, 0.1929, 0.1205, 0.2539, 0.2043, 0.1874, 0.0809, 0.1201,
        0.1542, 0.8413, 0.0883, 0.4487, 0.1187, 0.2062, 0.1716, 0.5102, 0.1917,
        0.2213, 0.1376, 0.5439, 0.5196, 0.2054, 0.5882, 0.5298, 0.8177, 0.3671,
        0.4301, 0.0859, 0.3476, 0.2749, 0.3412, 0.1451, 0.1141, 1.5087, 0.0495,
        0.1118, 0.2479, 0.2409])"
bn7.num_batches_tracked,tensor(22450)
encConv7.weight,"tensor([[[[ 1.3466e-02,  2.1610e-02, -3.7711e-03],
          [ 7.9426e-03,  3.6830e-03, -1.5080e-02],
          [ 1.7867e-02,  1.6074e-03, -1.2428e-02]],

         [[-1.5208e-02, -1.6717e-02, -1.7283e-02],
          [ 2.4407e-02, -1.5287e-02,  2.1208e-02],
          [-1.5183e-02, -1.8949e-02, -1.3577e-03]],

         [[ 1.9192e-02, -1.1888e-02,  1.1561e-02],
          [ 1.4774e-02,  2.1129e-02,  9.1287e-03],
          [ 9.0854e-03, -2.2843e-03, -1.6047e-03]],

         ...,

         [[ 9.3059e-03, -1.2329e-02,  1.4372e-02],
          [-1.3667e-02, -8.3573e-04,  7.1192e-03],
          [ 2.1700e-03, -7.7806e-03,  1.9278e-02]],

         [[-7.7359e-03,  1.9180e-03, -7.1490e-03],
          [-3.5196e-03, -2.0820e-02, -8.9391e-04],
          [-7.7399e-03, -1.2289e-02, -1.2080e-02]],

         [[-2.3775e-02,  1.7720e-02, -1.6474e-02],
          [ 1.2801e-02, -7.8100e-03, -2.0697e-02],
          [-9.2940e-05,  1.4217e-02, -1.9232e-02]]],


        [[[-1.0994e-02, -4.2927e-03, -2.0747e-02],
          [-1.8581e-02, -2.2413e-03, -1.4752e-02],
          [-6.8210e-03, -7.0533e-03,  4.3773e-04]],

         [[ 3.7540e-03,  1.0042e-02,  1.2969e-02],
          [-4.1591e-03,  1.3138e-02, -8.2312e-03],
          [-9.7747e-03,  3.2693e-03,  9.6438e-03]],

         [[ 6.1949e-03, -2.4782e-02, -1.3563e-02],
          [ 1.8230e-02, -1.5628e-02, -2.1729e-02],
          [-8.8010e-03, -2.6175e-02, -6.5394e-03]],

         ...,

         [[-1.8422e-02,  8.5537e-04,  1.5873e-02],
          [-2.7154e-03,  5.5885e-03, -1.9968e-02],
          [-1.4561e-02, -9.7193e-03,  1.2286e-02]],

         [[-1.6590e-04, -1.9629e-02,  7.6825e-03],
          [ 8.8950e-03,  2.3645e-02,  1.6713e-02],
          [-1.3782e-02,  7.7670e-03, -8.4986e-03]],

         [[ 1.0796e-02,  1.5754e-02, -6.8918e-03],
          [ 1.1817e-02, -1.2414e-02, -1.6961e-03],
          [ 9.1954e-03, -4.8085e-03,  1.0152e-02]]],


        [[[ 1.8594e-02, -1.0221e-02, -1.6388e-02],
          [ 5.5953e-03,  1.3448e-02,  1.9360e-02],
          [-2.8902e-03, -1.0896e-02, -1.5780e-02]],

         [[ 9.1263e-03, -1.1952e-02,  6.7635e-03],
          [-1.5802e-02, -1.0734e-02,  1.4583e-02],
          [ 1.6139e-02,  2.1361e-02,  1.5522e-02]],

         [[-2.1201e-02, -1.5864e-02, -1.8103e-02],
          [-9.5169e-03,  3.2442e-03, -1.2888e-04],
          [-1.3973e-02,  1.5598e-02, -2.0322e-02]],

         ...,

         [[-2.1883e-04,  8.8992e-03,  1.8966e-02],
          [-6.6298e-04, -2.3740e-02, -2.1697e-02],
          [ 3.8832e-03, -1.0017e-02, -1.2559e-03]],

         [[ 1.9069e-02,  2.1297e-02,  2.4561e-02],
          [-2.4116e-02,  2.3376e-02, -1.1373e-02],
          [-9.3874e-03, -1.4950e-02, -1.3489e-02]],

         [[ 1.7916e-02,  2.2447e-02, -1.0293e-02],
          [-1.6719e-02, -8.8013e-03,  1.6571e-02],
          [-2.0136e-02, -1.8322e-02,  1.4802e-02]]],


        ...,


        [[[ 1.5495e-02, -1.1471e-03,  2.1013e-02],
          [ 2.8381e-02,  1.5351e-02,  1.6764e-02],
          [-1.2445e-03, -2.0151e-02,  2.1247e-02]],

         [[-8.7649e-03, -4.0645e-03, -1.0878e-03],
          [ 9.7482e-03, -1.0621e-02,  1.5183e-02],
          [ 1.4966e-02,  1.6675e-02, -2.5161e-02]],

         [[-6.6916e-03, -1.2817e-02, -2.1227e-02],
          [ 2.9940e-03, -1.3612e-02,  1.0072e-02],
          [-1.2872e-02,  8.7228e-03,  1.7291e-02]],

         ...,

         [[ 1.4933e-02,  3.1712e-03, -3.2932e-04],
          [-1.0937e-02,  9.6949e-03, -4.1740e-03],
          [-5.3647e-03, -9.5795e-03, -4.4304e-03]],

         [[-2.0809e-02,  8.3952e-03,  1.0226e-02],
          [ 1.8591e-04,  1.7840e-03, -1.3459e-02],
          [ 1.3013e-02, -3.6792e-03, -1.5923e-02]],

         [[ 6.9161e-03,  1.0098e-02,  1.6261e-02],
          [-1.3149e-02,  2.6839e-02,  1.0856e-02],
          [ 1.4979e-02,  1.7107e-02,  2.6259e-03]]],


        [[[-1.2717e-02,  2.1398e-02,  1.9006e-02],
          [ 4.7293e-03, -3.9358e-03,  6.7363e-03],
          [ 5.7883e-03,  1.2396e-02,  7.6062e-03]],

         [[ 2.0082e-02, -1.3162e-02, -1.5147e-02],
          [ 2.6466e-02,  2.1014e-02, -2.0069e-02],
          [-1.7139e-02,  2.1675e-02,  1.6381e-02]],

         [[ 1.1240e-02, -1.8915e-02,  1.3512e-02],
          [ 3.4078e-03,  1.5675e-03,  1.5011e-02],
          [ 1.8923e-02, -1.6587e-02, -4.8451e-03]],

         ...,

         [[ 1.7609e-02,  4.5733e-03, -1.0934e-03],
          [-9.9775e-03,  1.5994e-02,  7.7651e-04],
          [-1.2369e-02, -1.5686e-02, -6.7808e-03]],

         [[ 1.5085e-02, -3.9543e-03,  8.4875e-03],
          [-4.3824e-04,  1.8918e-02,  5.4446e-03],
          [-1.3844e-02,  2.0581e-03,  1.2292e-03]],

         [[-9.1950e-03, -1.0242e-02, -8.5796e-03],
          [-1.1552e-02,  1.6880e-02, -1.4827e-02],
          [-1.4110e-02,  2.4490e-02, -1.4907e-02]]],


        [[[ 1.0559e-02, -1.6891e-02,  8.9505e-03],
          [ 7.1190e-03, -2.0534e-02, -1.5725e-02],
          [-1.4289e-03,  7.2968e-03,  2.2749e-02]],

         [[-1.2262e-02,  8.8005e-03, -1.1263e-02],
          [-3.3061e-03,  2.1831e-02,  3.0614e-03],
          [-2.3533e-02, -5.7373e-03, -1.2005e-02]],

         [[ 2.4776e-02, -1.2042e-02,  2.7525e-02],
          [ 8.6522e-03,  1.4751e-02,  1.1777e-02],
          [-1.6003e-02, -1.3414e-02,  1.9043e-02]],

         ...,

         [[ 1.4209e-02,  2.6051e-02, -9.1041e-03],
          [-7.4567e-03,  9.1999e-04, -6.4959e-03],
          [-7.8730e-04,  8.8003e-03,  1.7744e-02]],

         [[-9.3001e-04,  1.6284e-02, -1.2910e-02],
          [ 4.3873e-03,  1.2758e-02, -2.7308e-04],
          [-6.1631e-03,  1.7366e-03, -3.4537e-03]],

         [[-2.1609e-02, -1.9103e-02, -2.4097e-02],
          [-2.5971e-02, -8.4304e-03, -8.0092e-03],
          [-8.0393e-03, -7.8545e-03,  2.6935e-02]]]])"
encConv7.bias,"tensor([-2.5569e-02, -1.3582e-02,  1.6745e-02,  1.1824e-03,  1.5729e-02,
        -1.0435e-02,  3.1870e-02,  3.3722e-02,  3.6079e-02,  3.0605e-03,
        -1.0044e-02, -1.2514e-04, -4.5815e-02, -2.6411e-02, -4.4273e-02,
         1.1800e-02, -7.8019e-03,  2.4196e-02,  4.0205e-02,  1.9275e-02,
         1.1490e-02, -2.1621e-02, -1.0226e-02, -2.1969e-02,  1.5072e-02,
         5.0478e-03,  1.6688e-02,  8.0991e-03,  1.0862e-02,  4.3206e-02,
         2.5502e-02, -1.6389e-02,  1.9095e-02,  2.0383e-03,  2.1382e-02,
        -1.4091e-02, -5.7493e-03,  9.4369e-03,  3.5568e-02, -3.6278e-02,
         4.2949e-03, -2.2883e-02, -2.6638e-03, -3.7056e-02,  3.2819e-02,
         7.2114e-03,  1.0851e-02,  1.7104e-02,  3.0150e-02,  1.8694e-02,
        -2.8629e-02,  6.2683e-03,  1.8594e-01, -1.5681e-02,  1.0229e-02,
        -1.6102e-02, -2.3626e-02,  4.6579e-02,  5.9055e-02,  5.1679e-02,
         1.5002e-02, -7.5153e-03,  3.1192e-03, -3.0074e-03])"
bn8.weight,"tensor([1.0085, 0.9981, 1.0021, 1.0069, 0.9952, 0.9954, 0.9943, 0.9934, 0.9946,
        0.9920, 0.9956, 1.0064, 1.0181, 1.0087, 1.0169, 0.9934, 0.9917, 0.9973,
        0.9910, 0.9904, 1.0025, 1.0016, 1.0032, 1.0026, 0.9962, 0.9966, 0.9930,
        0.9972, 0.9973, 0.9822, 0.9888, 0.9998, 1.0006, 0.9926, 0.9902, 1.0028,
        1.0091, 0.9903, 0.9965, 1.0245, 1.0019, 1.0007, 1.0047, 1.0022, 1.0077,
        0.9836, 1.0040, 0.9996, 0.9929, 1.0026, 1.0057, 0.9984, 0.9929, 1.0081,
        1.0018, 1.0095, 1.0033, 0.9999, 1.0168, 0.9885, 0.9963, 0.9946, 1.0030,
        0.9988])"
bn8.bias,"tensor([-0.0517,  0.0070, -0.0363, -0.0440,  0.0349, -0.0030,  0.0227,  0.0179,
         0.0228, -0.0081,  0.0111, -0.0384, -0.0402, -0.0378, -0.0643,  0.0229,
         0.0027,  0.0259, -0.0030, -0.0071, -0.0463, -0.0326, -0.0187, -0.0243,
        -0.0056,  0.0203,  0.0060,  0.0053,  0.0028,  0.0031,  0.0080, -0.0027,
         0.0053,  0.0188,  0.0149, -0.0253, -0.0445,  0.0175,  0.0254,  0.0381,
        -0.0292, -0.0279, -0.0446, -0.0417,  0.0423,  0.0320, -0.0300, -0.0209,
        -0.0042, -0.0468,  0.0178,  0.0298,  0.0200, -0.0485, -0.0119, -0.0375,
        -0.0443,  0.0183,  0.0129,  0.0287,  0.0117,  0.0067, -0.0300, -0.0166])"
bn8.running_mean,"tensor([0.1245, 0.6319, 0.4005, 0.1958, 0.9496, 0.9429, 0.8545, 0.5646, 0.4062,
        0.4844, 0.9917, 0.1699, 0.0988, 0.1436, 0.1285, 0.9935, 0.6666, 0.8798,
        0.9740, 0.8542, 0.2375, 0.2699, 0.2891, 0.1782, 0.7601, 0.3144, 0.5948,
        0.7022, 0.7323, 0.5861, 0.5512, 0.2255, 0.3811, 0.5194, 0.5947, 0.2786,
        0.1528, 0.7692, 0.7828, 0.1716, 0.3703, 0.2225, 0.2168, 0.1927, 0.1969,
        0.3799, 0.1917, 0.5995, 0.7044, 0.3226, 0.1856, 0.5311, 0.3898, 0.2808,
        0.4306, 0.1896, 0.3006, 0.2338, 0.5160, 0.5845, 0.8493, 0.6819, 0.1499,
        0.4015])"
bn8.running_var,"tensor([0.4907, 1.7153, 1.0683, 0.9575, 1.0549, 1.5326, 1.0296, 0.3136, 0.4201,
        0.4014, 1.5822, 0.5812, 0.2654, 0.2427, 0.5246, 1.0394, 0.3429, 0.8804,
        0.7190, 0.3891, 0.8467, 0.8772, 0.5722, 0.3138, 0.4320, 0.3741, 0.2896,
        1.1859, 1.4024, 0.3726, 0.4223, 0.5970, 0.3130, 0.4802, 0.6031, 1.0406,
        0.5132, 0.4533, 0.4575, 0.1014, 1.0994, 0.9086, 0.5657, 0.9179, 0.0937,
        0.4703, 0.7648, 3.1247, 0.9233, 0.9198, 0.2218, 0.4328, 0.0931, 0.4222,
        1.1803, 0.9025, 0.6536, 0.1460, 0.1198, 0.4543, 0.8644, 0.9629, 0.2882,
        0.8794])"
bn8.num_batches_tracked,tensor(22450)
encConv8.weight,"tensor([[[[-0.0173,  0.0069, -0.0276],
          [ 0.0243,  0.0034,  0.0138],
          [ 0.0249,  0.0149,  0.0277]],

         [[ 0.0290,  0.0097, -0.0101],
          [-0.0132, -0.0154, -0.0318],
          [-0.0157,  0.0042, -0.0077]],

         [[-0.0119, -0.0350,  0.0073],
          [-0.0216, -0.0162,  0.0311],
          [-0.0136,  0.0110,  0.0193]],

         ...,

         [[-0.0058, -0.0093,  0.0034],
          [-0.0221,  0.0384, -0.0296],
          [-0.0080,  0.0174, -0.0148]],

         [[-0.0121, -0.0200,  0.0329],
          [ 0.0125, -0.0366, -0.0231],
          [ 0.0309, -0.0202, -0.0057]],

         [[ 0.0199,  0.0290,  0.0452],
          [-0.0244,  0.0159,  0.0376],
          [-0.0330, -0.0142, -0.0291]]],


        [[[ 0.0262, -0.0368, -0.0387],
          [-0.0204,  0.0011,  0.0147],
          [-0.0219, -0.0413,  0.0220]],

         [[-0.0313,  0.0036, -0.0327],
          [ 0.0328,  0.0279,  0.0243],
          [-0.0272,  0.0052,  0.0149]],

         [[ 0.0106, -0.0234, -0.0138],
          [ 0.0043,  0.0225, -0.0444],
          [-0.0393,  0.0068, -0.0046]],

         ...,

         [[ 0.0128,  0.0321, -0.0127],
          [-0.0235,  0.0145, -0.0054],
          [-0.0088,  0.0312,  0.0193]],

         [[ 0.0204,  0.0334, -0.0410],
          [-0.0445, -0.0135, -0.0194],
          [-0.0272,  0.0364,  0.0082]],

         [[-0.0066, -0.0346, -0.0393],
          [-0.0157,  0.0284, -0.0256],
          [-0.0073, -0.0191, -0.0349]]],


        [[[-0.0324,  0.0182,  0.0087],
          [-0.0182,  0.0278,  0.0268],
          [ 0.0056, -0.0162, -0.0151]],

         [[ 0.0360,  0.0157,  0.0122],
          [ 0.0398,  0.0388,  0.0160],
          [-0.0133,  0.0074,  0.0009]],

         [[ 0.0192, -0.0214,  0.0297],
          [ 0.0206,  0.0049, -0.0090],
          [ 0.0133, -0.0080, -0.0095]],

         ...,

         [[-0.0136, -0.0277, -0.0327],
          [ 0.0290, -0.0007, -0.0408],
          [ 0.0228,  0.0364,  0.0390]],

         [[ 0.0009, -0.0166, -0.0071],
          [-0.0130,  0.0250, -0.0120],
          [-0.0368, -0.0255, -0.0200]],

         [[ 0.0211,  0.0206,  0.0101],
          [-0.0257,  0.0253, -0.0327],
          [ 0.0124,  0.0133,  0.0369]]],


        ...,


        [[[ 0.0417, -0.0245, -0.0275],
          [ 0.0059,  0.0440, -0.0192],
          [ 0.0315,  0.0107,  0.0258]],

         [[-0.0352,  0.0145,  0.0327],
          [-0.0012,  0.0083,  0.0085],
          [-0.0095,  0.0082, -0.0063]],

         [[-0.0125, -0.0078, -0.0131],
          [ 0.0338,  0.0165,  0.0287],
          [-0.0101,  0.0398,  0.0215]],

         ...,

         [[-0.0123, -0.0172, -0.0325],
          [-0.0100, -0.0231, -0.0384],
          [ 0.0165, -0.0219, -0.0215]],

         [[ 0.0013,  0.0357,  0.0182],
          [ 0.0002, -0.0389,  0.0223],
          [-0.0010, -0.0057,  0.0384]],

         [[ 0.0043, -0.0176, -0.0088],
          [-0.0053,  0.0367, -0.0291],
          [-0.0082,  0.0395, -0.0382]]],


        [[[-0.0053, -0.0283,  0.0105],
          [-0.0350, -0.0125,  0.0336],
          [ 0.0188,  0.0085,  0.0297]],

         [[-0.0123, -0.0143,  0.0389],
          [-0.0304, -0.0130,  0.0217],
          [ 0.0092,  0.0328, -0.0044]],

         [[-0.0226,  0.0401, -0.0219],
          [-0.0214,  0.0188,  0.0095],
          [ 0.0241,  0.0057,  0.0328]],

         ...,

         [[ 0.0315, -0.0242, -0.0298],
          [-0.0125,  0.0297, -0.0191],
          [-0.0374,  0.0323,  0.0143]],

         [[ 0.0215, -0.0261,  0.0369],
          [ 0.0258,  0.0075,  0.0058],
          [-0.0274, -0.0034,  0.0158]],

         [[-0.0048, -0.0263, -0.0125],
          [ 0.0345,  0.0133, -0.0023],
          [-0.0242, -0.0008,  0.0342]]],


        [[[-0.0222,  0.0317,  0.0070],
          [-0.0020,  0.0028,  0.0221],
          [ 0.0079, -0.0088,  0.0346]],

         [[-0.0200, -0.0233,  0.0374],
          [-0.0070, -0.0063,  0.0198],
          [-0.0404,  0.0135,  0.0071]],

         [[ 0.0335, -0.0241,  0.0165],
          [ 0.0402,  0.0049, -0.0022],
          [ 0.0192, -0.0262,  0.0184]],

         ...,

         [[-0.0011, -0.0382, -0.0181],
          [-0.0183, -0.0194,  0.0099],
          [ 0.0358, -0.0067,  0.0156]],

         [[-0.0147,  0.0072, -0.0293],
          [ 0.0319, -0.0031,  0.0153],
          [-0.0121,  0.0022, -0.0351]],

         [[ 0.0146,  0.0397, -0.0104],
          [ 0.0227,  0.0210,  0.0352],
          [ 0.0345,  0.0313,  0.0344]]]])"
encConv8.bias,"tensor([ 0.0213,  0.0374,  0.0117, -0.0172,  0.0397, -0.0369,  0.0351,  0.0182,
        -0.0223, -0.0212,  0.0041, -0.0238, -0.0259,  0.0388,  0.0343,  0.0241,
        -0.0057,  0.0200,  0.0571, -0.0046,  0.0011, -0.0268,  0.0451,  0.0528,
         0.0311, -0.0139,  0.0326,  0.0066, -0.0333, -0.0340,  0.0607, -0.0381,
        -0.0023, -0.0572,  0.0505,  0.0206,  0.0229, -0.0498, -0.0192,  0.0141,
        -0.0118,  0.0063, -0.0130, -0.0393, -0.0446,  0.0316, -0.0199,  0.0033,
        -0.0320,  0.0168,  0.0330,  0.0362,  0.0378,  0.0233,  0.0487, -0.0073,
        -0.0130,  0.0022, -0.0067, -0.0205,  0.0090, -0.0547,  0.0014, -0.0484])"
bn9.weight,"tensor([1.0023, 0.9992, 0.9987, 1.0006, 0.9972, 0.9982, 0.9984, 0.9985, 0.9951,
        0.9976, 0.9997, 1.0004, 1.0079, 1.0034, 1.0041, 0.9956, 0.9979, 0.9984,
        0.9970, 0.9950, 1.0007, 1.0021, 1.0015, 1.0073, 0.9964, 1.0015, 0.9925,
        1.0012, 0.9983, 0.9947, 0.9963, 1.0007, 1.0045, 0.9976, 1.0018, 1.0009,
        0.9984, 0.9959, 0.9977, 0.9985, 1.0002, 1.0022, 1.0036, 1.0007, 0.9977,
        0.9989, 0.9990, 0.9983, 0.9967, 1.0004, 0.9975, 0.9969, 0.9987, 1.0011,
        0.9974, 1.0042, 1.0016, 0.9926, 1.0013, 0.9944, 0.9969, 0.9967, 0.9992,
        0.9987, 1.0018, 0.9933, 0.9992, 1.0014, 0.9960, 1.0012, 0.9968, 1.0036,
        1.0041, 1.0015, 1.0084, 0.9947, 1.0023, 1.0034, 0.9945, 1.0030, 0.9975,
        0.9949, 0.9997, 1.0014, 1.0007, 0.9963, 0.9983, 1.0017, 0.9957, 0.9979,
        1.0042, 1.0009, 0.9990, 1.0001, 1.0010, 1.0023, 1.0058, 1.0054, 0.9990,
        1.0070, 1.0038, 1.0048, 0.9995, 0.9957, 0.9954, 0.9995, 0.9949, 1.0094,
        1.0039, 1.0025, 0.9989, 1.0019, 1.0032, 1.0055, 1.0022, 1.0007, 1.0012,
        1.0038, 0.9976, 0.9951, 1.0018, 1.0041, 0.9963, 0.9939, 1.0037, 1.0025,
        0.9971, 1.0077])"
bn9.bias,"tensor([-0.0134, -0.0025, -0.0123, -0.0123,  0.0043,  0.0168,  0.0109, -0.0067,
         0.0164, -0.0066,  0.0125, -0.0197, -0.0301, -0.0319, -0.0217, -0.0013,
        -0.0024,  0.0140,  0.0119, -0.0007, -0.0150, -0.0166, -0.0103, -0.0210,
         0.0090,  0.0006,  0.0112, -0.0108, -0.0072,  0.0125,  0.0039, -0.0084,
         0.0052,  0.0094,  0.0051, -0.0038, -0.0054,  0.0111,  0.0103,  0.0094,
        -0.0017, -0.0107, -0.0148, -0.0246,  0.0026,  0.0023, -0.0106, -0.0128,
         0.0106, -0.0118,  0.0094,  0.0253,  0.0043, -0.0167, -0.0017, -0.0190,
        -0.0085,  0.0129,  0.0109,  0.0027, -0.0010,  0.0140, -0.0152, -0.0069,
        -0.0117, -0.0042, -0.0120,  0.0180,  0.0079, -0.0051, -0.0155, -0.0163,
        -0.0275,  0.0024, -0.0262, -0.0021, -0.0200,  0.0036,  0.0120, -0.0143,
        -0.0173, -0.0004, -0.0001, -0.0005, -0.0024,  0.0146,  0.0070, -0.0028,
         0.0064, -0.0098, -0.0167, -0.0167, -0.0050,  0.0041, -0.0098, -0.0212,
         0.0016, -0.0207, -0.0166,  0.0103, -0.0129, -0.0270, -0.0155, -0.0076,
         0.0042, -0.0011,  0.0095, -0.0258, -0.0157,  0.0010, -0.0110, -0.0190,
         0.0070, -0.0023, -0.0017, -0.0114, -0.0114, -0.0012,  0.0226, -0.0081,
         0.0114, -0.0167,  0.0067, -0.0040, -0.0129, -0.0170, -0.0033, -0.0323])"
bn9.running_mean,"tensor([0.1245, 0.6319, 0.4005, 0.1958, 0.9496, 0.9429, 0.8545, 0.5646, 0.4062,
        0.4844, 0.9917, 0.1699, 0.0988, 0.1436, 0.1285, 0.9935, 0.6666, 0.8798,
        0.9740, 0.8542, 0.2375, 0.2699, 0.2891, 0.1782, 0.7601, 0.3144, 0.5948,
        0.7022, 0.7323, 0.5861, 0.5512, 0.2255, 0.3811, 0.5194, 0.5947, 0.2786,
        0.1528, 0.7692, 0.7828, 0.1716, 0.3703, 0.2225, 0.2168, 0.1927, 0.1969,
        0.3799, 0.1917, 0.5995, 0.7044, 0.3226, 0.1856, 0.5311, 0.3898, 0.2808,
        0.4306, 0.1896, 0.3006, 0.2338, 0.5160, 0.5845, 0.8493, 0.6819, 0.1499,
        0.4015, 0.4455, 0.3919, 0.2060, 0.3138, 0.3786, 0.2288, 0.3098, 0.2005,
        0.2437, 0.2008, 0.2265, 0.2319, 0.1726, 0.4407, 0.1706, 0.1515, 0.2461,
        0.2144, 0.4055, 0.2042, 0.3688, 0.3599, 0.2868, 0.4384, 0.4304, 0.3730,
        0.1961, 0.1765, 0.4396, 0.2164, 0.4481, 0.1969, 0.1353, 0.1632, 0.3281,
        0.1136, 0.1740, 0.1754, 0.2424, 0.3015, 0.4592, 0.2025, 0.4383, 0.1766,
        0.1753, 0.4013, 0.3377, 0.1747, 0.1491, 0.2021, 0.2004, 0.5063, 0.3850,
        0.1456, 0.1697, 0.4290, 0.1934, 0.1719, 0.2907, 0.4305, 0.3790, 0.1245,
        0.3117, 0.1889])"
bn9.running_var,"tensor([0.4907, 1.7153, 1.0683, 0.9575, 1.0549, 1.5326, 1.0296, 0.3136, 0.4201,
        0.4014, 1.5822, 0.5812, 0.2654, 0.2427, 0.5246, 1.0394, 0.3429, 0.8804,
        0.7190, 0.3891, 0.8467, 0.8772, 0.5722, 0.3138, 0.4320, 0.3741, 0.2896,
        1.1859, 1.4024, 0.3726, 0.4223, 0.5970, 0.3130, 0.4802, 0.6031, 1.0406,
        0.5132, 0.4533, 0.4575, 0.1014, 1.0994, 0.9086, 0.5657, 0.9179, 0.0937,
        0.4703, 0.7648, 3.1247, 0.9233, 0.9198, 0.2218, 0.4328, 0.0931, 0.4222,
        1.1803, 0.9025, 0.6536, 0.1460, 0.1198, 0.4543, 0.8644, 0.9629, 0.2882,
        0.8794, 0.1169, 0.2943, 0.7460, 0.6061, 1.4836, 0.3605, 0.2047, 1.2242,
        1.3714, 0.7210, 0.9157, 0.3330, 1.1984, 0.0911, 0.0801, 0.4747, 0.1571,
        0.1184, 0.1911, 0.5436, 0.1756, 0.2908, 0.1769, 0.1418, 0.2482, 0.0930,
        0.8431, 0.6413, 0.3675, 0.4284, 0.1005, 0.8801, 0.0640, 0.9170, 0.0848,
        0.0674, 0.4882, 0.8640, 0.6712, 0.1125, 0.1097, 0.3839, 0.3575, 0.8725,
        0.4996, 0.1372, 1.1775, 0.8680, 0.1802, 0.1305, 0.5298, 0.0887, 0.1189,
        0.2474, 0.0939, 0.1705, 0.1188, 1.0771, 0.1141, 0.2128, 0.1781, 0.4935,
        1.2102, 1.1243])"
bn9.num_batches_tracked,tensor(22450)
encConv9.weight,"tensor([[[[ 1.4690e-02,  1.2933e-02,  2.6290e-02],
          [ 9.7518e-03, -6.5386e-03, -2.1195e-02],
          [-2.4586e-02,  2.4090e-02,  2.3419e-02]],

         [[-2.6469e-02, -1.4077e-03, -1.9906e-02],
          [-2.4007e-02, -6.9519e-04,  2.6841e-02],
          [-2.7625e-02, -2.5106e-02,  8.6020e-04]],

         [[-1.0042e-02, -4.7656e-03,  1.3331e-02],
          [-3.1940e-02,  1.2044e-02, -1.3629e-02],
          [-2.5856e-02, -5.2470e-03, -5.9660e-03]],

         ...,

         [[ 1.8993e-02,  1.2653e-02, -4.3167e-03],
          [ 1.4537e-02,  1.1449e-02, -3.3958e-03],
          [-1.9186e-02,  4.0424e-03, -3.3050e-02]],

         [[ 3.1519e-03,  1.7612e-03, -2.4931e-02],
          [-8.9627e-03,  2.7537e-02, -2.9334e-02],
          [ 2.0899e-02,  1.4477e-02,  2.9731e-03]],

         [[-1.8312e-02, -9.8989e-03, -1.0669e-03],
          [-1.5252e-02, -9.1563e-03, -8.9265e-03],
          [-3.0085e-02,  7.8871e-03, -2.2395e-02]]],


        [[[-2.1260e-02, -1.1870e-02,  2.1010e-02],
          [ 6.3063e-03,  2.2061e-02,  1.7359e-02],
          [-1.7899e-02,  1.2676e-02, -5.0949e-03]],

         [[ 2.3166e-02, -2.0233e-02, -1.1799e-02],
          [ 1.6630e-02,  3.0823e-03,  1.2380e-02],
          [ 2.4396e-02, -2.9803e-02,  9.1586e-03]],

         [[ 2.2581e-02,  3.0410e-02, -7.3732e-03],
          [-1.2220e-02, -2.5883e-02,  2.6857e-02],
          [ 2.9372e-02,  8.8567e-03, -5.8908e-03]],

         ...,

         [[-8.1226e-03,  1.7988e-02,  3.1189e-02],
          [-1.3477e-02, -6.1468e-03, -1.3799e-02],
          [ 5.3992e-03, -1.6382e-02,  3.4359e-03]],

         [[ 8.2926e-03,  8.8534e-03,  2.4688e-02],
          [ 2.0194e-02,  1.8138e-02,  1.8200e-02],
          [ 2.8503e-04, -1.1246e-02,  1.6891e-02]],

         [[ 3.7160e-02,  9.3204e-03, -1.9897e-02],
          [ 2.8418e-02, -5.0011e-03,  2.5379e-02],
          [ 2.2922e-02,  2.6884e-02,  1.9060e-02]]],


        [[[ 2.6854e-03,  1.4409e-02, -8.7277e-04],
          [-9.3315e-03,  6.7430e-03, -2.1160e-02],
          [ 2.8402e-03, -2.3976e-02, -4.9338e-03]],

         [[-1.7516e-02, -9.7333e-03, -1.7097e-02],
          [-9.4595e-03, -7.8166e-03, -1.3484e-03],
          [-2.8303e-02, -3.0515e-02,  1.0849e-02]],

         [[ 1.2483e-02, -5.7221e-03,  4.6346e-03],
          [-3.2459e-02, -2.8613e-02,  8.0422e-03],
          [-8.9390e-03,  1.3273e-02, -1.2677e-03]],

         ...,

         [[ 2.6559e-03,  1.6870e-02,  1.3736e-02],
          [ 9.3476e-03, -1.2558e-02,  2.1046e-02],
          [-8.7510e-03, -1.1195e-02, -1.8398e-02]],

         [[ 2.9478e-03,  1.4000e-02, -2.1232e-02],
          [-2.2983e-02, -2.8250e-02, -1.7619e-02],
          [-2.1872e-02, -2.9688e-02,  2.2732e-02]],

         [[-2.9427e-02,  1.7571e-03, -2.8181e-03],
          [ 4.7326e-03, -2.0448e-02,  1.6529e-02],
          [-1.8771e-02,  1.1329e-02,  1.9842e-02]]],


        ...,


        [[[ 6.5242e-03, -9.8379e-03, -2.1167e-02],
          [ 1.2640e-02,  1.4804e-02, -1.2621e-02],
          [-1.1475e-02, -8.1197e-03, -1.4924e-03]],

         [[ 2.2037e-02,  1.5157e-02,  2.3869e-02],
          [-1.9601e-02, -5.2154e-03, -2.3051e-02],
          [ 6.3985e-03,  1.1302e-02, -1.7208e-02]],

         [[ 5.5192e-04, -2.8391e-02,  2.5847e-03],
          [ 2.1343e-02, -5.2370e-03, -1.9856e-02],
          [ 1.9526e-02,  1.3977e-03,  2.1334e-02]],

         ...,

         [[-1.2700e-02,  3.0185e-02, -7.1399e-03],
          [-2.5453e-03, -4.6433e-03,  8.1155e-03],
          [ 1.9783e-02, -2.7860e-02,  2.2663e-02]],

         [[ 4.9187e-03,  9.6315e-04, -2.5781e-02],
          [-1.3974e-02, -8.7487e-03, -1.3707e-02],
          [-2.4425e-03, -1.4537e-02, -2.1981e-02]],

         [[ 7.1450e-03,  1.5509e-02,  4.2007e-03],
          [ 1.1451e-03, -2.4989e-02, -1.0395e-02],
          [-6.6789e-03, -7.6649e-03, -1.5294e-02]]],


        [[[-4.5906e-03,  1.6951e-02, -5.4462e-03],
          [-1.9864e-02,  4.5178e-03, -2.4591e-02],
          [ 2.5533e-02, -2.6151e-02,  1.3432e-02]],

         [[-1.2516e-02,  3.7732e-03,  1.3667e-02],
          [ 1.1594e-02, -1.2565e-02,  2.7548e-03],
          [-5.0428e-03,  2.6198e-02, -3.1840e-03]],

         [[-3.3063e-03,  1.5538e-02,  6.1920e-03],
          [-5.8246e-03,  9.9368e-04, -2.0914e-02],
          [-2.2053e-02,  2.4001e-02, -1.2936e-02]],

         ...,

         [[ 1.1665e-02,  1.5931e-02, -1.1860e-02],
          [ 3.2943e-02, -7.0621e-03, -1.8568e-02],
          [-1.1561e-03, -1.6940e-02,  1.6134e-02]],

         [[-1.8806e-02, -2.1734e-02, -2.0591e-02],
          [ 2.1653e-02,  3.4447e-03, -4.6647e-03],
          [-2.5219e-02,  8.7711e-03,  4.1326e-03]],

         [[-5.3150e-03,  3.4768e-03,  2.3283e-02],
          [-1.0314e-02,  1.8784e-02, -2.7860e-02],
          [ 1.1985e-02, -6.9014e-03,  6.5921e-03]]],


        [[[-5.6153e-03, -8.0064e-04, -1.4730e-02],
          [-3.5807e-04,  1.3595e-02,  2.4579e-02],
          [ 1.6887e-02, -2.2000e-02,  2.6958e-02]],

         [[-3.0342e-02, -1.9965e-02, -2.7656e-02],
          [ 6.2024e-03,  8.3544e-03, -2.4289e-02],
          [-2.0868e-02,  1.1182e-02,  4.9282e-03]],

         [[ 9.0953e-03, -1.8653e-02, -2.6541e-02],
          [-8.0596e-03, -6.7385e-03, -2.5417e-02],
          [-1.4770e-02,  4.4421e-04,  4.2383e-03]],

         ...,

         [[ 5.1629e-03, -7.2824e-03, -1.5805e-03],
          [-7.1382e-03, -6.7481e-04, -5.3343e-05],
          [-2.6150e-02,  8.0322e-03, -2.1399e-02]],

         [[ 1.1114e-02,  8.8275e-03,  2.2251e-02],
          [ 1.8124e-02, -6.7943e-03,  3.0114e-02],
          [ 9.6766e-03,  2.7153e-04,  2.1598e-02]],

         [[ 2.2408e-02, -1.5598e-02, -2.5498e-03],
          [-2.3675e-02, -3.0954e-02,  1.5008e-02],
          [ 1.9159e-02,  1.6069e-02,  1.4246e-02]]]])"
encConv9.bias,"tensor([-0.0051,  0.0113, -0.0161, -0.0094,  0.0201, -0.0113,  0.0201, -0.0164,
        -0.0020, -0.0069, -0.0106,  0.0196,  0.0232,  0.0442,  0.0466,  0.0285,
        -0.0230,  0.0158, -0.0074,  0.0194,  0.0037,  0.0080,  0.0269,  0.0060,
         0.0019, -0.0089,  0.0187, -0.0378,  0.0288, -0.0133, -0.0424, -0.0038,
        -0.0097,  0.0055,  0.0011, -0.0058, -0.0535,  0.0313, -0.0219,  0.0334,
         0.0038, -0.0041,  0.0279,  0.0098,  0.0321,  0.0244,  0.0048,  0.0106,
        -0.0180, -0.0304,  0.0016,  0.0050,  0.0331,  0.0138,  0.0291, -0.0127,
         0.0139, -0.0101,  0.0227, -0.0216, -0.0298, -0.0038, -0.0101,  0.0209])"
bn10.weight,"tensor([1.0001, 0.9951, 1.0021, 1.0004, 1.0003, 0.9988, 0.9967, 0.9998, 0.9966,
        0.9970, 0.9991, 0.9999, 1.0045, 1.0005, 1.0050, 0.9978, 0.9932, 0.9966,
        0.9952, 1.0015, 0.9996, 1.0001, 1.0024, 1.0035, 0.9960, 0.9992, 0.9942,
        1.0004, 0.9961, 0.9904, 0.9938, 1.0027, 1.0021, 0.9945, 0.9977, 0.9996,
        1.0001, 0.9967, 1.0004, 0.9938, 0.9990, 1.0009, 1.0037, 1.0002, 0.9925,
        0.9983, 1.0008, 0.9988, 0.9982, 1.0000, 0.9933, 0.9934, 0.9988, 1.0023,
        0.9986, 1.0019, 1.0010, 0.9971, 0.9987, 0.9930, 0.9992, 0.9956, 1.0016,
        1.0009, 0.9942, 0.9931, 0.9984, 0.9975, 0.9949, 0.9960, 0.9887, 1.0021,
        1.0018, 1.0027, 1.0007, 0.9963, 1.0055, 0.9933, 0.9875, 1.0001, 0.9869,
        0.9908, 0.9898, 1.0025, 0.9927, 0.9924, 0.9924, 0.9910, 0.9924, 0.9922,
        1.0006, 0.9983, 0.9929, 0.9975, 0.9902, 1.0049, 0.9909, 1.0014, 0.9831,
        0.9973, 1.0019, 1.0066, 0.9997, 0.9917, 0.9929, 0.9986, 0.9853, 1.0031,
        1.0024, 0.9978, 0.9979, 1.0001, 0.9946, 0.9975, 1.0020, 0.9948, 0.9893,
        0.9986, 0.9932, 0.9930, 0.9932, 1.0034, 0.9871, 0.9879, 0.9892, 1.0021,
        0.9991, 1.0061, 0.9968, 1.0050, 0.9946, 1.0061, 1.0037, 1.0022, 0.9929,
        1.0023, 1.0061, 1.0026, 1.0052, 0.9985, 1.0063, 0.9965, 0.9989, 0.9966,
        1.0006, 0.9903, 0.9929, 0.9953, 1.0122, 1.0095, 0.9972, 1.0085, 1.0027,
        1.0056, 0.9995, 1.0074, 0.9922, 1.0110, 1.0071, 0.9930, 1.0027, 0.9911,
        0.9989, 1.0028, 1.0070, 0.9905, 0.9941, 0.9943, 0.9938, 0.9949, 0.9934,
        0.9981, 0.9950, 0.9961, 0.9902, 1.0072, 1.0016, 1.0013, 1.0194, 0.9895,
        0.9924, 1.0029, 0.9939, 1.0045, 1.0072, 1.0060, 1.0001, 1.0010, 1.0009,
        0.9997, 0.9962, 0.9959])"
bn10.bias,"tensor([-0.0640,  0.0098, -0.0817, -0.0838,  0.0634,  0.0351,  0.0471,  0.0059,
         0.0330,  0.0046,  0.0783, -0.0408, -0.1025, -0.0735, -0.1338,  0.0455,
         0.0384, -0.0018,  0.0366,  0.0352, -0.0505, -0.0895, -0.0531, -0.0344,
         0.0177, -0.0030,  0.0626,  0.0689, -0.0440,  0.0047, -0.0088, -0.0931,
         0.0296,  0.0485,  0.0851, -0.0477, -0.0413,  0.0095,  0.0429,  0.0066,
        -0.0369, -0.0644, -0.0100, -0.0831,  0.0342,  0.0166, -0.0750, -0.0639,
         0.0297, -0.0204, -0.0070, -0.0124,  0.0697, -0.0412,  0.0126, -0.1115,
        -0.0578,  0.0305,  0.0428,  0.0179,  0.0143,  0.0584, -0.0345, -0.0408,
        -0.0457,  0.0015,  0.0105,  0.0136,  0.0041,  0.0289, -0.0209, -0.0482,
        -0.0689, -0.0426, -0.0493,  0.0365, -0.0975, -0.0214,  0.0243, -0.0613,
        -0.0347,  0.0447,  0.0050, -0.0668, -0.0058,  0.0088, -0.0139,  0.0667,
        -0.0022, -0.0094, -0.0680, -0.0304,  0.0073,  0.0370,  0.0092, -0.0448,
         0.0244, -0.0882, -0.0207,  0.0278, -0.0158, -0.0936, -0.0474, -0.0114,
         0.0035, -0.0237, -0.0054, -0.1144, -0.0186, -0.0321, -0.0138, -0.0482,
         0.0514,  0.0256, -0.0323, -0.0439, -0.0060, -0.0661,  0.0390, -0.0436,
         0.0082, -0.0722,  0.0210,  0.0162,  0.0195, -0.0643, -0.0220, -0.1496,
        -0.0488, -0.0778, -0.0174, -0.0463,  0.0226, -0.0433,  0.0036, -0.0649,
        -0.1209, -0.0944, -0.0724, -0.0273,  0.0068,  0.0077,  0.0155,  0.0007,
         0.0100,  0.0282,  0.0174, -0.0639, -0.1035, -0.1262, -0.0202, -0.1235,
         0.0290, -0.0866,  0.0419, -0.1212,  0.0236, -0.0895, -0.0772,  0.0123,
         0.0097,  0.0142,  0.0347, -0.0114, -0.0502, -0.0084,  0.0308, -0.0060,
        -0.0062,  0.0643,  0.0119, -0.0294, -0.0013, -0.0122,  0.0052, -0.0642,
        -0.0006,  0.0046,  0.0656, -0.0365, -0.0107, -0.0469, -0.0296, -0.1038,
        -0.1316, -0.0685,  0.0587, -0.0452, -0.0178,  0.0139,  0.0478, -0.0052])"
bn10.running_mean,"tensor([0.1245, 0.6319, 0.4005, 0.1958, 0.9496, 0.9429, 0.8545, 0.5646, 0.4062,
        0.4844, 0.9917, 0.1699, 0.0988, 0.1436, 0.1285, 0.9935, 0.6666, 0.8798,
        0.9740, 0.8542, 0.2375, 0.2699, 0.2891, 0.1782, 0.7601, 0.3144, 0.5948,
        0.7022, 0.7323, 0.5861, 0.5512, 0.2255, 0.3811, 0.5194, 0.5947, 0.2786,
        0.1528, 0.7692, 0.7828, 0.1716, 0.3703, 0.2225, 0.2168, 0.1927, 0.1969,
        0.3799, 0.1917, 0.5995, 0.7044, 0.3226, 0.1856, 0.5311, 0.3898, 0.2808,
        0.4306, 0.1896, 0.3006, 0.2338, 0.5160, 0.5845, 0.8493, 0.6819, 0.1499,
        0.4015, 0.4455, 0.3919, 0.2060, 0.3138, 0.3786, 0.2288, 0.3098, 0.2005,
        0.2437, 0.2008, 0.2265, 0.2319, 0.1726, 0.4407, 0.1706, 0.1515, 0.2461,
        0.2144, 0.4055, 0.2042, 0.3688, 0.3599, 0.2868, 0.4384, 0.4304, 0.3730,
        0.1961, 0.1765, 0.4396, 0.2164, 0.4481, 0.1969, 0.1353, 0.1632, 0.3281,
        0.1136, 0.1740, 0.1754, 0.2424, 0.3015, 0.4592, 0.2025, 0.4383, 0.1766,
        0.1753, 0.4013, 0.3377, 0.1747, 0.1491, 0.2021, 0.2004, 0.5063, 0.3850,
        0.1456, 0.1697, 0.4290, 0.1934, 0.1719, 0.2907, 0.4305, 0.3790, 0.1245,
        0.3117, 0.1889, 0.6290, 0.2207, 0.5281, 0.1977, 0.1615, 0.1811, 0.2325,
        0.1704, 0.2254, 0.1944, 0.2379, 0.5042, 0.1249, 0.2159, 0.3318, 0.3897,
        0.1892, 0.2616, 0.4243, 0.3955, 0.2592, 0.2439, 0.3493, 0.2446, 0.2576,
        0.2415, 0.2084, 0.2068, 0.3028, 0.2042, 0.1688, 0.3492, 0.1670, 0.5175,
        0.4166, 0.2428, 0.1652, 0.2679, 0.2527, 0.4770, 0.5966, 0.1946, 0.2869,
        0.1942, 0.4820, 0.4722, 0.3931, 0.1904, 0.1534, 0.1991, 0.1495, 0.4117,
        0.3426, 0.2494, 0.3593, 0.2277, 0.2459, 0.1838, 0.1757, 0.2535, 0.2816,
        0.2643, 0.5325, 0.3090])"
bn10.running_var,"tensor([0.4907, 1.7153, 1.0683, 0.9575, 1.0549, 1.5326, 1.0296, 0.3136, 0.4201,
        0.4014, 1.5822, 0.5812, 0.2654, 0.2427, 0.5246, 1.0394, 0.3429, 0.8804,
        0.7190, 0.3891, 0.8467, 0.8772, 0.5722, 0.3138, 0.4320, 0.3741, 0.2896,
        1.1859, 1.4024, 0.3726, 0.4223, 0.5970, 0.3130, 0.4802, 0.6031, 1.0406,
        0.5132, 0.4533, 0.4575, 0.1014, 1.0994, 0.9086, 0.5657, 0.9179, 0.0937,
        0.4703, 0.7648, 3.1247, 0.9233, 0.9198, 0.2218, 0.4328, 0.0931, 0.4222,
        1.1803, 0.9025, 0.6536, 0.1460, 0.1198, 0.4543, 0.8644, 0.9629, 0.2882,
        0.8794, 0.1169, 0.2943, 0.7460, 0.6061, 1.4836, 0.3605, 0.2047, 1.2242,
        1.3714, 0.7210, 0.9157, 0.3330, 1.1984, 0.0911, 0.0801, 0.4747, 0.1571,
        0.1184, 0.1911, 0.5436, 0.1756, 0.2908, 0.1769, 0.1418, 0.2482, 0.0930,
        0.8431, 0.6413, 0.3675, 0.4284, 0.1005, 0.8801, 0.0640, 0.9170, 0.0848,
        0.0674, 0.4882, 0.8640, 0.6712, 0.1125, 0.1097, 0.3839, 0.3575, 0.8725,
        0.4996, 0.1372, 1.1775, 0.8680, 0.1802, 0.1305, 0.5298, 0.0887, 0.1189,
        0.2474, 0.0939, 0.1705, 0.1188, 1.0771, 0.1141, 0.2128, 0.1781, 0.4935,
        1.2102, 1.1243, 0.4684, 1.7188, 0.4580, 1.1404, 0.3042, 0.5119, 0.1236,
        0.8674, 1.7702, 1.2675, 1.8190, 0.1138, 0.0447, 0.1133, 0.1277, 0.1011,
        0.3274, 0.1502, 0.2832, 0.2320, 2.7621, 2.3356, 0.8437, 2.1444, 0.4656,
        1.9665, 0.4686, 1.8076, 0.2503, 1.3692, 0.6533, 0.2163, 0.4721, 0.3612,
        0.0960, 0.6358, 0.4757, 0.1322, 0.2428, 0.1052, 0.4206, 0.2008, 0.2613,
        0.1404, 0.1176, 0.1280, 0.1549, 0.5930, 0.2423, 0.5320, 0.1734, 0.1184,
        0.1254, 1.1517, 0.2463, 1.7861, 1.3365, 0.9070, 0.0959, 1.0227, 1.8442,
        0.8577, 0.5317, 0.1142])"
bn10.num_batches_tracked,tensor(22450)
encConv10.weight,"tensor([[[[-2.3059e-03, -1.6270e-02,  1.5095e-02],
          [ 7.4714e-03,  1.9154e-02, -6.0532e-03],
          [ 3.3750e-04, -1.0805e-02,  1.0423e-02]],

         [[-5.9320e-03, -2.8509e-03, -2.2393e-02],
          [ 2.1025e-03, -9.3495e-04,  7.3723e-03],
          [ 2.1195e-02, -3.0533e-03, -1.6248e-02]],

         [[-2.3880e-02,  2.8057e-03, -3.5561e-03],
          [-2.2476e-02,  1.8207e-02, -1.2000e-02],
          [-1.5722e-02, -2.5014e-02, -2.1765e-03]],

         ...,

         [[ 2.2296e-02,  1.3984e-02, -2.1638e-04],
          [ 2.5445e-02,  2.8580e-02,  2.8508e-02],
          [-2.3121e-02, -1.4711e-03,  2.3307e-02]],

         [[ 1.2077e-02,  3.1973e-03,  1.5676e-02],
          [-1.5356e-02, -1.4355e-02,  2.9318e-04],
          [ 5.8596e-03, -1.1056e-02, -1.7888e-02]],

         [[-1.5020e-02, -4.1378e-03, -1.1108e-02],
          [ 1.8320e-02, -1.2278e-02,  1.9515e-02],
          [-1.6238e-02,  7.9762e-03, -4.6826e-03]]],


        [[[-2.3546e-02, -2.2478e-02, -1.2798e-02],
          [ 1.4550e-02, -7.5878e-03,  9.8065e-03],
          [-7.3931e-03, -1.1716e-02,  8.8115e-03]],

         [[-1.6210e-02, -1.9949e-02, -1.0568e-02],
          [-2.0788e-02,  2.0243e-02, -1.2965e-02],
          [ 1.9076e-02, -9.8495e-03,  1.1846e-02]],

         [[-3.9221e-03, -2.9175e-02, -1.5239e-02],
          [-1.1467e-02, -5.4117e-03, -5.8578e-03],
          [-6.1752e-03, -1.0150e-02,  1.8388e-02]],

         ...,

         [[ 1.2961e-02,  1.5445e-02,  8.9300e-03],
          [-1.9624e-02,  5.1810e-03,  2.4632e-02],
          [ 1.2630e-03, -2.1960e-03,  1.1712e-03]],

         [[ 9.9283e-04, -8.9443e-03, -1.4268e-02],
          [-9.2617e-03,  1.6630e-02,  2.3460e-02],
          [ 2.4789e-02,  8.0685e-03, -1.3148e-02]],

         [[ 4.6466e-03, -1.2848e-02, -3.2397e-03],
          [ 5.8490e-03,  1.7869e-02,  1.4470e-03],
          [-2.2882e-02,  2.0621e-02, -1.3829e-02]]],


        [[[-2.8904e-02, -2.6720e-02,  7.4010e-03],
          [ 1.7780e-02,  1.6966e-02, -2.1302e-02],
          [ 7.1534e-03, -8.1385e-03,  1.8810e-02]],

         [[-6.6117e-03,  1.1230e-03, -2.5307e-02],
          [ 1.6466e-02, -2.0717e-02, -5.0355e-03],
          [ 1.5919e-02,  8.9631e-03,  1.7926e-02]],

         [[ 1.9046e-03,  9.3141e-03, -2.7046e-02],
          [ 1.2646e-02,  1.1157e-02, -3.1418e-05],
          [ 1.1398e-02, -6.1607e-03,  1.3801e-02]],

         ...,

         [[ 6.9564e-03, -2.3937e-03,  1.0139e-02],
          [ 8.9724e-03,  2.1240e-02, -4.3380e-03],
          [-3.9101e-03, -1.7039e-02,  1.8619e-02]],

         [[ 1.2314e-02,  2.9061e-02, -1.1647e-02],
          [ 1.2567e-02,  9.8451e-03, -4.4052e-04],
          [ 1.2404e-02, -1.3200e-02,  1.6828e-02]],

         [[-7.9543e-03, -1.5362e-02, -1.8634e-02],
          [-1.7244e-02,  2.0900e-02,  1.9717e-02],
          [ 1.0008e-02,  8.1301e-03, -2.3290e-02]]],


        ...,


        [[[-2.1642e-02,  1.2951e-02,  2.9549e-03],
          [ 1.5345e-02, -1.1200e-02,  2.2764e-03],
          [ 2.1202e-02, -6.1458e-03, -1.1370e-02]],

         [[-1.8836e-02, -6.7290e-04, -7.4363e-03],
          [ 6.7974e-03,  1.4479e-02,  2.0056e-02],
          [-4.0500e-03,  1.1609e-02,  2.2443e-02]],

         [[-2.3822e-02, -1.4548e-02,  6.7269e-03],
          [-2.5499e-02,  1.4655e-02,  9.8814e-03],
          [-1.3885e-02, -2.0234e-02, -2.3808e-02]],

         ...,

         [[ 1.1128e-02,  4.8113e-03, -1.5044e-02],
          [ 1.2434e-02, -2.3938e-02,  9.6300e-03],
          [-1.8296e-02,  4.9279e-03,  1.6731e-02]],

         [[ 2.4007e-02, -2.3071e-03, -1.0265e-02],
          [ 2.3806e-02,  1.7622e-02,  1.9332e-02],
          [ 1.1948e-02, -1.9719e-02,  1.2579e-02]],

         [[-7.4098e-03,  3.7628e-04,  8.9939e-03],
          [ 1.4437e-03,  1.4798e-02,  1.1966e-02],
          [ 1.0152e-02, -1.6366e-02,  1.8433e-02]]],


        [[[-2.2537e-02,  1.4761e-02,  1.1947e-02],
          [-9.0377e-03, -4.6118e-03,  1.6082e-02],
          [-4.8625e-03,  6.8737e-03, -2.8974e-03]],

         [[ 1.3822e-02,  5.9273e-04,  2.2455e-02],
          [-1.7067e-02,  1.5188e-02, -1.5686e-04],
