0,1
bn1.weight,"tensor([1.0057, 1.0011, 0.9981])"
bn1.bias,"tensor([ 0.0084, -0.0042,  0.0129])"
bn1.running_mean,"tensor([0.5098, 0.4232, 0.3769])"
bn1.running_var,"tensor([0.0927, 0.0790, 0.0787])"
bn1.num_batches_tracked,tensor(22450)
encConv1.weight,"tensor([[[[-0.0775,  0.1085, -0.1286, -0.1118],
          [-0.0744,  0.0536, -0.0646,  0.1076],
          [-0.1136,  0.0347, -0.0586,  0.0973],
          [ 0.0523, -0.0328,  0.0088, -0.0666]],

         [[ 0.0603,  0.0429,  0.0305,  0.1416],
          [-0.1001, -0.1294,  0.0075, -0.0214],
          [-0.0054,  0.1297,  0.0006, -0.0291],
          [ 0.0938, -0.0965,  0.0375, -0.1164]],

         [[ 0.1100,  0.0023,  0.0658,  0.1169],
          [ 0.1043, -0.1009,  0.0343, -0.0054],
          [-0.0658,  0.0761, -0.0555, -0.0722],
          [ 0.0815,  0.0041,  0.0997, -0.0202]]],


        [[[-0.0713,  0.1379,  0.0443,  0.0176],
          [-0.1158,  0.0057, -0.0720,  0.0264],
          [-0.0626, -0.0186,  0.0730,  0.0270],
          [ 0.0957,  0.0209, -0.0127,  0.0390]],

         [[ 0.0257,  0.1040, -0.1264, -0.0933],
          [ 0.0526,  0.0794, -0.0829, -0.0966],
          [-0.1279,  0.0574, -0.1091,  0.0595],
          [ 0.1335, -0.0469,  0.0067, -0.1351]],

         [[-0.0575,  0.0370,  0.0482, -0.0033],
          [-0.0631, -0.0787, -0.0067, -0.0528],
          [-0.1010, -0.0050,  0.1161,  0.0252],
          [-0.0423, -0.1202, -0.0214,  0.1151]]],


        [[[ 0.0528,  0.0721, -0.1069, -0.1271],
          [ 0.0811,  0.1202, -0.0579,  0.0776],
          [ 0.0293,  0.0569, -0.0230, -0.0232],
          [ 0.0368,  0.0409, -0.1403,  0.1273]],

         [[ 0.0022, -0.1188, -0.0545, -0.1267],
          [ 0.0806,  0.1118,  0.0430, -0.1413],
          [ 0.0356,  0.1383, -0.0280,  0.1260],
          [-0.1218,  0.0050, -0.0759,  0.0561]],

         [[-0.0374, -0.0614, -0.1237,  0.0678],
          [-0.0778, -0.0129, -0.0993, -0.0773],
          [-0.0813,  0.1059, -0.0238,  0.1438],
          [-0.0635, -0.0391, -0.1194,  0.0803]]],


        ...,


        [[[ 0.1336, -0.0948, -0.0501, -0.0619],
          [ 0.0477, -0.0265, -0.1196, -0.0474],
          [ 0.0609, -0.0423,  0.1040,  0.0798],
          [-0.0342,  0.0075,  0.1184,  0.0490]],

         [[ 0.1332, -0.1294,  0.1356,  0.0378],
          [-0.0531,  0.0158,  0.0020, -0.1255],
          [ 0.1104, -0.0999,  0.0994, -0.0591],
          [-0.0065, -0.0024, -0.1364, -0.0067]],

         [[-0.1151,  0.0737, -0.0449, -0.1012],
          [ 0.0879,  0.1295,  0.1423,  0.0729],
          [-0.1447,  0.0403,  0.0333, -0.0827],
          [-0.0941, -0.0760,  0.1046,  0.0180]]],


        [[[-0.1082, -0.0142, -0.0295, -0.0965],
          [ 0.0745, -0.0143,  0.0252,  0.1054],
          [ 0.0819,  0.0042, -0.0021, -0.0097],
          [-0.0819, -0.1470, -0.1380, -0.1089]],

         [[ 0.0295, -0.1002,  0.0718,  0.0329],
          [ 0.1542, -0.1314,  0.0812,  0.0428],
          [-0.0301,  0.0498,  0.0255,  0.1469],
          [ 0.1250,  0.0183, -0.0356, -0.0405]],

         [[-0.0617, -0.0751, -0.0984, -0.0684],
          [ 0.0434, -0.0857,  0.0700, -0.0422],
          [ 0.0757, -0.1041, -0.0797,  0.0095],
          [-0.0837, -0.0529,  0.0844,  0.0022]]],


        [[[-0.0149,  0.0252,  0.0238, -0.1292],
          [ 0.0896, -0.1371, -0.1316,  0.1281],
          [ 0.1333,  0.0446,  0.0545, -0.1203],
          [-0.0028,  0.0075,  0.1123,  0.0166]],

         [[-0.0841,  0.1070, -0.1128, -0.1500],
          [-0.0045,  0.0008,  0.0615,  0.0058],
          [ 0.0567,  0.1109, -0.1187,  0.0133],
          [ 0.0950,  0.1298,  0.0277, -0.0468]],

         [[-0.0266, -0.0875,  0.1187,  0.0298],
          [ 0.0594,  0.1212,  0.1082, -0.0688],
          [ 0.1001,  0.0772,  0.0108,  0.0682],
          [-0.0046,  0.0409,  0.0924, -0.0525]]]])"
encConv1.bias,"tensor([-0.0593, -0.0689, -0.0536,  0.0980,  0.0565, -0.0853,  0.0209, -0.1135,
         0.0648,  0.0175, -0.0581, -0.1012,  0.0278,  0.0870, -0.1058,  0.1289,
        -0.0456, -0.0790,  0.0802, -0.1289, -0.0951,  0.0498,  0.0329, -0.0562,
         0.1411,  0.1395, -0.0489, -0.0036, -0.0309, -0.0510,  0.0162, -0.1162,
        -0.0056, -0.0036, -0.1036,  0.0075,  0.1275, -0.0880, -0.1497,  0.0710,
        -0.1019, -0.0408, -0.1100, -0.0896,  0.0469, -0.0946, -0.0998, -0.1149,
        -0.0049,  0.0004,  0.1221, -0.0934,  0.0279,  0.0027, -0.0628, -0.1110,
         0.1176, -0.0623, -0.1446, -0.0636,  0.0229, -0.0177, -0.0632, -0.1384])"
bn2.weight,"tensor([0.9951, 0.9907, 0.9981, 1.0024, 1.0081, 0.9936, 1.0163, 1.0113, 0.9903,
        0.9981, 0.9920, 0.9982, 1.0070, 1.0255, 0.9954, 0.9918, 0.9898, 1.0171,
        1.0167, 0.9935, 0.9914, 0.9945, 1.0051, 0.9873, 0.9911, 0.9899, 1.0092,
        1.0107, 0.9946, 0.9943, 0.9920, 0.9895, 0.9966, 0.9886, 0.9903, 0.9923,
        0.9895, 0.9924, 0.9867, 0.9896, 0.9920, 1.0058, 1.0066, 0.9924, 0.9939,
        0.9900, 0.9987, 1.0409, 1.0329, 1.0073, 0.9899, 0.9898, 0.9961, 1.0311,
        0.9915, 1.0225, 1.0231, 1.0019, 0.9901, 0.9893, 0.9903, 1.0167, 0.9921,
        0.9921])"
bn2.bias,"tensor([ 2.7801e-03,  6.2806e-03, -1.4536e-02,  3.7973e-03,  1.4691e-02,
         6.6464e-03,  9.5459e-05, -8.5324e-03, -4.4980e-04,  1.5331e-02,
         1.9477e-03,  2.0204e-02,  1.0447e-02, -5.0580e-03,  9.2760e-03,
        -8.8840e-03, -1.2044e-02,  3.1757e-03, -5.3462e-03,  3.2838e-03,
         3.8794e-03,  4.6019e-03, -1.9661e-03, -2.7625e-03,  5.5459e-03,
         8.0962e-03,  1.8663e-03,  1.3251e-02,  2.9740e-03, -9.3483e-03,
         9.1708e-03,  5.3194e-03,  9.7546e-03,  9.0382e-03,  5.0498e-03,
         7.6131e-03,  1.3352e-02,  1.7144e-02, -6.4437e-03, -8.5328e-03,
         1.7030e-04,  1.2891e-02,  6.9425e-03, -1.4783e-03, -1.6054e-03,
        -1.5823e-02,  2.0753e-02, -1.7139e-03,  7.6552e-04, -6.4650e-03,
        -6.7919e-03,  4.9467e-03, -7.2143e-04, -7.4951e-03,  1.0690e-02,
         6.7235e-03,  6.3351e-03,  1.8664e-04, -7.3711e-03,  4.6208e-03,
         1.3192e-02,  3.0605e-03,  1.6193e-02, -1.8654e-03])"
bn2.running_mean,"tensor([0.0742, 0.1230, 0.1071, 0.1224, 0.1508, 0.1251, 0.0852, 0.0612, 0.2654,
        0.0838, 0.1704, 0.0750, 0.0735, 0.1316, 0.0538, 0.2450, 0.2699, 0.0365,
        0.1059, 0.1222, 0.2005, 0.1259, 0.1147, 0.6593, 0.3331, 0.3305, 0.0652,
        0.1043, 0.0496, 0.1139, 0.1573, 0.2440, 0.0658, 0.2401, 0.1683, 0.1095,
        0.1794, 0.0791, 0.3976, 0.4244, 0.0561, 0.0739, 0.0191, 0.2860, 0.1215,
        0.4203, 0.0991, 0.0163, 0.0575, 0.0414, 0.2867, 0.3648, 0.1076, 0.0819,
        0.0387, 0.0280, 0.1217, 0.0770, 0.1690, 0.3625, 0.1327, 0.0431, 0.1577,
        0.2700])"
bn2.running_var,"tensor([0.0218, 0.0247, 0.0197, 0.0205, 0.0350, 0.0357, 0.0149, 0.0125, 0.0790,
        0.0124, 0.0543, 0.0197, 0.0107, 0.0287, 0.0100, 0.0715, 0.1298, 0.0118,
        0.0155, 0.0372, 0.1481, 0.0234, 0.0267, 0.7443, 0.1920, 0.1381, 0.0189,
        0.0252, 0.0060, 0.0267, 0.0444, 0.1237, 0.0083, 0.0862, 0.0948, 0.0204,
        0.0383, 0.0146, 0.2995, 0.3739, 0.0080, 0.0126, 0.0041, 0.1522, 0.0210,
        0.2680, 0.0201, 0.0033, 0.0118, 0.0041, 0.1148, 0.3463, 0.0237, 0.0318,
        0.0060, 0.0064, 0.0051, 0.0210, 0.0596, 0.2597, 0.0315, 0.0048, 0.0489,
        0.1910])"
bn2.num_batches_tracked,tensor(22450)
encConv2.weight,"tensor([[[[-0.0255, -0.0067, -0.0370],
          [-0.0209,  0.0187,  0.0354],
          [-0.0089, -0.0245,  0.0029]],

         [[ 0.0042,  0.0380, -0.0006],
          [-0.0305, -0.0048, -0.0089],
          [-0.0069, -0.0018,  0.0137]],

         [[ 0.0005, -0.0128,  0.0369],
          [ 0.0036, -0.0108, -0.0275],
          [ 0.0152, -0.0197, -0.0246]],

         ...,

         [[ 0.0356, -0.0041, -0.0142],
          [ 0.0400, -0.0078,  0.0368],
          [-0.0132, -0.0440,  0.0198]],

         [[-0.0076,  0.0039, -0.0050],
          [ 0.0002,  0.0422,  0.0342],
          [-0.0315,  0.0292, -0.0195]],

         [[ 0.0175,  0.0224, -0.0352],
          [ 0.0017, -0.0062, -0.0304],
          [-0.0287,  0.0028, -0.0364]]],


        [[[-0.0053, -0.0055,  0.0190],
          [-0.0045, -0.0332,  0.0212],
          [ 0.0243, -0.0012,  0.0396]],

         [[-0.0176, -0.0293,  0.0286],
          [ 0.0021,  0.0074, -0.0283],
          [-0.0049, -0.0157, -0.0031]],

         [[ 0.0090, -0.0029,  0.0452],
          [ 0.0343,  0.0085,  0.0231],
          [ 0.0327, -0.0190, -0.0052]],

         ...,

         [[-0.0367, -0.0223, -0.0058],
          [-0.0145, -0.0189,  0.0155],
          [ 0.0011, -0.0290, -0.0373]],

         [[ 0.0185,  0.0242,  0.0357],
          [-0.0152, -0.0360,  0.0253],
          [-0.0373, -0.0157,  0.0390]],

         [[-0.0354, -0.0426,  0.0396],
          [-0.0165, -0.0418,  0.0076],
          [-0.0017, -0.0205, -0.0270]]],


        [[[ 0.0047,  0.0271, -0.0338],
          [ 0.0153,  0.0183, -0.0121],
          [-0.0400,  0.0234,  0.0247]],

         [[-0.0368,  0.0135,  0.0179],
          [ 0.0253, -0.0407, -0.0417],
          [ 0.0219,  0.0062,  0.0117]],

         [[-0.0426, -0.0251, -0.0330],
          [-0.0234, -0.0424,  0.0290],
          [ 0.0011, -0.0111,  0.0172]],

         ...,

         [[-0.0333,  0.0193,  0.0150],
          [ 0.0122, -0.0133,  0.0330],
          [ 0.0401,  0.0094,  0.0287]],

         [[ 0.0433,  0.0432, -0.0344],
          [ 0.0243,  0.0284,  0.0029],
          [-0.0051, -0.0259,  0.0205]],

         [[ 0.0378, -0.0206,  0.0319],
          [-0.0073, -0.0021, -0.0218],
          [-0.0023,  0.0203, -0.0002]]],


        ...,


        [[[ 0.0051, -0.0112,  0.0084],
          [ 0.0259, -0.0292, -0.0161],
          [ 0.0131,  0.0290, -0.0404]],

         [[-0.0370,  0.0226, -0.0007],
          [ 0.0180,  0.0122, -0.0407],
          [ 0.0091,  0.0139,  0.0425]],

         [[-0.0032, -0.0074, -0.0429],
          [ 0.0141, -0.0422, -0.0307],
          [-0.0039, -0.0127,  0.0344]],

         ...,

         [[ 0.0354, -0.0414, -0.0040],
          [ 0.0010, -0.0350, -0.0433],
          [ 0.0649,  0.0174, -0.0086]],

         [[-0.0277, -0.0346, -0.0033],
          [-0.0405, -0.0326,  0.0107],
          [-0.0306, -0.0079, -0.0296]],

         [[ 0.0228, -0.0025, -0.0241],
          [ 0.0404,  0.0298,  0.0013],
          [ 0.0077,  0.0438,  0.0323]]],


        [[[-0.0134, -0.0038,  0.0443],
          [-0.0129, -0.0251,  0.0179],
          [ 0.0016,  0.0202, -0.0240]],

         [[ 0.0118,  0.0131, -0.0017],
          [-0.0029, -0.0452,  0.0352],
          [-0.0087,  0.0311,  0.0188]],

         [[ 0.0237,  0.0315, -0.0191],
          [-0.0092, -0.0137, -0.0235],
          [-0.0177, -0.0366,  0.0168]],

         ...,

         [[ 0.0118, -0.0301,  0.0284],
          [ 0.0074, -0.0072,  0.0384],
          [-0.0431, -0.0386, -0.0346]],

         [[-0.0078, -0.0321,  0.0103],
          [-0.0358, -0.0222,  0.0422],
          [-0.0169, -0.0073,  0.0174]],

         [[-0.0110,  0.0403,  0.0061],
          [-0.0225,  0.0021, -0.0244],
          [-0.0040, -0.0100, -0.0252]]],


        [[[-0.0180, -0.0256,  0.0262],
          [-0.0071, -0.0189,  0.0247],
          [ 0.0365, -0.0242,  0.0277]],

         [[-0.0204, -0.0031, -0.0259],
          [ 0.0135,  0.0013, -0.0264],
          [ 0.0214, -0.0282,  0.0277]],

         [[-0.0200,  0.0267, -0.0257],
          [-0.0126, -0.0252, -0.0191],
          [ 0.0110, -0.0054,  0.0050]],

         ...,

         [[ 0.0426,  0.0322, -0.0440],
          [-0.0471, -0.0025, -0.0004],
          [-0.0041,  0.0270,  0.0090]],

         [[-0.0305, -0.0352,  0.0132],
          [-0.0443, -0.0123, -0.0351],
          [-0.0255,  0.0428,  0.0472]],

         [[ 0.0263,  0.0228, -0.0250],
          [-0.0171, -0.0359, -0.0275],
          [-0.0371,  0.0409, -0.0040]]]])"
encConv2.bias,"tensor([-0.0047, -0.0411,  0.0148, -0.0072, -0.0312,  0.0179,  0.0077, -0.0177,
        -0.0230, -0.0251, -0.0275,  0.0331, -0.0457,  0.0321,  0.0250, -0.0059,
         0.0309,  0.0159, -0.0124, -0.0537,  0.0022, -0.0607, -0.0275, -0.0122,
        -0.0264,  0.0201, -0.0382, -0.0403,  0.0218, -0.0233, -0.0288, -0.0042,
        -0.0324,  0.0215, -0.0328, -0.0190, -0.0415,  0.0084, -0.0007, -0.0037,
         0.0105,  0.0133, -0.0322, -0.0035,  0.0288, -0.0234, -0.0131, -0.0432,
         0.0290, -0.0372, -0.0003,  0.0305,  0.0199, -0.0344, -0.0304, -0.0344,
        -0.0198, -0.0336, -0.0166, -0.0348, -0.0061, -0.0547, -0.0380, -0.0096])"
bn3.weight,"tensor([0.9971, 0.9964, 0.9998, 1.0016, 0.9983, 0.9968, 1.0024, 0.9989, 0.9971,
        0.9967, 0.9966, 0.9963, 0.9994, 1.0059, 0.9993, 0.9939, 0.9933, 1.0059,
        1.0006, 0.9972, 0.9964, 0.9982, 0.9968, 0.9951, 0.9946, 0.9925, 1.0024,
        1.0012, 0.9971, 0.9955, 0.9953, 0.9935, 0.9974, 0.9958, 0.9955, 0.9964,
        0.9967, 0.9963, 0.9949, 0.9929, 0.9952, 1.0022, 1.0029, 0.9954, 0.9969,
        0.9927, 0.9956, 1.0101, 1.0061, 0.9995, 0.9946, 0.9941, 0.9984, 1.0068,
        0.9978, 1.0014, 1.0050, 1.0021, 0.9971, 0.9942, 0.9959, 1.0007, 0.9951,
        0.9960, 1.0088, 1.0013, 1.0004, 1.0000, 1.0003, 0.9982, 1.0053, 1.0016,
        0.9973, 1.0168, 0.9933, 1.0003, 0.9964, 1.0043, 1.0018, 1.0041, 1.0041,
        0.9992, 0.9941, 1.0070, 1.0064, 1.0064, 0.9989, 1.0011, 0.9975, 0.9971,
        1.0079, 1.0073, 1.0025, 0.9989, 1.0009, 0.9988, 1.0009, 1.0032, 0.9969,
        1.0034, 1.0039, 0.9999, 1.0029, 1.0020, 0.9975, 0.9984, 0.9977, 1.0073,
        0.9992, 1.0024, 1.0025, 1.0077, 0.9980, 1.0004, 1.0049, 1.0037, 0.9971,
        1.0070, 0.9998, 0.9989, 1.0068, 0.9990, 0.9970, 1.0036, 1.0044, 0.9993,
        1.0035, 1.0079])"
bn3.bias,"tensor([ 2.4351e-03, -7.8505e-03, -4.5706e-03,  6.7627e-03, -1.0169e-02,
         6.2438e-03,  3.2064e-03, -8.9179e-03,  8.8996e-06, -6.5533e-03,
        -1.7786e-03,  6.9068e-03, -7.4905e-03,  2.4950e-03,  1.4459e-03,
        -1.5229e-03, -3.2577e-03, -6.8653e-03, -7.2132e-03, -1.0414e-02,
         8.4748e-03,  5.3910e-03, -2.5488e-03,  5.0474e-04, -5.2380e-04,
         4.9558e-03, -3.7342e-03, -5.9879e-03,  7.2311e-04, -5.3890e-03,
         9.6758e-03, -3.5990e-03, -4.7089e-04, -1.2916e-02, -2.9388e-03,
        -1.2582e-03,  2.4861e-03, -4.2269e-03, -3.5158e-03, -4.0980e-03,
         6.6258e-03,  6.1563e-03,  2.8331e-03, -3.9666e-03,  5.1109e-03,
        -4.3611e-03,  4.3280e-03,  3.0053e-03,  9.8856e-05, -5.0627e-03,
         7.4994e-03, -1.6880e-03,  6.3104e-03,  5.5924e-03,  5.1714e-03,
        -1.3923e-03, -1.9256e-03,  1.1076e-04, -2.2760e-03, -1.2298e-02,
         1.2535e-03, -7.3490e-03,  8.8855e-03,  1.0448e-02, -2.0389e-03,
         4.7326e-03, -1.2146e-02,  1.4647e-03, -7.5585e-03,  7.5294e-05,
        -1.9357e-03,  3.7638e-03, -1.2296e-03,  5.2097e-04, -7.7675e-03,
        -6.7295e-03,  1.4070e-03,  2.5430e-03, -7.4971e-04, -6.6646e-03,
         1.9261e-03, -2.4545e-03, -2.2094e-03,  3.7430e-04,  1.2277e-02,
        -9.0465e-03, -1.6516e-04, -4.5661e-03,  8.2313e-03,  1.9854e-03,
        -7.7461e-03, -1.5399e-03, -2.6056e-03, -1.6185e-04, -1.1512e-02,
         1.7294e-03,  1.7891e-03, -1.0924e-02,  6.8223e-03,  5.1222e-04,
         6.4288e-03, -3.3914e-03, -9.6531e-03,  1.5725e-03,  1.7606e-03,
        -1.9405e-03, -4.1304e-04,  6.1122e-03,  5.2833e-03, -1.0570e-02,
         3.7141e-04, -2.8470e-03,  1.8445e-03,  6.1892e-03,  7.7217e-03,
         1.2067e-02,  1.3799e-02,  1.7238e-03,  5.6712e-03, -3.2956e-03,
         9.3571e-03,  3.6363e-03,  3.5825e-03, -1.1531e-03,  9.3471e-03,
         2.8080e-03,  1.6755e-03,  3.0546e-03])"
bn3.running_mean,"tensor([0.0742, 0.1230, 0.1071, 0.1224, 0.1508, 0.1251, 0.0852, 0.0612, 0.2654,
        0.0838, 0.1704, 0.0750, 0.0735, 0.1316, 0.0538, 0.2450, 0.2699, 0.0365,
        0.1059, 0.1222, 0.2005, 0.1259, 0.1147, 0.6593, 0.3331, 0.3305, 0.0652,
        0.1043, 0.0496, 0.1139, 0.1573, 0.2440, 0.0658, 0.2401, 0.1683, 0.1095,
        0.1794, 0.0791, 0.3976, 0.4244, 0.0561, 0.0739, 0.0191, 0.2860, 0.1215,
        0.4203, 0.0991, 0.0163, 0.0575, 0.0414, 0.2867, 0.3648, 0.1076, 0.0819,
        0.0387, 0.0280, 0.1217, 0.0770, 0.1690, 0.3625, 0.1327, 0.0431, 0.1577,
        0.2700, 0.1863, 0.1548, 0.1877, 0.2309, 0.2051, 0.2320, 0.1888, 0.1459,
        0.2351, 0.2102, 0.2634, 0.1771, 0.2505, 0.1744, 0.2677, 0.1824, 0.2476,
        0.1933, 0.3452, 0.1147, 0.1929, 0.1349, 0.2311, 0.1420, 0.2448, 0.2730,
        0.1807, 0.1532, 0.1774, 0.2278, 0.2524, 0.1664, 0.2321, 0.2035, 0.2182,
        0.2150, 0.1341, 0.2230, 0.2485, 0.2307, 0.2277, 0.2810, 0.1952, 0.2238,
        0.2149, 0.2143, 0.2047, 0.1515, 0.2117, 0.1568, 0.1954, 0.2376, 0.2969,
        0.1467, 0.2014, 0.1788, 0.1808, 0.1945, 0.2428, 0.1699, 0.2139, 0.1890,
        0.1460, 0.1412])"
bn3.running_var,"tensor([0.0218, 0.0247, 0.0197, 0.0205, 0.0350, 0.0357, 0.0149, 0.0125, 0.0790,
        0.0124, 0.0543, 0.0197, 0.0107, 0.0287, 0.0100, 0.0715, 0.1298, 0.0118,
        0.0155, 0.0372, 0.1481, 0.0234, 0.0267, 0.7443, 0.1920, 0.1381, 0.0189,
        0.0252, 0.0060, 0.0267, 0.0444, 0.1237, 0.0083, 0.0862, 0.0948, 0.0204,
        0.0383, 0.0146, 0.2995, 0.3739, 0.0080, 0.0126, 0.0041, 0.1522, 0.0210,
        0.2680, 0.0201, 0.0033, 0.0118, 0.0041, 0.1148, 0.3463, 0.0237, 0.0318,
        0.0060, 0.0064, 0.0051, 0.0210, 0.0596, 0.2597, 0.0315, 0.0048, 0.0489,
        0.1910, 0.0656, 0.0534, 0.1036, 0.1369, 0.1117, 0.1709, 0.0720, 0.0504,
        0.1313, 0.0968, 0.1464, 0.0617, 0.1163, 0.0641, 0.1380, 0.0736, 0.1075,
        0.1090, 0.2631, 0.0528, 0.0792, 0.0738, 0.1252, 0.0599, 0.2128, 0.1665,
        0.1140, 0.0576, 0.0689, 0.1348, 0.1433, 0.0813, 0.0706, 0.0877, 0.1255,
        0.0917, 0.0664, 0.0811, 0.1170, 0.1107, 0.1011, 0.2026, 0.1040, 0.0838,
        0.0817, 0.1079, 0.0876, 0.0833, 0.1189, 0.0875, 0.0950, 0.0892, 0.1352,
        0.0717, 0.1157, 0.0754, 0.1006, 0.0769, 0.1271, 0.0778, 0.1078, 0.0996,
        0.0613, 0.0683])"
bn3.num_batches_tracked,tensor(22450)
encConv3.weight,"tensor([[[[ 0.0186, -0.0089,  0.0149],
          [ 0.0227, -0.0261, -0.0116],
          [ 0.0031, -0.0140,  0.0058]],

         [[ 0.0032,  0.0104, -0.0229],
          [-0.0169,  0.0197, -0.0069],
          [ 0.0202, -0.0262, -0.0029]],

         [[ 0.0158,  0.0251,  0.0134],
          [ 0.0293,  0.0086,  0.0150],
          [-0.0062, -0.0334, -0.0145]],

         ...,

         [[-0.0120,  0.0263, -0.0179],
          [ 0.0012,  0.0232, -0.0180],
          [ 0.0140,  0.0096, -0.0242]],

         [[-0.0348, -0.0210, -0.0013],
          [ 0.0127, -0.0164, -0.0116],
          [-0.0164, -0.0201,  0.0030]],

         [[-0.0278, -0.0106, -0.0200],
          [-0.0197,  0.0064,  0.0010],
          [ 0.0161, -0.0065,  0.0256]]],


        [[[ 0.0022, -0.0023,  0.0216],
          [ 0.0142, -0.0117,  0.0185],
          [ 0.0269,  0.0042,  0.0274]],

         [[-0.0067, -0.0302,  0.0172],
          [-0.0240,  0.0232, -0.0046],
          [-0.0152,  0.0208, -0.0244]],

         [[ 0.0296, -0.0023,  0.0216],
          [-0.0144,  0.0105,  0.0005],
          [-0.0080,  0.0139,  0.0041]],

         ...,

         [[-0.0077,  0.0261, -0.0230],
          [-0.0185,  0.0229,  0.0098],
          [ 0.0279,  0.0044,  0.0011]],

         [[ 0.0073, -0.0048, -0.0105],
          [ 0.0219,  0.0064,  0.0349],
          [-0.0003,  0.0318,  0.0180]],

         [[ 0.0079, -0.0173,  0.0337],
          [-0.0227, -0.0283,  0.0274],
          [ 0.0207,  0.0055, -0.0011]]],


        [[[-0.0228,  0.0109, -0.0151],
          [-0.0221, -0.0058, -0.0023],
          [ 0.0127,  0.0171,  0.0064]],

         [[-0.0262,  0.0114, -0.0234],
          [-0.0123, -0.0087, -0.0176],
          [ 0.0237,  0.0196,  0.0119]],

         [[ 0.0261,  0.0145,  0.0194],
          [ 0.0005,  0.0065,  0.0063],
          [-0.0135, -0.0254,  0.0171]],

         ...,

         [[ 0.0041, -0.0314, -0.0100],
          [-0.0021,  0.0051,  0.0167],
          [ 0.0271, -0.0049, -0.0014]],

         [[ 0.0320,  0.0206, -0.0216],
          [ 0.0035,  0.0050,  0.0225],
          [ 0.0349, -0.0251, -0.0093]],

         [[-0.0168, -0.0167, -0.0082],
          [ 0.0088, -0.0114,  0.0016],
          [-0.0451, -0.0244, -0.0309]]],


        ...,


        [[[-0.0200, -0.0049, -0.0086],
          [ 0.0259,  0.0150,  0.0022],
          [-0.0121,  0.0207, -0.0319]],

         [[-0.0273,  0.0010, -0.0204],
          [-0.0053,  0.0229,  0.0128],
          [ 0.0290,  0.0023,  0.0180]],

         [[-0.0017,  0.0042, -0.0114],
          [-0.0078,  0.0064,  0.0260],
          [ 0.0054, -0.0055, -0.0034]],

         ...,

         [[-0.0035,  0.0092, -0.0189],
          [-0.0199,  0.0084,  0.0155],
          [ 0.0076,  0.0096, -0.0264]],

         [[-0.0106, -0.0248, -0.0164],
          [-0.0246, -0.0295, -0.0247],
          [ 0.0291, -0.0059, -0.0110]],

         [[ 0.0030, -0.0198, -0.0118],
          [ 0.0235, -0.0293,  0.0042],
          [ 0.0315,  0.0204,  0.0060]]],


        [[[-0.0034,  0.0008, -0.0156],
          [-0.0149, -0.0054,  0.0251],
          [-0.0227,  0.0230,  0.0041]],

         [[-0.0160,  0.0140,  0.0220],
          [-0.0067, -0.0253, -0.0059],
          [-0.0044, -0.0119, -0.0217]],

         [[ 0.0201,  0.0104, -0.0067],
          [ 0.0081,  0.0259, -0.0248],
          [-0.0033, -0.0093,  0.0127]],

         ...,

         [[-0.0156, -0.0053, -0.0203],
          [ 0.0057,  0.0280, -0.0128],
          [ 0.0204, -0.0265,  0.0252]],

         [[-0.0125, -0.0103, -0.0157],
          [-0.0177,  0.0148,  0.0250],
          [ 0.0005, -0.0066, -0.0108]],

         [[-0.0216,  0.0037,  0.0261],
          [-0.0224, -0.0056,  0.0077],
          [ 0.0015,  0.0182, -0.0125]]],


        [[[-0.0271, -0.0250, -0.0188],
          [-0.0140,  0.0001, -0.0165],
          [-0.0112,  0.0086,  0.0160]],

         [[ 0.0069,  0.0277,  0.0276],
          [-0.0076, -0.0088,  0.0044],
          [-0.0172,  0.0104,  0.0199]],

         [[-0.0311,  0.0237,  0.0147],
          [-0.0175,  0.0214,  0.0075],
          [-0.0288, -0.0015,  0.0027]],

         ...,

         [[-0.0076,  0.0139, -0.0216],
          [-0.0166, -0.0012, -0.0179],
          [ 0.0073,  0.0224,  0.0015]],

         [[ 0.0288, -0.0089, -0.0074],
          [-0.0282, -0.0308,  0.0241],
          [-0.0010, -0.0218, -0.0275]],

         [[-0.0064, -0.0240, -0.0357],
          [ 0.0256,  0.0035, -0.0068],
          [-0.0051,  0.0202, -0.0344]]]])"
encConv3.bias,"tensor([ 0.0122, -0.0087, -0.0287, -0.0336, -0.0208, -0.0401,  0.0052, -0.0080,
        -0.0215,  0.0064,  0.0033, -0.0007, -0.0130, -0.0146,  0.0113, -0.0102,
        -0.0369, -0.0065, -0.0010,  0.0036, -0.0192,  0.0138, -0.0021,  0.0123,
        -0.0262, -0.0352, -0.0334, -0.0323,  0.0154,  0.0142, -0.0105, -0.0238,
         0.0141, -0.0022, -0.0163,  0.0167, -0.0229, -0.0165,  0.0005, -0.0220,
        -0.0226, -0.0251,  0.0069, -0.0350, -0.0336, -0.0298, -0.0339, -0.0353,
        -0.0015,  0.0050, -0.0203,  0.0084, -0.0002, -0.0296,  0.0157, -0.0255,
        -0.0348, -0.0134, -0.0047,  0.0006,  0.0120,  0.0170, -0.0275,  0.0225])"
bn4.weight,"tensor([0.9926, 0.9920, 0.9959, 1.0042, 0.9981, 0.9959, 1.0084, 0.9954, 0.9942,
        0.9949, 0.9942, 0.9944, 1.0053, 1.0084, 0.9967, 0.9930, 0.9912, 1.0051,
        1.0028, 0.9964, 0.9990, 0.9977, 0.9971, 0.9932, 0.9922, 0.9909, 1.0052,
        1.0030, 0.9969, 0.9943, 0.9930, 0.9916, 0.9995, 0.9938, 0.9920, 0.9928,
        0.9959, 0.9931, 0.9942, 0.9911, 0.9955, 1.0056, 1.0025, 0.9946, 0.9959,
        0.9916, 0.9968, 1.0152, 1.0069, 1.0022, 0.9959, 0.9910, 0.9947, 1.0191,
        0.9944, 1.0082, 1.0079, 0.9972, 0.9931, 0.9916, 0.9922, 1.0052, 0.9925,
        0.9925, 1.0149, 0.9988, 0.9996, 0.9979, 1.0001, 0.9964, 1.0049, 1.0039,
        0.9977, 1.0126, 0.9922, 1.0012, 0.9988, 1.0081, 1.0003, 1.0038, 1.0056,
        0.9985, 0.9936, 1.0073, 1.0043, 1.0044, 1.0020, 0.9986, 0.9976, 0.9956,
        1.0036, 1.0064, 1.0029, 0.9986, 1.0010, 0.9996, 0.9994, 1.0006, 0.9973,
        0.9975, 1.0065, 0.9990, 0.9982, 1.0007, 0.9964, 0.9973, 0.9961, 1.0014,
        1.0006, 0.9992, 1.0063, 1.0077, 1.0012, 1.0069, 1.0038, 0.9981, 0.9938,
        1.0029, 0.9959, 0.9985, 1.0088, 0.9974, 0.9953, 1.0022, 1.0039, 1.0038,
        1.0050, 1.0072, 0.9994, 1.0018, 1.0080, 1.0081, 1.0044, 1.0075, 1.0016,
        1.0008, 0.9959, 0.9938, 1.0044, 0.9932, 0.9982, 1.0068, 0.9963, 0.9994,
        1.0054, 1.0023, 1.0052, 1.0016, 1.0008, 0.9936, 0.9977, 1.0025, 0.9988,
        0.9997, 0.9986, 1.0036, 0.9959, 1.0040, 1.0000, 0.9976, 1.0018, 1.0026,
        1.0059, 0.9980, 0.9983, 1.0026, 0.9998, 1.0045, 1.0216, 1.0022, 0.9987,
        1.0042, 0.9996, 0.9963, 0.9963, 0.9968, 1.0084, 1.0076, 0.9975, 1.0040,
        0.9992, 0.9957, 0.9951, 1.0040, 1.0010, 1.0006, 0.9937, 0.9975, 1.0044,
        0.9960, 0.9948, 1.0022])"
bn4.bias,"tensor([ 5.1423e-03, -2.3595e-03, -9.3009e-05,  1.0089e-03,  1.3788e-03,
         2.9630e-04,  2.2114e-03, -4.5633e-03,  2.2916e-03, -1.0123e-02,
         8.8643e-03, -8.7615e-04,  5.4971e-03, -5.0618e-03,  3.4042e-03,
        -1.9428e-03, -2.8587e-03, -3.8632e-04, -8.9786e-03,  4.3688e-03,
         4.2643e-03,  2.6444e-03,  4.1370e-03, -1.6333e-03,  1.8340e-03,
         2.5209e-03, -3.1975e-03, -7.6894e-03,  2.1459e-03, -1.4140e-03,
        -2.1097e-04,  5.9515e-03,  3.6955e-03, -2.4037e-03,  2.4313e-03,
         3.2535e-03, -1.2216e-03,  1.0764e-03, -4.0524e-03,  2.9186e-03,
        -3.8281e-04, -4.2732e-03,  1.4993e-03,  8.7082e-04, -7.4068e-03,
         2.3451e-03,  4.4509e-03, -4.3558e-03, -5.9707e-03,  1.8079e-03,
        -5.3621e-03, -2.0466e-04,  7.2645e-04, -2.5208e-03,  6.8208e-05,
         3.2921e-03,  5.6813e-03,  1.9484e-03,  2.0292e-04,  2.5906e-03,
         6.2375e-03,  5.2108e-03,  2.3702e-03, -3.1461e-03,  2.1408e-03,
         5.6101e-03, -4.0995e-03, -5.5437e-04,  3.8913e-03,  1.1800e-02,
        -9.3598e-04,  1.7011e-03,  1.1365e-02, -2.9411e-03,  7.3802e-03,
         5.1291e-03,  2.6727e-03, -1.0795e-03,  2.3289e-03, -3.3548e-04,
         1.1620e-04,  2.3913e-03,  4.8506e-03,  1.0981e-03,  4.9656e-03,
        -9.2175e-03, -3.5625e-03,  2.5992e-03,  6.8124e-03,  5.2499e-03,
        -1.6828e-04, -2.0923e-03,  3.7228e-04, -4.0436e-04,  2.3850e-03,
        -4.5956e-03,  2.5273e-03,  8.6046e-04,  4.2973e-04, -2.9713e-03,
        -2.5907e-03,  6.0086e-03,  4.2923e-03, -8.4183e-03,  4.7800e-03,
         1.1815e-03,  3.3543e-03,  9.4990e-03,  7.0819e-03, -4.2025e-03,
        -5.6380e-05,  6.3421e-04,  3.3707e-03,  2.5117e-03, -8.4591e-04,
         5.0840e-03, -1.9915e-03, -3.9365e-03,  1.1100e-02,  1.8024e-03,
        -2.9364e-03, -2.5583e-03,  1.0390e-03, -5.3672e-03,  9.3846e-04,
         1.7665e-03, -5.7130e-03,  2.7761e-03,  5.7816e-03, -1.7309e-03,
         9.7702e-03, -1.2927e-04,  4.1450e-03, -7.0424e-04,  8.1002e-04,
         1.1634e-03,  6.2552e-03,  6.5632e-04,  4.6740e-03, -4.8935e-03,
         4.7887e-03, -4.4796e-03,  4.1559e-05, -1.7307e-03,  1.7353e-03,
        -6.7659e-03,  6.2393e-03,  6.5018e-03, -1.8333e-03,  8.8894e-03,
        -2.5164e-03,  7.6281e-03, -2.4487e-03,  3.4790e-03,  7.3780e-03,
        -4.6210e-03,  4.2174e-03, -4.2241e-03,  1.8764e-03,  5.1831e-03,
         2.5358e-04,  1.4680e-03, -2.1783e-03, -9.5864e-04,  1.2748e-03,
         7.1223e-03,  3.6809e-03,  4.9931e-03, -5.3530e-03,  2.1812e-03,
         1.3690e-02, -3.6627e-03,  3.0616e-03, -1.3952e-03, -3.5528e-04,
         1.8467e-03,  1.4958e-02, -4.4954e-04,  2.4618e-03,  7.9888e-03,
         1.9785e-03, -3.8970e-03, -1.0918e-03,  4.7047e-04,  3.5415e-03,
        -2.2485e-03,  6.0761e-03, -2.8925e-04, -3.6325e-03,  7.9168e-05,
        -2.3905e-03,  6.6784e-04])"
bn4.running_mean,"tensor([0.0742, 0.1230, 0.1071, 0.1224, 0.1508, 0.1251, 0.0852, 0.0612, 0.2654,
        0.0838, 0.1704, 0.0750, 0.0735, 0.1316, 0.0538, 0.2450, 0.2699, 0.0365,
        0.1059, 0.1222, 0.2005, 0.1259, 0.1147, 0.6593, 0.3331, 0.3305, 0.0652,
        0.1043, 0.0496, 0.1139, 0.1573, 0.2440, 0.0658, 0.2401, 0.1683, 0.1095,
        0.1794, 0.0791, 0.3976, 0.4244, 0.0561, 0.0739, 0.0191, 0.2860, 0.1215,
        0.4203, 0.0991, 0.0163, 0.0575, 0.0414, 0.2867, 0.3648, 0.1076, 0.0819,
        0.0387, 0.0280, 0.1217, 0.0770, 0.1690, 0.3625, 0.1327, 0.0431, 0.1577,
        0.2700, 0.1863, 0.1548, 0.1877, 0.2309, 0.2051, 0.2320, 0.1888, 0.1459,
        0.2351, 0.2102, 0.2634, 0.1771, 0.2505, 0.1744, 0.2677, 0.1824, 0.2476,
        0.1933, 0.3452, 0.1147, 0.1929, 0.1349, 0.2311, 0.1420, 0.2448, 0.2730,
        0.1807, 0.1532, 0.1774, 0.2278, 0.2524, 0.1664, 0.2321, 0.2035, 0.2182,
        0.2150, 0.1341, 0.2230, 0.2485, 0.2307, 0.2277, 0.2810, 0.1952, 0.2238,
        0.2149, 0.2143, 0.2047, 0.1515, 0.2117, 0.1568, 0.1954, 0.2376, 0.2969,
        0.1467, 0.2014, 0.1788, 0.1808, 0.1945, 0.2428, 0.1699, 0.2139, 0.1890,
        0.1460, 0.1412, 0.2639, 0.2011, 0.2152, 0.2295, 0.2211, 0.1839, 0.2232,
        0.2134, 0.2062, 0.2819, 0.2295, 0.3438, 0.3051, 0.2484, 0.2918, 0.2370,
        0.2137, 0.2012, 0.2685, 0.2981, 0.2245, 0.3474, 0.3307, 0.2922, 0.2022,
        0.2764, 0.3273, 0.2512, 0.2475, 0.3237, 0.2582, 0.2535, 0.2618, 0.2953,
        0.2090, 0.2572, 0.2286, 0.2097, 0.2277, 0.2343, 0.1818, 0.2661, 0.3046,
        0.2326, 0.2935, 0.2960, 0.2211, 0.2327, 0.3156, 0.1876, 0.2365, 0.2785,
        0.2584, 0.2721, 0.2943, 0.2146, 0.2495, 0.2117, 0.2695, 0.2919, 0.2736,
        0.3188, 0.2463, 0.2873])"
bn4.running_var,"tensor([0.0218, 0.0247, 0.0197, 0.0205, 0.0350, 0.0357, 0.0149, 0.0125, 0.0790,
        0.0124, 0.0543, 0.0197, 0.0107, 0.0287, 0.0100, 0.0715, 0.1298, 0.0118,
        0.0155, 0.0372, 0.1481, 0.0234, 0.0267, 0.7443, 0.1920, 0.1381, 0.0189,
        0.0252, 0.0060, 0.0267, 0.0444, 0.1237, 0.0083, 0.0862, 0.0948, 0.0204,
        0.0383, 0.0146, 0.2995, 0.3739, 0.0080, 0.0126, 0.0041, 0.1522, 0.0210,
        0.2680, 0.0201, 0.0033, 0.0118, 0.0041, 0.1148, 0.3463, 0.0237, 0.0318,
        0.0060, 0.0064, 0.0051, 0.0210, 0.0596, 0.2597, 0.0315, 0.0048, 0.0489,
        0.1910, 0.0656, 0.0534, 0.1036, 0.1369, 0.1117, 0.1709, 0.0720, 0.0504,
        0.1313, 0.0968, 0.1464, 0.0617, 0.1163, 0.0641, 0.1380, 0.0736, 0.1075,
        0.1090, 0.2631, 0.0528, 0.0792, 0.0738, 0.1252, 0.0599, 0.2128, 0.1665,
        0.1140, 0.0576, 0.0689, 0.1348, 0.1433, 0.0813, 0.0706, 0.0877, 0.1255,
        0.0917, 0.0664, 0.0811, 0.1170, 0.1107, 0.1011, 0.2026, 0.1040, 0.0838,
        0.0817, 0.1079, 0.0876, 0.0833, 0.1189, 0.0875, 0.0950, 0.0892, 0.1352,
        0.0717, 0.1157, 0.0754, 0.1006, 0.0769, 0.1271, 0.0778, 0.1078, 0.0996,
        0.0613, 0.0683, 0.2134, 0.1109, 0.1140, 0.1311, 0.1080, 0.1497, 0.1234,
        0.1315, 0.1394, 0.1833, 0.1329, 0.1949, 0.1631, 0.1632, 0.2191, 0.1091,
        0.1169, 0.1268, 0.1970, 0.1465, 0.0898, 0.3220, 0.1951, 0.2750, 0.1078,
        0.1926, 0.3146, 0.1813, 0.1384, 0.1762, 0.2110, 0.1892, 0.2297, 0.1478,
        0.1282, 0.1265, 0.1470, 0.1690, 0.1247, 0.1264, 0.0944, 0.1476, 0.2528,
        0.1154, 0.2226, 0.2792, 0.1213, 0.1623, 0.2154, 0.0853, 0.1578, 0.1609,
        0.1857, 0.1617, 0.2917, 0.1286, 0.1375, 0.1315, 0.1841, 0.2514, 0.2013,
        0.2002, 0.1438, 0.1507])"
bn4.num_batches_tracked,tensor(22450)
encConv4.weight,"tensor([[[[ 0.0222,  0.0090,  0.0008],
          [-0.0112,  0.0171,  0.0038],
          [-0.0239,  0.0104, -0.0193]],

         [[ 0.0028, -0.0201, -0.0200],
          [ 0.0187,  0.0121, -0.0144],
          [-0.0207,  0.0108, -0.0181]],

         [[ 0.0157,  0.0111, -0.0080],
          [-0.0163, -0.0196,  0.0070],
          [-0.0138,  0.0052,  0.0060]],

         ...,

         [[ 0.0158,  0.0266,  0.0063],
          [ 0.0022,  0.0040, -0.0070],
          [-0.0182, -0.0073,  0.0005]],

         [[-0.0081,  0.0299,  0.0132],
          [ 0.0169,  0.0138,  0.0215],
          [-0.0103, -0.0019,  0.0277]],

         [[ 0.0260, -0.0065, -0.0183],
          [ 0.0039, -0.0025, -0.0221],
          [ 0.0215, -0.0209, -0.0227]]],


        [[[ 0.0173,  0.0066, -0.0164],
          [-0.0151,  0.0162, -0.0147],
          [ 0.0050,  0.0160, -0.0213]],

         [[-0.0018,  0.0044,  0.0002],
          [-0.0117,  0.0110, -0.0064],
          [-0.0114, -0.0150,  0.0102]],

         [[-0.0026,  0.0186, -0.0239],
          [-0.0299,  0.0092,  0.0024],
          [ 0.0104, -0.0068, -0.0050]],

         ...,

         [[ 0.0002, -0.0011, -0.0236],
          [-0.0090, -0.0055, -0.0111],
          [ 0.0146, -0.0118, -0.0244]],

         [[-0.0094, -0.0094, -0.0137],
          [-0.0018, -0.0123, -0.0191],
          [-0.0150,  0.0164,  0.0131]],

         [[-0.0186, -0.0316, -0.0184],
          [ 0.0046,  0.0019, -0.0095],
          [ 0.0028,  0.0065, -0.0291]]],


        [[[-0.0115,  0.0223,  0.0137],
          [ 0.0130,  0.0034,  0.0077],
          [-0.0006,  0.0165,  0.0109]],

         [[ 0.0133, -0.0038, -0.0126],
          [ 0.0195,  0.0094,  0.0288],
          [ 0.0034,  0.0161,  0.0276]],

         [[ 0.0188,  0.0048,  0.0049],
          [ 0.0071, -0.0024,  0.0143],
          [ 0.0035,  0.0244, -0.0156]],

         ...,

         [[ 0.0097, -0.0171, -0.0005],
          [-0.0051, -0.0216,  0.0243],
          [ 0.0216,  0.0165,  0.0242]],

         [[-0.0197, -0.0088,  0.0212],
          [ 0.0029, -0.0019,  0.0163],
          [ 0.0068,  0.0084, -0.0031]],

         [[-0.0068,  0.0028, -0.0320],
          [ 0.0178, -0.0261, -0.0206],
          [-0.0238, -0.0023, -0.0165]]],


        ...,


        [[[-0.0172,  0.0097,  0.0179],
          [-0.0104,  0.0161, -0.0205],
          [-0.0056, -0.0035, -0.0002]],

         [[-0.0202,  0.0003, -0.0170],
          [ 0.0009, -0.0133,  0.0157],
          [-0.0033, -0.0164,  0.0019]],

         [[-0.0191, -0.0086,  0.0161],
          [ 0.0163, -0.0196, -0.0116],
          [-0.0019,  0.0231, -0.0031]],

         ...,

         [[-0.0046, -0.0106, -0.0250],
          [-0.0077,  0.0018,  0.0176],
          [-0.0050,  0.0038, -0.0067]],

         [[ 0.0211, -0.0108, -0.0227],
          [-0.0206,  0.0212,  0.0210],
          [-0.0212, -0.0012,  0.0092]],

         [[ 0.0022, -0.0184, -0.0157],
          [ 0.0062, -0.0101, -0.0293],
          [-0.0104,  0.0005, -0.0368]]],


        [[[ 0.0120, -0.0074, -0.0106],
          [ 0.0015, -0.0140,  0.0130],
          [-0.0248, -0.0199, -0.0045]],

         [[-0.0070,  0.0039, -0.0120],
          [ 0.0124, -0.0190,  0.0131],
          [-0.0171,  0.0156, -0.0187]],

         [[-0.0187, -0.0006,  0.0197],
          [ 0.0182, -0.0071, -0.0137],
          [-0.0176, -0.0160,  0.0074]],

         ...,

         [[ 0.0072, -0.0256,  0.0095],
          [ 0.0087, -0.0016,  0.0088],
          [-0.0208,  0.0179,  0.0068]],

         [[ 0.0097,  0.0013, -0.0064],
          [ 0.0157, -0.0193,  0.0151],
          [-0.0006, -0.0003, -0.0206]],

         [[-0.0198, -0.0084, -0.0004],
          [ 0.0253,  0.0096,  0.0176],
          [-0.0055,  0.0003, -0.0064]]],


        [[[-0.0088, -0.0247, -0.0043],
          [-0.0284,  0.0143,  0.0075],
          [ 0.0194, -0.0228,  0.0139]],

         [[-0.0008,  0.0077,  0.0193],
          [-0.0108, -0.0245,  0.0098],
          [-0.0238,  0.0193, -0.0096]],

         [[-0.0251,  0.0029, -0.0007],
          [-0.0141, -0.0213,  0.0085],
          [-0.0225, -0.0168,  0.0045]],

         ...,

         [[-0.0116, -0.0098, -0.0101],
          [-0.0148,  0.0112,  0.0034],
          [ 0.0074,  0.0174, -0.0011]],

         [[ 0.0250, -0.0213, -0.0215],
          [ 0.0108,  0.0026,  0.0054],
          [-0.0194,  0.0100,  0.0043]],

         [[ 0.0198,  0.0231, -0.0206],
          [ 0.0285, -0.0196, -0.0204],
          [-0.0136,  0.0012, -0.0039]]]])"
encConv4.bias,"tensor([-1.6890e-02, -1.8429e-02, -3.6031e-03, -4.7253e-02, -3.0965e-02,
        -1.5347e-02, -2.3688e-02, -8.8533e-03, -1.8137e-02, -1.4585e-03,
        -1.2158e-02,  7.1857e-03, -1.3130e-02,  8.2949e-03, -1.1403e-02,
         1.2892e-02, -1.3365e-03, -2.8416e-02, -1.8347e-02,  3.5962e-03,
        -1.5936e-03,  2.1447e-02,  1.1232e-02, -3.0218e-02,  2.1239e-02,
        -9.3389e-03, -2.7263e-02, -1.9357e-02, -2.1197e-02, -2.8104e-02,
        -2.6120e-03,  6.8864e-05, -2.0438e-02, -2.8730e-02,  8.0652e-03,
         5.8268e-03,  1.2908e-02,  2.9890e-03, -2.3713e-02, -5.3247e-03,
        -1.4734e-02,  1.1409e-02, -1.1679e-02, -1.6206e-02,  1.3042e-02,
        -1.9124e-02, -1.4018e-02,  1.0399e-02, -9.4422e-03,  3.0963e-03,
        -2.2238e-02,  6.5083e-03,  6.0345e-03, -1.9605e-02, -1.8702e-03,
        -6.7805e-03, -2.5593e-02, -9.5566e-03, -2.1257e-02,  1.3750e-02,
        -2.8156e-02, -2.2095e-02, -7.1822e-04,  7.0531e-03])"
bn5.weight,"tensor([1.0069, 1.0070, 0.9956, 1.0131, 0.9967, 1.0096, 0.9910, 0.9989, 0.9954,
        1.0071, 0.9937, 1.0038, 1.0009, 0.9954, 1.0120, 0.9932, 0.9929, 0.9940,
        1.0015, 0.9937, 0.9940, 0.9917, 0.9919, 1.0041, 0.9944, 1.0059, 1.0045,
        0.9904, 0.9940, 1.0175, 0.9926, 0.9918, 1.0141, 1.0009, 0.9970, 0.9981,
        0.9952, 0.9967, 0.9957, 0.9981, 0.9975, 1.0033, 1.0056, 0.9969, 1.0017,
        0.9941, 0.9959, 0.9967, 1.0128, 1.0081, 1.0041, 1.0005, 1.0046, 0.9911,
        0.9949, 1.0029, 1.0168, 0.9992, 0.9997, 0.9938, 0.9952, 1.0053, 0.9907,
        1.0022])"
bn5.bias,"tensor([-0.0014,  0.0055,  0.0146, -0.0002, -0.0030, -0.0017, -0.0045,  0.0009,
         0.0017,  0.0011,  0.0006, -0.0069,  0.0105, -0.0026, -0.0038,  0.0001,
         0.0008,  0.0012, -0.0014, -0.0029, -0.0077, -0.0029, -0.0096, -0.0053,
         0.0012,  0.0006,  0.0086,  0.0192,  0.0106,  0.0131, -0.0062,  0.0017,
        -0.0020,  0.0013, -0.0064, -0.0079,  0.0066,  0.0066,  0.0064, -0.0008,
        -0.0205,  0.0145, -0.0011, -0.0004, -0.0031,  0.0006,  0.0082,  0.0085,
        -0.0020, -0.0001, -0.0026,  0.0020,  0.0073, -0.0046,  0.0058, -0.0012,
        -0.0092, -0.0071, -0.0032, -0.0062, -0.0033,  0.0186, -0.0169, -0.0068])"
bn5.running_mean,"tensor([0.4764, 0.3251, 0.3697, 0.3204, 0.4332, 0.3375, 0.5821, 0.3607, 0.5157,
        0.4681, 0.4571, 0.4294, 0.4328, 0.4253, 0.2972, 0.6055, 0.5310, 0.4328,
        0.4204, 0.4998, 0.4151, 0.5317, 0.5314, 0.3482, 0.4345, 0.3656, 0.3805,
        0.4680, 0.4693, 0.3089, 0.5311, 0.4355, 0.3454, 0.3907, 0.4203, 0.4067,
        0.4199, 0.4301, 0.4151, 0.3380, 0.4521, 0.5212, 0.4303, 0.4001, 0.4189,
        0.3364, 0.4107, 0.4869, 0.3995, 0.4039, 0.4326, 0.4771, 0.4078, 0.3912,
        0.7378, 0.3899, 0.4182, 0.4136, 0.4627, 0.4802, 0.3909, 0.4250, 0.4049,
        0.5180])"
bn5.running_var,"tensor([0.5552, 0.2162, 0.2293, 0.2365, 0.3927, 0.1746, 0.4655, 0.3027, 0.6042,
        0.4156, 0.4021, 0.4111, 0.2723, 0.3238, 0.2416, 0.4302, 0.4089, 0.4237,
        0.2871, 0.5826, 0.5258, 0.3142, 0.3693, 0.2836, 0.4352, 0.2883, 0.1825,
        0.3975, 0.3912, 0.2082, 0.7891, 0.3554, 0.3108, 0.3642, 0.3027, 0.3026,
        0.2691, 0.4344, 0.4663, 0.2254, 0.4472, 0.4363, 0.2794, 0.2792, 0.2817,
        0.3946, 0.4085, 0.6567, 0.2198, 0.3723, 0.3764, 0.3157, 0.2409, 0.3545,
        0.6930, 0.2221, 0.2743, 0.3235, 0.4561, 0.2953, 0.4599, 0.3140, 0.3374,
        0.3556])"
bn5.num_batches_tracked,tensor(22450)
encConv5.weight,"tensor([[[[ 3.2257e-02, -4.4487e-03,  5.0148e-04],
          [-7.9889e-03, -3.7607e-02,  3.8312e-02],
          [-4.1513e-02,  1.7853e-02,  3.7572e-02]],

         [[ 8.5523e-05, -2.2381e-02,  1.5754e-02],
          [-1.1579e-02,  3.5445e-02,  4.9719e-02],
          [-4.1944e-02, -1.0424e-02,  1.6969e-02]],

         [[-4.6891e-02,  1.0399e-02,  4.0606e-02],
          [ 2.1988e-02,  3.7582e-03, -5.7860e-03],
          [-1.6931e-02, -2.0654e-02, -3.1079e-02]],

         ...,

         [[ 2.6306e-02,  1.2713e-02, -3.5771e-03],
          [ 9.8016e-03, -9.8488e-03, -6.5756e-03],
          [ 3.8648e-03,  2.4577e-02, -1.9209e-02]],

         [[-1.1017e-02, -1.0530e-02, -2.7175e-02],
          [ 2.7262e-02, -3.1517e-02,  3.0488e-02],
          [ 2.8132e-02, -9.8321e-03,  3.5793e-02]],

         [[-2.0231e-02,  3.5403e-02, -1.7937e-02],
          [ 2.8794e-02,  1.6977e-02,  1.4667e-02],
          [-5.0793e-03, -4.0602e-02,  1.2878e-02]]],


        [[[-3.6128e-02, -1.5798e-02, -4.7555e-02],
          [ 2.0505e-03, -1.9668e-02, -1.9517e-02],
          [-2.1413e-02,  3.6724e-02,  5.0371e-02]],

         [[ 2.0564e-02,  5.0996e-02,  2.8016e-03],
          [-1.9793e-02,  3.2072e-02, -1.0635e-02],
          [-1.8335e-02,  2.5511e-02,  9.7603e-04]],

         [[-3.0771e-03,  4.7910e-02,  1.8993e-02],
          [ 1.7678e-02,  2.9567e-02,  1.9969e-03],
          [ 4.9626e-03, -1.7246e-02,  1.1943e-02]],

         ...,

         [[ 3.8889e-02, -7.2028e-03,  3.0775e-02],
          [ 3.5778e-03,  2.8571e-02,  3.4679e-03],
          [-1.3089e-02, -3.1394e-02,  5.9394e-03]],

         [[ 3.7982e-02,  6.6872e-03,  3.9734e-03],
          [-2.5734e-02, -2.1142e-02, -2.5594e-02],
          [ 3.6580e-02,  1.6392e-02,  9.6216e-03]],

         [[-1.1011e-04, -5.8048e-03, -2.4677e-02],
          [ 3.5516e-02,  3.1063e-02, -4.4190e-02],
          [ 7.0713e-04, -1.5987e-02, -3.5004e-02]]],


        [[[-3.4295e-02,  3.7983e-02,  3.1295e-03],
          [-6.7739e-03, -3.4652e-02, -2.5203e-02],
          [ 3.4152e-03,  1.6035e-02, -3.4776e-02]],

         [[ 3.0349e-02,  2.5724e-02, -3.8712e-02],
          [-2.4253e-02,  2.6772e-02,  9.2864e-03],
          [-8.2417e-03,  9.8949e-03,  1.5247e-02]],

         [[ 1.7450e-03,  2.9028e-02, -3.1211e-02],
          [-2.4853e-02,  1.3697e-02, -2.9168e-02],
          [ 4.0844e-04,  2.6336e-02, -6.9889e-03]],

         ...,

         [[-3.6364e-02, -7.4576e-03,  2.7239e-02],
          [ 2.3123e-02,  3.2668e-02,  1.8369e-02],
          [ 1.9666e-02,  6.7038e-03, -1.5614e-03]],

         [[-2.1635e-03, -3.9301e-02,  2.6864e-02],
          [ 2.5708e-02, -2.4623e-02,  4.2968e-02],
          [-2.7007e-02,  1.1983e-02, -1.7952e-02]],

         [[-3.9336e-02, -7.8986e-03,  1.8559e-02],
          [ 3.5569e-02,  4.2603e-02, -2.3550e-02],
          [-1.0638e-02,  2.7725e-02,  1.5603e-02]]],


        ...,


        [[[-1.8348e-02,  3.3213e-02,  4.9278e-03],
          [-2.1158e-02, -3.0473e-02,  2.5883e-02],
          [ 6.8515e-04,  5.0886e-02,  3.9643e-02]],

         [[-3.3988e-02, -1.5105e-02, -1.4952e-02],
          [-1.7321e-03, -9.0342e-03,  3.9270e-03],
          [-1.4622e-02, -1.2008e-02, -4.0144e-02]],

         [[ 3.5550e-02,  8.9562e-03, -3.4941e-02],
          [ 2.9486e-02, -7.1265e-03, -3.2196e-02],
          [-1.0722e-02, -2.0697e-03,  4.1980e-02]],

         ...,

         [[-1.6843e-02,  1.9807e-02, -8.1198e-03],
          [ 1.9144e-02,  3.3179e-03,  3.4354e-02],
          [-1.9041e-02,  3.1738e-02,  3.1151e-02]],

         [[ 9.7486e-03, -4.3420e-02, -5.3229e-03],
          [ 9.9174e-03, -2.4924e-02,  2.3232e-03],
          [ 3.8354e-02,  1.6146e-02,  2.9607e-02]],

         [[ 2.3671e-02,  2.9989e-03, -7.4350e-03],
          [-1.2946e-02, -2.6384e-02,  2.3198e-03],
          [ 1.1049e-02, -2.0363e-02,  1.0981e-02]]],


        [[[ 2.5500e-02, -3.7890e-02, -2.8761e-02],
          [-2.7241e-02,  6.9161e-03, -1.0586e-02],
          [-1.1892e-02, -2.0903e-02, -2.1708e-02]],

         [[-3.5799e-02, -4.1057e-02, -2.9462e-02],
          [ 1.3708e-02, -3.1098e-02,  1.5060e-02],
          [ 4.1406e-02, -8.8606e-03, -2.4987e-02]],

         [[ 2.2784e-02,  1.4775e-02,  3.1522e-02],
          [ 3.0113e-02, -2.5205e-02,  1.2347e-02],
          [-2.4053e-02,  1.3892e-02, -2.4886e-02]],

         ...,

         [[-2.9662e-02, -4.4799e-02, -2.9507e-02],
          [ 3.9000e-02,  2.7014e-02,  2.3728e-02],
          [-7.5659e-03,  2.5817e-03,  2.5124e-02]],

         [[ 3.4871e-02, -2.9094e-02,  1.7540e-02],
          [ 1.0810e-02, -1.3239e-02, -2.9012e-03],
          [ 2.9546e-02, -1.7931e-02, -1.7489e-02]],

         [[-7.0665e-03,  2.6903e-02, -2.1687e-02],
          [ 1.5754e-03,  5.2168e-03, -2.6047e-02],
          [ 3.9049e-02,  7.3083e-04,  1.4967e-02]]],


        [[[-2.6202e-02, -1.4823e-02, -1.3932e-02],
          [ 3.2870e-02,  8.9803e-03, -4.2821e-02],
          [ 2.9222e-02, -2.6033e-02,  3.5313e-03]],

         [[ 2.7480e-02,  4.2913e-04,  6.2393e-03],
          [ 2.4274e-03, -1.1881e-02, -3.3310e-02],
          [ 1.5893e-02, -1.0197e-02,  4.6062e-02]],

         [[-1.7147e-02, -2.3710e-02,  1.5508e-02],
          [ 8.8136e-03, -3.9399e-02, -2.6181e-02],
          [-3.8437e-02, -8.9759e-03, -3.7245e-02]],

         ...,

         [[-5.4936e-03,  2.7532e-02, -3.9153e-02],
          [-7.1367e-03,  3.1021e-02, -2.9889e-02],
          [-2.8890e-02,  1.0773e-02,  9.2321e-03]],

         [[-2.6965e-02, -1.5528e-02, -3.4236e-02],
          [ 1.1060e-02, -2.8574e-02,  3.0545e-02],
          [-4.2618e-02,  3.8732e-02,  1.6013e-02]],

         [[ 3.9881e-02, -4.3008e-02, -1.7654e-02],
          [-2.0824e-02, -9.2686e-03, -1.1523e-02],
          [ 1.6772e-02,  2.3077e-02, -1.8490e-02]]]])"
encConv5.bias,"tensor([-0.0171, -0.0492,  0.0229, -0.0164, -0.0393, -0.0009, -0.0023, -0.0295,
        -0.0196, -0.0261, -0.0182, -0.0152,  0.0121, -0.0416, -0.0390, -0.0042,
         0.0215,  0.0318,  0.0017, -0.0490,  0.0368, -0.0363, -0.0225,  0.0070,
        -0.0313, -0.0281, -0.0394, -0.0136, -0.0233, -0.0375, -0.0384, -0.0603,
        -0.0273, -0.0017,  0.0238,  0.0141,  0.0121, -0.0079, -0.0173, -0.0413,
        -0.0173, -0.0264, -0.0308,  0.0217, -0.0252,  0.0244,  0.0101,  0.0269,
         0.0303, -0.0406, -0.0286, -0.0240, -0.0424, -0.0263, -0.0028, -0.0033,
         0.0363,  0.0287, -0.0197, -0.0392, -0.0262, -0.0069, -0.0106,  0.0078])"
bn6.weight,"tensor([0.9962, 0.9984, 0.9972, 1.0089, 0.9956, 1.0038, 0.9964, 0.9983, 0.9972,
        0.9998, 0.9969, 0.9993, 1.0040, 0.9978, 1.0050, 0.9925, 0.9940, 0.9962,
        1.0026, 0.9963, 0.9947, 0.9965, 0.9993, 1.0042, 0.9977, 1.0085, 1.0004,
        0.9935, 0.9953, 1.0070, 0.9947, 0.9969, 1.0058, 0.9977, 1.0024, 1.0016,
        0.9990, 0.9994, 0.9996, 0.9979, 0.9974, 0.9995, 1.0020, 0.9985, 0.9977,
        0.9958, 0.9952, 0.9944, 1.0050, 1.0032, 1.0013, 1.0002, 0.9999, 0.9994,
        0.9925, 0.9989, 1.0032, 0.9956, 0.9981, 0.9990, 0.9965, 0.9969, 0.9951,
        1.0015, 0.9993, 0.9963, 0.9964, 1.0044, 0.9969, 0.9997, 0.9996, 0.9984,
        1.0070, 1.0035, 1.0023, 1.0113, 0.9987, 1.0062, 1.0027, 1.0054, 0.9962,
        0.9980, 0.9947, 0.9952, 1.0010, 0.9982, 0.9966, 1.0000, 1.0051, 1.0005,
        0.9980, 1.0061, 0.9962, 0.9970, 0.9990, 0.9950, 0.9994, 1.0051, 1.0149,
        1.0070, 0.9960, 0.9977, 1.0051, 0.9961, 0.9946, 1.0086, 1.0028, 0.9975,
        0.9974, 1.0005, 0.9984, 1.0044, 1.0023, 1.0035, 1.0058, 0.9983, 0.9969,
        0.9966, 1.0062, 1.0133, 1.0014, 0.9961, 0.9999, 1.0002, 1.0039, 1.0038,
        0.9967, 0.9997])"
bn6.bias,"tensor([-0.0003,  0.0064,  0.0045, -0.0018,  0.0013,  0.0057,  0.0025,  0.0054,
         0.0019,  0.0007,  0.0044, -0.0006, -0.0033, -0.0006, -0.0002, -0.0039,
        -0.0014,  0.0032,  0.0021, -0.0002,  0.0060,  0.0025, -0.0026, -0.0074,
         0.0021, -0.0059, -0.0012, -0.0030, -0.0014,  0.0080,  0.0032, -0.0032,
         0.0005, -0.0001,  0.0005, -0.0034, -0.0001,  0.0045, -0.0049,  0.0026,
        -0.0052, -0.0003,  0.0048, -0.0111,  0.0038,  0.0065,  0.0011,  0.0070,
        -0.0016, -0.0033,  0.0024, -0.0027,  0.0083,  0.0069,  0.0084,  0.0035,
         0.0047, -0.0011,  0.0028, -0.0121, -0.0140, -0.0067, -0.0040, -0.0067,
        -0.0057, -0.0018, -0.0200,  0.0059, -0.0141,  0.0025,  0.0095,  0.0032,
        -0.0015,  0.0040,  0.0045,  0.0042, -0.0059, -0.0062,  0.0018,  0.0004,
         0.0042,  0.0019,  0.0051,  0.0025, -0.0059,  0.0057,  0.0020, -0.0035,
         0.0035, -0.0034, -0.0030,  0.0003,  0.0109,  0.0007,  0.0080, -0.0051,
         0.0039,  0.0045, -0.0078,  0.0098,  0.0068, -0.0010, -0.0025, -0.0050,
        -0.0008,  0.0003, -0.0032,  0.0034, -0.0021, -0.0006,  0.0056, -0.0079,
         0.0001,  0.0065, -0.0005, -0.0008, -0.0007,  0.0060, -0.0015, -0.0008,
        -0.0013, -0.0036, -0.0039, -0.0033,  0.0002, -0.0020,  0.0097, -0.0037])"
bn6.running_mean,"tensor([0.4764, 0.3251, 0.3697, 0.3204, 0.4332, 0.3375, 0.5821, 0.3607, 0.5157,
        0.4681, 0.4571, 0.4294, 0.4328, 0.4253, 0.2972, 0.6055, 0.5310, 0.4328,
        0.4204, 0.4998, 0.4151, 0.5317, 0.5314, 0.3482, 0.4345, 0.3656, 0.3805,
        0.4680, 0.4693, 0.3089, 0.5311, 0.4355, 0.3454, 0.3907, 0.4203, 0.4067,
        0.4199, 0.4301, 0.4151, 0.3380, 0.4521, 0.5212, 0.4303, 0.4001, 0.4189,
        0.3364, 0.4107, 0.4869, 0.3995, 0.4039, 0.4326, 0.4771, 0.4078, 0.3912,
        0.7378, 0.3899, 0.4182, 0.4136, 0.4627, 0.4802, 0.3909, 0.4250, 0.4049,
        0.5180, 0.2076, 0.2467, 0.2790, 0.2076, 0.2349, 0.2616, 0.2231, 0.2064,
        0.2097, 0.2794, 0.2441, 0.2696, 0.3339, 0.2268, 0.1823, 0.1947, 0.3392,
        0.2399, 0.2929, 0.2634, 0.2609, 0.2719, 0.3078, 0.2821, 0.1846, 0.2494,
        0.2449, 0.1955, 0.2273, 0.2888, 0.2084, 0.2528, 0.2562, 0.2121, 0.1976,
        0.2504, 0.3002, 0.2380, 0.2017, 0.2375, 0.3070, 0.2015, 0.2837, 0.3387,
        0.2502, 0.2643, 0.2389, 0.2334, 0.2272, 0.1975, 0.1960, 0.2906, 0.1954,
        0.2784, 0.2035, 0.2414, 0.2107, 0.2856, 0.2286, 0.2017, 0.2756, 0.2094,
        0.2499, 0.3174])"
bn6.running_var,"tensor([0.5552, 0.2162, 0.2293, 0.2365, 0.3927, 0.1746, 0.4655, 0.3027, 0.6042,
        0.4156, 0.4021, 0.4111, 0.2723, 0.3238, 0.2416, 0.4302, 0.4089, 0.4237,
        0.2871, 0.5826, 0.5258, 0.3142, 0.3693, 0.2836, 0.4352, 0.2883, 0.1825,
        0.3975, 0.3912, 0.2082, 0.7891, 0.3554, 0.3108, 0.3642, 0.3027, 0.3026,
        0.2691, 0.4344, 0.4663, 0.2254, 0.4472, 0.4363, 0.2794, 0.2792, 0.2817,
        0.3946, 0.4085, 0.6567, 0.2198, 0.3723, 0.3764, 0.3157, 0.2409, 0.3545,
        0.6930, 0.2221, 0.2743, 0.3235, 0.4561, 0.2953, 0.4599, 0.3140, 0.3374,
        0.3556, 0.1079, 0.1449, 0.1777, 0.1171, 0.1211, 0.1510, 0.1145, 0.0939,
        0.1114, 0.1303, 0.1463, 0.1314, 0.2620, 0.1324, 0.0936, 0.1068, 0.2705,
        0.1086, 0.1584, 0.1629, 0.1446, 0.1828, 0.2661, 0.1749, 0.0845, 0.1411,
        0.1404, 0.0934, 0.1258, 0.1955, 0.1166, 0.1879, 0.1677, 0.0993, 0.1046,
        0.1360, 0.1470, 0.1442, 0.1156, 0.1300, 0.1685, 0.1248, 0.1508, 0.1539,
        0.1388, 0.1522, 0.1320, 0.1144, 0.1125, 0.1016, 0.0936, 0.2299, 0.0813,
        0.2211, 0.1043, 0.1246, 0.0820, 0.1580, 0.1074, 0.1149, 0.1278, 0.1137,
        0.1089, 0.1470])"
bn6.num_batches_tracked,tensor(22450)
encConv6.weight,"tensor([[[[-1.5706e-02, -2.4760e-02,  2.3482e-02],
          [-2.4194e-02,  2.8197e-02,  2.3885e-02],
          [-1.0860e-02, -6.8163e-04, -7.8240e-03]],

         [[-4.9768e-03, -1.6468e-02, -1.7507e-03],
          [ 1.3353e-02, -2.1518e-02, -2.0315e-02],
          [-2.0121e-02,  2.3434e-02,  1.2452e-02]],

         [[-8.4431e-03,  1.8661e-02, -3.7466e-03],
          [-1.7060e-02, -1.3796e-03,  2.3009e-02],
          [-2.8476e-02, -1.0115e-02,  1.5535e-02]],

         ...,

         [[-1.5429e-02,  2.5970e-02,  3.5331e-02],
          [-1.9402e-02, -2.0670e-02, -1.8590e-02],
          [-1.2133e-02,  1.0560e-02, -1.0407e-02]],

         [[ 3.9013e-03,  3.3480e-04, -4.0346e-03],
          [ 2.8851e-03, -1.5309e-02,  4.6074e-03],
          [ 1.0471e-02,  2.9166e-02, -3.0062e-02]],

         [[ 2.5652e-02, -2.1902e-02, -1.9130e-02],
          [ 6.0928e-03, -2.6647e-02,  3.2215e-02],
          [-5.3397e-03,  1.1755e-02, -7.0332e-03]]],


        [[[-5.3671e-03,  1.7007e-02,  2.4695e-02],
          [ 3.9376e-03,  1.5105e-03,  1.4175e-02],
          [-2.0872e-02, -8.7184e-03,  2.0459e-03]],

         [[ 1.2365e-02, -1.7961e-02, -5.0027e-03],
          [ 1.9341e-02,  6.7334e-03, -2.4888e-02],
          [-2.8136e-02,  2.6478e-02, -7.7760e-03]],

         [[ 9.7377e-03, -1.9833e-02,  2.4271e-02],
          [ 1.3010e-02, -7.1523e-03, -2.9608e-02],
          [-8.5848e-03,  2.9210e-02,  1.3845e-02]],

         ...,

         [[-4.8223e-03,  1.9185e-02,  7.6109e-03],
          [-6.1806e-03,  4.4256e-03,  2.8045e-02],
          [-1.5909e-02, -1.6368e-02, -1.6135e-02]],

         [[-9.0267e-03,  6.0180e-03, -9.5202e-03],
          [ 4.7763e-03, -9.3951e-03, -1.3417e-02],
          [ 7.4296e-03, -2.5977e-03, -1.0600e-02]],

         [[-2.9636e-02, -2.5420e-02,  2.0755e-02],
          [-2.3185e-02,  2.7188e-03, -2.3518e-02],
          [ 2.9955e-02, -8.3074e-03, -1.2074e-02]]],


        [[[-4.0722e-02, -1.1594e-02, -1.4621e-02],
          [ 1.0640e-02,  8.2390e-03,  1.8850e-02],
          [-1.9007e-02, -3.3794e-02, -3.8637e-03]],

         [[-3.1541e-02, -1.9236e-02, -1.8989e-02],
          [ 1.2102e-02,  8.4057e-03,  3.2642e-02],
          [-2.8541e-03, -5.7887e-03, -3.2804e-03]],

         [[-5.1791e-03, -7.4088e-03, -1.6531e-02],
          [-2.0115e-02, -1.2367e-02, -5.5772e-04],
          [-1.0618e-02, -6.0010e-04,  4.1211e-03]],

         ...,

         [[ 2.5813e-02,  2.3421e-02,  2.2342e-02],
          [ 5.9391e-03, -2.1635e-02, -1.6456e-02],
          [-3.9661e-02,  1.8780e-02,  7.0550e-03]],

         [[-1.1153e-02,  3.8169e-03, -1.5931e-02],
          [-9.5866e-03,  3.1972e-02, -1.1978e-02],
          [-1.2845e-02, -3.3439e-02, -1.7755e-02]],

         [[-2.8805e-02,  1.5923e-02,  3.4459e-02],
          [ 3.7497e-02,  1.9990e-02, -1.5829e-02],
          [ 1.6046e-02, -1.2778e-02, -2.6164e-02]]],


        ...,


        [[[ 7.9214e-03,  7.7928e-03, -2.1580e-02],
          [-3.1122e-03,  2.0765e-02, -3.5339e-04],
          [-7.8442e-04,  9.1365e-03, -2.1277e-02]],

         [[-1.0490e-02,  6.2266e-03,  1.9906e-02],
          [-2.3560e-02,  7.8529e-04, -2.7568e-02],
          [ 2.9106e-02,  4.8608e-03,  1.1681e-02]],

         [[-1.4731e-02, -7.5397e-03,  4.4929e-03],
          [ 3.0256e-02,  2.1220e-02, -5.4462e-03],
          [ 1.5486e-02, -1.4350e-03, -1.0567e-02]],

         ...,

         [[-8.9245e-03,  4.3840e-03,  1.7852e-02],
          [ 8.7838e-03,  2.5008e-02,  1.9551e-02],
          [ 1.6521e-02, -3.0096e-02, -2.3460e-02]],

         [[ 1.0895e-02, -1.1735e-02,  2.3631e-02],
          [ 9.8023e-03, -2.6417e-02,  6.7020e-03],
          [ 1.0450e-02, -2.3237e-02, -1.5530e-02]],

         [[ 1.3907e-02, -3.1595e-02, -2.8185e-02],
          [-1.0557e-03, -2.3762e-02, -1.5428e-02],
          [ 5.6083e-03,  4.1318e-05,  4.9545e-03]]],


        [[[-2.0964e-02,  1.6094e-02,  2.0447e-02],
          [-1.7482e-02,  2.2613e-02, -4.4221e-03],
          [ 1.7602e-02, -3.2282e-02,  2.4366e-02]],

         [[ 3.0755e-02,  2.9216e-03, -5.8584e-03],
          [-2.0789e-02, -1.6747e-02, -2.9121e-02],
          [-1.6929e-02, -2.2951e-02, -4.3009e-03]],

         [[-2.3824e-02, -1.2468e-02,  2.1732e-02],
          [-7.4642e-03,  2.2755e-02,  3.4450e-02],
          [ 2.1092e-02,  2.9924e-02,  2.8445e-02]],

         ...,

         [[ 2.8299e-02, -1.4880e-02, -1.6978e-02],
          [ 4.0822e-03, -1.8321e-02, -7.0115e-03],
          [ 1.5179e-02,  2.0744e-02, -2.5694e-02]],

         [[ 4.0152e-03,  7.8390e-03,  1.6075e-02],
          [-2.0842e-02, -2.6914e-02, -2.9966e-02],
          [ 2.8028e-02, -1.2480e-02, -2.0257e-02]],

         [[ 1.3552e-02, -1.7222e-02, -8.9856e-04],
          [-1.2702e-02,  5.8440e-03, -5.3570e-03],
          [ 7.3732e-03,  1.2090e-02, -2.2307e-02]]],


        [[[ 2.1897e-02, -2.7772e-02,  2.6008e-02],
          [ 2.2429e-02,  4.6970e-03,  1.1091e-02],
          [-1.0075e-02,  7.2814e-03, -1.5442e-03]],

         [[-1.2459e-02,  5.4239e-03,  1.2677e-02],
          [ 1.9763e-02, -9.0512e-03, -1.7643e-02],
          [ 1.2870e-02, -1.6467e-02, -2.0562e-02]],

         [[-1.7189e-02,  9.8406e-03,  3.1790e-02],
          [ 1.5169e-02, -1.4213e-02, -4.3218e-03],
          [-1.6404e-02,  2.8792e-02, -1.1906e-02]],

         ...,

         [[ 2.4838e-02, -3.4861e-02, -1.0623e-03],
          [ 2.6798e-02, -1.6185e-02, -6.2493e-03],
          [ 6.5716e-03,  1.5016e-02,  2.0589e-02]],

         [[-1.2417e-02, -1.8719e-02, -2.1501e-02],
          [-7.5670e-03,  4.2901e-03, -2.9638e-02],
          [-2.2141e-02,  9.5921e-03,  5.7487e-03]],

         [[ 2.0139e-02, -2.0576e-02, -9.8423e-03],
          [ 1.5003e-02, -1.6690e-03, -2.5774e-02],
          [-2.9623e-02,  7.3519e-03,  1.2804e-02]]]])"
encConv6.bias,"tensor([ 0.0143,  0.0112, -0.0021,  0.0033,  0.0038, -0.0182,  0.0038, -0.0093,
         0.0011, -0.0022, -0.0208,  0.0089, -0.0388, -0.0220, -0.0123, -0.0316,
        -0.0107,  0.0083,  0.0060, -0.0166,  0.0101,  0.0006, -0.0314,  0.0148,
        -0.0177, -0.0108, -0.0340, -0.0086, -0.0171, -0.0122,  0.0197, -0.0367,
        -0.0387,  0.0029,  0.0053,  0.0026, -0.0256, -0.0322, -0.0103,  0.0093,
        -0.0314, -0.0370, -0.0097,  0.0219,  0.0278, -0.0180, -0.0149, -0.0020,
         0.0130, -0.0257, -0.0335, -0.0333,  0.0034,  0.0016,  0.0047,  0.0002,
         0.0223,  0.0161,  0.0252,  0.0187, -0.0422, -0.0226, -0.0149,  0.0018])"
bn7.weight,"tensor([0.9960, 0.9988, 0.9944, 1.0084, 0.9971, 1.0052, 0.9916, 0.9963, 0.9927,
        0.9955, 0.9928, 0.9945, 0.9989, 0.9995, 1.0070, 0.9945, 0.9948, 0.9949,
        0.9998, 0.9931, 0.9930, 0.9955, 0.9984, 1.0034, 0.9943, 0.9995, 1.0019,
        0.9913, 0.9915, 1.0075, 0.9932, 0.9944, 1.0057, 0.9981, 0.9988, 0.9996,
        0.9960, 0.9938, 0.9963, 0.9962, 0.9946, 0.9959, 1.0010, 0.9967, 1.0003,
        0.9925, 0.9944, 0.9922, 1.0074, 1.0019, 1.0007, 0.9978, 1.0014, 0.9965,
        0.9945, 0.9999, 0.9990, 0.9961, 0.9965, 0.9962, 0.9939, 1.0017, 0.9925,
        0.9994, 0.9932, 0.9959, 0.9995, 1.0150, 0.9930, 0.9936, 0.9979, 0.9923,
        1.0075, 0.9976, 0.9952, 1.0010, 0.9924, 1.0029, 1.0045, 1.0077, 0.9941,
        0.9992, 0.9978, 0.9965, 0.9987, 0.9945, 0.9981, 0.9978, 1.0074, 0.9963,
        0.9960, 1.0068, 0.9952, 0.9951, 0.9961, 0.9964, 1.0006, 1.0025, 1.0088,
        1.0006, 0.9975, 0.9962, 1.0057, 0.9908, 0.9898, 1.0073, 1.0019, 0.9929,
        0.9972, 0.9939, 0.9976, 1.0025, 1.0012, 1.0075, 1.0057, 0.9923, 0.9964,
        0.9950, 1.0043, 1.0106, 1.0029, 0.9916, 0.9993, 1.0003, 1.0017, 1.0045,
        0.9961, 0.9980, 1.0037, 0.9995, 1.0127, 0.9951, 1.0069, 1.0018, 0.9961,
        0.9989, 1.0045, 1.0108, 0.9987, 1.0048, 1.0060, 1.0067, 0.9993, 1.0071,
        1.0041, 0.9999, 0.9971, 1.0059, 1.0027, 1.0046, 1.0118, 0.9922, 1.0057,
        0.9939, 1.0076, 1.0010, 1.0038, 1.0037, 1.0018, 0.9977, 1.0034, 0.9946,
        1.0024, 1.0026, 0.9995, 1.0031, 1.0074, 1.0061, 1.0028, 1.0045, 1.0080,
        0.9933, 1.0098, 0.9938, 1.0008, 1.0039, 0.9986, 1.0021, 0.9997, 1.0088,
        1.0048, 1.0102, 1.0153, 1.0018, 0.9978, 1.0046, 0.9912, 1.0034, 1.0126,
        1.0057, 1.0106, 1.0054])"
bn7.bias,"tensor([ 1.7163e-03,  2.4704e-03,  6.7952e-03, -3.8837e-03, -4.5553e-03,
         4.4877e-04,  2.0583e-03, -2.8964e-03,  4.6285e-03, -2.5833e-03,
         8.2366e-04,  5.2025e-04,  1.9102e-03,  1.4048e-03, -5.2624e-03,
         2.8946e-03,  5.6721e-03,  2.0136e-03, -8.4695e-03,  6.7277e-03,
        -2.3392e-03,  3.8360e-03, -1.8919e-03,  3.4152e-03, -1.4683e-03,
        -4.4589e-03,  1.5212e-03, -1.0116e-03, -5.6150e-03, -2.6688e-03,
         2.0111e-03,  1.7155e-03, -7.5027e-03, -2.6889e-04,  7.0510e-04,
         1.9780e-03, -2.3970e-03, -1.2691e-03,  2.9476e-03,  5.7297e-03,
         6.3904e-03,  3.3887e-03, -3.1709e-03,  2.7695e-04, -5.3205e-04,
         5.1019e-03, -4.7884e-03, -4.8792e-03, -1.1926e-03,  1.8779e-03,
         5.7568e-03,  9.7500e-04,  7.3665e-04,  5.5238e-03, -1.0355e-02,
        -1.2904e-03, -3.1282e-03,  3.3216e-03, -7.8283e-03, -6.6962e-03,
        -1.4015e-03, -7.3930e-04,  9.8270e-03,  3.1863e-04, -5.5770e-03,
        -1.0510e-03,  1.4088e-03,  1.6508e-03,  1.5546e-03,  1.0192e-02,
         5.8249e-03,  4.3645e-03, -1.5086e-03, -2.4039e-03,  8.6216e-03,
         8.4048e-04,  7.1873e-04,  1.0045e-02,  4.3617e-04,  8.5518e-04,
         4.4946e-03,  1.8576e-03,  6.7253e-03,  4.7648e-03,  5.2333e-03,
        -4.1743e-03,  3.4434e-03,  5.5135e-03, -5.5052e-03,  1.1200e-03,
         1.9831e-03,  3.2186e-03,  1.3176e-03,  1.0802e-02,  2.9735e-03,
        -5.7802e-03, -8.7480e-05, -2.3497e-03, -7.3714e-03,  2.3696e-03,
         1.1034e-04,  8.1142e-05, -6.3009e-03, -4.1599e-03, -1.1663e-03,
         1.3526e-03, -5.8414e-03, -1.9140e-03,  5.9780e-03,  4.1743e-03,
         1.4553e-03, -1.0043e-03, -1.3214e-03, -6.7683e-04,  5.5506e-03,
        -5.9091e-03, -9.2469e-04,  7.1653e-03,  7.1009e-03,  4.1503e-03,
         7.1260e-03,  5.4186e-03, -6.1396e-03, -3.6238e-04, -1.2120e-04,
         8.9299e-03,  9.2337e-03,  9.7947e-04,  1.4130e-03,  3.0487e-03,
         7.3018e-04,  1.7525e-03, -3.1536e-03, -3.1430e-04, -1.5365e-03,
        -8.3181e-04,  8.9698e-04, -3.7512e-03,  3.6699e-03,  7.4377e-03,
        -3.9593e-03, -5.2836e-03, -5.0872e-04, -3.6016e-03,  6.5904e-03,
        -9.0290e-04,  4.9468e-03, -6.4893e-03, -1.4742e-03, -3.7634e-03,
        -3.3203e-03,  5.6964e-03,  6.3004e-03,  1.1008e-02, -3.3608e-03,
        -9.8111e-03, -7.7929e-03, -6.5403e-04, -4.2171e-03,  4.5302e-03,
        -3.8080e-03, -5.2614e-05,  3.3163e-03, -6.2820e-03, -4.0989e-03,
         4.5103e-03, -9.0440e-03,  1.2880e-03, -2.2618e-03, -9.0923e-04,
         1.3029e-03, -2.6397e-03, -5.8899e-03, -4.0329e-03,  2.9389e-04,
        -1.3798e-02,  6.9268e-03,  5.4203e-03,  1.2533e-03,  9.5622e-05,
         1.8927e-03, -1.0520e-02, -6.8121e-03,  6.5773e-03,  3.7991e-04,
         6.6771e-03,  1.0046e-03,  1.6262e-03,  5.5946e-03,  4.2546e-03,
         6.5745e-03, -5.8794e-03])"
bn7.running_mean,"tensor([0.4764, 0.3251, 0.3697, 0.3204, 0.4332, 0.3375, 0.5821, 0.3607, 0.5157,
        0.4681, 0.4571, 0.4294, 0.4328, 0.4253, 0.2972, 0.6055, 0.5310, 0.4328,
        0.4204, 0.4998, 0.4151, 0.5317, 0.5314, 0.3482, 0.4345, 0.3656, 0.3805,
        0.4680, 0.4693, 0.3089, 0.5311, 0.4355, 0.3454, 0.3907, 0.4203, 0.4067,
        0.4199, 0.4301, 0.4151, 0.3380, 0.4521, 0.5212, 0.4303, 0.4001, 0.4189,
        0.3364, 0.4107, 0.4869, 0.3995, 0.4039, 0.4326, 0.4771, 0.4078, 0.3912,
        0.7378, 0.3899, 0.4182, 0.4136, 0.4627, 0.4802, 0.3909, 0.4250, 0.4049,
        0.5180, 0.2076, 0.2467, 0.2790, 0.2076, 0.2349, 0.2616, 0.2231, 0.2064,
        0.2097, 0.2794, 0.2441, 0.2696, 0.3339, 0.2268, 0.1823, 0.1947, 0.3392,
        0.2399, 0.2929, 0.2634, 0.2609, 0.2719, 0.3078, 0.2821, 0.1846, 0.2494,
        0.2449, 0.1955, 0.2273, 0.2888, 0.2084, 0.2528, 0.2562, 0.2121, 0.1976,
        0.2504, 0.3002, 0.2380, 0.2017, 0.2375, 0.3070, 0.2015, 0.2837, 0.3387,
        0.2502, 0.2643, 0.2389, 0.2334, 0.2272, 0.1975, 0.1960, 0.2906, 0.1954,
        0.2784, 0.2035, 0.2414, 0.2107, 0.2856, 0.2286, 0.2017, 0.2756, 0.2094,
        0.2499, 0.3174, 0.2588, 0.2472, 0.2152, 0.2964, 0.2587, 0.2740, 0.2263,
        0.2737, 0.2197, 0.2240, 0.2651, 0.2656, 0.2309, 0.2323, 0.2623, 0.2277,
        0.2479, 0.2792, 0.2815, 0.2652, 0.2727, 0.2670, 0.2235, 0.2795, 0.2490,
        0.2799, 0.2335, 0.2459, 0.2547, 0.2422, 0.2663, 0.2153, 0.2623, 0.2611,
        0.2673, 0.2387, 0.2424, 0.2412, 0.2460, 0.2796, 0.2175, 0.2686, 0.2391,
        0.3393, 0.2642, 0.2419, 0.2622, 0.2453, 0.2705, 0.2598, 0.2485, 0.2284,
        0.2817, 0.2509, 0.2421, 0.2512, 0.2838, 0.2270, 0.2844, 0.2709, 0.1976,
        0.2158, 0.2647, 0.3222])"
bn7.running_var,"tensor([0.5552, 0.2162, 0.2293, 0.2365, 0.3927, 0.1746, 0.4655, 0.3027, 0.6042,
        0.4156, 0.4021, 0.4111, 0.2723, 0.3238, 0.2416, 0.4302, 0.4089, 0.4237,
        0.2871, 0.5826, 0.5258, 0.3142, 0.3693, 0.2836, 0.4352, 0.2883, 0.1825,
        0.3975, 0.3912, 0.2082, 0.7891, 0.3554, 0.3108, 0.3642, 0.3027, 0.3026,
        0.2691, 0.4344, 0.4663, 0.2254, 0.4472, 0.4363, 0.2794, 0.2792, 0.2817,
        0.3946, 0.4085, 0.6567, 0.2198, 0.3723, 0.3764, 0.3157, 0.2409, 0.3545,
        0.6930, 0.2221, 0.2743, 0.3235, 0.4561, 0.2953, 0.4599, 0.3140, 0.3374,
        0.3556, 0.1079, 0.1449, 0.1777, 0.1171, 0.1211, 0.1510, 0.1145, 0.0939,
        0.1114, 0.1303, 0.1463, 0.1314, 0.2620, 0.1324, 0.0936, 0.1068, 0.2705,
        0.1086, 0.1584, 0.1629, 0.1446, 0.1828, 0.2661, 0.1749, 0.0845, 0.1411,
        0.1404, 0.0934, 0.1258, 0.1955, 0.1166, 0.1879, 0.1677, 0.0993, 0.1046,
        0.1360, 0.1470, 0.1442, 0.1156, 0.1300, 0.1685, 0.1248, 0.1508, 0.1539,
        0.1388, 0.1522, 0.1320, 0.1144, 0.1125, 0.1016, 0.0936, 0.2299, 0.0813,
        0.2211, 0.1043, 0.1246, 0.0820, 0.1580, 0.1074, 0.1149, 0.1278, 0.1137,
        0.1089, 0.1470, 0.1203, 0.1630, 0.1140, 0.1965, 0.1646, 0.1667, 0.1091,
        0.1938, 0.1101, 0.1265, 0.1782, 0.1359, 0.1262, 0.1168, 0.1620, 0.1163,
        0.1327, 0.1516, 0.1855, 0.1683, 0.1308, 0.1574, 0.1250, 0.1908, 0.1378,
        0.1538, 0.0971, 0.1709, 0.1586, 0.1255, 0.1432, 0.1388, 0.1892, 0.1774,
        0.1364, 0.1306, 0.1510, 0.1607, 0.1337, 0.1898, 0.1187, 0.1541, 0.1261,
        0.2700, 0.1237, 0.1169, 0.1669, 0.1343, 0.1294, 0.1638, 0.1692, 0.1141,
        0.1504, 0.1359, 0.1324, 0.1608, 0.1364, 0.1196, 0.1344, 0.1394, 0.1120,
        0.1008, 0.1360, 0.1691])"
bn7.num_batches_tracked,tensor(22450)
encConv7.weight,"tensor([[[[ 2.0023e-02, -1.5457e-03,  1.3521e-02],
          [-5.2240e-04,  9.8865e-03, -1.4291e-02],
          [ 7.3879e-03, -2.1247e-02,  8.9870e-03]],

         [[ 1.9539e-02, -4.2978e-04,  1.4870e-02],
          [ 2.3441e-02, -9.3166e-03, -2.4036e-02],
          [ 9.2725e-03, -2.4730e-02,  6.6927e-03]],

         [[ 2.0203e-03,  1.2584e-02, -6.6121e-04],
          [ 5.7622e-03, -7.8241e-03, -1.6651e-02],
          [-6.4280e-03, -4.7795e-03, -8.0729e-05]],

         ...,

         [[-1.3802e-02,  2.7346e-02,  1.0106e-03],
          [-1.8539e-02, -5.0004e-03,  6.8365e-03],
          [-2.0513e-02,  1.1205e-02,  9.8913e-03]],

         [[ 2.6724e-02,  1.4926e-02, -7.9175e-03],
          [ 8.4935e-03, -4.7342e-04, -1.7608e-03],
          [ 9.8234e-03,  2.4633e-02, -1.7550e-02]],

         [[ 2.7005e-02, -2.6274e-02,  1.4639e-02],
          [-2.1524e-02, -4.4787e-03, -2.2690e-02],
          [ 6.4610e-03,  2.3056e-02,  3.0710e-02]]],


        [[[-2.0453e-02, -1.4431e-02, -1.1347e-02],
          [-1.3771e-02,  2.2441e-02, -1.0398e-02],
          [ 9.7878e-03,  5.9926e-03, -1.3431e-02]],

         [[-2.5503e-02,  9.0244e-03, -2.6356e-02],
          [-1.7197e-02, -1.3206e-02,  2.8005e-02],
          [-1.4728e-02,  7.7685e-03,  2.0089e-02]],

         [[-1.8095e-02,  1.2774e-03, -3.8733e-03],
          [-1.9926e-02,  1.3750e-03,  2.1207e-02],
          [ 1.7552e-02, -1.9094e-02, -1.9360e-03]],

         ...,

         [[ 9.7403e-03,  6.7322e-03,  9.1827e-03],
          [-1.1474e-02,  7.1645e-03,  8.5284e-03],
          [-7.7171e-03, -4.6675e-04,  2.2303e-02]],

         [[-2.5122e-02, -2.1953e-02,  2.1197e-02],
          [ 1.6749e-02,  2.4219e-02, -2.3971e-02],
          [-7.0400e-03, -2.3974e-02, -5.0071e-03]],

         [[ 2.8188e-02,  2.1474e-03, -1.5201e-02],
          [ 9.5598e-03, -5.1489e-03,  6.7726e-03],
          [-3.6894e-03,  2.1140e-02,  5.7698e-03]]],


        [[[-2.3059e-03,  5.5353e-03, -1.0495e-03],
          [ 1.4996e-02,  1.9650e-02,  2.9524e-03],
          [-1.3895e-02, -5.6980e-03, -1.9542e-02]],

         [[-8.5703e-03,  5.7426e-03,  8.3132e-03],
          [ 2.4853e-02, -1.6553e-02,  2.4105e-02],
          [ 2.6066e-02, -1.3968e-03,  7.5719e-04]],

         [[-2.3108e-02, -2.3428e-02,  2.2403e-03],
          [-3.0331e-04,  1.3530e-02,  1.3257e-02],
          [-8.6436e-03,  8.9647e-03,  1.0337e-02]],

         ...,

         [[ 1.1809e-02,  2.1490e-02,  4.3304e-03],
          [-1.2191e-02, -2.0046e-02,  1.8207e-02],
          [-3.3037e-03,  1.6002e-02, -1.8858e-02]],

         [[-2.8413e-03,  1.3599e-02,  8.6481e-03],
          [-1.2376e-02, -1.6957e-02,  4.8648e-03],
          [-1.0732e-02,  8.6008e-03, -2.6595e-03]],

         [[-1.1491e-02, -2.4628e-02,  1.5772e-02],
          [-3.3823e-02, -7.0429e-03,  3.6404e-03],
          [-2.5513e-02,  9.1219e-03, -5.2123e-03]]],


        ...,


        [[[ 7.0868e-03,  1.7026e-02,  2.4853e-03],
          [ 4.8693e-04,  4.7592e-03,  1.5385e-02],
          [-1.9071e-02, -2.3487e-03,  1.2615e-02]],

         [[-1.9906e-02,  7.2227e-03, -7.2646e-03],
          [ 8.2146e-03,  6.5818e-03,  1.2785e-05],
          [-1.8017e-02, -1.1644e-02,  1.2378e-03]],

         [[-3.3134e-03,  1.7901e-02, -2.2968e-02],
          [ 2.2069e-02, -3.9748e-03, -1.8156e-02],
          [-2.0552e-02,  1.4159e-02,  2.8227e-03]],

         ...,

         [[ 8.9394e-03, -1.2082e-02, -2.0659e-02],
          [ 1.2163e-02,  3.2407e-02, -7.3392e-03],
          [ 2.2338e-02, -7.0687e-03, -1.2440e-02]],

         [[ 2.5201e-02, -2.1125e-02, -7.0396e-03],
          [-2.6640e-02, -1.5122e-02,  5.8461e-03],
          [ 1.6608e-02,  2.8126e-04,  1.3487e-02]],

         [[ 3.1602e-02, -1.8049e-03, -2.4900e-02],
          [ 1.4156e-02, -3.4425e-03,  2.9785e-02],
          [-2.1655e-02,  1.2100e-02,  1.7405e-02]]],


        [[[ 6.3240e-03, -2.2538e-02,  8.8093e-03],
          [ 1.4232e-02, -2.8714e-02, -3.2296e-02],
          [-2.4996e-02, -1.7845e-02, -2.4263e-02]],

         [[ 2.6654e-02,  6.4417e-04,  5.5272e-04],
          [ 6.5452e-03, -2.9907e-03,  1.1145e-02],
          [-1.1673e-02,  2.0562e-02,  1.2151e-02]],

         [[ 2.6185e-02, -7.7434e-03,  2.0124e-03],
          [ 4.6667e-03, -9.5897e-03, -6.1820e-03],
          [ 2.0513e-02, -2.5771e-02,  1.1187e-02]],

         ...,

         [[-1.3346e-02,  2.8002e-02,  9.5207e-03],
          [-2.6083e-02, -2.0181e-02, -8.4045e-04],
          [ 1.0916e-02, -2.0181e-02,  1.9501e-02]],

         [[-1.8721e-03,  2.5159e-02,  1.2323e-02],
          [-1.7404e-02,  9.0456e-03, -2.4846e-02],
          [ 5.1136e-03, -2.2661e-02, -2.2688e-02]],

         [[ 1.9726e-02,  1.8082e-02,  2.0517e-02],
          [-1.7221e-02,  1.1974e-02,  5.6336e-03],
          [ 1.1459e-03, -1.0828e-02,  1.5553e-02]]],


        [[[-1.7504e-02,  1.9950e-02, -6.8427e-05],
          [ 2.4250e-02, -6.8130e-03,  2.6795e-02],
          [ 2.4825e-02, -1.5878e-02,  2.7054e-02]],

         [[-1.2585e-02,  7.5064e-03,  2.0736e-02],
          [-2.0870e-02,  2.0206e-02,  1.5728e-02],
          [ 1.6227e-02,  1.0404e-02,  9.2496e-03]],

         [[-1.2243e-02,  3.9514e-03, -3.4140e-03],
          [-3.5538e-03,  9.8817e-03, -5.3976e-03],
          [ 3.0357e-03,  2.5362e-02, -2.8892e-02]],

         ...,

         [[ 1.3945e-02,  9.3692e-03, -7.2928e-03],
          [-1.9947e-02, -9.2787e-03, -5.4224e-03],
          [-3.9725e-03,  2.9536e-02, -3.1485e-03]],

         [[-3.1284e-02, -3.2379e-02, -3.3094e-02],
          [-1.5875e-03,  1.8705e-02, -1.9723e-02],
          [ 8.9703e-03, -1.4093e-02,  1.3333e-02]],

         [[ 2.7126e-02,  3.1660e-02,  1.2203e-02],
          [-1.8827e-02,  1.3807e-02, -1.1842e-02],
          [ 1.2515e-02, -1.3198e-02, -2.3810e-03]]]])"
encConv7.bias,"tensor([-3.1297e-02, -2.9012e-02, -2.4735e-03, -8.7854e-03,  2.1117e-02,
        -2.1913e-02, -1.3860e-02, -1.8351e-02, -3.6589e-03, -3.0797e-03,
         7.2284e-03, -3.8453e-04,  4.3242e-03, -3.7168e-05, -2.4917e-02,
         1.8059e-02, -1.7271e-02,  9.4156e-03,  1.1171e-02, -2.2951e-02,
        -3.6266e-03, -2.2866e-02, -2.3045e-03, -1.8701e-03, -3.0935e-03,
        -2.2107e-02,  1.6155e-02, -3.5196e-02, -2.6821e-02, -1.6531e-02,
        -8.9735e-03, -9.2298e-03,  1.7805e-02, -3.4365e-02, -3.4150e-02,
        -1.5597e-02, -1.7923e-02, -3.0972e-02, -2.0894e-02, -5.8116e-03,
        -1.2902e-02,  4.9628e-03,  8.7110e-03, -9.2254e-03, -2.7068e-02,
        -2.3138e-02,  1.3489e-02, -3.7134e-02, -1.5913e-02,  8.5506e-03,
        -2.3147e-02, -2.9627e-02, -2.2540e-02,  1.3923e-02,  6.5778e-03,
         1.3791e-02, -2.1911e-02, -2.1560e-02,  1.3413e-02, -8.9187e-03,
        -1.9241e-02, -3.4975e-02,  2.6046e-03, -6.2237e-03])"
bn8.weight,"tensor([1.0069, 0.9928, 0.9986, 0.9919, 1.0004, 0.9991, 0.9940, 0.9961, 0.9947,
        0.9988, 1.0056, 1.0119, 1.0002, 1.0030, 1.0087, 1.0125, 1.0017, 0.9999,
        1.0014, 0.9958, 0.9923, 1.0066, 0.9920, 1.0073, 0.9973, 0.9916, 0.9971,
        0.9987, 0.9950, 0.9918, 0.9913, 1.0063, 1.0111, 0.9918, 1.0046, 0.9932,
        1.0026, 1.0082, 1.0042, 0.9960, 1.0044, 1.0000, 1.0045, 1.0077, 0.9937,
        1.0015, 1.0024, 1.0080, 0.9986, 0.9991, 0.9966, 1.0067, 0.9911, 1.0009,
        0.9956, 1.0168, 1.0036, 0.9951, 0.9875, 0.9915, 0.9929, 1.0021, 0.9975,
        1.0032])"
bn8.bias,"tensor([ 2.0323e-03,  6.3441e-04, -6.5875e-03,  2.9143e-03,  4.9842e-03,
        -6.5172e-03, -3.4661e-03,  1.1793e-02,  2.4679e-02, -1.0166e-02,
         8.2780e-04,  4.7055e-03, -2.5393e-03,  5.6356e-03, -4.3198e-03,
        -1.1198e-02,  9.9386e-03, -1.2754e-03, -8.0664e-03, -7.5636e-04,
         1.8860e-02, -8.5032e-03, -1.9408e-03, -6.5249e-03, -3.4789e-03,
         2.5018e-03,  1.0322e-02,  2.7072e-03,  1.9060e-03, -3.5222e-03,
        -3.8365e-04,  3.6494e-03, -1.8679e-02,  9.3686e-03,  2.3623e-03,
        -8.7187e-04, -9.4296e-03, -1.7306e-02,  4.0611e-03,  4.1396e-03,
         7.7822e-03,  1.2021e-02,  7.8277e-03,  4.8355e-03, -3.6547e-03,
        -4.4442e-03,  1.4447e-02,  2.6665e-04,  1.8023e-02,  7.4719e-05,
        -9.9953e-04, -1.3480e-02,  3.0113e-03,  7.5406e-03, -7.6778e-03,
        -3.6719e-03, -3.1477e-03,  4.0590e-03, -8.2267e-05,  4.9136e-03,
         5.8279e-03, -1.9691e-03,  8.8289e-03, -3.1238e-03])"
bn8.running_mean,"tensor([0.3376, 0.3746, 0.3244, 0.3929, 0.3625, 0.4583, 0.3402, 0.3102, 0.3371,
        0.3414, 0.3374, 0.3251, 0.4418, 0.3573, 0.3112, 0.3412, 0.3660, 0.3495,
        0.3248, 0.3029, 0.3652, 0.3848, 0.3632, 0.3577, 0.3838, 0.3634, 0.3707,
        0.3741, 0.3199, 0.3816, 0.3552, 0.3271, 0.3590, 0.3763, 0.3242, 0.4106,
        0.4458, 0.3452, 0.3573, 0.4655, 0.3453, 0.2726, 0.3982, 0.3213, 0.3732,
        0.3425, 0.3430, 0.3028, 0.4096, 0.3395, 0.2607, 0.3463, 0.4052, 0.3857,
        0.3539, 0.3439, 0.4412, 0.3847, 0.4461, 0.3672, 0.3538, 0.3090, 0.3778,
        0.4183])"
bn8.running_var,"tensor([0.2590, 0.2603, 0.3088, 0.3160, 0.2904, 0.3935, 0.2872, 0.2382, 0.3025,
        0.2681, 0.2624, 0.2554, 0.3597, 0.3107, 0.2433, 0.2609, 0.3269, 0.3074,
        0.2509, 0.2274, 0.2656, 0.3241, 0.4080, 0.3692, 0.3880, 0.3169, 0.2341,
        0.3637, 0.2517, 0.2665, 0.3648, 0.2516, 0.3620, 0.4842, 0.2906, 0.4155,
        0.3293, 0.2801, 0.3563, 0.3943, 0.2634, 0.2002, 0.3473, 0.3237, 0.2350,
        0.2872, 0.2782, 0.2496, 0.4217, 0.2554, 0.1994, 0.3280, 0.3025, 0.2647,
        0.2906, 0.2499, 0.3468, 0.2937, 0.4375, 0.2529, 0.2905, 0.2786, 0.2757,
        0.4061])"
bn8.num_batches_tracked,tensor(22450)
encConv8.weight,"tensor([[[[ 0.0011, -0.0195,  0.0169],
          [ 0.0168,  0.0109,  0.0435],
          [ 0.0297,  0.0289,  0.0117]],

         [[ 0.0228,  0.0400,  0.0213],
          [-0.0346, -0.0258, -0.0023],
          [ 0.0068,  0.0265, -0.0408]],

         [[-0.0152, -0.0088, -0.0367],
          [-0.0313,  0.0308,  0.0008],
          [ 0.0154, -0.0201, -0.0184]],

         ...,

         [[-0.0420,  0.0281,  0.0171],
          [-0.0100, -0.0198,  0.0356],
          [-0.0444, -0.0277, -0.0127]],

         [[-0.0171, -0.0264, -0.0322],
          [ 0.0244,  0.0353,  0.0214],
          [ 0.0092,  0.0281,  0.0202]],

         [[ 0.0266,  0.0288, -0.0023],
          [-0.0369, -0.0369, -0.0417],
          [ 0.0172,  0.0348, -0.0310]]],


        [[[ 0.0427, -0.0322,  0.0193],
          [-0.0343,  0.0204,  0.0344],
          [-0.0344,  0.0139, -0.0335]],

         [[ 0.0141, -0.0126,  0.0422],
          [ 0.0204,  0.0207, -0.0098],
          [ 0.0045,  0.0349, -0.0213]],

         [[-0.0149,  0.0108,  0.0323],
          [ 0.0376,  0.0087, -0.0184],
          [-0.0072, -0.0075,  0.0008]],

         ...,

         [[ 0.0544, -0.0213,  0.0378],
          [-0.0024,  0.0042, -0.0260],
          [ 0.0330,  0.0394,  0.0030]],

         [[-0.0375,  0.0388,  0.0035],
          [ 0.0147, -0.0374,  0.0265],
          [ 0.0292,  0.0384,  0.0304]],

         [[ 0.0111,  0.0245, -0.0313],
          [ 0.0086, -0.0064,  0.0044],
          [-0.0268,  0.0299,  0.0023]]],


        [[[ 0.0191, -0.0349,  0.0150],
          [-0.0279,  0.0009, -0.0345],
          [-0.0433,  0.0301,  0.0350]],

         [[-0.0258,  0.0114,  0.0162],
          [-0.0205,  0.0315,  0.0084],
          [-0.0135, -0.0218, -0.0183]],

         [[ 0.0106,  0.0211, -0.0049],
          [ 0.0141,  0.0208, -0.0030],
          [-0.0329,  0.0007,  0.0115]],

         ...,

         [[ 0.0518,  0.0408,  0.0263],
          [-0.0271,  0.0282, -0.0090],
          [ 0.0084,  0.0190, -0.0194]],

         [[ 0.0341, -0.0343, -0.0056],
          [-0.0061,  0.0173, -0.0087],
          [-0.0298,  0.0405, -0.0003]],

         [[-0.0239,  0.0172,  0.0303],
          [ 0.0083,  0.0006,  0.0036],
          [-0.0505,  0.0027,  0.0262]]],


        ...,


        [[[-0.0402, -0.0245, -0.0132],
          [ 0.0305,  0.0027,  0.0038],
          [ 0.0255,  0.0001,  0.0395]],

         [[ 0.0324, -0.0273, -0.0303],
          [-0.0220, -0.0197,  0.0099],
          [-0.0138,  0.0280,  0.0443]],

         [[ 0.0173, -0.0295, -0.0434],
          [-0.0297, -0.0021,  0.0038],
          [-0.0260,  0.0278, -0.0146]],

         ...,

         [[-0.0210,  0.0286, -0.0009],
          [-0.0068,  0.0416,  0.0155],
          [ 0.0435,  0.0305,  0.0254]],

         [[-0.0334,  0.0149, -0.0065],
          [-0.0057, -0.0189, -0.0335],
          [-0.0246, -0.0239,  0.0087]],

         [[ 0.0304,  0.0057,  0.0365],
          [ 0.0238,  0.0359,  0.0270],
          [-0.0276,  0.0303,  0.0316]]],


        [[[ 0.0094,  0.0044, -0.0006],
          [ 0.0284,  0.0366,  0.0274],
          [ 0.0023, -0.0271,  0.0343]],

         [[ 0.0440,  0.0029,  0.0219],
          [ 0.0070, -0.0142,  0.0250],
          [ 0.0416, -0.0280, -0.0310]],

         [[-0.0147,  0.0089, -0.0028],
          [-0.0059,  0.0036, -0.0108],
          [ 0.0051, -0.0050, -0.0304]],

         ...,

         [[ 0.0008,  0.0328, -0.0169],
          [-0.0163,  0.0093,  0.0173],
          [-0.0317, -0.0220,  0.0049]],

         [[-0.0001,  0.0232,  0.0192],
          [ 0.0094, -0.0237, -0.0182],
          [ 0.0412,  0.0196,  0.0332]],

         [[ 0.0143, -0.0402, -0.0288],
          [ 0.0209,  0.0404,  0.0065],
          [-0.0365, -0.0091,  0.0078]]],


        [[[ 0.0257,  0.0045, -0.0347],
          [ 0.0304,  0.0092,  0.0061],
          [-0.0032,  0.0209,  0.0105]],

         [[-0.0348,  0.0076, -0.0083],
          [-0.0280,  0.0056, -0.0155],
          [ 0.0148,  0.0226,  0.0180]],

         [[-0.0109,  0.0352,  0.0212],
          [ 0.0329,  0.0284, -0.0179],
          [-0.0227,  0.0069,  0.0202]],

         ...,

         [[ 0.0027, -0.0065,  0.0258],
          [ 0.0283, -0.0013, -0.0070],
          [ 0.0004,  0.0018,  0.0085]],

         [[-0.0275,  0.0124,  0.0364],
          [ 0.0425, -0.0075, -0.0146],
          [ 0.0039,  0.0153, -0.0191]],

         [[-0.0394, -0.0265,  0.0264],
          [ 0.0281, -0.0301, -0.0289],
          [-0.0186, -0.0427,  0.0214]]]])"
encConv8.bias,"tensor([ 0.0238, -0.0007,  0.0045, -0.0496, -0.0020,  0.0059,  0.0141, -0.0025,
        -0.0015, -0.0411, -0.0173,  0.0279, -0.0298,  0.0087,  0.0116, -0.0207,
         0.0036, -0.0229, -0.0395, -0.0122,  0.0037,  0.0227,  0.0039, -0.0536,
        -0.0487,  0.0232, -0.0117, -0.0260,  0.0148,  0.0088,  0.0016, -0.0323,
         0.0207,  0.0162, -0.0431, -0.0412, -0.0044, -0.0525, -0.0403,  0.0138,
        -0.0529, -0.0182,  0.0079, -0.0073,  0.0224, -0.0144, -0.0363,  0.0068,
         0.0195,  0.0084, -0.0243,  0.0195, -0.0190, -0.0178, -0.0132,  0.0209,
        -0.0002, -0.0252, -0.0461, -0.0569, -0.0410,  0.0274, -0.0196,  0.0177])"
bn9.weight,"tensor([1.0024, 0.9967, 0.9997, 0.9940, 1.0019, 0.9982, 0.9957, 0.9977, 0.9942,
        0.9980, 1.0042, 1.0052, 1.0029, 0.9992, 1.0052, 1.0055, 0.9995, 0.9972,
        1.0002, 0.9981, 0.9983, 1.0003, 0.9957, 1.0065, 0.9989, 0.9954, 0.9993,
        1.0002, 0.9953, 0.9944, 0.9963, 1.0022, 1.0074, 0.9939, 1.0036, 0.9955,
        1.0003, 1.0066, 0.9981, 0.9941, 1.0001, 1.0002, 1.0008, 1.0023, 0.9947,
        1.0042, 0.9978, 1.0019, 0.9972, 1.0010, 1.0026, 1.0021, 0.9953, 0.9977,
        1.0004, 1.0068, 1.0007, 0.9972, 0.9947, 0.9963, 1.0006, 0.9962, 1.0023,
        1.0023, 1.0056, 0.9989, 1.0024, 1.0025, 0.9964, 1.0036, 1.0030, 1.0026,
        1.0016, 0.9948, 1.0071, 1.0027, 1.0069, 0.9960, 1.0024, 1.0068, 1.0006,
        0.9979, 0.9963, 1.0009, 0.9987, 0.9997, 1.0030, 1.0015, 0.9934, 1.0012,
        1.0111, 0.9937, 0.9971, 1.0028, 0.9967, 0.9990, 1.0014, 1.0034, 0.9954,
        0.9977, 0.9986, 0.9963, 1.0023, 0.9982, 1.0085, 0.9949, 0.9971, 1.0067,
        1.0036, 0.9991, 1.0000, 1.0030, 0.9980, 1.0007, 0.9978, 0.9998, 0.9988,
        0.9951, 1.0029, 1.0038, 1.0002, 0.9927, 1.0030, 0.9987, 0.9974, 0.9955,
        1.0047, 1.0007])"
bn9.bias,"tensor([ 4.5535e-03,  1.6538e-03,  2.5455e-03,  9.3959e-03,  8.8559e-03,
        -2.1704e-03, -1.0000e-02, -1.4011e-02,  7.3435e-04,  7.6147e-03,
        -5.2374e-04, -6.3541e-03, -4.7025e-03, -6.2977e-03,  2.5306e-03,
        -4.3110e-03,  2.6277e-03, -8.6235e-03,  7.8287e-03,  1.1157e-02,
        -4.1972e-04, -2.7246e-04,  2.6431e-03, -2.0057e-02,  4.8144e-03,
         3.8786e-03,  4.3604e-03, -7.3656e-03,  1.0173e-02,  1.6246e-03,
         3.4945e-03,  2.0393e-03, -1.4120e-02,  3.9114e-04, -1.3398e-02,
         2.6472e-03, -7.3677e-04,  3.2845e-03,  4.7413e-03,  4.3461e-04,
         8.9503e-03,  1.8645e-03,  1.7371e-04, -1.0847e-02,  4.6207e-03,
        -9.6927e-03,  6.8606e-03, -1.1502e-04, -5.2240e-05, -1.7655e-02,
        -3.5758e-03, -5.8719e-03, -3.4391e-03,  1.0100e-02, -8.3729e-04,
         4.7101e-03,  3.6644e-03, -2.6273e-03,  1.9110e-03,  1.2032e-03,
         1.1818e-02,  9.9724e-03,  4.9795e-03,  1.1465e-02, -1.5846e-03,
        -7.0300e-03,  2.6674e-03, -1.4244e-03, -8.4466e-04,  4.0261e-03,
         1.0081e-03, -4.5534e-03,  5.3489e-03,  4.7373e-03, -3.5959e-03,
         1.2645e-02, -1.1590e-02, -7.1322e-03,  2.9659e-03, -1.1379e-02,
         4.8807e-04, -2.3640e-03, -4.0690e-04, -4.2531e-03,  6.5221e-03,
         2.5966e-03, -2.7036e-03, -9.2905e-03, -3.6876e-04, -2.4063e-03,
         1.8476e-03, -8.9635e-03, -2.0548e-04, -7.3865e-03, -1.4282e-03,
        -8.0968e-03,  3.5293e-03, -1.0908e-02,  6.4024e-03,  1.6680e-03,
         1.8534e-03,  4.0878e-03, -2.1956e-03,  2.9640e-03, -3.5649e-03,
        -4.3745e-03, -6.4926e-03, -4.6669e-03,  3.0427e-03,  5.8225e-03,
         3.8335e-04, -3.6852e-03,  4.9534e-03, -1.0456e-02,  4.3613e-03,
         1.1586e-02, -9.5087e-03, -1.1989e-03, -3.9236e-04, -6.0688e-03,
         7.0009e-03,  3.5002e-03, -7.3907e-03,  4.5226e-03,  5.9607e-03,
         9.5856e-03, -7.8460e-03, -3.7423e-03])"
bn9.running_mean,"tensor([0.3376, 0.3746, 0.3244, 0.3929, 0.3625, 0.4583, 0.3402, 0.3102, 0.3371,
        0.3414, 0.3374, 0.3251, 0.4418, 0.3573, 0.3112, 0.3412, 0.3660, 0.3495,
        0.3248, 0.3029, 0.3652, 0.3848, 0.3632, 0.3577, 0.3838, 0.3634, 0.3707,
        0.3741, 0.3199, 0.3816, 0.3552, 0.3271, 0.3590, 0.3763, 0.3242, 0.4106,
        0.4458, 0.3452, 0.3573, 0.4655, 0.3453, 0.2726, 0.3982, 0.3213, 0.3732,
        0.3425, 0.3430, 0.3028, 0.4096, 0.3395, 0.2607, 0.3463, 0.4052, 0.3857,
        0.3539, 0.3439, 0.4412, 0.3847, 0.4461, 0.3672, 0.3538, 0.3090, 0.3778,
        0.4183, 0.2740, 0.2448, 0.2199, 0.1934, 0.2663, 0.2032, 0.2495, 0.1974,
        0.2147, 0.2135, 0.2545, 0.2780, 0.2317, 0.2626, 0.2474, 0.2068, 0.2172,
        0.2718, 0.2303, 0.2408, 0.2652, 0.2616, 0.2250, 0.2031, 0.2500, 0.2535,
        0.2249, 0.2478, 0.2637, 0.2476, 0.2868, 0.2047, 0.2299, 0.2620, 0.2098,
        0.2564, 0.3311, 0.1882, 0.2122, 0.2949, 0.2096, 0.2318, 0.2589, 0.2427,
        0.2226, 0.1884, 0.2103, 0.2513, 0.2540, 0.2589, 0.2380, 0.2536, 0.2241,
        0.2512, 0.2553, 0.2298, 0.2550, 0.2711, 0.1884, 0.2043, 0.2089, 0.2691,
        0.2197, 0.2901])"
bn9.running_var,"tensor([0.2590, 0.2603, 0.3088, 0.3160, 0.2904, 0.3935, 0.2872, 0.2382, 0.3025,
        0.2681, 0.2624, 0.2554, 0.3597, 0.3107, 0.2433, 0.2609, 0.3269, 0.3074,
        0.2509, 0.2274, 0.2656, 0.3241, 0.4080, 0.3692, 0.3880, 0.3169, 0.2341,
        0.3637, 0.2517, 0.2665, 0.3648, 0.2516, 0.3620, 0.4842, 0.2906, 0.4155,
        0.3293, 0.2801, 0.3563, 0.3943, 0.2634, 0.2002, 0.3473, 0.3237, 0.2350,
        0.2872, 0.2782, 0.2496, 0.4217, 0.2554, 0.1994, 0.3280, 0.3025, 0.2647,
        0.2906, 0.2499, 0.3468, 0.2937, 0.4375, 0.2529, 0.2905, 0.2786, 0.2757,
        0.4061, 0.1330, 0.1243, 0.1144, 0.0925, 0.1565, 0.0970, 0.1354, 0.0961,
        0.0982, 0.1459, 0.1409, 0.1484, 0.1241, 0.1342, 0.1331, 0.1245, 0.1141,
        0.1734, 0.1348, 0.1496, 0.1666, 0.1334, 0.1398, 0.1085, 0.1304, 0.1261,
        0.1134, 0.1288, 0.1548, 0.1490, 0.1710, 0.0973, 0.1377, 0.1925, 0.0996,
        0.1613, 0.1747, 0.1063, 0.1157, 0.1750, 0.1295, 0.1299, 0.1577, 0.1424,
        0.1105, 0.0952, 0.1312, 0.1299, 0.1548, 0.1276, 0.1364, 0.1231, 0.1192,
        0.1512, 0.1543, 0.1307, 0.1561, 0.1806, 0.0855, 0.1119, 0.1312, 0.1548,
        0.1012, 0.1948])"
bn9.num_batches_tracked,tensor(22450)
encConv9.weight,"tensor([[[[-9.2267e-03, -2.5130e-02,  1.7460e-02],
          [ 1.3174e-02,  8.3795e-03,  7.6421e-04],
          [ 3.1592e-03, -2.5830e-02, -3.2477e-02]],

         [[ 2.0538e-02, -5.7061e-03, -7.6627e-03],
          [-2.3164e-02, -2.3249e-02, -1.7436e-02],
          [-9.1223e-03,  5.0550e-03, -1.1596e-02]],

         [[ 7.7304e-03,  2.8020e-02, -2.2688e-02],
          [-3.0864e-03,  2.0027e-02,  1.2503e-02],
          [-4.7644e-03, -3.9141e-04, -2.8521e-02]],

         ...,

         [[-1.9643e-02, -3.4567e-03, -2.2602e-02],
          [ 4.0260e-03,  4.0029e-03, -1.6904e-02],
          [-1.6926e-02,  7.7891e-03,  1.8551e-03]],

         [[ 2.1235e-03, -5.6381e-03,  5.6155e-03],
          [-1.8013e-02, -9.9437e-03, -2.1518e-02],
          [-7.9642e-03, -2.6432e-03, -2.6813e-02]],

         [[ 6.1378e-03, -2.4939e-02,  2.4800e-02],
          [ 3.0084e-02,  2.4294e-02,  1.6018e-02],
          [ 1.6408e-02, -1.0381e-02,  1.5067e-03]]],


        [[[-1.4359e-02, -2.7302e-02,  1.5557e-02],
          [ 4.9295e-03, -8.7681e-03, -2.0476e-03],
          [ 1.4454e-02,  1.3424e-02, -1.9194e-03]],

         [[-2.4994e-02, -1.4175e-02,  1.8878e-02],
          [ 1.5387e-02, -7.9530e-03, -1.7667e-03],
          [-2.5690e-02,  1.8745e-02,  1.7527e-02]],

         [[-2.4090e-03, -3.0479e-02, -5.5438e-03],
          [-1.9430e-02, -1.8673e-02,  5.1443e-03],
          [ 1.7166e-02,  1.2005e-02, -4.0035e-03]],

         ...,

         [[-1.3451e-02,  8.2176e-03, -1.4815e-02],
          [ 2.6169e-02, -1.4281e-02,  1.7878e-02],
          [-2.6466e-02,  3.6907e-03,  1.3104e-02]],

         [[ 1.3434e-03,  2.5553e-04, -1.7051e-02],
          [ 1.4100e-02, -3.2276e-02, -2.8134e-02],
          [ 3.7392e-02,  2.4909e-02, -1.4246e-03]],

         [[ 1.0103e-02, -1.8601e-03, -1.9901e-02],
          [-2.8445e-03,  2.7379e-03,  4.5199e-03],
          [-2.2059e-02, -9.6542e-03, -7.5853e-03]]],


        [[[ 1.6306e-02, -1.7477e-03, -4.8103e-03],
          [-2.4911e-02,  6.5964e-03, -1.5303e-02],
          [ 1.9044e-02,  5.9763e-03,  9.3924e-03]],

         [[ 5.9936e-03, -2.6487e-02, -2.0516e-02],
          [-1.3010e-02,  2.7105e-02, -1.2893e-02],
          [ 2.4601e-02, -2.3851e-02,  1.8491e-02]],

         [[-8.5942e-03, -1.2342e-03, -2.0915e-02],
          [-1.3847e-02, -2.4558e-02, -2.4401e-02],
          [ 3.0963e-03,  9.8730e-03,  1.4616e-03]],

         ...,

         [[-1.3462e-03,  1.5373e-02, -2.5610e-02],
          [-2.6923e-02, -2.0341e-02,  2.4481e-02],
          [ 2.3338e-02, -7.8954e-03,  1.0802e-02]],

         [[ 6.7016e-03, -1.6608e-02, -1.4248e-02],
          [ 2.1487e-02, -1.0989e-02,  1.1324e-02],
          [-3.1490e-02,  5.5417e-03,  7.5744e-03]],

         [[ 3.7222e-03,  6.4019e-03, -1.0409e-03],
          [-2.1183e-03, -1.4855e-03, -2.7690e-02],
          [-2.8097e-02,  2.5801e-02, -5.0107e-03]]],


        ...,


        [[[ 2.9290e-02, -2.2851e-02, -2.2748e-02],
          [ 8.2520e-05, -2.9742e-02,  3.0657e-02],
          [ 1.4963e-02,  9.9221e-03,  2.0543e-03]],

         [[-1.8771e-02, -1.2750e-02,  3.0739e-02],
          [ 2.2475e-02,  1.6300e-02, -2.3356e-02],
          [ 1.1708e-02, -1.8281e-02,  7.5351e-03]],

         [[-1.1113e-02,  2.1154e-02, -2.3467e-02],
          [-5.0987e-04, -3.8290e-03, -1.9354e-02],
          [-1.4167e-02,  9.5338e-03,  2.0813e-02]],

         ...,

         [[-1.1242e-02, -2.1962e-02,  1.1994e-03],
          [ 1.5399e-02, -2.6582e-02,  1.2078e-02],
          [-1.1617e-02, -4.8137e-03,  9.7771e-03]],

         [[-1.7782e-02, -2.1606e-02, -2.5057e-02],
          [ 1.0452e-02,  1.4205e-03, -2.8703e-03],
          [ 2.9018e-02,  2.1856e-02, -2.1189e-03]],

         [[-2.7658e-02,  1.0163e-02,  1.1609e-02],
          [ 6.1771e-03,  2.9667e-02,  2.4049e-02],
          [-2.0191e-02, -6.3919e-03, -1.5261e-03]]],


        [[[ 1.5449e-02, -1.1186e-03, -9.7251e-03],
          [ 3.0460e-03,  6.4065e-03, -1.8231e-02],
          [ 1.0415e-02, -2.5933e-02,  2.3117e-02]],

         [[-6.5805e-03, -2.5424e-02,  2.3405e-03],
          [ 8.3262e-03,  1.8840e-02, -2.5506e-02],
          [ 8.0728e-03,  2.2684e-02, -1.7179e-02]],

         [[-2.4706e-02,  2.2077e-02, -1.1587e-02],
          [ 3.2680e-03,  2.9625e-02, -2.5873e-02],
          [-1.3715e-02,  2.2526e-02,  6.8186e-03]],

         ...,

         [[ 2.4448e-02, -9.8116e-03,  6.1805e-03],
          [ 1.1435e-02,  1.3194e-02,  1.7597e-03],
          [ 3.4893e-03,  2.2034e-02, -2.2495e-02]],

         [[-6.2625e-03, -1.4323e-02,  1.8530e-02],
          [ 1.3516e-02,  2.3307e-02,  8.2252e-03],
          [-4.9782e-03,  7.2296e-03, -1.3444e-03]],

         [[ 3.1686e-02, -1.7169e-02, -1.9101e-02],
          [ 5.0929e-03,  1.9960e-02, -6.2360e-03],
          [ 2.5002e-02, -1.6654e-02, -2.3743e-02]]],


        [[[-1.9461e-02,  1.9131e-03, -1.3963e-02],
          [ 2.5409e-03,  7.2240e-03, -2.4625e-02],
          [-1.7687e-02, -7.8494e-03, -1.0878e-02]],

         [[ 2.0867e-02, -3.0761e-03, -2.5609e-02],
          [ 3.8307e-03,  2.1279e-02, -5.3739e-03],
          [-1.9203e-02,  2.3965e-03, -5.5102e-04]],

         [[ 2.7523e-02,  4.1650e-04, -1.3302e-02],
          [ 7.1429e-03,  2.5314e-02,  9.0451e-03],
          [-1.2635e-02,  1.8178e-02,  4.8230e-03]],

         ...,

         [[-6.2564e-03, -1.0379e-02,  1.8038e-02],
          [ 6.2853e-03,  2.5760e-02, -1.5318e-02],
          [-1.4271e-02, -2.0322e-02, -7.2391e-03]],

         [[-1.7894e-02,  2.2096e-02, -3.2636e-03],
          [ 1.6136e-02, -2.0652e-02, -2.4789e-02],
          [ 2.2143e-02,  8.8678e-03,  1.9772e-02]],

         [[ 2.0163e-02,  2.7688e-02,  2.4251e-02],
          [ 1.3955e-02,  1.6424e-03,  2.1523e-02],
          [ 2.3776e-03, -2.5468e-02,  2.1821e-02]]]])"
encConv9.bias,"tensor([-0.0120,  0.0079,  0.0050,  0.0048, -0.0278, -0.0205,  0.0108,  0.0123,
        -0.0169, -0.0061, -0.0373,  0.0195,  0.0215,  0.0147,  0.0051, -0.0120,
        -0.0216, -0.0049, -0.0056, -0.0383, -0.0197, -0.0235, -0.0403, -0.0046,
         0.0011, -0.0187,  0.0143,  0.0062, -0.0107, -0.0220, -0.0054, -0.0375,
        -0.0417, -0.0008, -0.0104, -0.0306, -0.0185, -0.0031,  0.0270, -0.0436,
         0.0067, -0.0378,  0.0140,  0.0017, -0.0197, -0.0171,  0.0078,  0.0175,
         0.0087, -0.0253,  0.0102,  0.0182, -0.0126, -0.0381,  0.0122, -0.0095,
        -0.0305, -0.0130,  0.0124,  0.0098,  0.0032, -0.0376, -0.0357, -0.0128])"
bn10.weight,"tensor([1.0033, 0.9934, 0.9944, 0.9875, 0.9950, 0.9966, 0.9943, 0.9970, 0.9928,
        0.9954, 1.0053, 1.0043, 1.0006, 1.0000, 1.0028, 1.0098, 1.0022, 0.9990,
        0.9988, 0.9938, 0.9964, 1.0029, 0.9873, 1.0071, 0.9936, 0.9871, 0.9923,
        0.9969, 0.9909, 0.9901, 0.9871, 1.0047, 1.0079, 0.9883, 1.0008, 0.9921,
        0.9970, 1.0046, 0.9978, 0.9908, 0.9959, 1.0001, 1.0003, 0.9999, 0.9923,
        1.0033, 0.9973, 1.0083, 0.9914, 1.0037, 1.0055, 1.0061, 0.9912, 0.9958,
        0.9981, 1.0100, 0.9998, 0.9949, 0.9848, 0.9899, 1.0002, 1.0008, 0.9978,
        1.0058, 1.0007, 0.9981, 1.0089, 1.0070, 0.9961, 1.0034, 1.0107, 1.0083,
        1.0000, 0.9940, 1.0103, 1.0011, 1.0048, 0.9880, 1.0035, 1.0045, 1.0047,
        0.9990, 0.9958, 0.9968, 0.9937, 0.9937, 1.0054, 1.0064, 0.9879, 1.0100,
        1.0066, 0.9939, 0.9947, 1.0073, 0.9907, 1.0033, 1.0050, 1.0067, 0.9877,
        0.9939, 0.9932, 0.9970, 1.0104, 0.9940, 1.0072, 0.9920, 0.9971, 1.0049,
        1.0075, 1.0024, 1.0017, 1.0067, 0.9960, 1.0000, 0.9991, 0.9954, 0.9992,
        0.9963, 1.0049, 1.0084, 0.9998, 0.9824, 1.0036, 0.9951, 0.9915, 1.0039,
        1.0061, 0.9961, 0.9958, 1.0096, 0.9996, 1.0024, 0.9953, 0.9974, 1.0044,
        1.0044, 0.9895, 1.0122, 1.0037, 0.9936, 1.0030, 1.0036, 0.9984, 1.0038,
        1.0057, 0.9994, 1.0058, 0.9955, 1.0152, 0.9948, 1.0182, 0.9952, 1.0015,
        0.9985, 1.0016, 0.9998, 1.0019, 0.9997, 0.9974, 1.0132, 0.9997, 0.9883,
        0.9923, 0.9975, 1.0039, 1.0034, 1.0009, 0.9925, 1.0046, 1.0049, 1.0018,
        0.9903, 1.0094, 0.9987, 1.0099, 0.9940, 1.0027, 1.0070, 1.0001, 1.0035,
        0.9984, 1.0062, 1.0039, 1.0067, 1.0158, 1.0097, 0.9930, 1.0004, 0.9956,
        0.9997, 1.0064, 0.9987])"
bn10.bias,"tensor([-0.0007,  0.0044,  0.0171,  0.0030, -0.0034, -0.0005, -0.0061,  0.0061,
         0.0196,  0.0151, -0.0156,  0.0208,  0.0126,  0.0195, -0.0128,  0.0093,
         0.0101, -0.0079, -0.0124,  0.0076, -0.0092, -0.0100,  0.0109, -0.0151,
        -0.0132, -0.0099,  0.0181,  0.0007,  0.0352,  0.0308, -0.0009,  0.0064,
         0.0171,  0.0066,  0.0014,  0.0077,  0.0032,  0.0198, -0.0149,  0.0183,
         0.0086,  0.0114,  0.0348, -0.0028, -0.0121,  0.0028,  0.0214, -0.0080,
         0.0231, -0.0023,  0.0013, -0.0056,  0.0004,  0.0248,  0.0008,  0.0043,
         0.0122, -0.0078, -0.0072, -0.0004,  0.0274,  0.0164,  0.0015,  0.0169,
         0.0269,  0.0058, -0.0156,  0.0289,  0.0257, -0.0166, -0.0064,  0.0051,
        -0.0041,  0.0065,  0.0045,  0.0202,  0.0362,  0.0013, -0.0144, -0.0131,
         0.0127,  0.0141,  0.0097,  0.0194,  0.0152,  0.0022,  0.0137,  0.0019,
         0.0018, -0.0114, -0.0177,  0.0132,  0.0069,  0.0327, -0.0128, -0.0103,
        -0.0035,  0.0053,  0.0099,  0.0101,  0.0103, -0.0044,  0.0078,  0.0065,
         0.0130,  0.0286,  0.0086,  0.0043, -0.0008,  0.0144,  0.0047,  0.0062,
        -0.0028,  0.0128,  0.0116,  0.0216,  0.0013,  0.0100,  0.0168,  0.0171,
         0.0194,  0.0084, -0.0363,  0.0064,  0.0058,  0.0181, -0.0071, -0.0093,
         0.0268,  0.0245,  0.0045, -0.0062,  0.0230,  0.0260,  0.0005,  0.0068,
         0.0040,  0.0165, -0.0257, -0.0086, -0.0040, -0.0116, -0.0011,  0.0401,
        -0.0074,  0.0150,  0.0529,  0.0105, -0.0146, -0.0072,  0.0048,  0.0289,
         0.0090, -0.0062,  0.0127,  0.0091,  0.0132,  0.0153, -0.0016,  0.0125,
         0.0321, -0.0250, -0.0170,  0.0255,  0.0040, -0.0064,  0.0061, -0.0092,
        -0.0278, -0.0161, -0.0071,  0.0142,  0.0019,  0.0076, -0.0003,  0.0100,
         0.0092,  0.0213, -0.0027,  0.0043, -0.0222,  0.0103, -0.0039,  0.0022,
        -0.0129,  0.0148, -0.0194,  0.0284,  0.0155, -0.0054, -0.0019, -0.0190])"
bn10.running_mean,"tensor([0.3376, 0.3746, 0.3244, 0.3929, 0.3625, 0.4583, 0.3402, 0.3102, 0.3371,
        0.3414, 0.3374, 0.3251, 0.4418, 0.3573, 0.3112, 0.3412, 0.3660, 0.3495,
        0.3248, 0.3029, 0.3652, 0.3848, 0.3632, 0.3577, 0.3838, 0.3634, 0.3707,
        0.3741, 0.3199, 0.3816, 0.3552, 0.3271, 0.3590, 0.3763, 0.3242, 0.4106,
        0.4458, 0.3452, 0.3573, 0.4655, 0.3453, 0.2726, 0.3982, 0.3213, 0.3732,
        0.3425, 0.3430, 0.3028, 0.4096, 0.3395, 0.2607, 0.3463, 0.4052, 0.3857,
        0.3539, 0.3439, 0.4412, 0.3847, 0.4461, 0.3672, 0.3538, 0.3090, 0.3778,
        0.4183, 0.2740, 0.2448, 0.2199, 0.1934, 0.2663, 0.2032, 0.2495, 0.1974,
        0.2147, 0.2135, 0.2545, 0.2780, 0.2317, 0.2626, 0.2474, 0.2068, 0.2172,
        0.2718, 0.2303, 0.2408, 0.2652, 0.2616, 0.2250, 0.2031, 0.2500, 0.2535,
        0.2249, 0.2478, 0.2637, 0.2476, 0.2868, 0.2047, 0.2299, 0.2620, 0.2098,
        0.2564, 0.3311, 0.1882, 0.2122, 0.2949, 0.2096, 0.2318, 0.2589, 0.2427,
        0.2226, 0.1884, 0.2103, 0.2513, 0.2540, 0.2589, 0.2380, 0.2536, 0.2241,
        0.2512, 0.2553, 0.2298, 0.2550, 0.2711, 0.1884, 0.2043, 0.2089, 0.2691,
        0.2197, 0.2901, 0.3054, 0.2782, 0.2585, 0.2283, 0.2545, 0.2297, 0.2178,
        0.2447, 0.2678, 0.2174, 0.2245, 0.2950, 0.3015, 0.2649, 0.2121, 0.2154,
        0.2525, 0.2402, 0.3046, 0.2174, 0.2266, 0.2496, 0.2198, 0.2717, 0.2395,
        0.2411, 0.2574, 0.2387, 0.2389, 0.2374, 0.2441, 0.2454, 0.2414, 0.2483,
        0.2609, 0.2529, 0.2516, 0.2804, 0.2442, 0.2255, 0.2289, 0.2056, 0.2341,
        0.2896, 0.2216, 0.2544, 0.2951, 0.2964, 0.2486, 0.2146, 0.2354, 0.2598,
        0.2286, 0.2114, 0.2458, 0.2204, 0.2267, 0.2305, 0.2520, 0.2285, 0.2988,
        0.2472, 0.2283, 0.1980])"
bn10.running_var,"tensor([0.2590, 0.2603, 0.3088, 0.3160, 0.2904, 0.3935, 0.2872, 0.2382, 0.3025,
        0.2681, 0.2624, 0.2554, 0.3597, 0.3107, 0.2433, 0.2609, 0.3269, 0.3074,
        0.2509, 0.2274, 0.2656, 0.3241, 0.4080, 0.3692, 0.3880, 0.3169, 0.2341,
        0.3637, 0.2517, 0.2665, 0.3648, 0.2516, 0.3620, 0.4842, 0.2906, 0.4155,
        0.3293, 0.2801, 0.3563, 0.3943, 0.2634, 0.2002, 0.3473, 0.3237, 0.2350,
        0.2872, 0.2782, 0.2496, 0.4217, 0.2554, 0.1994, 0.3280, 0.3025, 0.2647,
        0.2906, 0.2499, 0.3468, 0.2937, 0.4375, 0.2529, 0.2905, 0.2786, 0.2757,
        0.4061, 0.1330, 0.1243, 0.1144, 0.0925, 0.1565, 0.0970, 0.1354, 0.0961,
        0.0982, 0.1459, 0.1409, 0.1484, 0.1241, 0.1342, 0.1331, 0.1245, 0.1141,
        0.1734, 0.1348, 0.1496, 0.1666, 0.1334, 0.1398, 0.1085, 0.1304, 0.1261,
        0.1134, 0.1288, 0.1548, 0.1490, 0.1710, 0.0973, 0.1377, 0.1925, 0.0996,
        0.1613, 0.1747, 0.1063, 0.1157, 0.1750, 0.1295, 0.1299, 0.1577, 0.1424,
        0.1105, 0.0952, 0.1312, 0.1299, 0.1548, 0.1276, 0.1364, 0.1231, 0.1192,
        0.1512, 0.1543, 0.1307, 0.1561, 0.1806, 0.0855, 0.1119, 0.1312, 0.1548,
        0.1012, 0.1948, 0.1705, 0.1615, 0.1323, 0.1382, 0.1697, 0.1288, 0.1210,
        0.1317, 0.1682, 0.1231, 0.1320, 0.1856, 0.1758, 0.1327, 0.0963, 0.1222,
        0.1646, 0.1410, 0.2646, 0.1333, 0.1382, 0.1312, 0.1305, 0.1515, 0.1167,
        0.1759, 0.1437, 0.1386, 0.1308, 0.1348, 0.1624, 0.1385, 0.1926, 0.1405,
        0.1584, 0.1729, 0.1420, 0.1951, 0.1136, 0.1492, 0.1374, 0.1151, 0.1407,
        0.1686, 0.1250, 0.1713, 0.1900, 0.2080, 0.1576, 0.1506, 0.1115, 0.1626,
        0.1207, 0.1258, 0.1408, 0.1203, 0.1150, 0.1245, 0.1362, 0.1243, 0.1856,
        0.1484, 0.1561, 0.1135])"
bn10.num_batches_tracked,tensor(22450)
encConv10.weight,"tensor([[[[ 1.6620e-02,  3.1294e-03, -1.0830e-02],
          [ 5.0929e-03,  2.1075e-02, -1.7307e-02],
          [ 3.3548e-03, -1.2543e-02, -2.4203e-03]],

         [[-1.3748e-02,  2.1564e-03, -1.3196e-02],
          [ 2.3072e-02, -1.5163e-02, -3.4529e-03],
          [ 1.4154e-02, -1.7802e-02,  7.9641e-03]],

         [[ 3.8834e-03,  1.2353e-04,  2.5822e-03],
          [-3.0402e-03, -6.5439e-03,  2.8730e-03],
          [-6.6166e-03, -9.0154e-03,  2.2223e-02]],

         ...,

         [[-1.5355e-02, -5.0893e-03, -4.2892e-03],
          [-5.9071e-03, -8.1830e-03, -1.3336e-02],
          [-1.9033e-02, -2.2732e-02, -1.9079e-02]],

         [[-1.3207e-02, -1.0220e-02,  1.8539e-02],
          [ 1.3671e-02,  1.7918e-02,  1.2637e-02],
          [-1.7953e-02,  1.1991e-02, -4.3721e-03]],

         [[-1.0382e-03,  8.5728e-03, -8.8610e-03],
          [-8.7165e-03, -1.2473e-02,  1.9473e-03],
          [ 7.3199e-03,  1.2396e-02,  1.4138e-02]]],


        [[[ 1.0907e-02,  3.9465e-03,  2.1875e-02],
          [ 1.3970e-02, -1.0151e-02,  9.7829e-03],
          [ 2.0280e-03, -1.9114e-02,  2.5028e-02]],

         [[ 2.7133e-03,  4.4924e-03, -1.8898e-02],
          [-9.2696e-03,  1.6086e-03, -6.7330e-03],
          [ 9.8004e-04,  2.3127e-02,  1.7360e-04]],

         [[ 1.7104e-02,  2.7861e-02, -4.3794e-03],
          [-2.1491e-02,  1.0629e-02,  2.0260e-02],
          [-2.7325e-03, -1.3645e-02, -2.4213e-03]],

         ...,

         [[-2.1848e-02, -1.3439e-02,  4.6109e-03],
          [ 2.0776e-02,  1.9929e-02,  2.5787e-02],
          [-1.8033e-02, -1.4149e-02,  1.3058e-02]],

         [[-2.0318e-02,  1.2229e-02,  2.2994e-02],
          [ 2.7063e-02, -9.1120e-03, -1.7291e-02],
          [ 2.9316e-02, -2.3296e-02, -6.9215e-03]],

         [[-2.1942e-02, -9.8966e-03, -1.6921e-03],
          [ 6.3012e-03,  9.6451e-04,  4.4899e-03],
          [-1.3512e-05, -1.1653e-02,  4.1236e-03]]],


        [[[ 6.8160e-03,  2.8050e-02,  2.6157e-02],
          [-2.2285e-02,  6.0461e-03,  2.5768e-02],
          [ 1.4835e-02, -6.0881e-03,  8.8938e-03]],

         [[-5.4202e-03,  1.4948e-02, -2.0129e-02],
          [-1.5967e-02,  8.7529e-03,  9.4057e-05],
          [-4.9859e-03,  1.1338e-02,  1.9219e-02]],

         [[ 3.2566e-03, -7.2485e-03,  9.3243e-03],
